{"learner":{"attributes":{"scikit_learn":"{\"_estimator_type\": \"classifier\"}"},"feature_names":["is_cup_match","is_european_match","is_premier_league_match","home_last5_matches","home_days_rest","home_current_elo","home_last5_avg_xg","home_last5_avg_xga","home_last5_avg_shots_on_target","home_last5_avg_big_chances","home_last5_avg_tackles_won","home_last5_clean_sheet_rate","away_last5_matches","away_days_rest","away_current_elo","away_last5_avg_xg","away_last5_avg_xga","away_last5_avg_shots_on_target","away_last5_avg_big_chances","away_last5_avg_tackles_won","away_last5_clean_sheet_rate","elo_diff","days_rest_diff","last5_matches_diff","last5_avg_xg_diff","last5_avg_xga_diff","last5_avg_shots_on_target_diff","last5_avg_big_chances_diff","last5_avg_tackles_won_diff","last5_clean_sheet_rate_diff"],"feature_types":["int","int","int","int","float","float","float","float","float","float","float","float","int","float","float","float","float","float","float","float","float","float","float","int","float","float","float","float","float","float"],"gradient_booster":{"model":{"cats":{"enc":[],"feature_segments":[],"sorted_idx":[]},"gbtree_model_param":{"num_parallel_tree":"1","num_trees":"1200"},"iteration_indptr":[0,3,6,9,12,15,18,21,24,27,30,33,36,39,42,45,48,51,54,57,60,63,66,69,72,75,78,81,84,87,90,93,96,99,102,105,108,111,114,117,120,123,126,129,132,135,138,141,144,147,150,153,156,159,162,165,168,171,174,177,180,183,186,189,192,195,198,201,204,207,210,213,216,219,222,225,228,231,234,237,240,243,246,249,252,255,258,261,264,267,270,273,276,279,282,285,288,291,294,297,300,303,306,309,312,315,318,321,324,327,330,333,336,339,342,345,348,351,354,357,360,363,366,369,372,375,378,381,384,387,390,393,396,399,402,405,408,411,414,417,420,423,426,429,432,435,438,441,444,447,450,453,456,459,462,465,468,471,474,477,480,483,486,489,492,495,498,501,504,507,510,513,516,519,522,525,528,531,534,537,540,543,546,549,552,555,558,561,564,567,570,573,576,579,582,585,588,591,594,597,600,603,606,609,612,615,618,621,624,627,630,633,636,639,642,645,648,651,654,657,660,663,666,669,672,675,678,681,684,687,690,693,696,699,702,705,708,711,714,717,720,723,726,729,732,735,738,741,744,747,750,753,756,759,762,765,768,771,774,777,780,783,786,789,792,795,798,801,804,807,810,813,816,819,822,825,828,831,834,837,840,843,846,849,852,855,858,861,864,867,870,873,876,879,882,885,888,891,894,897,900,903,906,909,912,915,918,921,924,927,930,933,936,939,942,945,948,951,954,957,960,963,966,969,972,975,978,981,984,987,990,993,996,999,1002,1005,1008,1011,1014,1017,1020,1023,1026,1029,1032,1035,1038,1041,1044,1047,1050,1053,1056,1059,1062,1065,1068,1071,1074,1077,1080,1083,1086,1089,1092,1095,1098,1101,1104,1107,1110,1113,1116,1119,1122,1125,1128,1131,1134,1137,1140,1143,1146,1149,1152,1155,1158,1161,1164,1167,1170,1173,1176,1179,1182,1185,1188,1191,1194,1197,1200],"tree_info":[0,1,2,0,1,2,0,1,2,0,1,2,0,1,2,0,1,2,0,1,2,0,1,2,0,1,2,0,1,2,0,1,2,0,1,2,0,1,2,0,1,2,0,1,2,0,1,2,0,1,2,0,1,2,0,1,2,0,1,2,0,1,2,0,1,2,0,1,2,0,1,2,0,1,2,0,1,2,0,1,2,0,1,2,0,1,2,0,1,2,0,1,2,0,1,2,0,1,2,0,1,2,0,1,2,0,1,2,0,1,2,0,1,2,0,1,2,0,1,2,0,1,2,0,1,2,0,1,2,0,1,2,0,1,2,0,1,2,0,1,2,0,1,2,0,1,2,0,1,2,0,1,2,0,1,2,0,1,2,0,1,2,0,1,2,0,1,2,0,1,2,0,1,2,0,1,2,0,1,2,0,1,2,0,1,2,0,1,2,0,1,2,0,1,2,0,1,2,0,1,2,0,1,2,0,1,2,0,1,2,0,1,2,0,1,2,0,1,2,0,1,2,0,1,2,0,1,2,0,1,2,0,1,2,0,1,2,0,1,2,0,1,2,0,1,2,0,1,2,0,1,2,0,1,2,0,1,2,0,1,2,0,1,2,0,1,2,0,1,2,0,1,2,0,1,2,0,1,2,0,1,2,0,1,2,0,1,2,0,1,2,0,1,2,0,1,2,0,1,2,0,1,2,0,1,2,0,1,2,0,1,2,0,1,2,0,1,2,0,1,2,0,1,2,0,1,2,0,1,2,0,1,2,0,1,2,0,1,2,0,1,2,0,1,2,0,1,2,0,1,2,0,1,2,0,1,2,0,1,2,0,1,2,0,1,2,0,1,2,0,1,2,0,1,2,0,1,2,0,1,2,0,1,2,0,1,2,0,1,2,0,1,2,0,1,2,0,1,2,0,1,2,0,1,2,0,1,2,0,1,2,0,1,2,0,1,2,0,1,2,0,1,2,0,1,2,0,1,2,0,1,2,0,1,2,0,1,2,0,1,2,0,1,2,0,1,2,0,1,2,0,1,2,0,1,2,0,1,2,0,1,2,0,1,2,0,1,2,0,1,2,0,1,2,0,1,2,0,1,2,0,1,2,0,1,2,0,1,2,0,1,2,0,1,2,0,1,2,0,1,2,0,1,2,0,1,2,0,1,2,0,1,2,0,1,2,0,1,2,0,1,2,0,1,2,0,1,2,0,1,2,0,1,2,0,1,2,0,1,2,0,1,2,0,1,2,0,1,2,0,1,2,0,1,2,0,1,2,0,1,2,0,1,2,0,1,2,0,1,2,0,1,2,0,1,2,0,1,2,0,1,2,0,1,2,0,1,2,0,1,2,0,1,2,0,1,2,0,1,2,0,1,2,0,1,2,0,1,2,0,1,2,0,1,2,0,1,2,0,1,2,0,1,2,0,1,2,0,1,2,0,1,2,0,1,2,0,1,2,0,1,2,0,1,2,0,1,2,0,1,2,0,1,2,0,1,2,0,1,2,0,1,2,0,1,2,0,1,2,0,1,2,0,1,2,0,1,2,0,1,2,0,1,2,0,1,2,0,1,2,0,1,2,0,1,2,0,1,2,0,1,2,0,1,2,0,1,2,0,1,2,0,1,2,0,1,2,0,1,2,0,1,2,0,1,2,0,1,2,0,1,2,0,1,2,0,1,2,0,1,2,0,1,2,0,1,2,0,1,2,0,1,2,0,1,2,0,1,2,0,1,2,0,1,2,0,1,2,0,1,2,0,1,2,0,1,2,0,1,2,0,1,2,0,1,2,0,1,2,0,1,2,0,1,2,0,1,2,0,1,2,0,1,2,0,1,2,0,1,2,0,1,2,0,1,2,0,1,2,0,1,2,0,1,2,0,1,2,0,1,2,0,1,2,0,1,2,0,1,2,0,1,2,0,1,2,0,1,2,0,1,2,0,1,2,0,1,2,0,1,2,0,1,2,0,1,2,0,1,2,0,1,2,0,1,2,0,1,2,0,1,2,0,1,2,0,1,2,0,1,2,0,1,2,0,1,2,0,1,2,0,1,2,0,1,2,0,1,2,0,1,2,0,1,2,0,1,2,0,1,2,0,1,2,0,1,2,0,1,2,0,1,2,0,1,2,0,1,2,0,1,2,0,1,2,0,1,2,0,1,2,0,1,2,0,1,2,0,1,2,0,1,2,0,1,2,0,1,2,0,1,2,0,1,2,0,1,2,0,1,2,0,1,2,0,1,2,0,1,2,0,1,2,0,1,2,0,1,2,0,1,2,0,1,2,0,1,2,0,1,2,0,1,2,0,1,2,0,1,2,0,1,2,0,1,2,0,1,2,0,1,2,0,1,2,0,1,2,0,1,2,0,1,2,0,1,2,0,1,2,0,1,2,0,1,2,0,1,2,0,1,2,0,1,2,0,1,2,0,1,2,0,1,2,0,1,2,0,1,2,0,1,2,0,1,2,0,1,2,0,1,2,0,1,2,0,1,2,0,1,2,0,1,2,0,1,2,0,1,2,0,1,2,0,1,2,0,1,2,0,1,2,0,1,2,0,1,2,0,1,2,0,1,2,0,1,2,0,1,2,0,1,2,0,1,2,0,1,2,0,1,2,0,1,2,0,1,2,0,1,2,0,1,2,0,1,2,0,1,2,0,1,2,0,1,2,0,1,2,0,1,2,0,1,2,0,1,2,0,1,2,0,1,2,0,1,2,0,1,2],"trees":[{"base_weights":[1.44631695E-2,-2.1621653E-1,4.3039963E-1,-4.750034E-1,-9.369255E-2,7.595781E-1,3.2049137E-1,-5.850707E-1,-9.552334E-2,5.971433E-2,-4.3960357E-1,1.4017452E-1,9.793606E-1,2.5507176E-1,5.2762765E-2,-4.7169393E-3,-3.387822E-2,4.0741775E-2,-1.3947763E-2,-2.5385102E-2,6.715534E-3,-2.46834E-2,3.5536937E-2,2.6625022E-2,-2.96329E-2,-2.8744515E-4,5.5626508E-2,2.0172698E-3,2.2161989E-2],"categories":[],"categories_nodes":[],"categories_segments":[],"categories_sizes":[],"default_left":[1,0,1,0,0,0,0,0,0,0,1,0,0,0,0,0,0,0,0,0,0,0,0,0,0,0,0,0,0],"id":0,"left_children":[1,3,5,7,9,11,13,15,17,19,21,23,25,27,-1,-1,-1,-1,-1,-1,-1,-1,-1,-1,-1,-1,-1,-1,-1],"loss_changes":[3.0525578E1,6.4457235E0,3.8624554E0,2.6810207E0,7.464074E0,3.630515E0,3.9036074E0,2.2327118E0,2.88704E0,4.21547E0,3.0365086E0,2.7351708E0,2.6644287E0,3.2561603E0,0E0,0E0,0E0,0E0,0E0,0E0,0E0,0E0,0E0,0E0,0E0,0E0,0E0,0E0,0E0],"parents":[2147483647,0,0,1,1,2,2,3,3,4,4,5,5,6,6,7,7,8,8,9,9,10,10,11,11,12,12,13,13],"right_children":[2,4,6,8,10,12,14,16,18,20,22,24,26,28,-1,-1,-1,-1,-1,-1,-1,-1,-1,-1,-1,-1,-1,-1,-1],"split_conditions":[4.108E1,-1.1931E2,-1E0,4.6E0,1.77E0,-5.6E-2,2.9385E2,-9.6E-1,2E0,-1.6666666E0,2.01E0,-2.88E-1,1E0,2E0,5.2762765E-2,-4.7169393E-3,-3.387822E-2,4.0741775E-2,-1.3947763E-2,-2.5385102E-2,6.715534E-3,-2.46834E-2,3.5536937E-2,2.6625022E-2,-2.96329E-2,-2.8744515E-4,5.5626508E-2,2.0172698E-3,2.2161989E-2],"split_indices":[21,21,22,8,7,24,21,24,18,26,6,24,16,18,0,0,0,0,0,0,0,0,0,0,0,0,0,0,0],"split_type":[0,0,0,0,0,0,0,0,0,0,0,0,0,0,0,0,0,0,0,0,0,0,0,0,0,0,0,0,0],"sum_hessian":[3.1617688E2,2.0368996E2,1.1248694E2,6.4525894E1,1.3916406E2,2.6677124E1,8.5809814E1,4.9598263E1,1.4927632E1,9.698146E1,4.2182602E1,7.415663E0,1.9261461E1,8.003137E1,5.7784386E0,8.186121E0,4.1412144E1,1.9261461E0,1.3001487E1,1.0593803E1,8.638766E1,4.0834297E1,1.3483024E0,5.00798E0,2.4076827E0,2.4076827E0,1.6853779E1,3.794508E1,4.2086292E1],"tree_param":{"num_deleted":"0","num_feature":"30","num_nodes":"29","size_leaf_vector":"1"}},{"base_weights":[-1.0314557E-2,3.2835034E-1,-6.217749E-2,6.0568875E-1,5.692602E-2,-1.4098918E-1,1.2554795E-1,-2.1613767E-2,7.698475E-1,7.589882E-1,-1.3498543E-1,2.3614803E-1,-1.9161026E-1,-4.1844073E-1,2.3125719E-1,-1.9877547E-2,4.6762552E-2,2.047846E-4,6.0451783E-2,-2.8446684E-2,1.0983117E-2,-1.32913515E-2,3.3041276E-2,4.0369447E-2,-1.0439741E-2,-2.8779432E-2,-2.6086783E-3,2.3922783E-3,2.3124684E-2],"categories":[],"categories_nodes":[],"categories_segments":[],"categories_sizes":[],"default_left":[0,0,1,0,0,0,0,0,0,0,0,1,0,0,0,0,0,0,0,0,0,0,0,0,0,0,0,0,0],"id":1,"left_children":[1,3,5,7,9,11,13,-1,15,17,19,21,23,25,27,-1,-1,-1,-1,-1,-1,-1,-1,-1,-1,-1,-1,-1,-1],"loss_changes":[4.377646E0,2.45748E0,3.2129834E0,3.1050367E0,2.5053189E0,2.958208E0,3.7994266E0,0E0,3.1538305E0,1.3470335E0,2.4110906E0,4.120423E0,2.4875054E0,5.9345937E-1,2.291694E0,0E0,0E0,0E0,0E0,0E0,0E0,0E0,0E0,0E0,0E0,0E0,0E0,0E0,0E0],"parents":[2147483647,0,0,1,1,2,2,3,3,4,4,5,5,6,6,8,8,9,9,10,10,11,11,12,12,13,13,14,14],"right_children":[2,4,6,8,10,12,14,-1,16,18,20,22,24,26,28,-1,-1,-1,-1,-1,-1,-1,-1,-1,-1,-1,-1,-1,-1],"split_conditions":[1E0,6.18E-1,1.58E1,-2.75E0,8.94E-1,-2E-1,1.17E0,-2.1613767E-2,2E-1,-3E-1,-3.3333334E-1,-7.84E1,2E0,6.1875E0,1.388E0,-1.9877547E-2,4.6762552E-2,2.047846E-4,6.0451783E-2,-2.8446684E-2,1.0983117E-2,-1.32913515E-2,3.3041276E-2,4.0369447E-2,-1.0439741E-2,-2.8779432E-2,-2.6086783E-3,2.3922783E-3,2.3124684E-2],"split_indices":[16,25,10,28,6,29,16,0,20,28,29,21,17,4,6,0,0,0,0,0,0,0,0,0,0,0,0,0,0],"split_type":[0,0,0,0,0,0,0,0,0,0,0,0,0,0,0,0,0,0,0,0,0,0,0,0,0,0,0,0,0],"sum_hessian":[2.4707513E2,3.2104126E1,2.1497101E2,1.5269944E1,1.6834183E1,1.5158212E2,6.338889E1,1.8621883E0,1.3407756E1,2.9795012E0,1.3854681E1,1.750457E1,1.3407756E2,9.832355E0,5.3556534E1,1.4897506E0,1.1918005E1,1.4897506E0,1.4897506E0,5.9590025E0,7.895678E0,8.193628E0,9.310942E0,1.4897506E0,1.325878E2,6.4804153E0,3.351939E0,3.0539888E1,2.3016647E1],"tree_param":{"num_deleted":"0","num_feature":"30","num_nodes":"29","size_leaf_vector":"1"}},{"base_weights":[3.5714064E-2,3.3188713E-1,-3.337649E-1,6.075672E-1,1.8864786E-2,-4.2047822E-1,-3.043369E-2,-1.6865084E-1,6.931806E-1,-4.4239464E-1,1.5518391E-1,-2.2221145E-1,-5.6831044E-1,-4.4359362E-1,2.0822586E-1,-2.1641387E-2,4.135631E-2,4.5397215E-2,1.6126169E-2,-3.443215E-2,-7.394049E-3,1.4120919E-2,-9.783307E-3,-1.099967E-3,-2.2596471E-2,-2.9913798E-2,2.0192511E-2,1.9212654E-2,-3.427882E-2,2.2029024E-2,-2.2938777E-2],"categories":[],"categories_nodes":[],"categories_segments":[],"categories_sizes":[],"default_left":[1,1,1,0,1,0,0,0,1,1,0,0,1,0,0,0,0,0,0,0,0,0,0,0,0,0,0,0,0,0,0],"id":2,"left_children":[1,3,5,7,9,11,13,15,17,19,21,23,25,27,29,-1,-1,-1,-1,-1,-1,-1,-1,-1,-1,-1,-1,-1,-1,-1,-1],"loss_changes":[3.2962723E1,1.441148E1,3.513713E0,6.020565E0,5.054902E0,2.9275036E0,3.1377413E0,2.8911052E0,6.0920334E0,1.2289317E0,2.8207335E0,2.1123734E0,1.9616318E0,2.5927486E0,3.341577E0,0E0,0E0,0E0,0E0,0E0,0E0,0E0,0E0,0E0,0E0,0E0,0E0,0E0,0E0,0E0,0E0],"parents":[2147483647,0,0,1,1,2,2,3,3,4,4,5,5,6,6,7,7,8,8,9,9,10,10,11,11,12,12,13,13,14,14],"right_children":[2,4,6,8,10,12,14,16,18,20,22,24,26,28,30,-1,-1,-1,-1,-1,-1,-1,-1,-1,-1,-1,-1,-1,-1,-1,-1],"split_conditions":[-2.81E0,1.182E0,2.44E-1,-1.015E0,3.125E0,9.683E1,1.7312E3,2E0,-1.1931E2,1.82952E3,1.56E1,1.78304E3,2.28E1,3.09375E0,1.83285E3,-2.1641387E-2,4.135631E-2,4.5397215E-2,1.6126169E-2,-3.443215E-2,-7.394049E-3,1.4120919E-2,-9.783307E-3,-1.099967E-3,-2.2596471E-2,-2.9913798E-2,2.0192511E-2,1.9212654E-2,-3.427882E-2,2.2029024E-2,-2.2938777E-2],"split_indices":[21,6,25,24,13,21,14,9,21,5,10,14,19,4,14,0,0,0,0,0,0,0,0,0,0,0,0,0,0,0,0],"split_type":[0,0,0,0,0,0,0,0,0,0,0,0,0,0,0,0,0,0,0,0,0,0,0,0,0,0,0,0,0,0,0],"sum_hessian":[2.9921048E2,1.661372E2,1.3307326E2,8.783744E1,7.829977E1,1.0318855E2,2.9884712E1,8.629324E0,7.9208115E1,1.7349483E1,6.095028E1,4.5144993E1,5.804356E1,1.0627694E1,1.9257019E1,7.2667994E0,1.3625249E0,4.9232567E1,2.9975548E1,8.72016E0,8.629325E0,4.4872486E1,1.6077793E1,2.4707119E1,2.0437874E1,5.6681034E1,1.3625249E0,2.2708747E0,8.356819E0,1.4533599E1,4.7234197E0],"tree_param":{"num_deleted":"0","num_feature":"30","num_nodes":"31","size_leaf_vector":"1"}},{"base_weights":[-1.3440096E-2,-1.784794E-1,4.7570676E-1,-4.3834978E-1,4.181891E-2,8.197273E-1,3.1139544E-1,-4.9623108E-1,1.11221954E-1,2.0006044E-1,-2.3516636E-1,9.463616E-1,-1.5445399E-2,4.3914858E-1,-1.024867E-1,-2.7768016E-2,-5.7253595E-3,3.9570224E-2,-1.6910514E-2,-3.3010434E-2,1.2398385E-2,-1.4969113E-2,2.4888013E-2,5.072526E-2,5.6949686E-3,2.5029067E-2,-1.4683689E-2,-1.7119799E-2,3.1773772E-2],"categories":[],"categories_nodes":[],"categories_segments":[],"categories_sizes":[],"default_left":[1,1,0,1,1,0,1,0,1,0,0,0,0,1,0,0,0,0,0,0,0,0,0,0,0,0,0,0,0],"id":3,"left_children":[1,3,5,7,9,11,13,15,17,19,21,23,-1,25,27,-1,-1,-1,-1,-1,-1,-1,-1,-1,-1,-1,-1,-1,-1],"loss_changes":[2.6773415E1,1.4211494E1,4.474661E0,3.6761532E0,5.9680634E0,4.0704784E0,3.1245174E0,2.2650108E0,3.8330932E0,3.729179E0,2.4823313E0,1.2466831E0,0E0,2.1590834E0,2.793215E0,0E0,0E0,0E0,0E0,0E0,0E0,0E0,0E0,0E0,0E0,0E0,0E0,0E0,0E0],"parents":[2147483647,0,0,1,1,2,2,3,3,4,4,5,5,6,6,7,7,8,8,9,9,10,10,11,11,13,13,14,14],"right_children":[2,4,6,8,10,12,14,16,18,20,22,24,-1,26,28,-1,-1,-1,-1,-1,-1,-1,-1,-1,-1,-1,-1,-1,-1],"split_conditions":[1.85654E3,-7.311E1,2E-1,1.746E0,1.24E-1,1.22E-1,4.44E-1,1.968E0,3.36E-1,-1.8E0,2E1,1.342E0,-1.5445399E-2,1.92E1,1.756E0,-2.7768016E-2,-5.7253595E-3,3.9570224E-2,-1.6910514E-2,-3.3010434E-2,1.2398385E-2,-1.4969113E-2,2.4888013E-2,5.072526E-2,5.6949686E-3,2.5029067E-2,-1.4683689E-2,-1.7119799E-2,3.1773772E-2],"split_indices":[5,21,20,6,25,25,24,16,25,26,19,24,0,19,16,0,0,0,0,0,0,0,0,0,0,0,0,0,0],"split_type":[0,0,0,0,0,0,0,0,0,0,0,0,0,0,0,0,0,0,0,0,0,0,0,0,0,0,0,0,0],"sum_hessian":[3.2959604E2,2.4691983E2,8.2676216E1,1.1283112E2,1.3408871E2,2.5434608E1,5.724161E1,1.0216779E2,1.0663329E1,8.551294E1,4.8575775E1,2.3013916E1,2.420691E0,4.3693634E1,1.35479765E1,8.807072E1,1.40970745E1,3.939814E0,6.723515E0,3.8366873E0,8.1676254E1,4.52065E1,3.3692758E0,2.1070454E1,1.9434624E0,4.060649E1,3.0871432E0,1.0628657E1,2.9193192E0],"tree_param":{"num_deleted":"0","num_feature":"30","num_nodes":"29","size_leaf_vector":"1"}},{"base_weights":[-2.1915317E-2,-2.6738307E-1,4.461898E-2,-3.1646594E-1,5.363359E-2,2.9001886E-1,-2.2790981E-2,-5.046285E-1,-6.749522E-2,1.2762131E-1,1.0430115E0,6.3835066E-3,-2.8827464E-2,1.3466998E-2,-2.8309047E-2,3.1248206E-2,-7.7462406E-3,3.6536445E-4,6.346347E-2,-1.7632244E-2,6.7447476E-2,5.2847773E-2,-4.4039296E-4],"categories":[],"categories_nodes":[],"categories_segments":[],"categories_sizes":[],"default_left":[1,1,0,0,0,0,0,0,0,0,0,0,0,0,0,0,0,0,0,0,0,0,0],"id":4,"left_children":[1,3,5,7,-1,9,11,13,15,17,19,21,-1,-1,-1,-1,-1,-1,-1,-1,-1,-1,-1],"loss_changes":[4.0822825E0,3.8445587E0,3.2643871E0,2.410388E0,0E0,5.0654345E0,2.514635E0,1.5609407E0,1.5265006E0,4.9505854E0,3.6364727E0,2.3814442E0,0E0,0E0,0E0,0E0,0E0,0E0,0E0,0E0,0E0,0E0,0E0],"parents":[2147483647,0,0,1,1,2,2,3,3,5,5,6,6,7,7,8,8,9,9,10,10,11,11],"right_children":[2,4,6,8,-1,10,12,14,16,18,20,22,-1,-1,-1,-1,-1,-1,-1,-1,-1,-1,-1],"split_conditions":[-3.6E0,2.544E0,1.084E0,5E-1,5.363359E-2,4.44E-1,2.8841E2,3.125E0,1.69564E3,5.8E0,2.5E-1,4.5E-1,-2.8827464E-2,1.3466998E-2,-2.8309047E-2,3.1248206E-2,-7.7462406E-3,3.6536445E-4,6.346347E-2,-1.7632244E-2,6.7447476E-2,5.2847773E-2,-4.4039296E-4],"split_indices":[28,7,16,20,0,24,21,4,5,28,20,15,0,0,0,0,0,0,0,0,0,0,0],"split_type":[0,0,0,0,0,0,0,0,0,0,0,0,0,0,0,0,0,0,0,0,0,0,0],"sum_hessian":[2.482252E2,5.2290173E1,1.9593503E2,5.117944E1,1.1107349E0,4.1512005E1,1.5442303E2,2.8564571E1,2.2614868E1,3.510945E1,6.4025526E0,1.476335E2,6.789527E0,1.8556464E0,2.6708925E1,1.8459992E0,2.076887E1,3.267261E1,2.4368432E0,1.1236968E0,5.278856E0,1.126883E0,1.4650662E2],"tree_param":{"num_deleted":"0","num_feature":"30","num_nodes":"23","size_leaf_vector":"1"}},{"base_weights":[3.3400357E-2,2.9783347E-1,-3.096811E-1,5.7189703E-1,-8.952992E-3,-8.35819E-2,-4.6903223E-1,-1.9350131E-1,6.5769804E-1,6.3686675E-1,-8.113608E-2,1.365509E-1,-2.795009E-1,-5.010502E-1,2.870888E-2,-2.2253944E-2,4.018897E-2,-2.2640561E-3,3.6791753E-2,4.620838E-2,-2.2558628E-2,-8.005579E-3,2.5408277E-2,-1.3921164E-2,2.610164E-2,2.832508E-2,-1.7658709E-2,-2.8732244E-2,-5.4204985E-3],"categories":[],"categories_nodes":[],"categories_segments":[],"categories_sizes":[],"default_left":[1,1,0,0,0,0,1,0,0,0,1,0,0,1,0,0,0,0,0,0,0,0,0,0,0,0,0,0,0],"id":5,"left_children":[1,3,5,7,9,11,13,15,17,19,21,23,25,27,-1,-1,-1,-1,-1,-1,-1,-1,-1,-1,-1,-1,-1,-1,-1],"loss_changes":[2.80508E1,1.4680861E1,4.8114424E0,6.1825905E0,3.9368238E0,2.4911008E0,2.9182453E0,2.8834927E0,4.60001E0,3.0713825E0,3.6114461E0,4.5371E0,2.0961442E0,2.161108E0,0E0,0E0,0E0,0E0,0E0,0E0,0E0,0E0,0E0,0E0,0E0,0E0,0E0,0E0,0E0],"parents":[2147483647,0,0,1,1,2,2,3,3,4,4,5,5,6,6,7,7,8,8,9,9,10,10,11,11,12,12,13,13],"right_children":[2,4,6,8,10,12,14,16,18,20,22,24,26,28,-1,-1,-1,-1,-1,-1,-1,-1,-1,-1,-1,-1,-1,-1,-1],"split_conditions":[-2.81E0,1.176E0,8.414E1,-1.015E0,3.3333333E0,4.2E0,2.18E1,2E0,-4.36E-1,1.574E0,1.1875E1,1.6666666E0,2.7534723E0,2.58E-1,2.870888E-2,-2.2253944E-2,4.018897E-2,-2.2640561E-3,3.6791753E-2,4.620838E-2,-2.2558628E-2,-8.005579E-3,2.5408277E-2,-1.3921164E-2,2.610164E-2,2.832508E-2,-1.7658709E-2,-2.8732244E-2,-5.4204985E-3],"split_indices":[21,6,21,24,8,17,19,9,25,16,4,18,4,25,0,0,0,0,0,0,0,0,0,0,0,0,0,0,0],"split_type":[0,0,0,0,0,0,0,0,0,0,0,0,0,0,0,0,0,0,0,0,0,0,0,0,0,0,0,0,0],"sum_hessian":[3.0717816E2,1.7354707E2,1.3363109E2,9.120561E1,8.234146E1,5.5875427E1,7.775566E1,9.067013E0,8.2138596E1,7.491583E0,7.4849884E1,2.645446E1,2.9420965E1,7.594449E1,1.811166E0,7.6826644E0,1.3843485E0,8.258585E0,7.388001E1,6.045783E0,1.4458E0,6.664652E1,8.203359E0,1.2873629E1,1.3580832E1,1.820978E0,2.7599987E1,6.356636E1,1.2378131E1],"tree_param":{"num_deleted":"0","num_feature":"30","num_nodes":"29","size_leaf_vector":"1"}},{"base_weights":[7.3917215E-3,-2.6351738E-1,2.448605E-1,-3.3002028E-1,1.41674E-1,9.244435E-2,5.188736E-1,-8.564553E-2,-4.3359026E-1,-1.8314375E-1,5.202966E-1,4.3165618E-1,-3.0334258E-2,6.30378E-1,8.069451E-2,-1.0038473E-2,2.8782984E-2,-2.3355093E-2,2.8961984E-2,3.636127E-2,-1.766468E-2,3.6094274E-2,-3.2980486E-3,-1.8428478E-2,2.6483536E-2,2.0667268E-2,-5.3326017E-3,-2.5681753E-2,3.3794165E-2,2.6585981E-2,-2.1767816E-2],"categories":[],"categories_nodes":[],"categories_segments":[],"categories_sizes":[],"default_left":[1,0,0,0,1,1,1,0,1,0,0,0,0,0,0,0,0,0,0,0,0,0,0,0,0,0,0,0,0,0,0],"id":6,"left_children":[1,3,5,7,9,11,13,15,17,19,21,23,25,27,29,-1,-1,-1,-1,-1,-1,-1,-1,-1,-1,-1,-1,-1,-1,-1,-1],"loss_changes":[2.1126266E1,4.180565E0,7.259921E0,3.3058014E0,2.841299E0,4.746591E0,2.9942837E0,3.2036014E0,3.4107933E0,2.2330854E0,1.296879E0,2.569457E0,2.9013925E0,2.9259205E0,3.4410553E0,0E0,0E0,0E0,0E0,0E0,0E0,0E0,0E0,0E0,0E0,0E0,0E0,0E0,0E0,0E0,0E0],"parents":[2147483647,0,0,1,1,2,2,3,3,4,4,5,5,6,6,7,7,8,8,9,9,10,10,11,11,12,12,13,13,14,14],"right_children":[2,4,6,8,10,12,14,16,18,20,22,24,26,28,30,-1,-1,-1,-1,-1,-1,-1,-1,-1,-1,-1,-1,-1,-1,-1,-1],"split_conditions":[-2.744E1,1.5166667E1,1.86408E3,2.8E-2,4E0,9.16E-1,1.68E-1,1.7916666E0,1.86408E3,1.208E0,1.806E0,2.8E-2,9.5E0,-1.8E0,-7.916667E-1,-1.0038473E-2,2.8782984E-2,-2.3355093E-2,2.8961984E-2,3.636127E-2,-1.766468E-2,3.6094274E-2,-3.2980486E-3,-1.8428478E-2,2.6483536E-2,2.0667268E-2,-5.3326017E-3,-2.5681753E-2,3.3794165E-2,2.6585981E-2,-2.1767816E-2],"split_indices":[21,13,5,25,8,15,25,22,5,15,6,24,10,27,22,0,0,0,0,0,0,0,0,0,0,0,0,0,0,0,0],"split_type":[0,0,0,0,0,0,0,0,0,0,0,0,0,0,0,0,0,0,0,0,0,0,0,0,0,0,0,0,0,0,0],"sum_hessian":[3.2638904E2,1.5240858E2,1.7398044E2,1.3108028E2,2.1328308E1,1.1265497E2,6.1325466E1,3.956145E1,9.151884E1,1.1757726E1,9.570583E0,2.9270613E1,8.338436E1,4.8535816E1,1.2789653E1,3.4288677E1,5.2727723E0,8.910928E1,2.4095502E0,1.335932E0,1.0421794E1,6.949576E0,2.6210074E0,2.8927555E0,2.6377857E1,1.1589829E1,7.179453E1,1.4632003E0,4.7072613E1,6.808609E0,5.981044E0],"tree_param":{"num_deleted":"0","num_feature":"30","num_nodes":"31","size_leaf_vector":"1"}},{"base_weights":[3.4446558E-3,5.5661682E-2,-2.9575136E-1,7.676977E-2,-2.8238297E-2,-3.400931E-1,3.1782396E-2,-1.11928806E-1,1.3949582E-1,2.9491907E-2,-3.8648397E-1,2.7592544E-2,-9.268403E-3,3.43131E-2,4.459231E-3,1.4078987E-2,-2.2959353E-2],"categories":[],"categories_nodes":[],"categories_segments":[],"categories_sizes":[],"default_left":[0,1,1,1,0,0,0,0,0,0,0,0,0,0,0,0,0],"id":7,"left_children":[1,3,5,7,-1,9,-1,11,13,-1,15,-1,-1,-1,-1,-1,-1],"loss_changes":[3.9313278E0,2.8483818E0,1.7604928E0,2.4778256E0,0E0,1.7958927E0,0E0,2.6592288E0,4.2457733E0,0E0,1.8400426E0,0E0,0E0,0E0,0E0,0E0,0E0],"parents":[2147483647,0,0,1,1,2,2,3,3,5,5,7,7,8,8,10,10],"right_children":[2,4,6,8,-1,10,-1,12,14,-1,16,-1,-1,-1,-1,-1,-1],"split_conditions":[1.3145833E1,2.8841E2,2.12E0,-2.25E0,-2.8238297E-2,-2.5E0,3.1782396E-2,-3.3333334E-1,-1.6E0,2.9491907E-2,8.3E-1,2.7592544E-2,-9.268403E-3,3.43131E-2,4.459231E-3,1.4078987E-2,-2.2959353E-2],"split_indices":[4,21,16,28,0,26,0,29,28,0,16,0,0,0,0,0,0],"split_type":[0,0,0,0,0,0,0,0,0,0,0,0,0,0,0,0,0],"sum_hessian":[2.4958147E2,2.1318877E2,3.6392696E1,2.0702177E2,6.1669984E0,3.5344868E1,1.0478287E0,5.145262E1,1.5556915E2,1.1228182E0,3.422205E1,4.476595E0,4.6976025E1,1.2043532E1,1.4352562E2,3.0767736E0,3.1145275E1],"tree_param":{"num_deleted":"0","num_feature":"30","num_nodes":"17","size_leaf_vector":"1"}},{"base_weights":[5.5623953E-3,1.669563E-1,-3.6444128E-1,-4.0654218E-1,2.5605708E-1,-5.827516E-1,-1.4268796E-1,-5.180397E-1,3.8988873E-1,4.921328E-1,-9.269892E-4,-1.9699082E-1,-6.325223E-1,3.0146423E-1,-3.1591848E-1,-3.0547682E-2,1.9456408E-3,-2.1678904E-2,4.7003683E-2,-6.2513254E-3,2.8054727E-2,3.2877985E-2,-3.7313537E-3,1.3399117E-2,-2.8281754E-2,-4.471943E-4,-3.2678027E-2,-1.4500222E-2,4.7008466E-2,-2.1442818E-2,8.345876E-3],"categories":[],"categories_nodes":[],"categories_segments":[],"categories_sizes":[],"default_left":[1,0,0,1,1,0,0,1,0,0,0,0,0,0,1,0,0,0,0,0,0,0,0,0,0,0,0,0,0,0,0],"id":8,"left_children":[1,3,5,7,9,11,13,15,17,19,21,23,25,27,29,-1,-1,-1,-1,-1,-1,-1,-1,-1,-1,-1,-1,-1,-1,-1,-1],"loss_changes":[1.8310324E1,1.1012343E1,4.425399E0,2.7853832E0,1.124702E1,7.7020264E-1,3.7518628E0,1.3666058E0,2.2847285E0,4.1824303E0,4.4050484E0,1.3134236E0,5.297642E-1,5.503592E0,1.9626172E0,0E0,0E0,0E0,0E0,0E0,0E0,0E0,0E0,0E0,0E0,0E0,0E0,0E0,0E0,0E0,0E0],"parents":[2147483647,0,0,1,1,2,2,3,3,4,4,5,5,6,6,7,7,8,8,9,9,10,10,11,11,12,12,13,13,14,14],"right_children":[2,4,6,8,10,12,14,16,18,20,22,24,26,28,30,-1,-1,-1,-1,-1,-1,-1,-1,-1,-1,-1,-1,-1,-1,-1,-1],"split_conditions":[1.83165E3,1.69103E3,-8.4E-2,4.6E0,1.176E0,8.8E0,-1.8E0,2.242E0,2E-1,-1.015E0,3.3333333E0,5.2E0,2.75E0,7.0104165E0,1.2E0,-3.0547682E-2,1.9456408E-3,-2.1678904E-2,4.7003683E-2,-6.2513254E-3,2.8054727E-2,3.2877985E-2,-3.7313537E-3,1.3399117E-2,-2.8281754E-2,-4.471943E-4,-3.2678027E-2,-1.4500222E-2,4.7008466E-2,-2.1442818E-2,8.345876E-3],"split_indices":[5,14,25,17,6,19,28,7,27,24,8,8,4,4,26,0,0,0,0,0,0,0,0,0,0,0,0,0,0,0,0],"split_type":[0,0,0,0,0,0,0,0,0,0,0,0,0,0,0,0,0,0,0,0,0,0,0,0,0,0,0,0,0,0,0],"sum_hessian":[3.0460275E2,2.1247214E2,9.213061E1,2.8092377E1,1.8437976E2,4.560538E1,4.6525227E1,2.4949135E1,3.1432426E0,9.56223E1,8.875746E1,5.7781663E0,3.9827213E1,1.284674E1,3.3678486E1,2.1298964E1,3.6501708E0,1.3438423E0,1.7994002E0,9.529241E0,8.6093056E1,8.136684E0,8.062077E1,2.6759875E0,3.1021786E0,1.3463432E0,3.848087E1,6.953472E0,5.893268E0,2.738483E1,6.2936573E0],"tree_param":{"num_deleted":"0","num_feature":"30","num_nodes":"31","size_leaf_vector":"1"}},{"base_weights":[1.0117689E-2,-1.3806409E-1,4.6286348E-1,-3.9124662E-1,3.4393977E-2,7.951405E-1,3.1306875E-1,-4.605944E-1,2.4874905E-1,1.0292456E-1,-3.6667082E-1,8.568133E-1,-4.6834922E-3,3.6636582E-1,-3.0491738E-2,-2.590676E-2,-4.6346835E-3,3.6384393E-2,-2.204502E-2,2.880609E-2,1.9758935E-3,-2.3838801E-2,2.4664445E-2,4.5894768E-2,1.7015489E-2,-1.8815333E-3,2.391222E-2],"categories":[],"categories_nodes":[],"categories_segments":[],"categories_sizes":[],"default_left":[1,1,0,1,1,0,1,0,1,1,0,0,0,0,0,0,0,0,0,0,0,0,0,0,0,0,0],"id":9,"left_children":[1,3,5,7,9,11,13,15,17,19,21,23,-1,25,-1,-1,-1,-1,-1,-1,-1,-1,-1,-1,-1,-1,-1],"loss_changes":[2.1454357E1,1.0535755E1,3.6757736E0,4.451702E0,4.002884E0,1.3877296E0,2.9779243E0,1.825861E0,3.690876E0,3.6974783E0,2.2493975E0,3.9443016E-1,0E0,2.4391346E0,0E0,0E0,0E0,0E0,0E0,0E0,0E0,0E0,0E0,0E0,0E0,0E0,0E0],"parents":[2147483647,0,0,1,1,2,2,3,3,4,4,5,5,6,6,7,7,8,8,9,9,10,10,11,11,13,13],"right_children":[2,4,6,8,10,12,14,16,18,20,22,24,-1,26,-1,-1,-1,-1,-1,-1,-1,-1,-1,-1,-1,-1,-1],"split_conditions":[1.85654E3,-9.126E1,2E-1,1.746E0,5.5E0,1.22E-1,5E-1,7E0,6E0,9.2E0,7.02E-1,2.232E0,-4.6834922E-3,4.21875E0,-3.0491738E-2,-2.590676E-2,-4.6346835E-3,3.6384393E-2,-2.204502E-2,2.880609E-2,1.9758935E-3,-2.3838801E-2,2.4664445E-2,4.5894768E-2,1.7015489E-2,-1.8815333E-3,2.391222E-2],"split_indices":[5,21,20,6,17,25,29,17,17,10,25,6,0,13,0,0,0,0,0,0,0,0,0,0,0,0,0],"split_type":[0,0,0,0,0,0,0,0,0,0,0,0,0,0,0,0,0,0,0,0,0,0,0,0,0,0,0],"sum_hessian":[3.178385E2,2.3998686E2,7.785163E1,9.672217E1,1.432647E2,2.285224E1,5.499939E1,8.75192E1,9.202966E0,1.22992195E2,2.0272501E1,2.1403118E1,1.4491205E0,5.2566723E1,2.4326658E0,7.532914E1,1.2190061E1,5.3986354E0,3.8043306E0,1.3577636E1,1.0941456E2,1.836652E1,1.9059801E0,1.8444702E1,2.9584155E0,1.1544145E1,4.102258E1],"tree_param":{"num_deleted":"0","num_feature":"30","num_nodes":"27","size_leaf_vector":"1"}},{"base_weights":[8.128189E-3,-2.4026227E-1,7.935925E-2,-2.8574434E-1,5.2029915E-2,3.8369665E-1,2.0175632E-2,-4.5157662E-1,3.643497E-2,1.6202317E-1,9.0674615E-1,-2.0794854E-1,1.00217715E-1,1.185513E-3,-2.5113786E-2,5.2173223E-2,-4.1015525E-3,1.7372154E-2,-2.019E-2,-1.7341724E-2,5.5949386E-2,1.7394051E-3,-2.4171581E-2,-1.5426878E-3,1.5048312E-2],"categories":[],"categories_nodes":[],"categories_segments":[],"categories_sizes":[],"default_left":[1,1,0,0,0,1,0,0,0,1,0,0,0,0,0,0,0,0,0,0,0,0,0,0,0],"id":10,"left_children":[1,3,5,7,-1,9,11,13,15,17,19,21,23,-1,-1,-1,-1,-1,-1,-1,-1,-1,-1,-1,-1],"loss_changes":[4.463948E0,3.573413E0,3.5223055E0,2.9598799E0,0E0,3.5462294E0,3.036095E0,8.901229E-1,2.4293616E0,2.6151006E0,2.8527775E0,2.9066885E0,3.2435231E0,0E0,0E0,0E0,0E0,0E0,0E0,0E0,0E0,0E0,0E0,0E0,0E0],"parents":[2147483647,0,0,1,1,2,2,3,3,5,5,6,6,7,7,8,8,9,9,10,10,11,11,12,12],"right_children":[2,4,6,8,-1,10,12,14,16,18,20,22,24,-1,-1,-1,-1,-1,-1,-1,-1,-1,-1,-1,-1],"split_conditions":[-3.6E0,2.544E0,1E0,6.4E0,5.2029915E-2,4.22E0,1.05E1,3.21875E0,7.2E0,-8.041E1,2E-1,-2E-2,1.45E0,1.185513E-3,-2.5113786E-2,5.2173223E-2,-4.1015525E-3,1.7372154E-2,-2.019E-2,-1.7341724E-2,5.5949386E-2,1.7394051E-3,-2.4171581E-2,-1.5426878E-3,1.5048312E-2],"split_indices":[28,7,16,17,0,21,10,4,17,21,11,25,15,0,0,0,0,0,0,0,0,0,0,0,0],"split_type":[0,0,0,0,0,0,0,0,0,0,0,0,0,0,0,0,0,0,0,0,0,0,0,0,0],"sum_hessian":[2.5022095E2,5.5235554E1,1.949854E2,5.4091724E1,1.14383E0,3.0852211E1,1.6413318E2,3.544554E1,1.864618E1,2.2588676E1,8.263535E0,4.2216354E1,1.21916824E2,3.4678597E0,3.1977682E1,1.1407781E0,1.7505402E1,1.7304089E1,5.2845874E0,1.1046854E0,7.158849E0,2.2906473E1,1.930988E1,7.4270744E1,4.7646084E1],"tree_param":{"num_deleted":"0","num_feature":"30","num_nodes":"25","size_leaf_vector":"1"}},{"base_weights":[1.5966142E-2,3.2712275E-1,-1.8653072E-1,2.2471607E-2,5.94619E-1,-3.381708E-1,6.7022726E-2,2.3960873E-1,-3.7157837E-1,-1.1777111E-1,7.1668375E-1,3.3282954E-2,-3.644627E-1,9.018977E-1,-5.078323E-2,2.653422E-2,-1.4076312E-2,1.855669E-2,-2.4202097E-2,-2.5089294E-2,2.171957E-2,-1.7713964E-2,3.943957E-2,-1.2370096E-2,-2.598691E-2,5.1112164E-2,2.4178417E-3,-6.602566E-3,3.984212E-2],"categories":[],"categories_nodes":[],"categories_segments":[],"categories_sizes":[],"default_left":[1,0,1,0,0,0,0,0,0,0,0,0,0,0,0,0,0,0,0,0,0,0,0,0,0,0,0,0,0],"id":11,"left_children":[1,3,5,7,9,11,13,15,17,19,21,-1,23,25,27,-1,-1,-1,-1,-1,-1,-1,-1,-1,-1,-1,-1,-1,-1],"loss_changes":[1.9176933E1,9.763131E0,7.11342E0,4.9770336E0,5.6357517E0,3.2927523E0,6.9159994E0,5.8286285E0,1.9076571E0,2.3802083E0,4.499172E0,0E0,1.9301891E0,8.4331036E-1,4.387195E0,0E0,0E0,0E0,0E0,0E0,0E0,0E0,0E0,0E0,0E0,0E0,0E0,0E0,0E0],"parents":[2147483647,0,0,1,1,2,2,3,3,4,4,5,5,6,6,7,7,8,8,9,9,10,10,12,12,13,13,14,14],"right_children":[2,4,6,8,10,12,14,16,18,20,22,-1,24,26,28,-1,-1,-1,-1,-1,-1,-1,-1,-1,-1,-1,-1,-1,-1],"split_conditions":[1.174E0,1.80082E3,1.24E-1,1.712E0,-9.895833E-1,1.68029E3,3.3333333E0,2.5E-1,1.6023E3,4.2916665E0,6.5E-1,3.3282954E-2,1.85445E3,1.84E1,2.418E0,2.653422E-2,-1.4076312E-2,1.855669E-2,-2.4202097E-2,-2.5089294E-2,2.171957E-2,-1.7713964E-2,3.943957E-2,-1.2370096E-2,-2.598691E-2,5.1112164E-2,2.4178417E-3,-6.602566E-3,3.984212E-2],"split_indices":[6,14,25,16,22,5,8,11,5,4,16,0,5,10,15,0,0,0,0,0,0,0,0,0,0,0,0,0,0],"split_type":[0,0,0,0,0,0,0,0,0,0,0,0,0,0,0,0,0,0,0,0,0,0,0,0,0,0,0,0,0],"sum_hessian":[3.0238757E2,1.1896719E2,1.8342038E2,5.612758E1,6.2839615E1,1.145681E2,6.885228E1,3.6439762E1,1.9687817E1,9.197377E0,5.364224E1,2.3034625E0,1.1226464E2,7.69105E0,6.1161232E1,2.3368917E1,1.3070843E1,2.286655E0,1.7401163E1,5.4784746E0,3.7189026E0,3.1370256E0,5.0505215E1,6.54875E1,4.677714E1,6.567423E0,1.1236274E0,5.658064E1,4.5805907E0],"tree_param":{"num_deleted":"0","num_feature":"30","num_nodes":"29","size_leaf_vector":"1"}},{"base_weights":[2.531037E-3,-2.7014184E-1,2.3928222E-1,-3.6726534E-1,5.575335E-2,4.0888536E-1,5.91349E-2,-5.220173E-1,-2.1574473E-1,3.139207E-1,-5.3358585E-1,7.76301E-1,2.5867352E-1,1.8609935E-1,-2.6621613E-1,-2.8170705E-2,8.896265E-3,3.1961996E-2,-1.4691648E-2,2.220252E-2,-2.0376984E-2,-6.6226213E-3,-3.4770783E-2,-6.121484E-3,4.187241E-2,3.6319494E-3,2.6723875E-2,3.930886E-2,4.833856E-3,-3.6858644E-2,9.76943E-4],"categories":[],"categories_nodes":[],"categories_segments":[],"categories_sizes":[],"default_left":[1,0,1,1,0,1,0,1,1,1,0,0,0,0,0,0,0,0,0,0,0,0,0,0,0,0,0,0,0,0,0],"id":12,"left_children":[1,3,5,7,9,11,13,15,17,19,21,23,25,27,29,-1,-1,-1,-1,-1,-1,-1,-1,-1,-1,-1,-1,-1,-1,-1,-1],"loss_changes":[2.069757E1,4.736902E0,5.2190046E0,2.5822306E0,5.504855E0,4.6681175E0,3.5353394E0,1.727315E0,4.1786566E0,2.5302613E0,6.256244E-1,1.481967E0,3.2510886E0,3.212681E0,3.2575178E0,0E0,0E0,0E0,0E0,0E0,0E0,0E0,0E0,0E0,0E0,0E0,0E0,0E0,0E0,0E0,0E0],"parents":[2147483647,0,0,1,1,2,2,3,3,4,4,5,5,6,6,7,7,8,8,9,9,10,10,11,11,12,12,13,13,14,14],"right_children":[2,4,6,8,10,12,14,16,18,20,22,24,26,28,30,-1,-1,-1,-1,-1,-1,-1,-1,-1,-1,-1,-1,-1,-1,-1,-1],"split_conditions":[-2.744E1,1.78E0,-1.34E-1,-1.5847E2,1.792E0,-2.2E0,7.8333335E0,1.82E1,-1.25E0,1.6E0,1.78575E3,-8.4E0,1.85732E3,9.14E-1,-2E0,-2.8170705E-2,8.896265E-3,3.1961996E-2,-1.4691648E-2,2.220252E-2,-2.0376984E-2,-6.6226213E-3,-3.4770783E-2,-6.121484E-3,4.187241E-2,3.6319494E-3,2.6723875E-2,3.930886E-2,4.833856E-3,-3.6858644E-2,9.76943E-4],"split_indices":[21,16,25,21,7,28,4,10,22,28,14,28,5,16,28,0,0,0,0,0,0,0,0,0,0,0,0,0,0,0,0],"split_type":[0,0,0,0,0,0,0,0,0,0,0,0,0,0,0,0,0,0,0,0,0,0,0,0,0,0,0,0,0,0,0],"sum_hessian":[3.1861475E2,1.4800838E2,1.7060637E2,1.13928406E2,3.4079964E1,8.722088E1,8.338549E1,5.5153507E1,5.8774902E1,2.4023506E1,1.0056459E1,2.4101345E1,6.3119534E1,6.028714E1,2.309835E1,5.225787E1,2.8956368E0,4.31743E0,5.4457474E1,2.0678278E1,3.3452268E0,3.4135742E0,6.642885E0,1.4714849E0,2.262986E1,3.844864E1,2.4670897E1,6.8082013E0,5.347894E1,8.126014E0,1.4972336E1],"tree_param":{"num_deleted":"0","num_feature":"30","num_nodes":"31","size_leaf_vector":"1"}},{"base_weights":[5.2038766E-3,3.0049282E-1,-4.226984E-2,7.5387174E-1,4.9271088E-2,1.4590586E-2,-2.7273953E-1,9.0542835E-1,-1.8450469E-2,2.2706872E-1,-2.7468259E-2,-5.168553E-1,5.2231032E-2,-6.995489E-2,-5.429455E-1,5.4095495E-2,-1.7642096E-2,5.130313E-4,3.9139614E-2,-2.9813161E-2,6.022235E-3,1.5689622E-3,5.3361088E-2,-9.862872E-3,2.675186E-2,6.3805724E-3,-2.968666E-2],"categories":[],"categories_nodes":[],"categories_segments":[],"categories_sizes":[],"default_left":[0,0,0,0,1,0,1,0,0,1,0,0,1,1,0,0,0,0,0,0,0,0,0,0,0,0,0],"id":13,"left_children":[1,3,5,7,9,11,13,15,-1,17,-1,19,21,23,25,-1,-1,-1,-1,-1,-1,-1,-1,-1,-1,-1,-1],"loss_changes":[3.5157578E0,3.918977E0,2.8366053E0,2.4297419E0,2.6174245E0,3.5142448E0,2.3086207E0,2.8553581E0,0E0,2.2527747E0,0E0,6.599784E-1,3.4312577E0,2.0781987E0,6.960268E-1,0E0,0E0,0E0,0E0,0E0,0E0,0E0,0E0,0E0,0E0,0E0,0E0],"parents":[2147483647,0,0,1,1,2,2,3,3,4,4,5,5,6,6,7,7,9,9,11,11,12,12,13,13,14,14],"right_children":[2,4,6,8,10,12,14,16,-1,18,-1,20,22,24,26,-1,-1,-1,-1,-1,-1,-1,-1,-1,-1,-1,-1],"split_conditions":[1E0,3.82E-1,1.1E1,1.1229167E1,1E0,-9.3E-1,1.80218E3,1.5E0,-1.8450469E-2,8.0625E0,-2.7468259E-2,1.358E0,1.3633333E0,1.6E0,8.72E-1,5.4095495E-2,-1.7642096E-2,5.130313E-4,3.9139614E-2,-2.9813161E-2,6.022235E-3,1.5689622E-3,5.3361088E-2,-9.862872E-3,2.675186E-2,6.3805724E-3,-2.968666E-2],"split_indices":[16,25,4,4,22,25,14,26,0,4,0,7,24,28,7,0,0,0,0,0,0,0,0,0,0,0,0],"split_type":[0,0,0,0,0,0,0,0,0,0,0,0,0,0,0,0,0,0,0,0,0,0,0,0,0,0,0],"sum_hessian":[2.4888869E2,3.3733696E1,2.15155E2,1.1314194E1,2.2419504E1,1.733288E2,4.18262E1,1.0139332E1,1.1748617E0,1.776416E1,4.6553445E0,1.0622216E1,1.6270657E2,2.461328E1,1.721292E1,9.015065E0,1.124267E0,1.3511351E1,4.252809E0,9.502581E0,1.1196357E0,1.6044142E2,2.2651637E0,2.0891281E1,3.7219975E0,1.105408E0,1.6107512E1],"tree_param":{"num_deleted":"0","num_feature":"30","num_nodes":"27","size_leaf_vector":"1"}},{"base_weights":[5.088895E-3,7.001483E-1,-1.0342665E-1,8.1204975E-1,-1.1168659E-1,5.9408087E-2,-4.098575E-1,1.0132269E-1,8.937343E-1,-4.0917557E-1,2.0556923E-2,4.092898E-1,-3.6035974E-2,-4.3618542E-1,2.8620122E-2,-2.2548875E-2,2.2459783E-2,4.8912726E-2,5.247141E-3,-3.942807E-3,-2.5836034E-2,-1.7284691E-2,2.7584588E-2,9.10317E-3,-9.148304E-3,-2.7098E-2,-1.075426E-2],"categories":[],"categories_nodes":[],"categories_segments":[],"categories_sizes":[],"default_left":[1,1,0,0,1,0,1,0,1,0,0,0,0,1,0,0,0,0,0,0,0,0,0,0,0,0,0],"id":14,"left_children":[1,3,5,7,9,11,13,15,17,19,-1,21,23,25,-1,-1,-1,-1,-1,-1,-1,-1,-1,-1,-1,-1,-1],"loss_changes":[2.2868328E1,3.8101482E0,1.3112046E1,2.0054684E0,1.0763776E0,5.763542E0,2.6066685E0,1.1343266E0,2.0476894E0,1.0925794E-1,0E0,4.1661315E0,4.397025E0,1.9725704E0,0E0,0E0,0E0,0E0,0E0,0E0,0E0,0E0,0E0,0E0,0E0,0E0,0E0],"parents":[2147483647,0,0,1,1,2,2,3,3,4,4,5,5,6,6,7,7,8,8,9,9,11,11,12,12,13,13],"right_children":[2,4,6,8,10,12,14,16,18,20,-1,22,24,26,-1,-1,-1,-1,-1,-1,-1,-1,-1,-1,-1,-1,-1],"split_conditions":[1.63362E3,1.26E1,8.414E1,8.58E-1,-8E-1,-1.4998E2,2.18E1,1.06E1,1.164E0,1.4E0,2.0556923E-2,1.1E1,4E0,1.508E0,2.8620122E-2,-2.2548875E-2,2.2459783E-2,4.8912726E-2,5.247141E-3,-3.942807E-3,-2.5836034E-2,-1.7284691E-2,2.7584588E-2,9.10317E-3,-9.148304E-3,-2.7098E-2,-1.075426E-2],"split_indices":[5,10,21,15,27,21,19,10,6,9,0,10,8,7,0,0,0,0,0,0,0,0,0,0,0,0,0],"split_type":[0,0,0,0,0,0,0,0,0,0,0,0,0,0,0,0,0,0,0,0,0,0,0,0,0,0,0],"sum_hessian":[3.0123386E2,3.9942665E1,2.612912E2,3.510378E1,4.838889E0,1.711498E2,9.014141E1,3.84957E0,3.1254208E1,3.2225974E0,1.6162916E0,3.5976776E1,1.3517302E2,8.83298E1,1.811603E0,1.3731323E0,2.4764378E0,2.8012438E1,3.2417688E0,1.2172161E0,2.005381E0,5.4824486E0,3.0494326E1,5.431302E1,8.086E1,5.876525E1,2.9564556E1],"tree_param":{"num_deleted":"0","num_feature":"30","num_nodes":"27","size_leaf_vector":"1"}},{"base_weights":[-2.0918561E-2,-1.4642398E-1,3.567635E-1,6.769299E-2,-2.51992E-1,7.038895E-1,2.1218343E-1,3.0483067E-1,-8.2820304E-2,-3.0871284E-1,2.0001763E-1,8.3441484E-1,-1.5386938E-2,3.2575133E-1,-1.7034866E-1,2.424345E-2,-5.0987E-3,3.1317638E-3,-2.6585644E-2,-1.6634258E-2,1.6242882E-2,-1.41983945E-2,2.2327278E-2,1.0052981E-2,4.5407772E-2,1.4402301E-3,3.0422768E-2,9.144206E-3,-2.8913174E-2],"categories":[],"categories_nodes":[],"categories_segments":[],"categories_sizes":[],"default_left":[1,0,0,0,0,0,0,0,0,1,1,0,0,1,0,0,0,0,0,0,0,0,0,0,0,0,0,0,0],"id":15,"left_children":[1,3,5,7,9,11,13,15,17,19,21,23,-1,25,27,-1,-1,-1,-1,-1,-1,-1,-1,-1,-1,-1,-1,-1,-1],"loss_changes":[1.5466588E1,5.5502543E0,3.9359083E0,2.9385955E0,4.270685E0,3.3602085E0,2.614169E0,2.3862355E0,3.344889E0,2.3294191E0,2.383123E0,8.022375E-1,0E0,3.8237247E0,2.1430814E0,0E0,0E0,0E0,0E0,0E0,0E0,0E0,0E0,0E0,0E0,0E0,0E0,0E0,0E0],"parents":[2147483647,0,0,1,1,2,2,3,3,4,4,5,5,6,6,7,7,8,8,9,9,10,10,11,11,13,13,14,14],"right_children":[2,4,6,8,10,12,14,16,18,20,22,24,-1,26,28,-1,-1,-1,-1,-1,-1,-1,-1,-1,-1,-1,-1,-1,-1],"split_conditions":[1.85654E3,-9.4E-2,2E-1,6.0416665E0,2E1,1.22E-1,7.9375E0,1.64E1,2.6666667E0,8.22E-1,1.23E0,9.6E0,-1.5386938E-2,4.7916665E0,7E-1,2.424345E-2,-5.0987E-3,3.1317638E-3,-2.6585644E-2,-1.6634258E-2,1.6242882E-2,-1.41983945E-2,2.2327278E-2,1.0052981E-2,4.5407772E-2,1.4402301E-3,3.0422768E-2,9.144206E-3,-2.8913174E-2],"split_indices":[5,25,20,13,19,25,4,10,18,24,7,19,0,13,27,0,0,0,0,0,0,0,0,0,0,0,0,0,0],"split_type":[0,0,0,0,0,0,0,0,0,0,0,0,0,0,0,0,0,0,0,0,0,0,0,0,0,0,0,0,0],"sum_hessian":[3.241894E2,2.4378941E2,8.039999E1,8.062387E1,1.6316554E2,2.2503132E1,5.789686E1,3.0905758E1,4.9718117E1,1.452551E2,1.791045E1,2.008663E1,2.4165013E0,4.4757484E1,1.3139374E1,2.1291115E1,9.614642E0,3.820042E1,1.15176935E1,1.4041705E2,4.838031E0,5.993026E0,1.1917425E1,2.4833984E0,1.7603231E1,2.2366278E1,2.2391205E1,7.33731E0,5.802064E0],"tree_param":{"num_deleted":"0","num_feature":"30","num_nodes":"29","size_leaf_vector":"1"}},{"base_weights":[2.4769055E-2,9.597666E-2,-2.2977273E-1,-8.663706E-2,2.344014E-1,-3.001505E-1,6.191503E-1,2.223549E-1,-2.1798885E-1,3.7370735E-1,-1.1760758E-1,5.023845E-1,-3.4708947E-1,-1.7347457E-2,5.2397486E-2,-1.7276533E-3,3.4986027E-2,3.2481626E-3,-2.239222E-2,-1.6914726E-3,2.700612E-2,8.075519E-3,-1.6982041E-2,-1.6611537E-2,5.390643E-2,-2.5859455E-2,-3.7905183E-3],"categories":[],"categories_nodes":[],"categories_segments":[],"categories_sizes":[],"default_left":[0,0,1,0,1,0,0,0,0,1,1,0,1,0,0,0,0,0,0,0,0,0,0,0,0,0,0],"id":16,"left_children":[1,3,5,7,9,11,13,15,17,19,21,23,25,-1,-1,-1,-1,-1,-1,-1,-1,-1,-1,-1,-1,-1,-1],"loss_changes":[4.4069114E0,4.8166513E0,3.3629298E0,3.3986006E0,5.349707E0,2.0495834E0,2.1853156E0,3.1045022E0,3.8289883E0,5.2919827E0,2.003245E0,1.8762846E0,2.1582136E0,0E0,0E0,0E0,0E0,0E0,0E0,0E0,0E0,0E0,0E0,0E0,0E0,0E0,0E0],"parents":[2147483647,0,0,1,1,2,2,3,3,4,4,5,5,6,6,7,7,8,8,9,9,10,10,11,11,12,12],"right_children":[2,4,6,8,10,12,14,16,18,20,22,24,26,-1,-1,-1,-1,-1,-1,-1,-1,-1,-1,-1,-1,-1,-1],"split_conditions":[1.77E0,1.174E0,1.3633333E0,8.3E-1,1.86408E3,1.65629E3,1.12E1,2.5E-1,1.22E1,-3.02E-1,5E0,1.59746E3,1.83432E3,-1.7347457E-2,5.2397486E-2,-1.7276533E-3,3.4986027E-2,3.2481626E-3,-2.239222E-2,-1.6914726E-3,2.700612E-2,8.075519E-3,-1.6982041E-2,-1.6611537E-2,5.390643E-2,-2.5859455E-2,-3.7905183E-3],"split_indices":[6,6,24,6,5,5,10,11,10,25,13,5,5,0,0,0,0,0,0,0,0,0,0,0,0,0,0],"split_type":[0,0,0,0,0,0,0,0,0,0,0,0,0,0,0,0,0,0,0,0,0,0,0,0,0,0,0],"sum_hessian":[2.409191E2,1.8874185E2,5.2177246E1,8.154266E1,1.0719919E2,4.8779724E1,3.3975236E0,2.4117004E1,5.742566E1,7.676009E1,3.0439095E1,2.1592479E0,4.6620476E1,1.1030952E0,2.2944283E0,1.6281998E1,7.835006E0,2.6061426E1,3.1364233E1,2.248729E1,5.4272804E1,1.36067E1,1.6832396E1,1.0541197E0,1.105128E0,2.8096622E1,1.8523855E1],"tree_param":{"num_deleted":"0","num_feature":"30","num_nodes":"27","size_leaf_vector":"1"}},{"base_weights":[-7.952683E-3,2.2914281E-1,-3.0863705E-1,4.972211E-1,2.2378435E-2,2.189204E-1,-3.5881922E-1,6.442706E-1,1.7770457E-1,-6.4888015E-2,5.967867E-1,6.7413306E-1,-3.0950323E-1,-6.488533E-1,-2.9277346E-1,3.8976394E-2,1.055566E-3,1.614025E-2,-2.9684464E-2,3.7146937E-2,-6.8467134E-3,-9.869254E-3,4.7285773E-2,5.333466E-2,7.861573E-3,1.17911035E-2,-2.8891388E-2,-3.4428377E-2,-1.5275212E-2,3.26434E-2,-1.6478572E-2],"categories":[],"categories_nodes":[],"categories_segments":[],"categories_sizes":[],"default_left":[1,1,0,1,1,0,1,1,1,0,0,0,0,1,0,0,0,0,0,0,0,0,0,0,0,0,0,0,0,0,0],"id":17,"left_children":[1,3,5,7,9,11,13,15,17,19,21,23,25,27,29,-1,-1,-1,-1,-1,-1,-1,-1,-1,-1,-1,-1,-1,-1,-1,-1],"loss_changes":[2.1366432E1,9.278353E0,3.5763836E0,3.3120518E0,4.8340034E0,3.1185784E0,2.1283512E0,4.161028E0,2.91894E0,4.987615E0,3.710074E0,1.2148361E0,1.0557327E0,8.452511E-2,3.708867E0,0E0,0E0,0E0,0E0,0E0,0E0,0E0,0E0,0E0,0E0,0E0,0E0,0E0,0E0,0E0,0E0],"parents":[2147483647,0,0,1,1,2,2,3,3,4,4,5,5,6,6,7,7,8,8,9,9,10,10,11,11,12,12,13,13,14,14],"right_children":[2,4,6,8,10,12,14,16,18,20,22,24,26,28,30,-1,-1,-1,-1,-1,-1,-1,-1,-1,-1,-1,-1,-1,-1,-1,-1],"split_conditions":[-2.81E0,1.07E0,-1.15E0,-1.1669E2,1.1989583E1,1.35E1,8.14E-1,3.3333334E-1,1.936E0,7E-1,-1.2E0,1.75762E3,1.036E0,1.68E1,2.5E0,3.8976394E-2,1.055566E-3,1.614025E-2,-2.9684464E-2,3.7146937E-2,-6.8467134E-3,-9.869254E-3,4.7285773E-2,5.333466E-2,7.861573E-3,1.17911035E-2,-2.8891388E-2,-3.4428377E-2,-1.5275212E-2,3.26434E-2,-1.6478572E-2],"split_indices":[21,6,27,21,13,19,15,11,16,16,26,14,16,10,17,0,0,0,0,0,0,0,0,0,0,0,0,0,0,0,0],"split_type":[0,0,0,0,0,0,0,0,0,0,0,0,0,0,0,0,0,0,0,0,0,0,0,0,0,0,0,0,0,0,0],"sum_hessian":[2.9771564E2,1.6659229E2,1.3112334E2,7.192886E1,9.466342E1,1.109724E1,1.200261E2,4.8562706E1,2.3366161E1,8.294857E1,1.171485E1,5.813464E0,5.2837763E0,2.0625742E1,9.940036E1,3.9695774E1,8.866931E0,2.0156265E1,3.2098956E0,6.029554E0,7.6919014E1,3.7085032E0,8.006348E0,2.6996162E0,3.113848E0,1.7824243E0,3.5013518E0,1.7586155E1,3.0395854E0,3.0960305E0,9.630433E1],"tree_param":{"num_deleted":"0","num_feature":"30","num_nodes":"31","size_leaf_vector":"1"}},{"base_weights":[-1.200635E-2,-1.4768346E-1,4.077877E-1,-4.0449506E-1,-6.346533E-3,3.2437572E-1,8.7344694E-1,-4.7589335E-1,1.5482093E-2,6.71142E-2,-4.1479802E-1,5.456551E-1,5.621251E-2,4.7196876E-2,1.1998019E-2,-2.6945978E-2,1.1274222E-3,-2.3312485E-2,1.4475318E-2,8.078723E-3,-1.3809684E-2,-3.7051175E-2,-3.4190551E-3,4.5042015E-3,3.3558093E-2,-2.436461E-2,1.4069346E-2],"categories":[],"categories_nodes":[],"categories_segments":[],"categories_sizes":[],"default_left":[1,1,1,0,1,0,0,1,1,1,0,0,0,0,0,0,0,0,0,0,0,0,0,0,0,0,0],"id":18,"left_children":[1,3,5,7,9,11,13,15,17,19,21,23,25,-1,-1,-1,-1,-1,-1,-1,-1,-1,-1,-1,-1,-1,-1],"loss_changes":[1.8490696E1,8.900517E0,2.7969809E0,2.6178112E0,4.8055E0,4.0546756E0,2.850895E-1,2.3506298E0,1.9326495E0,4.44902E0,2.708054E0,2.0897722E0,4.0829034E0,0E0,0E0,0E0,0E0,0E0,0E0,0E0,0E0,0E0,0E0,0E0,0E0,0E0,0E0],"parents":[2147483647,0,0,1,1,2,2,3,3,4,4,5,5,6,6,7,7,8,8,9,9,10,10,11,11,12,12],"right_children":[2,4,6,8,10,12,14,16,18,20,22,24,26,-1,-1,-1,-1,-1,-1,-1,-1,-1,-1,-1,-1,-1,-1],"split_conditions":[1.86408E3,-1.1931E2,1.912E0,7.2E0,5.5E0,2.74E-1,1.378E0,1.80301E3,3.2E0,1.765E0,2.25E0,3.772E1,6.1875E0,4.7196876E-2,1.1998019E-2,-2.6945978E-2,1.1274222E-3,-2.3312485E-2,1.4475318E-2,8.078723E-3,-1.3809684E-2,-3.7051175E-2,-3.4190551E-3,4.5042015E-3,3.3558093E-2,-2.436461E-2,1.4069346E-2],"split_indices":[5,21,16,17,17,24,15,5,8,7,9,21,13,0,0,0,0,0,0,0,0,0,0,0,0,0,0],"split_type":[0,0,0,0,0,0,0,0,0,0,0,0,0,0,0,0,0,0,0,0,0,0,0,0,0,0,0],"sum_hessian":[3.2258893E2,2.4428456E2,7.830437E1,8.6056496E1,1.5822806E2,6.784764E1,1.0456728E1,7.3438446E1,1.2618053E1,1.3481671E2,2.3411343E1,3.660644E1,3.1241201E1,8.968681E0,1.4880466E0,6.5122696E1,8.315748E0,4.3207426E0,8.297311E0,1.0614152E2,2.86752E1,1.1470403E1,1.1940941E1,8.277628E0,2.8328812E1,8.810699E0,2.2430502E1],"tree_param":{"num_deleted":"0","num_feature":"30","num_nodes":"27","size_leaf_vector":"1"}},{"base_weights":[-1.427072E-3,-3.9519382E-1,3.2220714E-2,-2.1122926E-1,-2.8655667E-2,7.1418667E-1,1.5075725E-2,1.4449134E-1,-2.7085114E-2,6.1455876E-2,6.454021E-2,3.3007752E-2,-2.7513808E-2,-1.1814863E-2,3.7470166E-2,-1.9836407E-2,2.7957294E-2,4.5581206E-4,2.764284E-2],"categories":[],"categories_nodes":[],"categories_segments":[],"categories_sizes":[],"default_left":[1,0,0,1,0,0,1,0,0,0,0,1,0,0,0,0,0,0,0],"id":19,"left_children":[1,3,5,7,-1,9,11,13,-1,15,-1,17,-1,-1,-1,-1,-1,-1,-1],"loss_changes":[3.260641E0,5.130544E-1,2.640615E0,1.3841593E0,0E0,2.0056343E0,2.2710447E0,1.5912504E0,0E0,1.0537614E0,0E0,2.6818373E0,0E0,0E0,0E0,0E0,0E0,0E0,0E0],"parents":[2147483647,0,0,1,1,2,2,3,3,5,5,6,6,7,7,9,9,11,11],"right_children":[2,4,6,8,-1,10,12,14,-1,16,-1,18,-1,-1,-1,-1,-1,-1,-1],"split_conditions":[7E0,1.83505E3,-2.5E0,1.70685E3,-2.8655667E-2,-1.146E0,2.8841E2,1.302E0,-2.7085114E-2,6.0833335E0,6.454021E-2,9.7E-1,-2.7513808E-2,-1.1814863E-2,3.7470166E-2,-1.9836407E-2,2.7957294E-2,4.5581206E-4,2.764284E-2],"split_indices":[10,14,27,5,0,24,21,15,0,4,0,24,0,0,0,0,0,0,0],"split_type":[0,0,0,0,0,0,0,0,0,0,0,0,0,0,0,0,0,0,0],"sum_hessian":[2.4413661E2,1.8373522E1,2.2576309E2,1.0108642E1,8.264879E0,4.5395713E0,2.2122351E2,5.139387E0,4.9692545E0,2.6482892E0,1.8912821E0,2.1533505E2,5.8884573E0,3.527939E0,1.6114483E0,1.4844935E0,1.1637955E0,2.0684624E2,8.488818E0],"tree_param":{"num_deleted":"0","num_feature":"30","num_nodes":"19","size_leaf_vector":"1"}},{"base_weights":[-1.5186661E-2,2.0956601E-1,-3.1690603E-1,4.2442155E-1,2.8527008E-2,-1.4246789E-1,-4.4707143E-1,7.518364E-1,2.2280464E-1,-2.9304647E-1,1.7659238E-1,-2.9532524E-2,-5.215688E-1,-4.9021184E-1,5.1023173E-1,-4.1452986E-3,4.2041626E-2,3.2397544E-3,3.8985938E-2,2.370376E-3,-2.4599366E-2,-8.616638E-3,1.9344574E-2,-1.85979E-2,6.633793E-3,-4.806616E-3,-3.252905E-2,-2.7023835E-2,-7.813883E-4,-1.659204E-5,3.9678447E-2],"categories":[],"categories_nodes":[],"categories_segments":[],"categories_sizes":[],"default_left":[1,0,0,1,0,0,1,0,0,0,1,1,0,1,0,0,0,0,0,0,0,0,0,0,0,0,0,0,0,0,0],"id":20,"left_children":[1,3,5,7,9,11,13,15,17,19,21,23,25,27,29,-1,-1,-1,-1,-1,-1,-1,-1,-1,-1,-1,-1,-1,-1,-1,-1],"loss_changes":[2.0909971E1,6.8631964E0,2.9247532E0,5.1634293E0,4.670246E0,2.4554222E0,3.3435936E0,2.324791E0,4.472652E0,2.1200707E0,4.986092E0,2.5779862E0,6.6119885E-1,1.713522E0,5.384052E-1,0E0,0E0,0E0,0E0,0E0,0E0,0E0,0E0,0E0,0E0,0E0,0E0,0E0,0E0,0E0,0E0],"parents":[2147483647,0,0,1,1,2,2,3,3,4,4,5,5,6,6,7,7,8,8,9,9,10,10,11,11,12,12,13,13,14,14],"right_children":[2,4,6,8,10,12,14,16,18,20,22,24,26,28,30,-1,-1,-1,-1,-1,-1,-1,-1,-1,-1,-1,-1,-1,-1,-1,-1],"split_conditions":[1.64E0,1.436E0,9.683E1,-1.5847E2,1.76E-1,1.85445E3,2.06E1,-2.5223E2,1.328E0,4.6666665E0,2.4E0,-4E-1,-2.8E0,1.2958333E1,3.25E0,-4.1452986E-3,4.2041626E-2,3.2397544E-3,3.8985938E-2,2.370376E-3,-2.4599366E-2,-8.616638E-3,1.9344574E-2,-1.85979E-2,6.633793E-3,-4.806616E-3,-3.252905E-2,-2.7023835E-2,-7.813883E-4,-1.659204E-5,3.9678447E-2],"split_indices":[21,15,21,21,25,5,19,21,15,17,18,26,28,4,17,0,0,0,0,0,0,0,0,0,0,0,0,0,0,0,0],"split_type":[0,0,0,0,0,0,0,0,0,0,0,0,0,0,0,0,0,0,0,0,0,0,0,0,0,0,0,0,0,0,0],"sum_hessian":[3.0637164E2,1.757556E2,1.3061603E2,7.975668E1,9.599892E1,5.671083E1,7.3905205E1,2.935566E1,5.0401024E1,2.9957346E1,6.6041565E1,4.452469E1,1.2186143E1,7.1185196E1,2.7200038E0,2.834815E0,2.6520845E1,4.013121E1,1.0269815E1,1.1329869E1,1.8627478E1,2.4903154E1,4.1138412E1,1.3896269E1,3.062842E1,3.2416081E0,8.944535E0,6.424224E1,6.942958E0,1.3272233E0,1.3927805E0],"tree_param":{"num_deleted":"0","num_feature":"30","num_nodes":"31","size_leaf_vector":"1"}},{"base_weights":[-1.6338803E-2,-1.5239845E-1,3.8044813E-1,-4.141217E-1,-4.9400297E-3,6.5348536E-1,2.537015E-1,-4.694771E-1,2.117172E-1,-5.8586348E-2,3.8105628E-1,8.01773E-1,-3.754905E-1,3.0311495E-1,-3.094997E-2,-3.0763356E-2,-1.6763574E-2,-1.3254078E-2,4.2853445E-2,3.775445E-2,-4.5689093E-3,4.1798886E-2,-2.3935759E-3,4.168664E-2,1.0484868E-2,-4.6274625E-3,-2.5231523E-2,-4.8883967E-3,2.1417348E-2],"categories":[],"categories_nodes":[],"categories_segments":[],"categories_sizes":[],"default_left":[1,1,0,1,0,0,1,0,0,0,0,0,0,0,0,0,0,0,0,0,0,0,0,0,0,0,0,0,0],"id":21,"left_children":[1,3,5,7,9,11,13,15,17,19,21,23,25,27,-1,-1,-1,-1,-1,-1,-1,-1,-1,-1,-1,-1,-1,-1,-1],"loss_changes":[1.7465395E1,9.291986E0,2.6933737E0,3.105527E0,3.2329206E0,4.2009344E0,2.6913745E0,1.359623E0,2.608992E0,3.7242663E0,3.7576954E0,2.5392532E-1,9.5814526E-2,2.834207E0,0E0,0E0,0E0,0E0,0E0,0E0,0E0,0E0,0E0,0E0,0E0,0E0,0E0,0E0,0E0],"parents":[2147483647,0,0,1,1,2,2,3,3,4,4,5,5,6,6,7,7,8,8,9,9,10,10,11,11,12,12,13,13],"right_children":[2,4,6,8,10,12,14,16,18,20,22,24,26,28,-1,-1,-1,-1,-1,-1,-1,-1,-1,-1,-1,-1,-1,-1,-1],"split_conditions":[1.85654E3,-1.1931E2,2E-1,1.746E0,7.3E-1,1.22E-1,5E-1,5.24E-1,1.26E1,6.88E-1,1.562E0,8E-1,1.90411E3,4.21875E0,-3.094997E-2,-3.0763356E-2,-1.6763574E-2,-1.3254078E-2,4.2853445E-2,3.775445E-2,-4.5689093E-3,4.1798886E-2,-2.3935759E-3,4.168664E-2,1.0484868E-2,-4.6274625E-3,-2.5231523E-2,-4.8883967E-3,2.1417348E-2],"split_indices":[5,21,20,6,24,25,29,25,10,15,16,11,5,13,0,0,0,0,0,0,0,0,0,0,0,0,0,0,0],"split_type":[0,0,0,0,0,0,0,0,0,0,0,0,0,0,0,0,0,0,0,0,0,0,0,0,0,0,0,0,0],"sum_hessian":[3.21439E2,2.3981984E2,8.1619156E1,8.577313E1,1.540467E2,2.455881E1,5.706035E1,7.9032555E1,6.7405806E0,1.3599425E2,1.8052454E1,2.1658382E1,2.900426E0,5.4620342E1,2.440005E0,3.616325E1,4.2869305E1,4.215402E0,2.5251784E0,4.41506E0,1.315792E2,8.300227E0,9.752227E0,2.0161907E1,1.4964753E0,1.4469237E0,1.4535022E0,1.305357E1,4.1566772E1],"tree_param":{"num_deleted":"0","num_feature":"30","num_nodes":"29","size_leaf_vector":"1"}},{"base_weights":[2.4605978E-2,-2.317949E-1,8.015665E-2,8.214025E-1,-3.400541E-1,9.3855333E-1,6.2296696E-2,-5.8592694E-5,6.1948657E-2,2.4938386E-2,-3.8350573E-1,6.130723E-2,5.1940205E-3,-4.3445408E-1,9.280902E-2,-1.0491917E-2,-2.9458595E-2,2.9084077E-2,-2.9772205E-2,-3.8654264E-3,9.339896E-3],"categories":[],"categories_nodes":[],"categories_segments":[],"categories_sizes":[],"default_left":[1,0,0,0,0,1,0,0,0,0,0,0,0,0,1,0,0,0,0,0,0],"id":22,"left_children":[1,3,5,7,9,11,13,-1,-1,-1,15,-1,-1,17,19,-1,-1,-1,-1,-1,-1],"loss_changes":[3.571177E0,5.372853E0,3.0958753E0,1.5322657E0,1.6935363E0,8.622186E-1,3.111557E0,0E0,0E0,0E0,1.2961984E0,0E0,0E0,2.2933707E0,3.0799785E0,0E0,0E0,0E0,0E0,0E0,0E0],"parents":[2147483647,0,0,1,1,2,2,3,3,4,4,5,5,6,6,10,10,13,13,14,14],"right_children":[2,4,6,8,10,12,14,-1,-1,-1,16,-1,-1,18,20,-1,-1,-1,-1,-1,-1],"split_conditions":[9.2E0,-3.3333334E-1,-2.5E0,9.44E-1,7.92E-1,1.73855E3,-2.2083333E0,-5.8592694E-5,6.1948657E-2,2.4938386E-2,1.79789E3,6.130723E-2,5.1940205E-3,-2.2666667E0,-3.28E-1,-1.0491917E-2,-2.9458595E-2,2.9084077E-2,-2.9772205E-2,-3.8654264E-3,9.339896E-3],"split_indices":[10,29,27,6,16,5,22,0,0,0,14,0,0,26,24,0,0,0,0,0,0],"split_type":[0,0,0,0,0,0,0,0,0,0,0,0,0,0,0,0,0,0,0,0,0],"sum_hessian":[2.4842337E2,4.3672935E1,2.0475044E2,3.4567397E0,4.0216194E1,3.1225317E0,2.0162791E2,1.4996891E0,1.9570506E0,1.4645615E0,3.8751633E1,1.9735291E0,1.1490026E0,1.0901947E1,1.9072597E2,2.2105623E1,1.6646011E1,1.1336197E0,9.768328E0,6.7937775E1,1.2278819E2],"tree_param":{"num_deleted":"0","num_feature":"30","num_nodes":"21","size_leaf_vector":"1"}},{"base_weights":[-1.5877249E-3,5.8550924E-1,-9.9974155E-2,-9.076786E-2,7.056953E-1,-2.4479334E-1,1.23210646E-1,-4.6862775E-1,4.871609E-1,8.0574834E-1,8.714122E-2,-1.6943188E-1,-5.622059E-1,-3.0392265E-2,1.6204408E-1,-2.2458131E-3,-2.8534854E-2,3.4434333E-2,1.2066577E-3,4.2533267E-2,-1.1401352E-2,-1.7786974E-2,2.8081808E-2,-3.080356E-2,-5.2926275E-3,-1.5096399E-2,-3.332345E-2,-1.2775068E-3,1.7034974E-2],"categories":[],"categories_nodes":[],"categories_segments":[],"categories_sizes":[],"default_left":[1,1,1,1,1,0,0,1,1,1,0,0,1,0,0,0,0,0,0,0,0,0,0,0,0,0,0,0,0],"id":23,"left_children":[1,3,5,7,9,11,13,15,17,19,21,23,25,-1,27,-1,-1,-1,-1,-1,-1,-1,-1,-1,-1,-1,-1,-1,-1],"loss_changes":[1.7531223E1,3.6047487E0,8.431486E0,1.8572854E0,2.2259998E0,3.6836329E0,3.0213184E0,1.914798E-1,3.0431288E-1,1.671299E0,1.5210032E0,3.600742E0,6.0962296E-1,0E0,3.3116162E0,0E0,0E0,0E0,0E0,0E0,0E0,0E0,0E0,0E0,0E0,0E0,0E0,0E0,0E0],"parents":[2147483647,0,0,1,1,2,2,3,3,4,4,5,5,6,6,7,7,8,8,9,9,10,10,11,11,12,12,14,14],"right_children":[2,4,6,8,10,12,14,16,18,20,22,24,26,-1,28,-1,-1,-1,-1,-1,-1,-1,-1,-1,-1,-1,-1,-1,-1],"split_conditions":[1.63362E3,8.8E-1,1.22E-1,1.65803E3,1.172E0,1.93898E3,1.112E0,1.586E0,7.84E-1,4E-1,3E0,8.44E-1,8.8E0,-3.0392265E-2,1.81406E3,-2.2458131E-3,-2.8534854E-2,3.4434333E-2,1.2066577E-3,4.2533267E-2,-1.1401352E-2,-1.7786974E-2,2.8081808E-2,-3.080356E-2,-5.2926275E-3,-1.5096399E-2,-3.332345E-2,-1.2775068E-3,1.7034974E-2],"split_indices":[5,15,25,14,25,5,7,7,15,11,8,15,19,0,14,0,0,0,0,0,0,0,0,0,0,0,0,0,0],"split_type":[0,0,0,0,0,0,0,0,0,0,0,0,0,0,0,0,0,0,0,0,0,0,0,0,0,0,0,0,0],"sum_hessian":[3.0149255E2,4.2562164E1,2.5893042E2,6.4595537E0,3.6102608E1,1.5697581E2,1.019546E2,4.0202017E0,2.4393523E0,3.0815477E1,5.287132E0,1.280964E2,2.8879408E1,4.4035354E0,9.7551056E1,1.0599946E0,2.960207E0,1.3600544E0,1.079298E0,2.9702066E1,1.1134114E0,2.8641186E0,2.423013E0,1.4879489E1,1.1321691E2,9.374108E0,1.9505299E1,4.8003128E1,4.9547928E1],"tree_param":{"num_deleted":"0","num_feature":"30","num_nodes":"29","size_leaf_vector":"1"}},{"base_weights":[-1.1930238E-2,-2.364623E-1,1.8039222E-1,-4.911448E-1,-1.3071828E-1,3.3030376E-1,2.6732195E-2,2.0058176E-2,-5.29685E-1,-3.6476016E-1,4.1888665E-2,7.2257066E-1,2.2348669E-1,1.4313473E-1,-3.1247538E-1,-3.3770885E-2,-1.7234946E-2,-1.0038869E-2,-2.7393281E-2,-1.5853483E-2,1.0117575E-2,-6.949483E-3,4.0301006E-2,1.9839225E-2,1.5641578E-3,2.1037137E-2,-4.3692245E-4,2.6955688E-2,-2.2138372E-2],"categories":[],"categories_nodes":[],"categories_segments":[],"categories_sizes":[],"default_left":[1,0,1,0,1,1,0,0,1,1,0,0,0,0,0,0,0,0,0,0,0,0,0,0,0,0,0,0,0],"id":24,"left_children":[1,3,5,7,9,11,13,-1,15,17,19,21,23,25,27,-1,-1,-1,-1,-1,-1,-1,-1,-1,-1,-1,-1,-1,-1],"loss_changes":[1.395125E1,3.9494371E0,4.000598E0,1.7036839E0,4.3245244E0,3.5263739E0,3.4815047E0,0E0,8.9936733E-1,1.2526197E0,3.652067E0,1.4341755E0,2.339981E0,2.76477E0,2.740966E0,0E0,0E0,0E0,0E0,0E0,0E0,0E0,0E0,0E0,0E0,0E0,0E0,0E0,0E0],"parents":[2147483647,0,0,1,1,2,2,3,3,4,4,5,5,6,6,8,8,9,9,10,10,11,11,12,12,13,13,14,14],"right_children":[2,4,6,8,10,12,14,-1,16,18,20,22,24,26,28,-1,-1,-1,-1,-1,-1,-1,-1,-1,-1,-1,-1,-1,-1],"split_conditions":[-2.744E1,-1.602E2,-1.34E-1,0E0,1.71108E3,-3.25E0,7.6875E0,2.0058176E-2,1.64E0,1.78985E3,1.194E0,-8.4E0,1.188E0,-9.791667E-1,3.25E0,-3.3770885E-2,-1.7234946E-2,-1.0038869E-2,-2.7393281E-2,-1.5853483E-2,1.0117575E-2,-6.949483E-3,4.0301006E-2,1.9839225E-2,1.5641578E-3,2.1037137E-2,-4.3692245E-4,2.6955688E-2,-2.2138372E-2],"split_indices":[21,21,25,23,5,28,4,0,15,14,6,28,15,22,17,0,0,0,0,0,0,0,0,0,0,0,0,0,0],"split_type":[0,0,0,0,0,0,0,0,0,0,0,0,0,0,0,0,0,0,0,0,0,0,0,0,0,0,0,0,0],"sum_hessian":[3.2108826E2,1.480333E2,1.7305498E2,4.2361572E1,1.0567172E2,8.7014046E1,8.604093E1,1.3643467E0,4.0997223E1,4.438109E1,6.129063E1,1.7389519E1,6.962453E1,6.448893E1,2.1552002E1,2.1448694E1,1.954853E1,2.4519135E1,1.9861956E1,1.8632784E1,4.265785E1,1.476817E0,1.5912703E1,3.6053215E1,3.357131E1,2.2178547E1,4.2310387E1,2.4435067E0,1.9108496E1],"tree_param":{"num_deleted":"0","num_feature":"30","num_nodes":"29","size_leaf_vector":"1"}},{"base_weights":[-5.7015154E-3,-2.589349E-1,6.725794E-2,6.120867E-1,-3.2470137E-1,3.9830774E-1,8.439125E-3,-1.8756835E-2,6.0898196E-2,-3.5566372E-1,2.8359577E-2,5.691797E-1,-1.793295E-1,-2.9966187E-1,8.260051E-2,-1.9175388E-2,1.9322766E-2,1.4709412E-2,5.3023584E-2,-2.6532536E-2,1.9896692E-2,-1.976373E-2,2.0400476E-2,2.9156767E-3,5.0927546E-2],"categories":[],"categories_nodes":[],"categories_segments":[],"categories_sizes":[],"default_left":[1,0,0,0,1,0,0,0,0,1,0,0,0,0,0,0,0,0,0,0,0,0,0,0,0],"id":25,"left_children":[1,3,5,7,9,11,13,-1,-1,15,-1,17,19,21,23,-1,-1,-1,-1,-1,-1,-1,-1,-1,-1],"loss_changes":[4.6189456E0,3.4016573E0,3.7770176E0,3.0120978E0,1.6554146E0,2.9909449E0,3.8148887E0,0E0,0E0,1.212163E0,0E0,2.7719336E0,1.7204285E0,2.3533432E0,2.9975016E0,0E0,0E0,0E0,0E0,0E0,0E0,0E0,0E0,0E0,0E0],"parents":[2147483647,0,0,1,1,2,2,3,3,4,4,5,5,6,6,9,9,11,11,12,12,13,13,14,14],"right_children":[2,4,6,8,10,12,14,-1,-1,16,-1,18,20,22,24,-1,-1,-1,-1,-1,-1,-1,-1,-1,-1],"split_conditions":[-3.25E0,3.0104167E0,9.88E-1,3.25E0,1.326E0,1.736E0,1.02E1,-1.8756835E-2,6.0898196E-2,4.8E0,2.8359577E-2,1.64E0,-3.81E0,1E0,7.5E-1,-1.9175388E-2,1.9322766E-2,1.4709412E-2,5.3023584E-2,-2.6532536E-2,1.9896692E-2,-1.976373E-2,2.0400476E-2,2.9156767E-3,5.0927546E-2],"split_indices":[28,4,16,17,25,6,10,0,0,18,0,15,21,28,11,0,0,0,0,0,0,0,0,0,0],"split_type":[0,0,0,0,0,0,0,0,0,0,0,0,0,0,0,0,0,0,0,0,0,0,0,0,0],"sum_hessian":[2.480576E2,5.4912834E1,1.9314478E2,3.2719285E0,5.1640907E1,2.8268646E1,1.6487613E2,1.389195E0,1.8827336E0,5.0489376E1,1.1515296E0,2.1826693E1,6.4419537E0,3.139713E1,1.3347899E2,4.912929E1,1.3600868E0,1.5018931E1,6.8077602E0,4.0548983E0,2.3870552E0,2.8048914E1,3.3482156E0,1.3113838E2,2.3406062E0],"tree_param":{"num_deleted":"0","num_feature":"30","num_nodes":"25","size_leaf_vector":"1"}},{"base_weights":[1.076495E-2,2.2791499E-1,-2.6411834E-1,4.2612958E-1,-2.4797453E-2,-6.227489E-1,-1.9788145E-1,-3.2538605E-1,4.8978895E-1,-1.0377071E-1,8.0065644E-1,-3.3284403E-2,-2.2873512E-1,-4.6582483E-2,-3.4020358E-1,1.571001E-2,-2.5738869E-2,3.1706672E-2,1.0922565E-2,2.83711E-2,-8.870299E-3,5.2422475E-2,-3.5132356E-3,2.4959568E-3,-2.0197993E-2,1.2648188E-2,-1.3355789E-2,2.0858401E-2,-1.9479051E-2],"categories":[],"categories_nodes":[],"categories_segments":[],"categories_sizes":[],"default_left":[1,1,1,0,1,1,0,0,1,0,0,0,0,0,0,0,0,0,0,0,0,0,0,0,0,0,0,0,0],"id":26,"left_children":[1,3,5,7,9,11,13,15,17,19,21,-1,23,25,27,-1,-1,-1,-1,-1,-1,-1,-1,-1,-1,-1,-1,-1,-1],"loss_changes":[1.8050253E1,8.471587E0,3.0474072E0,4.6907787E0,4.984881E0,1.9190931E-1,2.4417748E0,1.1305151E0,3.2971382E0,3.5362513E0,1.5153875E0,0E0,1.9216241E-1,3.7986283E0,2.3559327E0,0E0,0E0,0E0,0E0,0E0,0E0,0E0,0E0,0E0,0E0,0E0,0E0,0E0,0E0],"parents":[2147483647,0,0,1,1,2,2,3,3,4,4,5,5,6,6,7,7,8,8,9,9,10,10,12,12,13,13,14,14],"right_children":[2,4,6,8,10,12,14,16,18,20,22,-1,24,26,28,-1,-1,-1,-1,-1,-1,-1,-1,-1,-1,-1,-1,-1,-1],"split_conditions":[-2.81E0,1.182E0,8.14E-1,-1.052E0,1.2833333E1,1.68E1,8.414E1,9.75E0,-1.1931E2,7E-1,1.28E1,-3.3284403E-2,3.2395833E0,4.2E0,2.5E0,1.571001E-2,-2.5738869E-2,3.1706672E-2,1.0922565E-2,2.83711E-2,-8.870299E-3,5.2422475E-2,-3.5132356E-3,2.4959568E-3,-2.0197993E-2,1.2648188E-2,-1.3355789E-2,2.0858401E-2,-1.9479051E-2],"split_indices":[21,6,15,24,13,10,21,10,21,16,19,0,4,17,17,0,0,0,0,0,0,0,0,0,0,0,0,0,0],"split_type":[0,0,0,0,0,0,0,0,0,0,0,0,0,0,0,0,0,0,0,0,0,0,0,0,0,0,0,0,0],"sum_hessian":[3.003868E2,1.6791197E2,1.3247484E2,9.37181E1,7.419386E1,1.9343002E1,1.13131836E2,6.9976482E0,8.672045E1,6.8513306E1,5.680555E0,1.6820429E1,2.5225735E0,5.5479897E1,5.765194E1,1.4481515E0,5.5494967E0,5.5734245E1,3.098621E1,6.1104155E0,6.2402893E1,4.2636333E0,1.4169216E0,1.2499429E0,1.2726305E0,2.3463207E1,3.201669E1,3.072722E0,5.4579216E1],"tree_param":{"num_deleted":"0","num_feature":"30","num_nodes":"29","size_leaf_vector":"1"}},{"base_weights":[-6.0389796E-4,-2.295754E-1,2.0324072E-1,-2.928104E-1,1.3709265E-1,3.3826005E-1,6.092912E-2,3.5945094E-1,-3.3566564E-1,-1.5706189E-1,5.091745E-1,6.514307E-1,2.3836458E-1,1.905971E-1,-2.8087577E-1,4.5057595E-2,-9.986917E-5,-2.738598E-2,-1.1029296E-2,3.7366297E-2,-1.5772095E-2,3.3696E-2,-7.896929E-3,3.794175E-2,-4.4288966E-3,2.7077481E-2,5.6816195E-3,-9.0073154E-4,2.0058189E-2,-3.021033E-2,6.5955142E-3],"categories":[],"categories_nodes":[],"categories_segments":[],"categories_sizes":[],"default_left":[1,0,1,0,1,1,0,0,1,0,0,0,0,0,0,0,0,0,0,0,0,0,0,0,0,0,0,0,0,0,0],"id":27,"left_children":[1,3,5,7,9,11,13,15,17,19,21,23,25,27,29,-1,-1,-1,-1,-1,-1,-1,-1,-1,-1,-1,-1,-1,-1,-1,-1],"loss_changes":[1.493714E1,3.53484E0,3.2325473E0,3.7229834E0,2.5810177E0,2.5557747E0,3.7608266E0,1.6519908E0,2.842783E0,2.1731932E0,1.2411847E0,1.6870489E0,2.4827173E0,2.6971595E0,3.204049E0,0E0,0E0,0E0,0E0,0E0,0E0,0E0,0E0,0E0,0E0,0E0,0E0,0E0,0E0,0E0,0E0],"parents":[2147483647,0,0,1,1,2,2,3,3,4,4,5,5,6,6,7,7,8,8,9,9,10,10,11,11,12,12,13,13,14,14],"right_children":[2,4,6,8,10,12,14,16,18,20,22,24,26,28,30,-1,-1,-1,-1,-1,-1,-1,-1,-1,-1,-1,-1,-1,-1,-1,-1],"split_conditions":[-2.744E1,1.5166667E1,-1.34E-1,-1.1666666E0,4E0,-2.6E0,7.8333335E0,-6.1E-1,-1.6E0,1.208E0,1.806E0,6E0,8.9E-1,6.1875E0,1.29375E1,4.5057595E-2,-9.986917E-5,-2.738598E-2,-1.1029296E-2,3.7366297E-2,-1.5772095E-2,3.3696E-2,-7.896929E-3,3.794175E-2,-4.4288966E-3,2.7077481E-2,5.6816195E-3,-9.0073154E-4,2.0058189E-2,-3.021033E-2,6.5955142E-3],"split_indices":[21,13,25,22,8,28,4,24,26,15,6,8,15,13,4,0,0,0,0,0,0,0,0,0,0,0,0,0,0,0,0],"split_type":[0,0,0,0,0,0,0,0,0,0,0,0,0,0,0,0,0,0,0,0,0,0,0,0,0,0,0,0,0,0,0],"sum_hessian":[3.1802747E2,1.4972282E2,1.6830463E2,1.27871704E2,2.1851126E1,8.56585E1,8.2646126E1,7.4280744E0,1.2044363E2,1.2526226E1,9.3249E0,1.9380337E1,6.627817E1,6.0236885E1,2.240924E1,2.3752012E0,5.052873E0,4.104738E1,7.939625E1,1.3125706E0,1.1213655E1,7.469967E0,1.8549325E0,1.6901783E1,2.4785535E0,1.8345142E1,4.793302E1,3.0718262E1,2.9518623E1,1.23062E1,1.0103041E1],"tree_param":{"num_deleted":"0","num_feature":"30","num_nodes":"31","size_leaf_vector":"1"}},{"base_weights":[6.6206753E-3,-1.8671417E-1,8.52738E-2,6.0408944E-1,-2.5503078E-1,-9.035581E-4,2.5661302E-1,-1.5552014E-1,5.5108495E-2,-1.1741265E-1,-4.9915785E-1,-4.128466E-2,5.9136117E-1,4.501242E-1,-6.926877E-2,-1.7473174E-2,5.450511E-3,-8.353951E-3,3.7179332E-2,-2.8730273E-2,4.67615E-3,-3.548788E-3,4.1497614E-2,4.0420294E-2,-1.7564127E-2,2.838086E-2,-2.547722E-2,-1.0623537E-2,2.5768522E-2],"categories":[],"categories_nodes":[],"categories_segments":[],"categories_sizes":[],"default_left":[1,0,0,0,1,0,0,1,0,1,1,0,0,0,0,0,0,0,0,0,0,0,0,0,0,0,0,0,0],"id":28,"left_children":[1,3,5,7,9,11,13,15,-1,17,19,21,23,25,27,-1,-1,-1,-1,-1,-1,-1,-1,-1,-1,-1,-1,-1,-1],"loss_changes":[3.7633982E0,4.021118E0,2.596932E0,2.4372363E0,2.178578E0,2.8466957E0,3.7426999E0,2.0473327E-1,0E0,2.0011864E0,1.1134286E0,2.9408345E0,1.8383942E0,4.467998E0,2.0178874E0,0E0,0E0,0E0,0E0,0E0,0E0,0E0,0E0,0E0,0E0,0E0,0E0,0E0,0E0],"parents":[2147483647,0,0,1,1,2,2,3,3,4,4,5,5,6,6,7,7,9,9,10,10,11,11,12,12,13,13,14,14],"right_children":[2,4,6,8,10,12,14,16,-1,18,20,22,24,26,28,-1,-1,-1,-1,-1,-1,-1,-1,-1,-1,-1,-1,-1,-1],"split_conditions":[-2.25E0,-3.3333334E-1,6.875E-1,2.2E0,1.80082E3,5.8E0,1.2083334E0,1.77339E3,5.5108495E-2,2.544E0,1.742E0,2.05E1,8E0,1.2854167E1,5.52E-1,-1.7473174E-2,5.450511E-3,-8.353951E-3,3.7179332E-2,-2.8730273E-2,4.67615E-3,-3.548788E-3,4.1497614E-2,4.0420294E-2,-1.7564127E-2,2.838086E-2,-2.547722E-2,-1.0623537E-2,2.5768522E-2],"split_indices":[28,29,22,9,14,28,22,5,0,7,6,10,28,13,24,0,0,0,0,0,0,0,0,0,0,0,0,0,0],"split_type":[0,0,0,0,0,0,0,0,0,0,0,0,0,0,0,0,0,0,0,0,0,0,0,0,0,0,0,0,0],"sum_hessian":[2.4544089E2,7.057898E1,1.7486191E2,4.988759E0,6.559022E1,1.170066E2,5.7855312E1,2.2480605E0,2.7406986E0,4.289219E1,2.2698029E1,1.1040911E2,6.597492E0,3.606085E1,2.1794466E1,1.1118352E0,1.1362253E0,4.1314903E1,1.5772846E0,2.0161934E1,2.5360942E0,1.07658714E2,2.750393E0,5.478473E0,1.1190187E0,3.2491425E1,3.5694232E0,1.801776E1,3.7767057E0],"tree_param":{"num_deleted":"0","num_feature":"30","num_nodes":"29","size_leaf_vector":"1"}},{"base_weights":[9.846853E-3,2.1073562E-1,-2.644949E-1,3.908589E-1,-4.827219E-3,-1.1402445E-1,-3.9926553E-1,-2.3457897E-1,4.611374E-1,7.572888E-2,-4.3138587E-1,-4.4876775E-1,3.9418407E-2,-4.4585028E-1,5.235493E-1,-2.3414223E-2,3.487068E-2,3.0819995E-2,9.940219E-3,-3.7859902E-3,1.6913246E-2,-3.245234E-2,-4.7778753E-3,-2.6763907E-2,1.4721304E-2,3.7445437E-2,-3.7133887E-3,-2.4140792E-2,1.6481956E-2,7.8437675E-4,3.959375E-2],"categories":[],"categories_nodes":[],"categories_segments":[],"categories_sizes":[],"default_left":[1,1,0,0,0,1,1,0,1,0,1,0,0,1,0,0,0,0,0,0,0,0,0,0,0,0,0,0,0,0,0],"id":29,"left_children":[1,3,5,7,9,11,13,15,17,19,21,23,25,27,29,-1,-1,-1,-1,-1,-1,-1,-1,-1,-1,-1,-1,-1,-1,-1,-1],"loss_changes":[1.670938E1,6.796682E0,2.5538216E0,4.299177E0,2.8039517E0,3.2002983E0,3.123042E0,2.5688496E0,3.382454E0,2.7567449E0,8.8536406E-1,1.4149396E0,3.5566955E0,2.0089226E0,4.9043286E-1,0E0,0E0,0E0,0E0,0E0,0E0,0E0,0E0,0E0,0E0,0E0,0E0,0E0,0E0,0E0,0E0],"parents":[2147483647,0,0,1,1,2,2,3,3,4,4,5,5,6,6,7,7,8,8,9,9,10,10,11,11,12,12,13,13,14,14],"right_children":[2,4,6,8,10,12,14,16,18,20,22,24,26,28,30,-1,-1,-1,-1,-1,-1,-1,-1,-1,-1,-1,-1,-1,-1,-1,-1],"split_conditions":[-2.81E0,1.176E0,9.683E1,-1.015E0,5.6E0,-4E-1,2.06E1,2E0,-1.1931E2,2.5E-1,1.92648E3,8.081E1,3.7395833E0,1.4958333E1,3.25E0,-2.3414223E-2,3.487068E-2,3.0819995E-2,9.940219E-3,-3.7859902E-3,1.6913246E-2,-3.245234E-2,-4.7778753E-3,-2.6763907E-2,1.4721304E-2,3.7445437E-2,-3.7133887E-3,-2.4140792E-2,1.6481956E-2,7.8437675E-4,3.959375E-2],"split_indices":[21,6,21,24,28,26,19,9,21,11,5,21,13,4,17,0,0,0,0,0,0,0,0,0,0,0,0,0,0,0,0],"split_type":[0,0,0,0,0,0,0,0,0,0,0,0,0,0,0,0,0,0,0,0,0,0,0,0,0,0,0,0,0,0,0],"sum_hessian":[3.0117712E2,1.739978E2,1.2717933E2,9.434793E1,7.964988E1,6.096188E1,6.621745E1,9.294495E0,8.505344E1,6.768916E1,1.1960712E1,1.8556118E1,4.240576E1,6.352737E1,2.6900768E0,7.8288784E0,1.4656163E0,5.2582607E1,3.247083E1,4.3377598E1,2.4311571E1,6.6912374E0,5.2694745E0,1.6871927E1,1.6841915E0,5.084847E0,3.7320915E1,6.09972E1,2.5301723E0,1.2958593E0,1.3942175E0],"tree_param":{"num_deleted":"0","num_feature":"30","num_nodes":"31","size_leaf_vector":"1"}},{"base_weights":[-2.9911578E-3,-1.3099998E-1,3.7219444E-1,-3.5608703E-1,-1.0319262E-2,6.603842E-1,2.471292E-1,-4.6404177E-1,-6.663244E-2,4.153023E-1,-6.772961E-2,7.840001E-1,-1.5696427E-2,3.206641E-1,-3.8370574E-1,6.3434998E-3,-2.6239732E-2,3.8841583E-2,-1.214877E-2,-2.5293205E-2,2.6093632E-2,1.6829751E-2,-6.5274746E-3,4.3139752E-2,2.7625295E-4,1.890517E-2,-3.077193E-2,-3.4684423E-2,1.6584365E-2],"categories":[],"categories_nodes":[],"categories_segments":[],"categories_sizes":[],"default_left":[1,1,0,1,1,0,1,0,1,0,1,0,0,1,0,0,0,0,0,0,0,0,0,0,0,0,0,0,0],"id":30,"left_children":[1,3,5,7,9,11,13,15,17,19,21,23,-1,25,27,-1,-1,-1,-1,-1,-1,-1,-1,-1,-1,-1,-1,-1,-1],"loss_changes":[1.5368153E1,6.4767404E0,2.7708378E0,2.5700436E0,3.8481388E0,3.141262E0,2.830592E0,2.236988E0,3.725534E0,2.101824E0,3.5646362E0,1.3212423E0,0E0,3.0726933E0,1.6823142E0,0E0,0E0,0E0,0E0,0E0,0E0,0E0,0E0,0E0,0E0,0E0,0E0,0E0,0E0],"parents":[2147483647,0,0,1,1,2,2,3,3,4,4,5,5,6,6,7,7,8,8,9,9,10,10,11,11,13,13,14,14],"right_children":[2,4,6,8,10,12,14,16,18,20,22,24,-1,26,28,-1,-1,-1,-1,-1,-1,-1,-1,-1,-1,-1,-1,-1,-1],"split_conditions":[1.85654E3,-1.1931E2,2E-1,4.2E0,7.66E-1,1.22E-1,1.88E1,-1.052E0,-8.92E-1,4.14E-1,-5.8E-1,1.342E0,-1.5696427E-2,5E-1,1.0416667E-2,6.3434998E-3,-2.6239732E-2,3.8841583E-2,-1.214877E-2,-2.5293205E-2,2.6093632E-2,1.6829751E-2,-6.5274746E-3,4.3139752E-2,2.7625295E-4,1.890517E-2,-3.077193E-2,-3.4684423E-2,1.6584365E-2],"split_indices":[5,21,20,8,15,25,19,24,25,15,24,24,0,29,22,0,0,0,0,0,0,0,0,0,0,0,0,0,0],"split_type":[0,0,0,0,0,0,0,0,0,0,0,0,0,0,0,0,0,0,0,0,0,0,0,0,0,0,0,0,0],"sum_hessian":[3.1797418E2,2.3756924E2,8.040493E1,8.223618E1,1.5533307E2,2.3037937E1,5.7366997E1,5.9457718E1,2.2778461E1,1.772105E1,1.3761201E2,2.0617432E1,2.4205065E0,5.181834E1,5.5486555E0,5.4416175E0,5.40161E1,3.3499792E0,1.9428482E1,1.4490527E0,1.6271997E1,1.79195E1,1.1969251E2,1.8624048E1,1.9933836E0,4.938421E1,2.4341292E0,3.8924015E0,1.656254E0],"tree_param":{"num_deleted":"0","num_feature":"30","num_nodes":"29","size_leaf_vector":"1"}},{"base_weights":[-9.69827E-3,-1.763161E-1,5.7500828E-2,5.2150893E-1,-2.4843526E-1,3.6165986E-2,7.6395047E-1,-6.299923E-2,5.2812327E-2,-2.8137532E-1,2.8388247E-2,4.507049E-1,-3.6817184E-3,5.3396016E-2,-1.5617619E-4,-2.2561165E-2,2.6318068E-2,-1.9590655E-2,-1.4738508E-3,3.387883E-2,-1.4408678E-2,-1.1159466E-2,3.3351996E-3],"categories":[],"categories_nodes":[],"categories_segments":[],"categories_sizes":[],"default_left":[1,0,0,0,1,0,0,0,0,0,0,0,0,0,0,0,0,0,0,0,0,0,0],"id":31,"left_children":[1,3,5,7,9,11,13,15,-1,17,-1,19,21,-1,-1,-1,-1,-1,-1,-1,-1,-1,-1],"loss_changes":[2.8640456E0,3.8286536E0,2.7213435E0,2.3192883E0,1.9690104E0,2.943466E0,1.2384262E0,1.2413108E0,0E0,1.8064976E0,0E0,2.8146594E0,2.5404763E0,0E0,0E0,0E0,0E0,0E0,0E0,0E0,0E0,0E0,0E0],"parents":[2147483647,0,0,1,1,2,2,3,3,4,4,5,5,6,6,7,7,9,9,11,11,12,12],"right_children":[2,4,6,8,10,12,14,16,-1,18,-1,20,22,-1,-1,-1,-1,-1,-1,-1,-1,-1,-1],"split_conditions":[-2.25E0,-3.3333334E-1,8E-1,5E-1,2.544E0,-1.6E0,1E0,2.5E0,5.2812327E-2,3.5E0,2.8388247E-2,1.85571E3,-3E-1,5.3396016E-2,-1.5617619E-4,-2.2561165E-2,2.6318068E-2,-1.9590655E-2,-1.4738508E-3,3.387883E-2,-1.4408678E-2,-1.1159466E-2,3.3351996E-3],"split_indices":[28,29,11,27,7,28,27,18,0,18,0,14,28,0,0,0,0,0,0,0,0,0,0],"split_type":[0,0,0,0,0,0,0,0,0,0,0,0,0,0,0,0,0,0,0,0,0,0,0],"sum_hessian":[2.5389127E2,7.25018E1,1.8138947E2,6.2074366E0,6.629436E1,1.7709245E2,4.2970133E0,3.3871813E0,2.8202553E0,6.435249E1,1.941865E0,1.4626027E1,1.6246643E2,2.7965999E0,1.5004137E0,2.183349E0,1.2038321E0,4.435211E1,2.0000385E1,1.12535925E1,3.3724341E0,3.8919533E1,1.235469E2],"tree_param":{"num_deleted":"0","num_feature":"30","num_nodes":"23","size_leaf_vector":"1"}},{"base_weights":[-2.42191E-2,1.292399E-1,-3.753345E-1,2.9228267E-1,-3.5809815E-2,-4.008764E-1,2.7842646E-2,3.881925E-1,-7.88643E-2,1.4403555E-1,-2.0634988E-1,-5.9879494E-1,-2.51502E-1,6.6530528E-3,2.6197288E-2,7.4438863E-3,-2.4073204E-2,1.5560918E-3,4.1605998E-2,-1.3772945E-2,2.406891E-2,-8.4094016E-4,-3.236887E-2,-1.5464931E-2,3.6071356E-2],"categories":[],"categories_nodes":[],"categories_segments":[],"categories_sizes":[],"default_left":[1,1,1,1,0,1,0,0,0,0,1,0,0,0,0,0,0,0,0,0,0,0,0,0,0],"id":32,"left_children":[1,3,5,7,9,11,-1,13,15,17,19,21,23,-1,-1,-1,-1,-1,-1,-1,-1,-1,-1,-1,-1],"loss_changes":[1.59852915E1,5.5690756E0,2.3711414E0,3.7334423E0,3.2053788E0,2.4624643E0,0E0,2.7990866E0,2.1064353E0,3.9352639E0,2.678017E0,1.0434961E0,3.152534E0,0E0,0E0,0E0,0E0,0E0,0E0,0E0,0E0,0E0,0E0,0E0,0E0],"parents":[2147483647,0,0,1,1,2,2,3,3,4,4,5,5,7,7,8,8,9,9,10,10,11,11,12,12],"right_children":[2,4,6,8,10,12,-1,14,16,18,20,22,24,-1,-1,-1,-1,-1,-1,-1,-1,-1,-1,-1,-1],"split_conditions":[5.045E1,1.176E0,2.18E1,3.3333334E-1,1.5266666E0,1.94E-1,2.7842646E-2,3.5E-1,-2.102E1,1.30625E1,2.434E0,2.8958333E0,1.596E0,6.6530528E-3,2.6197288E-2,7.4438863E-3,-2.4073204E-2,1.5560918E-3,4.1605998E-2,-1.3772945E-2,2.406891E-2,-8.4094016E-4,-3.236887E-2,-1.5464931E-2,3.6071356E-2],"split_indices":[21,6,19,11,15,24,0,25,21,4,15,4,15,0,0,0,0,0,0,0,0,0,0,0,0],"split_type":[0,0,0,0,0,0,0,0,0,0,0,0,0,0,0,0,0,0,0,0,0,0,0,0,0],"sum_hessian":[2.947729E2,2.0556172E2,8.921119E1,1.0302178E2,1.0253993E2,8.738676E1,1.8244312E0,8.182982E1,2.119196E1,4.998402E1,5.2555916E1,3.6291912E1,5.1094845E1,2.9106989E1,5.272283E1,1.3937836E1,7.2541237E0,4.3835846E1,6.1481733E0,4.8301605E1,4.254309E0,2.8998904E0,3.339202E1,4.8873615E1,2.22123E0],"tree_param":{"num_deleted":"0","num_feature":"30","num_nodes":"25","size_leaf_vector":"1"}},{"base_weights":[6.717153E-3,-1.6088173E-1,2.1452333E-1,-2.765904E-1,5.2046828E-2,1.0785661E-1,4.381367E-1,-9.759077E-2,-4.1210803E-1,5.447199E-1,-7.622671E-2,2.51224E-1,-8.309569E-2,5.0909483E-1,-1.8274847E-1,-2.160117E-2,4.4317134E-3,6.597375E-3,-2.3204647E-2,3.773445E-2,3.7037916E-3,-7.6109776E-3,4.3177336E-2,6.6313627E-3,3.3091914E-2,-1.8095555E-2,1.0265493E-2,1.8391104E-2,4.3354746E-2,-3.0731333E-2,1.8880678E-2],"categories":[],"categories_nodes":[],"categories_segments":[],"categories_sizes":[],"default_left":[1,1,0,0,1,0,1,0,0,0,0,0,0,0,0,0,0,0,0,0,0,0,0,0,0,0,0,0,0,0,0],"id":33,"left_children":[1,3,5,7,9,11,13,15,17,19,21,23,25,27,29,-1,-1,-1,-1,-1,-1,-1,-1,-1,-1,-1,-1,-1,-1,-1,-1],"loss_changes":[1.1071685E1,4.3504925E0,3.3375945E0,2.7296982E0,4.010723E0,2.687481E0,2.0978184E0,3.1840947E0,1.8904676E0,1.2383745E0,3.7529304E0,2.6336014E0,3.4935913E0,1.7597971E0,1.5396525E0,0E0,0E0,0E0,0E0,0E0,0E0,0E0,0E0,0E0,0E0,0E0,0E0,0E0,0E0,0E0,0E0],"parents":[2147483647,0,0,1,1,2,2,3,3,4,4,5,5,6,6,7,7,8,8,9,9,10,10,11,11,12,12,13,13,14,14],"right_children":[2,4,6,8,10,12,14,16,18,20,22,24,26,28,30,-1,-1,-1,-1,-1,-1,-1,-1,-1,-1,-1,-1,-1,-1,-1,-1],"split_conditions":[5.15E0,4.25E0,1.756E0,1.59E0,-1.8854166E0,2.74E-1,1.58E0,-1.1669E2,-9.6E-1,3.2E0,7.54E-1,1.592E0,6.22E-1,-3.92E-1,2.5E-1,-2.160117E-2,4.4317134E-3,6.597375E-3,-2.3204647E-2,3.773445E-2,3.7037916E-3,-7.6109776E-3,4.3177336E-2,6.6313627E-3,3.3091914E-2,-1.8095555E-2,1.0265493E-2,1.8391104E-2,4.3354746E-2,-3.0731333E-2,1.8880678E-2],"split_indices":[21,8,16,7,22,24,15,21,24,9,24,6,24,25,29,0,0,0,0,0,0,0,0,0,0,0,0,0,0,0,0],"split_type":[0,0,0,0,0,0,0,0,0,0,0,0,0,0,0,0,0,0,0,0,0,0,0,0,0,0,0,0,0,0,0],"sum_hessian":[3.159044E2,1.7499448E2,1.4090991E2,1.13187584E2,6.1806885E1,9.640548E1,4.4504436E1,4.9510857E1,6.3676727E1,1.2097243E1,4.970964E1,5.4883324E1,4.152216E1,4.010147E1,4.402963E0,1.723659E1,3.227427E1,5.4195423E0,5.8257187E1,7.947907E0,4.149336E0,4.676603E1,2.9436126E0,4.3610424E1,1.1272902E1,2.0982504E1,2.0539656E1,3.020824E1,9.893232E0,2.4318595E0,1.9711038E0],"tree_param":{"num_deleted":"0","num_feature":"30","num_nodes":"31","size_leaf_vector":"1"}},{"base_weights":[9.222136E-3,2.0710626E-1,-4.0470313E-2,8.9747137E-1,1.00113265E-1,-1.0979005E-1,2.0184636E-1,1.6296488E-1,6.0766082E-2,2.099781E-1,-2.6238358E-1,-3.0829632E-1,2.0169843E-2,-4.159809E-1,3.056193E-1,-1.7281264E-2,3.0432168E-2,-9.363479E-3,1.964986E-2,-2.0164035E-2,1.612985E-2,9.015418E-3,-2.088123E-2,-2.5038223E-3,2.0635167E-2,-2.7036065E-2,5.6552156E-3,2.2782087E-2,-1.6399499E-2],"categories":[],"categories_nodes":[],"categories_segments":[],"categories_sizes":[],"default_left":[1,0,0,0,1,1,0,0,0,0,1,0,0,0,0,0,0,0,0,0,0,0,0,0,0,0,0,0,0],"id":34,"left_children":[1,3,5,7,9,11,13,15,-1,17,19,21,23,25,27,-1,-1,-1,-1,-1,-1,-1,-1,-1,-1,-1,-1,-1,-1],"loss_changes":[2.4342506E0,3.5796976E0,3.3483438E0,1.3289499E0,1.8129569E0,3.995069E0,2.9737265E0,9.1991824E-1,0E0,2.5766683E0,1.0128903E0,3.3465118E0,2.6231525E0,5.105101E-1,3.817697E0,0E0,0E0,0E0,0E0,0E0,0E0,0E0,0E0,0E0,0E0,0E0,0E0,0E0,0E0],"parents":[2147483647,0,0,1,1,2,2,3,3,4,4,5,5,6,6,7,7,9,9,10,10,11,11,12,12,13,13,14,14],"right_children":[2,4,6,8,10,12,14,16,-1,18,20,22,24,26,28,-1,-1,-1,-1,-1,-1,-1,-1,-1,-1,-1,-1,-1,-1],"split_conditions":[1E0,1.6666666E0,5.2E0,1.004E0,1.88821E3,-3.3333334E-1,1.66388E3,1.204E0,6.0766082E-2,-3.3333334E-1,-1.5E0,8.18E-1,2.8E0,2.5E-1,1.1989583E1,-1.7281264E-2,3.0432168E-2,-9.363479E-3,1.964986E-2,-2.0164035E-2,1.612985E-2,9.015418E-3,-2.088123E-2,-2.5038223E-3,2.0635167E-2,-2.7036065E-2,5.6552156E-3,2.2782087E-2,-1.6399499E-2],"split_indices":[16,18,17,15,5,27,5,6,0,29,28,6,28,20,13,0,0,0,0,0,0,0,0,0,0,0,0,0,0],"split_type":[0,0,0,0,0,0,0,0,0,0,0,0,0,0,0,0,0,0,0,0,0,0,0,0,0,0,0,0,0],"sum_hessian":[2.4569818E2,4.867961E1,1.9701857E2,5.540671E0,4.313894E1,1.5361945E2,4.339913E1,2.1303792E0,3.4102917E0,3.34283E1,9.710639E0,6.0237648E1,9.33818E1,5.808545E0,3.7590584E1,1.0998132E0,1.030566E0,1.053613E1,2.289217E1,8.076064E0,1.6345749E0,1.0895365E1,4.9342285E1,7.994718E1,1.3434614E1,4.682563E0,1.1259823E0,3.0621159E1,6.9694276E0],"tree_param":{"num_deleted":"0","num_feature":"30","num_nodes":"29","size_leaf_vector":"1"}},{"base_weights":[-2.4707543E-2,-2.1350251E-1,1.4776994E-1,-8.289928E-2,-4.0456414E-1,-6.263521E-2,3.1707892E-1,-8.345109E-3,-4.916535E-1,-1.10025376E-1,-4.8599005E-1,1.8876266E-1,-2.7735415E-1,-7.834765E-2,4.156701E-1,7.2056926E-3,-1.4740961E-2,6.456665E-3,-3.4610357E-2,1.3414666E-2,-1.9587867E-2,-2.7375882E-2,-4.252548E-3,-8.600344E-3,2.4582084E-2,2.0715954E-2,-2.0805707E-2,1.8006414E-2,-1.3634889E-2,2.3553452E-2,-2.0612389E-2],"categories":[],"categories_nodes":[],"categories_segments":[],"categories_sizes":[],"default_left":[0,1,1,0,0,1,0,0,0,0,0,0,0,1,1,0,0,0,0,0,0,0,0,0,0,0,0,0,0,0,0],"id":35,"left_children":[1,3,5,7,9,11,13,15,17,19,21,23,25,27,29,-1,-1,-1,-1,-1,-1,-1,-1,-1,-1,-1,-1,-1,-1,-1,-1],"loss_changes":[1.0041027E1,3.638628E0,5.763343E0,2.698009E0,1.3733606E0,3.977987E0,3.5219097E0,3.3621745E0,1.7901402E0,1.6162201E0,1.0959873E0,3.8101854E0,3.9757934E0,1.6920885E0,3.4873524E0,0E0,0E0,0E0,0E0,0E0,0E0,0E0,0E0,0E0,0E0,0E0,0E0,0E0,0E0,0E0,0E0],"parents":[2147483647,0,0,1,1,2,2,3,3,4,4,5,5,6,6,7,7,8,8,9,9,10,10,11,11,12,12,13,13,14,14],"right_children":[2,4,6,8,10,12,14,16,18,20,22,24,26,28,30,-1,-1,-1,-1,-1,-1,-1,-1,-1,-1,-1,-1,-1,-1,-1,-1],"split_conditions":[1.24E-1,1.82146E3,1.084E0,1.772E0,3.8125E0,1.184E0,1.054E0,1.852E0,-1.146E0,5E-1,2.8E-2,3.6666667E0,7E-1,-2.4E0,3.7E-1,7.2056926E-3,-1.4740961E-2,6.456665E-3,-3.4610357E-2,1.3414666E-2,-1.9587867E-2,-2.7375882E-2,-4.252548E-3,-8.600344E-3,2.4582084E-2,2.0715954E-2,-2.0805707E-2,1.8006414E-2,-1.3634889E-2,2.3553452E-2,-2.0612389E-2],"split_indices":[25,5,16,15,13,6,15,16,24,26,25,8,16,28,24,0,0,0,0,0,0,0,0,0,0,0,0,0,0,0,0],"split_type":[0,0,0,0,0,0,0,0,0,0,0,0,0,0,0,0,0,0,0,0,0,0,0,0,0,0,0,0,0,0,0],"sum_hessian":[3.063892E2,1.4616174E2,1.6022743E2,8.7668465E1,5.8493286E1,7.1724E1,8.850344E1,7.500791E1,1.266055E1,1.3177621E1,4.5315666E1,3.3095688E1,3.862831E1,1.770362E1,7.079982E1,4.9279003E1,2.5728907E1,3.178389E0,9.482161E0,5.6450143E0,7.532606E0,3.8969814E1,6.3458495E0,1.5301565E1,1.7794123E1,6.1227145E0,3.2505596E1,5.1750755E0,1.2528545E1,6.676346E1,4.0363617E0],"tree_param":{"num_deleted":"0","num_feature":"30","num_nodes":"31","size_leaf_vector":"1"}},{"base_weights":[1.2203604E-2,-1.0056119E-1,3.4597215E-1,-3.0832496E-1,5.07763E-3,6.5434295E-1,2.2189046E-1,-4.2643496E-1,-3.7870076E-2,3.8349003E-1,-4.8422843E-2,9.194747E-2,7.525941E-1,3.228043E-1,-1.4602883E-1,2.8415257E-3,-2.5746932E-2,-1.3616733E-2,2.0984001E-2,-2.8780008E-2,2.6019638E-2,1.5694438E-2,-4.8245993E-3,-1.6736021E-2,2.8341193E-2,2.2147361E-2,4.456889E-2,1.877626E-2,-2.8953124E-2,2.046843E-2,-2.1229817E-2],"categories":[],"categories_nodes":[],"categories_segments":[],"categories_sizes":[],"default_left":[1,1,0,1,1,0,1,0,1,0,1,0,0,0,0,0,0,0,0,0,0,0,0,0,0,0,0,0,0,0,0],"id":36,"left_children":[1,3,5,7,9,11,13,15,17,19,21,23,25,27,29,-1,-1,-1,-1,-1,-1,-1,-1,-1,-1,-1,-1,-1,-1,-1,-1],"loss_changes":[1.1944763E1,5.209877E0,2.9211054E0,2.5394583E0,3.2233722E0,1.1729717E0,2.2249575E0,2.4068165E0,2.8408928E0,2.8888676E0,2.4611905E0,1.0979346E0,4.2157936E-1,2.4209194E0,2.2337153E0,0E0,0E0,0E0,0E0,0E0,0E0,0E0,0E0,0E0,0E0,0E0,0E0,0E0,0E0,0E0,0E0],"parents":[2147483647,0,0,1,1,2,2,3,3,4,4,5,5,6,6,7,7,8,8,9,9,10,10,11,11,12,12,13,13,14,14],"right_children":[2,4,6,8,10,12,14,16,18,20,22,24,26,28,30,-1,-1,-1,-1,-1,-1,-1,-1,-1,-1,-1,-1,-1,-1,-1,-1],"split_conditions":[1.85654E3,-1.1931E2,1.75583E3,1.202E0,7.66E-1,9.6E0,1.7E1,-9.6E-1,1.79682E3,4.5E-1,-5.8E-1,2.108E0,8.86E-1,4.6E0,1.276E0,2.8415257E-3,-2.5746932E-2,-1.3616733E-2,2.0984001E-2,-2.8780008E-2,2.6019638E-2,1.5694438E-2,-4.8245993E-3,-1.6736021E-2,2.8341193E-2,2.2147361E-2,4.456889E-2,1.877626E-2,-2.8953124E-2,2.046843E-2,-2.1229817E-2],"split_indices":[5,21,14,6,15,19,19,24,5,15,24,6,15,9,7,0,0,0,0,0,0,0,0,0,0,0,0,0,0,0,0],"split_type":[0,0,0,0,0,0,0,0,0,0,0,0,0,0,0,0,0,0,0,0,0,0,0,0,0,0,0,0,0,0,0],"sum_hessian":[3.1544028E2,2.3630319E2,7.913709E1,7.900414E1,1.5729904E2,2.1480286E1,5.7656807E1,5.458825E1,2.4415894E1,1.8720404E1,1.3857864E2,3.4824393E0,1.7997847E1,4.5342716E1,1.2314094E1,8.505065E0,4.6083183E1,1.6411083E1,8.004812E0,1.93813E0,1.6782274E1,1.5584398E1,1.2299424E2,1.9897904E0,1.4926488E0,6.8673677E0,1.1130479E1,4.3389866E1,1.9528501E0,3.9564075E0,8.357686E0],"tree_param":{"num_deleted":"0","num_feature":"30","num_nodes":"31","size_leaf_vector":"1"}},{"base_weights":[1.2692769E-2,5.4111566E-2,1.2358383E-3,2.537E-1,-4.4478204E-2,-3.3017245E-1,3.2885116E-1,-1.0976316E-1,2.024786E-1,5.0589866E-3,-2.4637483E-2,3.764564E-2,9.626319E-3,-8.231943E-3,1.7001068E-2,-8.4949186E-4,3.1008745E-2],"categories":[],"categories_nodes":[],"categories_segments":[],"categories_sizes":[],"default_left":[0,0,0,0,1,0,0,1,0,0,0,0,0,0,0,0,0],"id":37,"left_children":[1,-1,3,5,7,9,11,13,15,-1,-1,-1,-1,-1,-1,-1,-1],"loss_changes":[3.0472672E0,0E0,2.863754E0,1.7777662E0,3.4098225E0,3.890633E-1,1.8323832E0,4.1737647E0,4.070049E0,0E0,0E0,0E0,0E0,0E0,0E0,0E0,0E0],"parents":[2147483647,0,0,2,2,3,3,4,4,5,5,6,6,7,7,8,8],"right_children":[2,-1,4,6,8,10,12,14,16,-1,-1,-1,-1,-1,-1,-1,-1],"split_conditions":[4.5E-1,5.4111566E-2,1E0,5.84E-1,5.2E0,2E0,1.094E0,3.8E0,1.4E1,5.0589866E-3,-2.4637483E-2,3.764564E-2,9.626319E-3,-8.231943E-3,1.7001068E-2,-8.4949186E-4,3.1008745E-2],"split_indices":[15,0,16,16,17,9,7,28,19,0,0,0,0,0,0,0,0],"split_type":[0,0,0,0,0,0,0,0,0,0,0,0,0,0,0,0,0],"sum_hessian":[2.4779199E2,1.6356788E0,2.4615631E2,3.704098E1,2.0911533E2,3.836967E0,3.3204018E1,1.6583191E2,4.328342E1,1.153674E0,2.6832929E0,6.9772253E0,2.6226791E1,1.4836472E2,1.7467186E1,2.9003536E1,1.4279883E1],"tree_param":{"num_deleted":"0","num_feature":"30","num_nodes":"17","size_leaf_vector":"1"}},{"base_weights":[2.8246336E-3,1.8760331E-1,-2.5416988E-1,3.8267526E-1,3.4401804E-2,-5.9996736E-1,-1.8566924E-1,-4.293793E-1,4.2525807E-1,-4.66244E-2,5.4445463E-1,-3.208681E-2,-2.885247E-1,4.1438818E-2,-2.1986106E-1,-2.8538218E-2,-4.314368E-3,6.4893113E-3,2.8938988E-2,-4.9601286E-3,3.472341E-2,4.0629663E-2,-2.688095E-2,-2.3319747E-2,4.6102167E-3,-4.3133735E-3,-1.9425202E-2],"categories":[],"categories_nodes":[],"categories_segments":[],"categories_sizes":[],"default_left":[1,1,1,0,1,1,0,0,0,1,0,0,0,0,0,0,0,0,0,0,0,0,0,0,0,0,0],"id":38,"left_children":[1,3,5,7,9,11,13,15,17,19,21,-1,23,-1,25,-1,-1,-1,-1,-1,-1,-1,-1,-1,-1,-1,-1],"loss_changes":[1.40951395E1,5.1468863E0,2.8294954E0,2.8055649E0,4.0675836E0,7.6052666E-2,3.8268118E0,1.5822E-1,3.2170334E0,3.3934872E0,4.349963E0,0E0,3.268452E-1,0E0,2.2743983E0,0E0,0E0,0E0,0E0,0E0,0E0,0E0,0E0,0E0,0E0,0E0,0E0],"parents":[2147483647,0,0,1,1,2,2,3,3,4,4,5,5,6,6,7,7,8,8,9,9,10,10,12,12,14,14],"right_children":[2,4,6,8,10,12,14,16,18,20,22,-1,24,-1,26,-1,-1,-1,-1,-1,-1,-1,-1,-1,-1,-1,-1],"split_conditions":[-2.81E0,1.07E0,8.14E-1,6.5E-1,1.1989583E1,1.68E1,2.5E0,1.99622E3,1.80082E3,4.2E0,1.762E0,-3.208681E-2,1.675E1,4.1438818E-2,1.85445E3,-2.8538218E-2,-4.314368E-3,6.4893113E-3,2.8938988E-2,-4.9601286E-3,3.472341E-2,4.0629663E-2,-2.688095E-2,-2.3319747E-2,4.6102167E-3,-4.3133735E-3,-1.9425202E-2],"split_indices":[21,6,15,16,13,10,17,14,14,18,15,0,19,0,5,0,0,0,0,0,0,0,0,0,0,0,0],"split_type":[0,0,0,0,0,0,0,0,0,0,0,0,0,0,0,0,0,0,0,0,0,0,0,0,0,0,0],"sum_hessian":[2.9481625E2,1.7166173E2,1.2315452E2,7.4853134E1,9.680859E1,1.907973E1,1.0407479E2,3.2770157E0,7.157612E1,8.432193E1,1.2486663E1,1.5888351E1,3.191377E0,2.635726E0,1.01439064E2,1.8507489E0,1.4262668E0,2.5104586E1,4.6471535E1,7.954463E1,4.7773E0,1.020652E1,2.280142E0,2.021814E0,1.1695628E0,5.744472E1,4.399434E1],"tree_param":{"num_deleted":"0","num_feature":"30","num_nodes":"27","size_leaf_vector":"1"}},{"base_weights":[1.4693578E-2,-2.2570811E-1,1.5577038E-1,-3.4025404E-1,1.0137822E-1,4.374483E-1,7.867219E-2,-1.6923787E-1,-5.0434786E-1,-4.252956E-1,3.2184067E-1,5.0087357E-1,-2.812168E-2,3.1282336E-3,3.228472E-1,-2.7672475E-2,-2.5493775E-3,1.669709E-2,-2.6937796E-2,-2.979306E-2,1.4904133E-2,-2.5896078E-2,2.127779E-2,2.9705191E-2,3.8414963E-3,1.2496265E-2,-4.2888406E-3,3.1487495E-2,3.8232976E-3],"categories":[],"categories_nodes":[],"categories_segments":[],"categories_sizes":[],"default_left":[1,1,1,1,1,1,0,0,1,1,0,1,0,0,0,0,0,0,0,0,0,0,0,0,0,0,0,0,0],"id":39,"left_children":[1,3,5,7,9,11,13,15,17,19,21,23,-1,25,27,-1,-1,-1,-1,-1,-1,-1,-1,-1,-1,-1,-1,-1,-1],"loss_changes":[1.0366883E1,4.2707143E0,4.147551E0,2.2710857E0,3.63145E0,2.8921137E0,2.810258E0,1.9082786E0,1.4013834E0,1.3265101E0,2.117796E0,1.5054865E0,0E0,2.597474E0,2.674065E0,0E0,0E0,0E0,0E0,0E0,0E0,0E0,0E0,0E0,0E0,0E0,0E0,0E0,0E0],"parents":[2147483647,0,0,1,1,2,2,3,3,4,4,5,5,6,6,7,7,8,8,9,9,10,10,11,11,13,13,14,14],"right_children":[2,4,6,8,10,12,14,16,18,20,22,24,-1,26,28,-1,-1,-1,-1,-1,-1,-1,-1,-1,-1,-1,-1,-1,-1],"split_conditions":[-7.311E1,1.79638E3,-1.0416666E0,3.3333334E-1,3.8E0,2.138E0,1.834E0,1.02E1,2.8020833E0,1.708E0,7.8E0,9.208333E0,-2.812168E-2,9.8E0,6.25E0,-2.7672475E-2,-2.5493775E-3,1.669709E-2,-2.6937796E-2,-2.979306E-2,1.4904133E-2,-2.5896078E-2,2.127779E-2,2.9705191E-2,3.8414963E-3,1.2496265E-2,-4.2888406E-3,3.1487495E-2,3.8232976E-3],"split_indices":[21,5,22,20,8,7,16,10,13,16,19,13,0,10,13,0,0,0,0,0,0,0,0,0,0,0,0,0,0],"split_type":[0,0,0,0,0,0,0,0,0,0,0,0,0,0,0,0,0,0,0,0,0,0,0,0,0,0,0,0,0],"sum_hessian":[3.0363495E2,1.1206716E2,1.9156778E2,8.297055E1,2.9096619E1,4.016203E1,1.5140575E2,4.162301E1,4.134754E1,8.311574E0,2.0785044E1,3.82357E1,1.9263291E0,1.1640473E2,3.500101E1,8.929502E0,3.2693504E1,1.2869922E0,4.0060547E1,6.868361E0,1.4432132E0,1.845849E0,1.8939194E1,3.1015574E1,7.220127E0,3.034818E1,8.605655E1,1.4893301E1,2.010771E1],"tree_param":{"num_deleted":"0","num_feature":"30","num_nodes":"29","size_leaf_vector":"1"}},{"base_weights":[4.8041213E-3,-1.9800533E-1,6.2150914E-2,7.8983206E-1,-3.0856594E-1,4.357962E-2,8.91569E-1,5.2980382E-2,7.6246375E-5,-1.3373755E-1,-5.279971E-1,-2.2458178E-1,9.993562E-2,5.7397038E-2,5.3204773E-3,3.598964E-2,-1.0243459E-2,-3.0723348E-2,9.328369E-3,1.7105674E-2,-1.8821442E-2,3.6044174E-3,4.2341422E-2],"categories":[],"categories_nodes":[],"categories_segments":[],"categories_sizes":[],"default_left":[1,0,1,0,1,0,0,0,0,0,0,0,1,0,0,0,0,0,0,0,0,0,0],"id":40,"left_children":[1,3,5,7,9,11,13,-1,-1,15,17,19,21,-1,-1,-1,-1,-1,-1,-1,-1,-1,-1],"loss_changes":[2.9067247E0,6.261158E0,2.9612339E0,1.2375369E0,1.8578849E0,2.9173079E0,7.2611785E-1,0E0,0E0,1.9274316E0,1.4710321E0,3.01781E0,3.2455842E0,0E0,0E0,0E0,0E0,0E0,0E0,0E0,0E0,0E0,0E0],"parents":[2147483647,0,0,1,1,2,2,3,3,4,4,5,5,6,6,9,9,10,10,11,11,12,12],"right_children":[2,4,6,8,10,12,14,-1,-1,16,18,20,22,-1,-1,-1,-1,-1,-1,-1,-1,-1,-1],"split_conditions":[9.8E0,-3.3333334E-1,1.3633333E0,9.2E0,4.2E0,3.25E0,1.322E0,5.2980382E-2,7.6246375E-5,7.36E-1,2E0,1.16E1,5E-1,5.7397038E-2,5.3204773E-3,3.598964E-2,-1.0243459E-2,-3.0723348E-2,9.328369E-3,1.7105674E-2,-1.8821442E-2,3.6044174E-3,4.2341422E-2],"split_indices":[10,29,24,10,8,17,7,0,0,16,27,10,29,0,0,0,0,0,0,0,0,0,0],"split_type":[0,0,0,0,0,0,0,0,0,0,0,0,0,0,0,0,0,0,0,0,0,0,0],"sum_hessian":[2.478651E2,5.409676E1,1.9376834E2,4.8267565E0,4.927E1,1.9055423E2,3.21411E0,3.3396878E0,1.4870684E0,2.8317743E1,2.095226E1,3.2573444E1,1.5798079E2,2.074645E0,1.1394646E0,1.4768922E0,2.684085E1,1.881547E1,2.1367898E0,6.6188374E0,2.5954605E1,1.5335942E2,4.6213613E0],"tree_param":{"num_deleted":"0","num_feature":"30","num_nodes":"23","size_leaf_vector":"1"}},{"base_weights":[1.148711E-2,2.1148601E-1,-2.1177009E-1,4.0985945E-1,4.1698426E-2,-8.0184385E-2,-3.4387523E-1,-1.2923508E-2,4.8800263E-1,4.721064E-1,-1.0869234E-1,1.0329475E-2,-4.644519E-1,-3.8920596E-1,1.3488024E-1,1.4904519E-2,-3.2098707E-2,2.7907163E-2,-2.6401046E-3,5.0883483E-2,3.635315E-3,-8.152968E-3,2.3786038E-2,5.063726E-3,-2.6314601E-2,1.1719867E-2,-2.9463246E-2,-2.1162322E-2,1.4601148E-2,-2.4275338E-2,2.9196516E-2],"categories":[],"categories_nodes":[],"categories_segments":[],"categories_sizes":[],"default_left":[1,0,0,0,1,1,1,0,1,0,1,1,0,1,0,0,0,0,0,0,0,0,0,0,0,0,0,0,0,0,0],"id":41,"left_children":[1,3,5,7,9,11,13,15,17,19,21,23,25,27,29,-1,-1,-1,-1,-1,-1,-1,-1,-1,-1,-1,-1,-1,-1,-1,-1],"loss_changes":[1.317348E1,5.223484E0,2.396246E0,2.373208E0,5.550085E0,2.4798145E0,1.5559483E0,2.5684867E0,2.324091E0,4.759849E0,2.103601E0,2.9117544E0,1.3233182E0,1.5970831E0,2.159676E0,0E0,0E0,0E0,0E0,0E0,0E0,0E0,0E0,0E0,0E0,0E0,0E0,0E0,0E0,0E0,0E0],"parents":[2147483647,0,0,1,1,2,2,3,3,4,4,5,5,6,6,7,7,8,8,9,9,10,10,11,11,12,12,13,13,14,14],"right_children":[2,4,6,8,10,12,14,16,18,20,22,24,26,28,30,-1,-1,-1,-1,-1,-1,-1,-1,-1,-1,-1,-1,-1,-1,-1,-1],"split_conditions":[-2.102E1,1.444E0,8.414E1,1.75022E3,1.02E1,9.145833E0,1.4E1,1.73158E3,1.652E0,6.875E-1,5.05E0,1.834E0,-1.3333334E0,2.15E0,4.2E0,1.4904519E-2,-3.2098707E-2,2.7907163E-2,-2.6401046E-3,5.0883483E-2,3.635315E-3,-8.152968E-3,2.3786038E-2,5.063726E-3,-2.6314601E-2,1.1719867E-2,-2.9463246E-2,-2.1162322E-2,1.4601148E-2,-2.4275338E-2,2.9196516E-2],"split_indices":[21,15,21,14,10,4,4,14,6,22,28,16,27,7,17,0,0,0,0,0,0,0,0,0,0,0,0,0,0,0,0],"split_type":[0,0,0,0,0,0,0,0,0,0,0,0,0,0,0,0,0,0,0,0,0,0,0,0,0,0,0,0,0,0,0],"sum_hessian":[2.9302783E2,1.5459279E2,1.3843503E2,7.064264E1,8.395016E1,7.0158936E1,6.827609E1,1.1150268E1,5.9492367E1,2.1183952E1,6.27662E1,5.757121E1,1.2587727E1,6.2541435E1,5.734659E0,7.8133388E0,3.3369284E0,5.2633865E1,6.858505E0,8.299373E0,1.2884579E1,5.808375E1,4.6824512E0,4.992187E1,7.6493387E0,1.7744262E0,1.08133E1,5.9925697E1,2.6157405E0,2.373859E0,3.3608005E0],"tree_param":{"num_deleted":"0","num_feature":"30","num_nodes":"31","size_leaf_vector":"1"}},{"base_weights":[-2.5843795E-2,-2.2012652E-1,1.3978189E-1,-3.4291312E-1,-5.9863254E-2,1.0653459E-1,3.870555E-2,2.0215756E-1,-4.052497E-1,-2.6395285E-1,2.7269644E-1,4.821943E-1,7.012694E-2,-2.133233E-2,4.4467922E-2,-2.2408092E-2,3.2628577E-2,-2.257774E-3,-2.5616227E-2,4.3099064E-2,6.730575E-3,4.092823E-2,-1.1334686E-2,-1.0978689E-3,1.0621272E-2],"categories":[],"categories_nodes":[],"categories_segments":[],"categories_sizes":[],"default_left":[1,1,0,0,0,1,0,0,1,0,0,1,0,0,0,0,0,0,0,0,0,0,0,0,0],"id":42,"left_children":[1,3,5,7,9,11,-1,13,15,17,19,21,23,-1,-1,-1,-1,-1,-1,-1,-1,-1,-1,-1,-1],"loss_changes":[1.0163814E1,2.8387818E0,3.5154462E0,2.8701315E0,4.432342E0,2.1991222E0,0E0,4.3068175E0,3.6502438E0,2.1679723E0,1.9120712E0,3.5845914E0,1.9702989E0,0E0,0E0,0E0,0E0,0E0,0E0,0E0,0E0,0E0,0E0,0E0,0E0],"parents":[2147483647,0,0,1,1,2,2,3,3,4,4,5,5,7,7,8,8,9,9,10,10,11,11,12,12],"right_children":[2,4,6,8,10,12,-1,14,16,18,20,22,24,-1,-1,-1,-1,-1,-1,-1,-1,-1,-1,-1,-1],"split_conditions":[-2.561E1,1.202E0,2.9385E2,-1.015E0,1.0416666E0,2.8854167E0,3.870555E-2,1.28E1,1.63125E1,1.18E1,9.94E-1,6E-1,1.84422E3,-2.133233E-2,4.4467922E-2,-2.2408092E-2,3.2628577E-2,-2.257774E-3,-2.5616227E-2,4.3099064E-2,6.730575E-3,4.092823E-2,-1.1334686E-2,-1.0978689E-3,1.0621272E-2],"split_indices":[21,6,21,24,22,4,0,10,13,19,7,11,5,0,0,0,0,0,0,0,0,0,0,0,0],"split_type":[0,0,0,0,0,0,0,0,0,0,0,0,0,0,0,0,0,0,0,0,0,0,0,0,0],"sum_hessian":[3.139039E2,1.4430351E2,1.6960039E2,8.105958E1,6.324394E1,1.6226357E2,7.3368263E0,8.088734E0,7.297084E1,3.931989E1,2.3924047E1,1.3254746E1,1.4900882E2,4.421821E0,3.6669123E0,7.067994E1,2.2909052E0,2.1532833E1,1.7787056E1,3.546551E0,2.0377497E1,8.884363E0,4.3703837E0,9.0979675E1,5.8029144E1],"tree_param":{"num_deleted":"0","num_feature":"30","num_nodes":"25","size_leaf_vector":"1"}},{"base_weights":[-2.0159136E-3,5.327798E-2,-2.1182889E-1,3.4984443E-1,4.3208576E-3,-3.0676916E-2,-1.7075561E-2,7.369793E-2,7.874769E-1,-5.0480556E-2,2.7039805E-1,-2.728346E-1,4.6866432E-1,-1.26380725E-2,2.582987E-2,-2.1157052E-2,5.412087E-2,-3.7230067E-3,2.9651461E-2,-1.6996032E-3,4.2755645E-2,-2.4235256E-2,3.0583718E-3,3.9726075E-2,-1.4958975E-2],"categories":[],"categories_nodes":[],"categories_segments":[],"categories_sizes":[],"default_left":[0,0,0,0,0,0,1,0,0,0,0,0,0,0,0,0,0,0,0,0,0,0,0,0,0],"id":43,"left_children":[1,3,5,7,9,-1,11,13,15,17,19,21,23,-1,-1,-1,-1,-1,-1,-1,-1,-1,-1,-1,-1],"loss_changes":[2.880585E0,2.8520339E0,4.040951E0,3.305834E0,2.488162E0,0E0,4.5885167E0,2.7576673E0,4.266247E0,2.2286303E0,5.215476E0,1.738846E0,3.4284992E0,0E0,0E0,0E0,0E0,0E0,0E0,0E0,0E0,0E0,0E0,0E0,0E0],"parents":[2147483647,0,0,1,1,2,2,3,3,4,4,6,6,7,7,8,8,9,9,10,10,11,11,12,12],"right_children":[2,4,6,8,10,-1,12,14,16,18,20,22,24,-1,-1,-1,-1,-1,-1,-1,-1,-1,-1,-1,-1],"split_conditions":[1.77E0,9.2E0,1.075E1,8.6E0,1.552E0,-3.0676916E-2,-8E-1,0E0,-1E0,7.5E-1,1.68E1,2.75E0,1.776E0,-1.26380725E-2,2.582987E-2,-2.1157052E-2,5.412087E-2,-3.7230067E-3,2.9651461E-2,-1.6996032E-3,4.2755645E-2,-2.4235256E-2,3.0583718E-3,3.9726075E-2,-1.4958975E-2],"split_indices":[6,19,19,19,6,0,28,27,22,11,10,18,15,0,0,0,0,0,0,0,0,0,0,0,0],"split_type":[0,0,0,0,0,0,0,0,0,0,0,0,0,0,0,0,0,0,0,0,0,0,0,0,0],"sum_hessian":[2.4632404E2,1.9553818E2,5.078586E1,2.6834927E1,1.6870325E2,1.588017E1,3.490569E1,1.7169413E1,9.665514E0,1.4056308E2,2.8140173E1,2.3153088E1,1.17526E1,1.0131113E1,7.0382996E0,1.8083329E0,7.8571806E0,1.3636586E2,4.197211E0,1.9125639E1,9.014535E0,1.389056E1,9.262527E0,8.22664E0,3.5259604E0],"tree_param":{"num_deleted":"0","num_feature":"30","num_nodes":"25","size_leaf_vector":"1"}},{"base_weights":[-1.3136136E-2,1.0548459E-1,-4.055646E-1,4.1145033E-1,3.6177028E-2,-5.8066016E-1,-2.476768E-1,5.2093035E-1,-2.1792696E-1,-1.08034626E-1,1.9628601E-1,-3.8288122E-3,-6.091534E-1,-4.181067E-1,1.3391887E-1,-2.3950776E-2,2.8757004E-2,-3.0963344E-2,1.2947339E-2,-1.8920531E-2,2.50793E-3,4.1563075E-2,7.4521154E-3,-3.2007884E-2,-1.0283684E-2,-3.071563E-2,-1.1422024E-2,-2.3680354E-2,4.0749747E-2],"categories":[],"categories_nodes":[],"categories_segments":[],"categories_sizes":[],"default_left":[1,1,1,0,1,0,0,0,0,1,0,0,1,0,0,0,0,0,0,0,0,0,0,0,0,0,0,0,0],"id":44,"left_children":[1,3,5,7,9,11,13,15,17,19,21,-1,23,25,27,-1,-1,-1,-1,-1,-1,-1,-1,-1,-1,-1,-1,-1,-1],"loss_changes":[1.3728694E1,4.7893896E0,1.7484655E0,2.9899406E0,4.3114877E0,4.0882778E-1,2.5101998E0,2.219057E0,1.4791428E0,4.227856E0,2.5281897E0,0E0,2.4201488E-1,8.3944654E-1,5.5200686E0,0E0,0E0,0E0,0E0,0E0,0E0,0E0,0E0,0E0,0E0,0E0,0E0,0E0,0E0],"parents":[2147483647,0,0,1,1,2,2,3,3,4,4,5,5,6,6,7,7,8,8,9,9,10,10,12,12,13,13,14,14],"right_children":[2,4,6,8,10,12,14,16,18,20,22,-1,24,26,28,-1,-1,-1,-1,-1,-1,-1,-1,-1,-1,-1,-1,-1,-1],"split_conditions":[8.414E1,1.63362E3,6.1458335E0,3.6666667E0,1.22E-1,2.3333333E0,5E-2,1E0,1.014E0,-1E0,-3.8E0,-3.8288122E-3,6.6E0,3.1E-1,1.90411E3,-2.3950776E-2,2.8757004E-2,-3.0963344E-2,1.2947339E-2,-1.8920531E-2,2.50793E-3,4.1563075E-2,7.4521154E-3,-3.2007884E-2,-1.0283684E-2,-3.071563E-2,-1.1422024E-2,-2.3680354E-2,4.0749747E-2],"split_indices":[21,5,13,18,25,17,25,18,6,26,28,0,8,24,5,0,0,0,0,0,0,0,0,0,0,0,0,0,0],"split_type":[0,0,0,0,0,0,0,0,0,0,0,0,0,0,0,0,0,0,0,0,0,0,0,0,0,0,0,0,0],"sum_hessian":[2.9300363E2,2.255554E2,6.744822E1,4.0745113E1,1.8481029E2,3.0711683E1,3.6736538E1,3.4854492E1,5.890622E0,9.740339E1,8.74069E1,1.840381E0,2.8871304E1,2.5328524E1,1.1408014E1,1.3894019E0,3.346509E1,3.0364933E0,2.8541288E0,3.543964E1,6.1963753E1,4.9037137E0,8.250318E1,2.6266348E1,2.604955E0,1.1349146E1,1.3979378E1,6.1905804E0,5.2174335E0],"tree_param":{"num_deleted":"0","num_feature":"30","num_nodes":"29","size_leaf_vector":"1"}},{"base_weights":[9.587353E-3,-9.557752E-2,3.022642E-1,-3.031869E-1,1.4548204E-2,5.80358E-1,1.8154599E-1,-4.151133E-1,-2.4164243E-2,4.0902868E-2,-3.3454206E-2,6.902151E-1,-1.5523872E-2,-4.918118E-1,2.3399927E-1,4.055739E-3,-2.5071865E-2,-2.602244E-2,1.1802982E-2,1.7965963E-2,-5.267389E-4,2.125469E-2,4.166513E-2,-3.180257E-2,-1.9241732E-3,-5.8958805E-3,1.6701182E-2],"categories":[],"categories_nodes":[],"categories_segments":[],"categories_sizes":[],"default_left":[1,1,0,1,1,0,0,0,0,1,0,0,0,0,0,0,0,0,0,0,0,0,0,0,0,0,0],"id":45,"left_children":[1,3,5,7,9,11,13,15,17,19,-1,21,-1,23,25,-1,-1,-1,-1,-1,-1,-1,-1,-1,-1,-1,-1],"loss_changes":[9.687181E0,5.2996063E0,2.6873221E0,2.4983263E0,2.7710755E0,2.6340132E0,2.2152798E0,2.4935827E0,3.2296522E0,2.420853E0,0E0,4.9252987E-1,0E0,2.7759123E-1,2.0050619E0,0E0,0E0,0E0,0E0,0E0,0E0,0E0,0E0,0E0,0E0,0E0,0E0],"parents":[2147483647,0,0,1,1,2,2,3,3,4,4,5,5,6,6,7,7,8,8,9,9,11,11,13,13,14,14],"right_children":[2,4,6,8,10,12,14,16,18,20,-1,22,-1,24,26,-1,-1,-1,-1,-1,-1,-1,-1,-1,-1,-1,-1],"split_conditions":[1.85654E3,-1.1931E2,2E-1,4.2E0,5.4E0,1.22E-1,-6.94E-1,-9.6E-1,1.436E0,-5.8E-1,-3.3454206E-2,1.058E0,-1.5523872E-2,1.294E0,4.1041665E0,4.055739E-3,-2.5071865E-2,-2.602244E-2,1.1802982E-2,1.7965963E-2,-5.267389E-4,2.125469E-2,4.166513E-2,-3.180257E-2,-1.9241732E-3,-5.8958805E-3,1.6701182E-2],"split_indices":[5,21,20,8,28,25,24,24,15,24,0,7,0,16,13,0,0,0,0,0,0,0,0,0,0,0,0],"split_type":[0,0,0,0,0,0,0,0,0,0,0,0,0,0,0,0,0,0,0,0,0,0,0,0,0,0,0],"sum_hessian":[3.127915E2,2.306041E2,8.218741E1,7.9318855E1,1.5128525E2,2.3725159E1,5.846225E1,5.626223E1,2.3056627E1,1.4657481E2,4.7104273E0,2.1321068E1,2.404092E0,3.6196449E0,5.4842606E1,8.346019E0,4.791621E1,7.5870404E0,1.5469587E1,1.9552526E1,1.27022285E2,8.8654585E0,1.2455609E1,2.4401658E0,1.179479E0,1.2098266E1,4.274434E1],"tree_param":{"num_deleted":"0","num_feature":"30","num_nodes":"27","size_leaf_vector":"1"}},{"base_weights":[3.278506E-3,6.1507277E-2,-2.0263404E-1,-4.186058E-3,3.1639317E-1,-3.214674E-1,1.9671908E-1,-6.235768E-2,3.9183027E-1,-3.9763698E-1,4.3943313E-1,3.479942E-1,-3.7354097E-1,-2.6073102E-2,5.8332026E-1,-2.1757765E-2,8.8780094E-4,3.2219406E-2,-4.3611503E-3,5.60606E-3,-2.6399432E-2,2.6491717E-2,-2.4059417E-2,-1.6575463E-2,3.7884954E-2,1.6838323E-2,-2.0683175E-2,4.347802E-2,-2.034953E-2],"categories":[],"categories_nodes":[],"categories_segments":[],"categories_sizes":[],"default_left":[0,1,1,0,0,0,0,0,0,0,0,0,0,0,1,0,0,0,0,0,0,0,0,0,0,0,0,0,0],"id":46,"left_children":[1,3,5,7,9,11,13,15,17,19,21,23,25,-1,27,-1,-1,-1,-1,-1,-1,-1,-1,-1,-1,-1,-1,-1,-1],"loss_changes":[2.989845E0,3.2555323E0,2.6721194E0,3.6068654E0,3.6747448E0,1.6201978E0,3.9767492E0,4.0830827E0,2.4825768E0,4.8319066E-1,3.1227264E0,1.2541785E0,1.2833877E0,0E0,2.9251306E0,0E0,0E0,0E0,0E0,0E0,0E0,0E0,0E0,0E0,0E0,0E0,0E0,0E0,0E0],"parents":[2147483647,0,0,1,1,2,2,3,3,4,4,5,5,6,6,7,7,8,8,9,9,10,10,11,11,12,12,14,14],"right_children":[2,4,6,8,10,12,14,16,18,20,22,24,26,-1,28,-1,-1,-1,-1,-1,-1,-1,-1,-1,-1,-1,-1,-1,-1],"split_conditions":[1.764E0,5.4E0,6E0,3E0,1.66388E3,-1.1458334E0,1.025E1,-2.25E0,1.86287E3,5.5E0,5.8E0,5.8958335E0,1.64906E3,-2.6073102E-2,8.0625E0,-2.1757765E-2,8.8780094E-4,3.2219406E-2,-4.3611503E-3,5.60606E-3,-2.6399432E-2,2.6491717E-2,-2.4059417E-2,-1.6575463E-2,3.7884954E-2,1.6838323E-2,-2.0683175E-2,4.347802E-2,-2.034953E-2],"split_indices":[6,17,8,9,5,22,19,28,5,17,8,4,5,0,13,0,0,0,0,0,0,0,0,0,0,0,0,0,0],"split_type":[0,0,0,0,0,0,0,0,0,0,0,0,0,0,0,0,0,0,0,0,0,0,0,0,0,0,0,0,0],"sum_hessian":[2.4732133E2,1.9334715E2,5.3974182E1,1.5450833E2,3.883882E1,4.1746834E1,1.2227351E1,1.354538E2,1.9054539E1,5.380828E0,3.3457993E1,2.6027627E0,3.914407E1,4.1566997E0,8.070652E0,2.3175978E1,1.1227782E2,1.2250777E1,6.803761E0,1.1242292E0,4.256599E0,3.0852854E1,2.6051404E0,1.0508183E0,1.5519444E0,1.6975813E0,3.7446487E1,6.355567E0,1.7150851E0],"tree_param":{"num_deleted":"0","num_feature":"30","num_nodes":"29","size_leaf_vector":"1"}},{"base_weights":[9.367499E-3,1.2157903E-1,-3.7156105E-1,2.882692E-1,3.94147E-3,-4.1411522E-1,3.9424342E-1,3.9088506E-2,4.5020816E-1,7.04643E-2,-4.1079417E-1,1.253679E-1,-4.4683957E-1,9.6007343E-4,2.7971035E-2,2.1530887E-2,-7.5292336E-3,-1.8883744E-3,3.389472E-2,1.8174265E-3,3.1657618E-2,-2.4751412E-2,1.9419288E-2,3.190626E-2,-2.09776E-2,5.935691E-3,-2.41702E-2],"categories":[],"categories_nodes":[],"categories_segments":[],"categories_sizes":[],"default_left":[1,1,1,0,0,0,0,0,0,0,1,0,0,0,0,0,0,0,0,0,0,0,0,0,0,0,0],"id":47,"left_children":[1,3,5,7,9,11,13,15,17,19,21,23,25,-1,-1,-1,-1,-1,-1,-1,-1,-1,-1,-1,-1,-1,-1],"loss_changes":[1.2788383E1,4.5293584E0,2.3819723E0,3.8391309E0,3.7939122E0,1.2033129E0,2.430225E-1,2.941971E0,6.451311E0,2.2509086E0,1.4719429E0,1.5243758E0,1.3289347E0,0E0,0E0,0E0,0E0,0E0,0E0,0E0,0E0,0E0,0E0,0E0,0E0,0E0,0E0],"parents":[2147483647,0,0,1,1,2,2,3,3,4,4,5,5,6,6,7,7,8,8,9,9,10,10,11,11,12,12],"right_children":[2,4,6,8,10,12,14,16,18,20,22,24,26,-1,-1,-1,-1,-1,-1,-1,-1,-1,-1,-1,-1,-1,-1],"split_conditions":[8.414E1,1.064E0,2.06E1,1.80082E3,7.3E-1,-3.2395833E0,1.92347E3,-1.3333334E-1,8.3E-1,2.434E0,2.8E0,7.0104165E0,-1.4E0,9.6007343E-4,2.7971035E-2,2.1530887E-2,-7.5292336E-3,-1.8883744E-3,3.389472E-2,1.8174265E-3,3.1657618E-2,-2.4751412E-2,1.9419288E-2,3.190626E-2,-2.09776E-2,5.935691E-3,-2.41702E-2],"split_indices":[21,6,19,14,24,22,5,29,6,15,27,13,26,0,0,0,0,0,0,0,0,0,0,0,0,0,0],"split_type":[0,0,0,0,0,0,0,0,0,0,0,0,0,0,0,0,0,0,0,0,0,0,0,0,0,0,0],"sum_hessian":[2.9712457E2,2.3004128E2,6.7083275E1,9.4576996E1,1.3546428E2,6.3986897E1,3.0963795E0,3.7742607E1,5.683439E1,1.1745484E2,1.8009441E1,3.4974835E0,6.0489414E1,1.2880518E0,1.8083277E0,1.1902593E1,2.5840015E1,1.834711E1,3.848728E1,1.1174438E2,5.710462E0,1.663652E1,1.3729196E0,1.7137963E0,1.7836871E0,3.5368648E0,5.695255E1],"tree_param":{"num_deleted":"0","num_feature":"30","num_nodes":"27","size_leaf_vector":"1"}},{"base_weights":[-1.1211213E-2,-1.0957719E-1,2.7947262E-1,-3.0937326E-1,-1.209918E-2,-1.09729975E-1,3.4294745E-1,-3.883341E-1,1.570276E-2,3.773824E-1,-6.579219E-2,-5.4416037E-1,3.2392502E-1,5.221157E-1,1.7667001E-1,-1.1382365E-3,-2.226694E-2,-1.6239049E-2,3.095924E-2,2.8449213E-2,-2.0563876E-2,-2.997219E-2,-1.1103232E-3,-3.352718E-2,-3.2603927E-3,3.181629E-2,-2.373241E-2,3.041464E-2,-1.8472478E-2,-3.89879E-3,2.091918E-2],"categories":[],"categories_nodes":[],"categories_segments":[],"categories_sizes":[],"default_left":[1,1,0,1,1,0,0,0,0,1,0,0,0,0,0,0,0,0,0,0,0,0,0,0,0,0,0,0,0,0,0],"id":48,"left_children":[1,3,5,7,9,11,13,15,17,19,21,23,25,27,29,-1,-1,-1,-1,-1,-1,-1,-1,-1,-1,-1,-1,-1,-1,-1,-1],"loss_changes":[8.896638E0,4.5222764E0,1.9813676E0,1.9610553E0,3.312902E0,2.3974314E0,1.930285E0,1.2676525E0,3.4569726E0,3.1349633E0,3.2205327E0,3.3537936E-1,1.9303905E0,2.6961632E0,2.292954E0,0E0,0E0,0E0,0E0,0E0,0E0,0E0,0E0,0E0,0E0,0E0,0E0,0E0,0E0,0E0,0E0],"parents":[2147483647,0,0,1,1,2,2,3,3,4,4,5,5,6,6,7,7,8,8,9,9,10,10,11,11,12,12,13,13,14,14],"right_children":[2,4,6,8,10,12,14,16,18,20,22,24,26,28,30,-1,-1,-1,-1,-1,-1,-1,-1,-1,-1,-1,-1,-1,-1,-1,-1],