{"learner":{"attributes":{"scikit_learn":"{\"_estimator_type\": \"classifier\"}"},"feature_names":["is_cup_match","is_european_match","is_premier_league_match","home_last5_matches","home_days_rest","home_current_elo","home_last5_avg_xg","home_last5_avg_xga","home_last5_avg_shots_on_target","home_last5_avg_big_chances","home_last5_avg_tackles_won","home_last5_clean_sheet_rate","away_last5_matches","away_days_rest","away_current_elo","away_last5_avg_xg","away_last5_avg_xga","away_last5_avg_shots_on_target","away_last5_avg_big_chances","away_last5_avg_tackles_won","away_last5_clean_sheet_rate","elo_diff","days_rest_diff","last5_matches_diff","last5_avg_xg_diff","last5_avg_xga_diff","last5_avg_shots_on_target_diff","last5_avg_big_chances_diff","last5_avg_tackles_won_diff","last5_clean_sheet_rate_diff"],"feature_types":["int","int","int","int","float","float","float","float","float","float","float","float","int","float","float","float","float","float","float","float","float","float","float","int","float","float","float","float","float","float"],"gradient_booster":{"model":{"cats":{"enc":[],"feature_segments":[],"sorted_idx":[]},"gbtree_model_param":{"num_parallel_tree":"1","num_trees":"1200"},"iteration_indptr":[0,3,6,9,12,15,18,21,24,27,30,33,36,39,42,45,48,51,54,57,60,63,66,69,72,75,78,81,84,87,90,93,96,99,102,105,108,111,114,117,120,123,126,129,132,135,138,141,144,147,150,153,156,159,162,165,168,171,174,177,180,183,186,189,192,195,198,201,204,207,210,213,216,219,222,225,228,231,234,237,240,243,246,249,252,255,258,261,264,267,270,273,276,279,282,285,288,291,294,297,300,303,306,309,312,315,318,321,324,327,330,333,336,339,342,345,348,351,354,357,360,363,366,369,372,375,378,381,384,387,390,393,396,399,402,405,408,411,414,417,420,423,426,429,432,435,438,441,444,447,450,453,456,459,462,465,468,471,474,477,480,483,486,489,492,495,498,501,504,507,510,513,516,519,522,525,528,531,534,537,540,543,546,549,552,555,558,561,564,567,570,573,576,579,582,585,588,591,594,597,600,603,606,609,612,615,618,621,624,627,630,633,636,639,642,645,648,651,654,657,660,663,666,669,672,675,678,681,684,687,690,693,696,699,702,705,708,711,714,717,720,723,726,729,732,735,738,741,744,747,750,753,756,759,762,765,768,771,774,777,780,783,786,789,792,795,798,801,804,807,810,813,816,819,822,825,828,831,834,837,840,843,846,849,852,855,858,861,864,867,870,873,876,879,882,885,888,891,894,897,900,903,906,909,912,915,918,921,924,927,930,933,936,939,942,945,948,951,954,957,960,963,966,969,972,975,978,981,984,987,990,993,996,999,1002,1005,1008,1011,1014,1017,1020,1023,1026,1029,1032,1035,1038,1041,1044,1047,1050,1053,1056,1059,1062,1065,1068,1071,1074,1077,1080,1083,1086,1089,1092,1095,1098,1101,1104,1107,1110,1113,1116,1119,1122,1125,1128,1131,1134,1137,1140,1143,1146,1149,1152,1155,1158,1161,1164,1167,1170,1173,1176,1179,1182,1185,1188,1191,1194,1197,1200],"tree_info":[0,1,2,0,1,2,0,1,2,0,1,2,0,1,2,0,1,2,0,1,2,0,1,2,0,1,2,0,1,2,0,1,2,0,1,2,0,1,2,0,1,2,0,1,2,0,1,2,0,1,2,0,1,2,0,1,2,0,1,2,0,1,2,0,1,2,0,1,2,0,1,2,0,1,2,0,1,2,0,1,2,0,1,2,0,1,2,0,1,2,0,1,2,0,1,2,0,1,2,0,1,2,0,1,2,0,1,2,0,1,2,0,1,2,0,1,2,0,1,2,0,1,2,0,1,2,0,1,2,0,1,2,0,1,2,0,1,2,0,1,2,0,1,2,0,1,2,0,1,2,0,1,2,0,1,2,0,1,2,0,1,2,0,1,2,0,1,2,0,1,2,0,1,2,0,1,2,0,1,2,0,1,2,0,1,2,0,1,2,0,1,2,0,1,2,0,1,2,0,1,2,0,1,2,0,1,2,0,1,2,0,1,2,0,1,2,0,1,2,0,1,2,0,1,2,0,1,2,0,1,2,0,1,2,0,1,2,0,1,2,0,1,2,0,1,2,0,1,2,0,1,2,0,1,2,0,1,2,0,1,2,0,1,2,0,1,2,0,1,2,0,1,2,0,1,2,0,1,2,0,1,2,0,1,2,0,1,2,0,1,2,0,1,2,0,1,2,0,1,2,0,1,2,0,1,2,0,1,2,0,1,2,0,1,2,0,1,2,0,1,2,0,1,2,0,1,2,0,1,2,0,1,2,0,1,2,0,1,2,0,1,2,0,1,2,0,1,2,0,1,2,0,1,2,0,1,2,0,1,2,0,1,2,0,1,2,0,1,2,0,1,2,0,1,2,0,1,2,0,1,2,0,1,2,0,1,2,0,1,2,0,1,2,0,1,2,0,1,2,0,1,2,0,1,2,0,1,2,0,1,2,0,1,2,0,1,2,0,1,2,0,1,2,0,1,2,0,1,2,0,1,2,0,1,2,0,1,2,0,1,2,0,1,2,0,1,2,0,1,2,0,1,2,0,1,2,0,1,2,0,1,2,0,1,2,0,1,2,0,1,2,0,1,2,0,1,2,0,1,2,0,1,2,0,1,2,0,1,2,0,1,2,0,1,2,0,1,2,0,1,2,0,1,2,0,1,2,0,1,2,0,1,2,0,1,2,0,1,2,0,1,2,0,1,2,0,1,2,0,1,2,0,1,2,0,1,2,0,1,2,0,1,2,0,1,2,0,1,2,0,1,2,0,1,2,0,1,2,0,1,2,0,1,2,0,1,2,0,1,2,0,1,2,0,1,2,0,1,2,0,1,2,0,1,2,0,1,2,0,1,2,0,1,2,0,1,2,0,1,2,0,1,2,0,1,2,0,1,2,0,1,2,0,1,2,0,1,2,0,1,2,0,1,2,0,1,2,0,1,2,0,1,2,0,1,2,0,1,2,0,1,2,0,1,2,0,1,2,0,1,2,0,1,2,0,1,2,0,1,2,0,1,2,0,1,2,0,1,2,0,1,2,0,1,2,0,1,2,0,1,2,0,1,2,0,1,2,0,1,2,0,1,2,0,1,2,0,1,2,0,1,2,0,1,2,0,1,2,0,1,2,0,1,2,0,1,2,0,1,2,0,1,2,0,1,2,0,1,2,0,1,2,0,1,2,0,1,2,0,1,2,0,1,2,0,1,2,0,1,2,0,1,2,0,1,2,0,1,2,0,1,2,0,1,2,0,1,2,0,1,2,0,1,2,0,1,2,0,1,2,0,1,2,0,1,2,0,1,2,0,1,2,0,1,2,0,1,2,0,1,2,0,1,2,0,1,2,0,1,2,0,1,2,0,1,2,0,1,2,0,1,2,0,1,2,0,1,2,0,1,2,0,1,2,0,1,2,0,1,2,0,1,2,0,1,2,0,1,2,0,1,2,0,1,2,0,1,2,0,1,2,0,1,2,0,1,2,0,1,2,0,1,2,0,1,2,0,1,2,0,1,2,0,1,2,0,1,2,0,1,2,0,1,2,0,1,2,0,1,2,0,1,2,0,1,2,0,1,2,0,1,2,0,1,2,0,1,2,0,1,2,0,1,2,0,1,2,0,1,2,0,1,2,0,1,2,0,1,2,0,1,2,0,1,2,0,1,2,0,1,2,0,1,2,0,1,2,0,1,2,0,1,2,0,1,2,0,1,2,0,1,2,0,1,2,0,1,2,0,1,2,0,1,2,0,1,2,0,1,2,0,1,2,0,1,2,0,1,2,0,1,2,0,1,2,0,1,2,0,1,2,0,1,2,0,1,2,0,1,2,0,1,2,0,1,2,0,1,2,0,1,2,0,1,2,0,1,2,0,1,2,0,1,2,0,1,2,0,1,2,0,1,2,0,1,2,0,1,2,0,1,2,0,1,2,0,1,2,0,1,2,0,1,2,0,1,2,0,1,2,0,1,2,0,1,2,0,1,2,0,1,2,0,1,2,0,1,2,0,1,2,0,1,2,0,1,2,0,1,2,0,1,2,0,1,2,0,1,2,0,1,2,0,1,2,0,1,2,0,1,2,0,1,2,0,1,2,0,1,2,0,1,2,0,1,2,0,1,2,0,1,2,0,1,2,0,1,2,0,1,2,0,1,2,0,1,2,0,1,2,0,1,2,0,1,2,0,1,2,0,1,2,0,1,2,0,1,2,0,1,2,0,1,2,0,1,2,0,1,2],"trees":[{"base_weights":[2.2228045E-2,-1.949504E-1,4.1165257E-1,1.4291537E-1,-2.913376E-1,7.429775E-1,2.9734153E-1,-1.1777535E-1,3.763557E-1,-3.6253455E-1,1.7835084E-1,2.0130363E-1,9.3948364E-1,3.951173E-1,-1.4826651E-1,1.316043E-2,-2.8525159E-2,3.0802593E-2,-4.639733E-3,-3.1895563E-2,-1.3670248E-2,-1.1509817E-2,2.942704E-2,2.9335264E-2,-2.9583914E-2,-2.2406741E-4,5.318396E-2,1.04296645E-2,3.1979643E-2,2.9664746E-2,-1.829277E-2],"categories":[],"categories_nodes":[],"categories_segments":[],"categories_sizes":[],"default_left":[1,0,1,1,0,0,0,0,0,1,1,0,0,0,0,0,0,0,0,0,0,0,0,0,0,0,0,0,0,0,0],"id":0,"left_children":[1,3,5,7,9,11,13,15,17,19,21,23,25,27,29,-1,-1,-1,-1,-1,-1,-1,-1,-1,-1,-1,-1,-1,-1,-1,-1],"loss_changes":[2.6976347E1,6.712357E0,4.1035004E0,2.8520136E0,5.4051085E0,2.8573656E0,3.8298779E0,4.0409884E0,2.821153E0,3.2374535E0,3.7706184E0,3.0645976E0,2.4349937E0,3.115878E0,2.8475168E0,0E0,0E0,0E0,0E0,0E0,0E0,0E0,0E0,0E0,0E0,0E0,0E0,0E0,0E0,0E0,0E0],"parents":[2147483647,0,0,1,1,2,2,3,3,4,4,5,5,6,6,7,7,8,8,9,9,10,10,11,11,12,12,13,13,14,14],"right_children":[2,4,6,8,10,12,14,16,18,20,22,24,26,28,30,-1,-1,-1,-1,-1,-1,-1,-1,-1,-1,-1,-1,-1,-1,-1,-1],"split_conditions":[4.108E1,-1.34E-1,-1E0,-4.675E1,8.2958336E1,-5.4E-2,1.24E-1,5.9791665E0,1.6E0,-2.6E0,1.206E0,-2.88E-1,1E0,1.592E0,-8E-1,1.316043E-2,-2.8525159E-2,3.0802593E-2,-4.639733E-3,-3.1895563E-2,-1.3670248E-2,-1.1509817E-2,2.942704E-2,2.9335264E-2,-2.9583914E-2,-2.2406741E-4,5.318396E-2,1.04296645E-2,3.1979643E-2,2.9664746E-2,-1.829277E-2],"split_indices":[21,25,22,21,13,24,25,13,28,28,6,24,16,6,26,0,0,0,0,0,0,0,0,0,0,0,0,0,0,0,0],"split_type":[0,0,0,0,0,0,0,0,0,0,0,0,0,0,0,0,0,0,0,0,0,0,0,0,0,0,0,0,0,0,0],"sum_hessian":[3.170162E2,2.0383737E2,1.13178825E2,4.513679E1,1.5870058E2,2.7621023E1,8.55578E1,2.155787E1,2.3578922E1,1.3800887E2,2.0691708E1,7.891721E0,1.9729301E1,7.025556E1,1.5302239E1,1.1933822E1,9.62405E0,1.5398479E1,8.180442E0,3.2240566E1,1.057683E2,1.0586454E1,1.0105252E1,5.485708E0,2.4060125E0,2.4060125E0,1.732329E1,4.090221E1,2.9353352E1,3.079696E0,1.2222543E1],"tree_param":{"num_deleted":"0","num_feature":"30","num_nodes":"31","size_leaf_vector":"1"}},{"base_weights":[-3.018866E-3,3.3019173E-1,-5.3888418E-2,-3.2731897E-1,4.4626793E-1,-7.870344E-3,-4.0563956E-1,7.959279E-3,-2.542752E-2,7.5548436E-3,6.981458E-1,1.4414252E-2,-2.8663356E-2,2.0347228E-2,-4.742861E-1,6.0546517E-2,-1.4740074E-2,-8.814555E-3,4.9853604E-2,3.967113E-3,-8.721757E-3,-2.6879186E-2,2.4652202E-3],"categories":[],"categories_nodes":[],"categories_segments":[],"categories_sizes":[],"default_left":[0,1,0,0,0,1,0,0,0,0,0,1,0,0,1,0,0,0,0,0,0,0,0],"id":1,"left_children":[1,3,5,7,9,11,13,-1,-1,15,17,19,-1,-1,21,-1,-1,-1,-1,-1,-1,-1,-1],"loss_changes":[4.2305756E0,2.669097E0,3.5009463E0,5.691683E-1,3.1463256E0,2.4331257E0,1.5889211E0,0E0,0E0,4.509672E0,4.908925E0,2.2961261E0,0E0,0E0,8.0657625E-1,0E0,0E0,0E0,0E0,0E0,0E0,0E0,0E0],"parents":[2147483647,0,0,1,1,2,2,3,3,4,4,5,5,6,6,9,9,10,10,11,11,14,14],"right_children":[2,4,6,8,10,12,14,-1,-1,16,18,20,-1,-1,22,-1,-1,-1,-1,-1,-1,-1,-1],"split_conditions":[1E0,-2.75E0,1.4208333E1,4E0,-3.3333334E-1,2.8841E2,1.64906E3,7.959279E-3,-2.542752E-2,8.18E-1,1.73308E3,3.04E-1,-2.8663356E-2,2.0347228E-2,1.44E1,6.0546517E-2,-1.4740074E-2,-8.814555E-3,4.9853604E-2,3.967113E-3,-8.721757E-3,-2.6879186E-2,2.4652202E-3],"split_indices":[16,28,4,17,29,21,5,0,0,6,5,25,0,0,10,0,0,0,0,0,0,0,0],"split_type":[0,0,0,0,0,0,0,0,0,0,0,0,0,0,0,0,0,0,0,0,0,0,0],"sum_hessian":[2.4753769E2,3.2057915E1,2.1547977E2,4.537199E0,2.7520716E1,1.9145493E2,2.4024841E1,1.2644653E0,3.272734E0,1.0413244E1,1.7107471E1,1.851326E2,6.3223267E0,1.4876063E0,2.2537235E1,1.4876063E0,8.925638E0,4.462819E0,1.2644653E1,1.3819862E2,4.693398E1,2.0082685E1,2.4545503E0],"tree_param":{"num_deleted":"0","num_feature":"30","num_nodes":"23","size_leaf_vector":"1"}},{"base_weights":[2.2348927E-2,3.3121908E-1,-3.566772E-1,6.0815626E-1,7.37886E-3,-1.608656E-1,-4.9211478E-1,-1.7112045E-1,6.9306976E-1,-4.492741E-1,1.4844851E-1,2.3638744E-2,-4.0968707E-1,-5.21151E-1,2.4123754E-1,-2.1741044E-2,4.1223675E-2,4.6036255E-2,1.51625825E-2,-2.9296E-2,-1.5092025E-3,1.337058E-2,-1.0139477E-2,-2.2025527E-2,1.25531005E-2,-2.9012028E-2,-6.9410703E-3,-2.8031854E-2,4.5019607E-3,-1.0587599E-3,2.0082459E-2],"categories":[],"categories_nodes":[],"categories_segments":[],"categories_sizes":[],"default_left":[1,1,0,0,1,0,1,0,1,0,0,1,0,1,0,0,0,0,0,0,0,0,0,0,0,0,0,0,0,0,0],"id":2,"left_children":[1,3,5,7,9,11,13,15,17,19,21,23,25,27,29,-1,-1,-1,-1,-1,-1,-1,-1,-1,-1,-1,-1,-1,-1,-1,-1],"loss_changes":[3.5488415E1,1.4971731E1,3.5312939E0,6.07407E0,5.0907183E0,2.633317E0,1.8290291E0,2.8907628E0,6.940647E0,1.0506067E0,2.5752497E0,3.6743674E0,1.0460963E0,1.9150524E0,1.6551986E-1,0E0,0E0,0E0,0E0,0E0,0E0,0E0,0E0,0E0,0E0,0E0,0E0,0E0,0E0,0E0,0E0],"parents":[2147483647,0,0,1,1,2,2,3,3,4,4,5,5,6,6,7,7,8,8,9,9,10,10,11,11,12,12,13,13,14,14],"right_children":[2,4,6,8,10,12,14,16,18,20,22,24,26,28,30,-1,-1,-1,-1,-1,-1,-1,-1,-1,-1,-1,-1,-1,-1,-1,-1],"split_conditions":[-2.81E0,1.182E0,8.414E1,-1.015E0,3.125E0,1.78828E3,2.06E1,2E0,-1.1931E2,3E0,1.56E1,-4E-1,1.56E1,1.4E1,9.895833E0,-2.1741044E-2,4.1223675E-2,4.6036255E-2,1.51625825E-2,-2.9296E-2,-1.5092025E-3,1.337058E-2,-1.0139477E-2,-2.2025527E-2,1.25531005E-2,-2.9012028E-2,-6.9410703E-3,-2.8031854E-2,4.5019607E-3,-1.0587599E-3,2.0082459E-2],"split_indices":[21,6,21,24,13,14,19,9,21,9,10,26,19,4,4,0,0,0,0,0,0,0,0,0,0,0,0,0,0,0,0],"split_type":[0,0,0,0,0,0,0,0,0,0,0,0,0,0,0,0,0,0,0,0,0,0,0,0,0,0,0,0,0,0,0],"sum_hessian":[3.0112964E2,1.6598987E2,1.3513977E2,8.9001144E1,7.698872E1,5.6148983E1,7.899079E1,8.645306E0,8.035584E1,1.7654623E1,5.9334095E1,3.2761158E1,2.3387827E1,7.62607E1,2.7300963E0,7.280257E0,1.3650482E0,4.9869762E1,3.0486076E1,1.301346E1,4.641164E0,4.4500572E1,1.4833524E1,1.046537E1,2.2295788E1,1.3650482E1,9.737344E0,7.171053E1,4.550161E0,1.3650482E0,1.3650482E0],"tree_param":{"num_deleted":"0","num_feature":"30","num_nodes":"31","size_leaf_vector":"1"}},{"base_weights":[-1.1365007E-2,-2.5934693E-1,3.074325E-1,-4.0855208E-1,2.0644382E-2,4.390771E-1,-6.3355364E-2,-5.881503E-1,-1.7730187E-1,-2.1574809E-1,3.0597153E-1,1.8253791E-1,6.8892187E-1,1.6461682E-1,-3.7169042E-1,-3.063269E-2,1.4483394E-2,-2.1856395E-3,-2.581513E-2,2.0266075E-2,-1.6542098E-2,2.9967789E-2,-2.999253E-2,6.633045E-4,3.184342E-2,4.9476545E-2,2.1708606E-2,2.4520868E-2,-6.402084E-3,-3.377508E-2,1.2242628E-2],"categories":[],"categories_nodes":[],"categories_segments":[],"categories_sizes":[],"default_left":[1,1,1,1,1,0,0,0,1,0,1,0,1,0,0,0,0,0,0,0,0,0,0,0,0,0,0,0,0,0,0],"id":3,"left_children":[1,3,5,7,9,11,13,15,17,19,21,23,25,27,29,-1,-1,-1,-1,-1,-1,-1,-1,-1,-1,-1,-1,-1,-1,-1,-1],"loss_changes":[2.6255152E1,7.811243E0,7.121355E0,4.9582386E0,4.5097437E0,6.756275E0,2.799098E0,1.6439419E0,2.4553564E0,2.7515645E0,8.402598E0,4.17035E0,3.7084103E0,2.2640665E0,3.3242357E0,0E0,0E0,0E0,0E0,0E0,0E0,0E0,0E0,0E0,0E0,0E0,0E0,0E0,0E0,0E0,0E0],"parents":[2147483647,0,0,1,1,2,2,3,3,4,4,5,5,6,6,7,7,8,8,9,9,10,10,11,11,12,12,13,13,14,14],"right_children":[2,4,6,8,10,12,14,16,18,20,22,24,26,28,30,-1,-1,-1,-1,-1,-1,-1,-1,-1,-1,-1,-1,-1,-1,-1,-1],"split_conditions":[5.15E0,1.78019E3,1.24E-1,-1.2916E2,2.4E0,1.84422E3,1.466E0,4E0,1.776E0,1.79317E3,1.776E0,1.556E0,2E-1,1.678E0,4.42E-1,-3.063269E-2,1.4483394E-2,-2.1856395E-3,-2.581513E-2,2.0266075E-2,-1.6542098E-2,2.9967789E-2,-2.999253E-2,6.633045E-4,3.184342E-2,4.9476545E-2,2.1708606E-2,2.4520868E-2,-6.402084E-3,-3.377508E-2,1.2242628E-2],"split_indices":[21,5,25,21,9,5,6,23,7,5,15,7,20,7,25,0,0,0,0,0,0,0,0,0,0,0,0,0,0,0,0],"split_type":[0,0,0,0,0,0,0,0,0,0,0,0,0,0,0,0,0,0,0,0,0,0,0,0,0,0,0,0,0,0,0],"sum_hessian":[3.3009967E2,1.8577669E2,1.4432298E2,1.2089404E2,6.4882645E1,1.06372345E2,3.7950638E1,6.717774E1,5.3716297E1,3.561752E1,2.9265123E1,5.3336914E1,5.303543E1,2.2086649E1,1.5863987E1,6.564733E1,1.5304091E0,3.9341892E1,1.4374406E1,5.174298E0,3.0443222E1,2.236101E1,6.904115E0,3.9608868E1,1.3728046E1,2.300492E1,3.0030514E1,1.0131774E1,1.1954875E1,1.0563186E1,5.3008018E0],"tree_param":{"num_deleted":"0","num_feature":"30","num_nodes":"31","size_leaf_vector":"1"}},{"base_weights":[5.8428757E-3,7.474744E-2,-2.3642123E-1,-2.658024E-2,3.1754097E-1,3.6901802E-1,-2.9681E-1,-9.491685E-2,3.6190075E-1,1.0137309E0,1.5833068E-1,-1.5129948E-1,7.7572054E-1,-3.9482427E-1,7.965963E-2,-8.97321E-3,2.4265574E-2,2.7870957E-2,-2.5572091E-2,-1.9928819E-2,6.459101E-2,2.0450719E-2,-3.4646764E-3,-1.7586408E-2,6.0365256E-3,5.3010922E-2,6.154162E-3,-2.658388E-2,-6.5697166E-3,-2.7182912E-2,2.8173143E-2],"categories":[],"categories_nodes":[],"categories_segments":[],"categories_sizes":[],"default_left":[0,0,0,0,0,0,1,0,1,0,0,0,0,0,0,0,0,0,0,0,0,0,0,0,0,0,0,0,0,0,0],"id":4,"left_children":[1,3,5,7,9,11,13,15,17,19,21,23,25,27,29,-1,-1,-1,-1,-1,-1,-1,-1,-1,-1,-1,-1,-1,-1,-1,-1],"loss_changes":[4.1818743E0,4.805209E0,2.1379488E0,3.7108614E0,6.2116027E0,1.276505E0,1.9133859E0,5.903442E0,3.8580596E0,4.6446123E0,2.7658167E0,2.1911338E-1,4.7065687E-1,1.3950543E0,3.734369E0,0E0,0E0,0E0,0E0,0E0,0E0,0E0,0E0,0E0,0E0,0E0,0E0,0E0,0E0,0E0,0E0],"parents":[2147483647,0,0,1,1,2,2,3,3,4,4,5,5,6,6,7,7,8,8,9,9,10,10,11,11,12,12,13,13,14,14],"right_children":[2,4,6,8,10,12,14,16,18,20,22,24,26,28,30,-1,-1,-1,-1,-1,-1,-1,-1,-1,-1,-1,-1,-1,-1,-1,-1],"split_conditions":[1.77E0,1.422E0,-1.1041666E0,4E0,-8.041E1,1.64E0,6E0,1.908E0,1.642E0,1.0333333E1,2.25E0,7.9618053E0,1.8497E3,1.6E1,1.025E1,-8.97321E-3,2.4265574E-2,2.7870957E-2,-2.5572091E-2,-1.9928819E-2,6.459101E-2,2.0450719E-2,-3.4646764E-3,-1.7586408E-2,6.0365256E-3,5.3010922E-2,6.154162E-3,-2.658388E-2,-6.5697166E-3,-2.7182912E-2,2.8173143E-2],"split_indices":[6,6,22,28,21,21,8,15,15,10,18,13,5,19,19,0,0,0,0,0,0,0,0,0,0,0,0,0,0,0,0],"split_type":[0,0,0,0,0,0,0,0,0,0,0,0,0,0,0,0,0,0,0,0,0,0,0,0,0,0,0,0,0,0,0],"sum_hessian":[2.4845644E2,1.939771E2,5.447935E1,1.3748817E2,5.6488922E1,4.477599E0,5.000175E1,1.1756356E2,1.9924608E1,9.514958E0,4.697396E1,2.2399232E0,2.237676E0,3.963419E1,1.036756E1,1.0321448E2,1.4349088E1,1.6575525E1,3.349083E0,1.4940401E0,8.020918E0,2.1975428E1,2.4998535E1,1.1210043E0,1.118919E0,1.123434E0,1.1142418E0,2.5413464E1,1.4220726E1,4.476479E0,5.891082E0],"tree_param":{"num_deleted":"0","num_feature":"30","num_nodes":"31","size_leaf_vector":"1"}},{"base_weights":[2.8525954E-2,3.1322533E-1,-3.370526E-1,5.6848377E-1,1.8326998E-2,-1.164617E-1,-4.8825073E-1,-1.3569917E-1,6.508652E-1,7.541562E-1,-5.5964228E-2,1.2005723E-1,-3.3441493E-1,-5.300386E-1,5.127312E-1,4.5160357E-2,-2.2840379E-2,1.5688455E-3,3.759319E-2,4.849379E-2,-1.1402707E-2,4.4299226E-2,-5.8326474E-3,-3.0644257E-2,1.356107E-2,-2.6619464E-2,-4.265407E-3,-2.8949965E-2,7.562534E-4,-7.684356E-4,4.109106E-2],"categories":[],"categories_nodes":[],"categories_segments":[],"categories_sizes":[],"default_left":[1,1,0,0,0,0,1,0,1,0,0,1,0,1,0,0,0,0,0,0,0,0,0,0,0,0,0,0,0,0,0],"id":5,"left_children":[1,3,5,7,9,11,13,15,17,19,21,23,25,27,29,-1,-1,-1,-1,-1,-1,-1,-1,-1,-1,-1,-1,-1,-1,-1,-1],"loss_changes":[3.2268814E1,1.3106155E1,4.471669E0,5.5047607E0,4.518223E0,2.95429E0,3.6283627E0,3.950928E0,5.217167E0,1.8267817E0,4.4080477E0,3.25145E0,1.4185007E0,2.0779343E0,6.2051076E-1,0E0,0E0,0E0,0E0,0E0,0E0,0E0,0E0,0E0,0E0,0E0,0E0,0E0,0E0,0E0,0E0],"parents":[2147483647,0,0,1,1,2,2,3,3,4,4,5,5,6,6,7,7,8,8,9,9,10,10,11,11,12,12,13,13,14,14],"right_children":[2,4,6,8,10,12,14,16,18,20,22,24,26,28,30,-1,-1,-1,-1,-1,-1,-1,-1,-1,-1,-1,-1,-1,-1,-1,-1],"split_conditions":[-2.81E0,1.176E0,8.414E1,-4.36E-1,3.3333333E0,1.77183E3,2.06E1,8.66E-1,7.58E-1,1.476E0,-4.5E0,2.8E0,1.46E1,1.4E1,1.92347E3,4.5160357E-2,-2.2840379E-2,1.5688455E-3,3.759319E-2,4.849379E-2,-1.1402707E-2,4.4299226E-2,-5.8326474E-3,-3.0644257E-2,1.356107E-2,-2.6619464E-2,-4.265407E-3,-2.8949965E-2,7.562534E-4,-7.684356E-4,4.109106E-2],"split_indices":[21,6,21,25,8,14,19,7,16,16,28,8,19,4,5,0,0,0,0,0,0,0,0,0,0,0,0,0,0,0,0],"split_type":[0,0,0,0,0,0,0,0,0,0,0,0,0,0,0,0,0,0,0,0,0,0,0,0,0,0,0,0,0,0,0],"sum_hessian":[3.0802423E2,1.7324808E2,1.3477614E2,9.2368195E1,8.087989E1,5.5530308E1,7.9245834E1,9.606475E0,8.276172E1,6.5777893E0,7.43021E1,2.6846321E1,2.8683987E1,7.652177E1,2.724064E0,1.8401426E0,7.766332E0,1.1785348E1,7.097637E1,5.4035773E0,1.174212E0,3.674313E0,7.0627785E1,4.067927E0,2.2778395E1,1.5348654E1,1.3335334E1,7.0158806E1,6.3629656E0,1.3565645E0,1.3674995E0],"tree_param":{"num_deleted":"0","num_feature":"30","num_nodes":"31","size_leaf_vector":"1"}},{"base_weights":[9.58402E-3,-2.9099375E-1,2.3645441E-1,1.6168849E-1,-3.619432E-1,1.035429E-1,4.9713507E-1,-2.7353695E-1,5.918507E-1,4.399948E-3,-4.0670004E-1,4.7400963E-2,6.8625264E-2,6.108106E-1,1.3086215E-1,1.1012464E-2,-2.1096883E-2,3.4297872E-2,-4.0635085E-3,-2.5379134E-2,3.7360664E-2,-2.4204163E-2,-2.9584316E-3,1.9223135E-2,-1.3502905E-3,4.5449585E-2,1.8832363E-2,1.906587E-2,-3.1917226E-2],"categories":[],"categories_nodes":[],"categories_segments":[],"categories_sizes":[],"default_left":[1,1,0,1,0,0,1,0,0,0,1,0,0,1,0,0,0,0,0,0,0,0,0,0,0,0,0,0,0],"id":6,"left_children":[1,3,5,7,9,11,13,15,17,19,21,-1,23,25,27,-1,-1,-1,-1,-1,-1,-1,-1,-1,-1,-1,-1,-1,-1],"loss_changes":[2.240765E1,4.59842E0,6.435707E0,3.8769948E0,2.0104885E0,3.6288023E0,2.5416393E0,8.6585176E-1,7.079518E-1,5.827917E0,2.9075928E0,0E0,3.6763563E0,2.9936428E0,3.3615909E0,0E0,0E0,0E0,0E0,0E0,0E0,0E0,0E0,0E0,0E0,0E0,0E0,0E0,0E0],"parents":[2147483647,0,0,1,1,2,2,3,3,4,4,5,5,6,6,7,7,8,8,9,9,10,10,12,12,13,13,14,14],"right_children":[2,4,6,8,10,12,14,16,18,20,22,-1,24,26,28,-1,-1,-1,-1,-1,-1,-1,-1,-1,-1,-1,-1,-1,-1],"split_conditions":[-4.675E1,2.7395833E0,1.86408E3,3.8E0,-9.6E-1,7.8E0,1.68E-1,8.52E-1,1.792E0,1.28E1,1.79764E3,4.7400963E-2,9.16E-1,2E-1,6.9375E0,1.1012464E-2,-2.1096883E-2,3.4297872E-2,-4.0635085E-3,-2.5379134E-2,3.7360664E-2,-2.4204163E-2,-2.9584316E-3,1.9223135E-2,-1.3502905E-3,4.5449585E-2,1.8832363E-2,1.906587E-2,-3.1917226E-2],"split_indices":[21,13,5,8,24,10,25,6,7,10,5,0,15,20,4,0,0,0,0,0,0,0,0,0,0,0,0,0,0],"split_type":[0,0,0,0,0,0,0,0,0,0,0,0,0,0,0,0,0,0,0,0,0,0,0,0,0,0,0,0,0],"sum_hessian":[3.265865E2,1.4035252E2,1.8623396E2,1.884377E1,1.2150876E2,1.242703E2,6.1963665E1,9.547747E0,9.296021E0,1.3326946E1,1.0818181E2,3.8960059E0,1.203743E2,4.67781E1,1.5185566E1,2.094474E0,7.453273E0,8.139057E0,1.1569642E0,8.076742E0,5.2502036E0,8.815894E1,2.0022865E1,2.7274729E1,9.309956E1,1.9308716E1,2.7469383E1,1.183601E1,3.3495562E0],"tree_param":{"num_deleted":"0","num_feature":"30","num_nodes":"29","size_leaf_vector":"1"}},{"base_weights":[7.047892E-3,6.714923E-2,-2.914077E-1,8.907608E-2,-2.8286299E-2,5.7559985E-1,-3.5107046E-1,3.5871613E-1,4.1003007E-2,2.266525E-3,4.1321743E-2,4.747063E-1,-4.1168365E-1,3.80329E-2,4.2448617E-3,-8.5556245E-4,1.3509824E-2,5.2900385E-2,-1.7194338E-2,-2.2902248E-2,2.9469827E-2],"categories":[],"categories_nodes":[],"categories_segments":[],"categories_sizes":[],"default_left":[0,1,0,0,0,0,0,0,1,0,0,0,1,0,0,0,0,0,0,0,0],"id":7,"left_children":[1,3,5,7,-1,9,11,13,15,-1,-1,17,19,-1,-1,-1,-1,-1,-1,-1,-1],"loss_changes":[4.5383487E0,2.9715402E0,2.3960497E0,2.6337538E0,0E0,3.761468E-1,2.2127643E0,3.3237393E0,2.329287E0,0E0,0E0,1.9015905E0,2.037477E0,0E0,0E0,0E0,0E0,0E0,0E0,0E0,0E0],"parents":[2147483647,0,0,1,1,2,2,3,3,5,5,6,6,7,7,8,8,11,11,12,12],"right_children":[2,4,6,8,-1,10,12,14,16,-1,-1,18,20,-1,-1,-1,-1,-1,-1,-1,-1],"split_conditions":[1.29375E1,2.8841E2,7.88E-1,1E0,-2.8286299E-2,1.32E1,1.64374E3,3.84E-1,5.2E0,2.266525E-3,4.1321743E-2,1.4208333E1,2.32E0,3.80329E-2,4.2448617E-3,-8.5556245E-4,1.3509824E-2,5.2900385E-2,-1.7194338E-2,-2.2902248E-2,2.9469827E-2],"split_indices":[4,21,16,16,0,19,14,25,17,0,0,4,7,0,0,0,0,0,0,0,0],"split_type":[0,0,0,0,0,0,0,0,0,0,0,0,0,0,0,0,0,0,0,0,0],"sum_hessian":[2.5091699E2,2.0950337E2,4.1413616E1,2.0331837E2,6.1849995E0,2.1096108E0,3.930401E1,2.9786293E1,1.7353207E2,1.0566189E0,1.0529917E0,2.2205222E0,3.7083485E1,1.1349003E1,1.843729E1,1.391696E2,3.4362476E1,1.1258261E0,1.094696E0,3.5960556E1,1.122929E0],"tree_param":{"num_deleted":"0","num_feature":"30","num_nodes":"21","size_leaf_vector":"1"}},{"base_weights":[5.6148246E-3,6.2993073E-1,-9.5871784E-2,7.297995E-1,-3.229877E-1,-2.6142693E-1,1.6709945E-1,8.287217E-1,-8.6167514E-2,-2.8315736E-2,1.2694321E-2,-8.176892E-2,-4.8443288E-1,-2.4467325E-1,2.9115388E-1,4.6110038E-2,1.279814E-3,2.7396975E-2,-2.7545765E-2,-1.5298222E-2,5.5397535E-3,-2.8767765E-2,-8.243665E-3,1.7116655E-2,-2.0796208E-2,1.0200099E-2,4.3119352E-2],"categories":[],"categories_nodes":[],"categories_segments":[],"categories_sizes":[],"default_left":[1,1,1,0,1,0,0,1,1,0,0,1,0,0,0,0,0,0,0,0,0,0,0,0,0,0,0],"id":8,"left_children":[1,3,5,7,9,11,13,15,17,-1,-1,19,21,23,25,-1,-1,-1,-1,-1,-1,-1,-1,-1,-1,-1,-1],"loss_changes":[1.9482113E1,4.3272533E0,1.1560663E1,3.237278E0,8.1356597E-1,6.4800224E0,5.3230267E0,2.6096706E0,1.8185867E0,0E0,0E0,3.9766116E0,2.0087776E0,2.5897756E0,3.7801352E0,0E0,0E0,0E0,0E0,0E0,0E0,0E0,0E0,0E0,0E0,0E0,0E0],"parents":[2147483647,0,0,1,1,2,2,3,3,4,4,5,5,6,6,7,7,8,8,11,11,12,12,13,13,14,14],"right_children":[2,4,6,8,10,12,14,16,18,-1,-1,20,22,24,26,-1,-1,-1,-1,-1,-1,-1,-1,-1,-1,-1,-1],"split_conditions":[1.63362E3,3.3333334E-1,1.22E-1,3.6666667E0,2.58E-1,1.82146E3,1.75205E3,2.8E-2,1.506E0,-2.8315736E-2,1.2694321E-2,1.75022E3,1.88038E3,3.2E0,1.0916667E1,4.6110038E-2,1.279814E-3,2.7396975E-2,-2.7545765E-2,-1.5298222E-2,5.5397535E-3,-2.8767765E-2,-8.243665E-3,1.7116655E-2,-2.0796208E-2,1.0200099E-2,4.3119352E-2],"split_indices":[5,11,25,18,24,5,14,24,7,0,0,14,14,8,13,0,0,0,0,0,0,0,0,0,0,0,0],"split_type":[0,0,0,0,0,0,0,0,0,0,0,0,0,0,0,0,0,0,0,0,0,0,0,0,0,0,0],"sum_hessian":[3.0553107E2,4.1993332E1,2.6353772E2,3.822172E1,3.7716103E0,1.6172723E2,1.0181049E2,3.4075066E1,4.146656E0,2.6655703E0,1.1060399E0,9.0325714E1,7.140152E1,2.3346006E1,7.8464485E1,3.0389627E1,3.6854384E0,1.678072E0,2.468584E0,4.146295E1,4.8862762E1,5.4962807E1,1.6438711E1,5.0470247E0,1.829898E1,6.925545E1,9.20904E0],"tree_param":{"num_deleted":"0","num_feature":"30","num_nodes":"27","size_leaf_vector":"1"}},{"base_weights":[-1.381658E-2,-1.492028E-1,4.050929E-1,-4.2233777E-1,1.6166925E-2,7.9423153E-1,2.299631E-1,-4.7290054E-1,6.7398034E-2,1.3926613E-1,-1.7344937E-1,9.37615E-1,-2.7638793E-2,2.8064436E-1,-3.0780768E-2,-3.0175352E-2,-1.564142E-2,2.4332587E-2,-2.18726E-2,-2.5689835E-2,9.039334E-3,-1.9032832E-2,1.215004E-4,2.1615813E-2,5.042223E-2,-6.5615657E-3,1.9710407E-2],"categories":[],"categories_nodes":[],"categories_segments":[],"categories_sizes":[],"default_left":[1,1,0,1,1,0,1,0,1,0,0,0,0,0,0,0,0,0,0,0,0,0,0,0,0,0,0],"id":9,"left_children":[1,3,5,7,9,11,13,15,17,19,21,23,-1,25,-1,-1,-1,-1,-1,-1,-1,-1,-1,-1,-1,-1,-1],"loss_changes":[1.8148851E1,1.0927077E1,5.1445827E0,2.2905254E0,3.5617003E0,5.1253366E0,2.5433261E0,1.5422955E0,2.2048714E0,2.5997396E0,2.1913414E0,3.4889603E-1,0E0,2.5249023E0,0E0,0E0,0E0,0E0,0E0,0E0,0E0,0E0,0E0,0E0,0E0,0E0,0E0],"parents":[2147483647,0,0,1,1,2,2,3,3,4,4,5,5,6,6,7,7,8,8,9,9,10,10,11,11,13,13],"right_children":[2,4,6,8,10,12,14,16,18,20,22,24,-1,26,-1,-1,-1,-1,-1,-1,-1,-1,-1,-1,-1,-1,-1],"split_conditions":[1.85731E3,-1.1068E2,2E-1,1.746E0,1.24E-1,1.22E-1,5E-1,1.568E0,6E0,-1.8E0,6.8125E0,1.244E0,-2.7638793E-2,4.21875E0,-3.0780768E-2,-3.0175352E-2,-1.564142E-2,2.4332587E-2,-2.18726E-2,-2.5689835E-2,9.039334E-3,-1.9032832E-2,1.215004E-4,2.1615813E-2,5.042223E-2,-6.5615657E-3,1.9710407E-2],"split_indices":[5,21,20,6,25,25,29,15,17,26,13,16,0,13,0,0,0,0,0,0,0,0,0,0,0,0,0],"split_type":[0,0,0,0,0,0,0,0,0,0,0,0,0,0,0,0,0,0,0,0,0,0,0,0,0,0,0],"sum_hessian":[3.1793762E2,2.4076822E2,7.7169395E1,9.021295E1,1.5055527E2,2.2853588E1,5.431581E1,8.180171E1,8.411239E0,9.14508E1,5.910447E1,2.0929642E1,1.9239477E0,5.187471E1,2.4410994E0,4.3521397E1,3.828032E1,4.6148634E0,3.796375E0,4.786771E0,8.6664024E1,2.660098E1,3.2503487E1,3.4464245E0,1.7483217E1,1.1178113E1,4.0696598E1],"tree_param":{"num_deleted":"0","num_feature":"30","num_nodes":"27","size_leaf_vector":"1"}},{"base_weights":[1.7571697E-2,-2.1507563E-1,9.184308E-2,-2.6838732E-1,4.8434895E-2,4.1120878E-1,2.9910777E-2,-4.6581826E-1,-1.1703181E-2,2.0716679E-1,9.264756E-1,-2.2098E-1,1.11765854E-1,3.0281937E-2,-2.604279E-2,5.7527184E-2,-6.1734337E-3,2.0192837E-2,-2.0038705E-2,-1.7568467E-2,5.836263E-2,2.257417E-2,-1.548539E-2,-1.3939828E-4,1.7349627E-2],"categories":[],"categories_nodes":[],"categories_segments":[],"categories_sizes":[],"default_left":[1,1,0,0,0,1,0,0,0,1,0,0,0,0,0,0,0,0,0,0,0,0,0,0,0],"id":10,"left_children":[1,3,5,7,-1,9,11,13,15,17,19,21,23,-1,-1,-1,-1,-1,-1,-1,-1,-1,-1,-1,-1],"loss_changes":[4.3726406E0,4.126093E0,3.778483E0,3.0049796E0,0E0,3.0726814E0,3.3435307E0,2.294004E0,3.630128E0,2.9756188E0,3.0315752E0,2.5318785E0,3.302258E0,0E0,0E0,0E0,0E0,0E0,0E0,0E0,0E0,0E0,0E0,0E0,0E0],"parents":[2147483647,0,0,1,1,2,2,3,3,5,5,6,6,7,7,8,8,9,9,10,10,11,11,12,12],"right_children":[2,4,6,8,-1,10,12,14,16,18,20,22,24,-1,-1,-1,-1,-1,-1,-1,-1,-1,-1,-1,-1],"split_conditions":[-3.25E0,2.544E0,1E0,5.2E0,4.8434895E-2,4.22E0,1.05E1,2E0,3.0104167E0,-8.041E1,2E-1,1.122E0,1.468E0,3.0281937E-2,-2.604279E-2,5.7527184E-2,-6.1734337E-3,2.0192837E-2,-2.0038705E-2,-1.7568467E-2,5.836263E-2,2.257417E-2,-1.548539E-2,-1.3939828E-4,1.7349627E-2],"split_indices":[28,7,16,17,0,21,10,17,4,21,11,16,6,0,0,0,0,0,0,0,0,0,0,0,0],"split_type":[0,0,0,0,0,0,0,0,0,0,0,0,0,0,0,0,0,0,0,0,0,0,0,0,0],"sum_hessian":[2.5091722E2,6.0260796E1,1.9065642E2,5.840383E1,1.8569614E0,3.005134E1,1.6060509E2,3.255167E1,2.5852163E1,2.2531202E1,7.520138E0,3.9090546E1,1.2151454E2,1.101614E0,3.1450056E1,1.4525775E0,2.4399586E1,1.7277145E1,5.2540574E0,1.1194913E0,6.4006467E0,4.0800033E0,3.501054E1,8.238281E1,3.9131733E1],"tree_param":{"num_deleted":"0","num_feature":"30","num_nodes":"25","size_leaf_vector":"1"}},{"base_weights":[-1.1410123E-2,4.3587244E-1,-1.5108836E-1,5.7328475E-1,-1.2638992E-1,-6.803066E-3,-3.7533996E-1,6.5070075E-1,-2.9364103E-2,3.9035928E-2,-2.765776E-1,-4.3942782E-1,9.834349E-2,-5.349064E-1,-1.2712133E-1,3.747494E-2,-1.1302388E-2,1.5973704E-2,-2.8712222E-2,-2.7858332E-2,1.4413265E-2,1.0542241E-2,-1.1759241E-2,5.6430367E-3,-2.8173074E-2,1.7174263E-2,-1.9191831E-2],"categories":[],"categories_nodes":[],"categories_segments":[],"categories_sizes":[],"default_left":[1,1,0,1,0,1,1,0,0,0,0,1,1,0,1,0,0,0,0,0,0,0,0,0,0,0,0],"id":11,"left_children":[1,3,5,7,9,11,13,15,-1,-1,17,19,21,23,25,-1,-1,-1,-1,-1,-1,-1,-1,-1,-1,-1,-1],"loss_changes":[1.9068666E1,5.684657E0,7.521066E0,5.6429787E0,2.271087E0,6.525754E0,3.5369396E0,4.965313E0,0E0,0E0,2.610768E0,2.5635633E0,4.381974E0,1.0826006E0,4.593025E0,0E0,0E0,0E0,0E0,0E0,0E0,0E0,0E0,0E0,0E0,0E0,0E0],"parents":[2147483647,0,0,1,1,2,2,3,3,4,4,5,5,6,6,7,7,10,10,11,11,12,12,13,13,14,14],"right_children":[2,4,6,8,10,12,14,16,-1,-1,18,20,22,24,26,-1,-1,-1,-1,-1,-1,-1,-1,-1,-1,-1,-1],"split_conditions":[1.70685E3,1.58E1,1.8321E3,1.2E0,-5.84E-1,1.69864E3,1.372E0,3.8E0,-2.9364103E-2,3.9035928E-2,2E-1,5.6E0,6E-1,1.5E0,-2.8E0,3.747494E-2,-1.1302388E-2,1.5973704E-2,-2.8712222E-2,-2.7858332E-2,1.4413265E-2,1.0542241E-2,-1.1759241E-2,5.6430367E-3,-2.8173074E-2,1.7174263E-2,-1.9191831E-2],"split_indices":[5,10,5,26,25,14,7,18,0,0,11,8,27,9,28,0,0,0,0,0,0,0,0,0,0,0,0],"split_type":[0,0,0,0,0,0,0,0,0,0,0,0,0,0,0,0,0,0,0,0,0,0,0,0,0,0,0],"sum_hessian":[3.0316354E2,7.163877E1,2.3152475E2,5.7553555E1,1.4085219E1,1.4150783E2,9.001693E1,5.4366352E1,3.1872032E0,1.4044274E0,1.2680792E1,2.7046402E1,1.14461426E2,5.4090244E1,3.592669E1,4.8990864E1,5.3754897E0,4.1991343E0,8.481658E0,2.3481497E1,3.564906E0,8.5866066E1,2.8595358E1,2.1590993E0,5.1931145E1,1.2561371E1,2.3365316E1],"tree_param":{"num_deleted":"0","num_feature":"30","num_nodes":"27","size_leaf_vector":"1"}},{"base_weights":[1.3507878E-3,-2.7722943E-1,2.4240881E-1,-3.7618527E-1,6.0246762E-2,4.1837823E-1,6.40632E-2,-5.330933E-1,-2.1158096E-1,3.047727E-1,-4.694056E-1,7.8637034E-1,2.593989E-1,1.966128E-1,-2.7871412E-1,-7.655371E-5,-2.8477266E-2,-1.4770403E-2,2.1377712E-2,-2.6224872E-2,1.988312E-2,-3.3827532E-2,-8.567772E-3,-6.101535E-3,4.2344104E-2,6.221057E-3,3.31146E-2,3.8983665E-2,5.6006955E-3,-3.6946584E-2,-3.1377372E-4],"categories":[],"categories_nodes":[],"categories_segments":[],"categories_sizes":[],"default_left":[1,0,1,1,0,1,0,0,0,0,0,0,0,0,0,0,0,0,0,0,0,0,0,0,0,0,0,0,0,0,0],"id":12,"left_children":[1,3,5,7,9,11,13,15,17,19,21,23,25,27,29,-1,-1,-1,-1,-1,-1,-1,-1,-1,-1,-1,-1,-1,-1,-1,-1],"loss_changes":[2.1554115E1,4.9951067E0,5.37327E0,2.864481E0,4.627158E0,4.8524513E0,3.9911864E0,1.1299171E0,3.2292325E0,2.0798993E0,5.835352E-1,1.5095844E0,3.2809753E0,3.0233946E0,3.0764065E0,0E0,0E0,0E0,0E0,0E0,0E0,0E0,0E0,0E0,0E0,0E0,0E0,0E0,0E0,0E0,0E0],"parents":[2147483647,0,0,1,1,2,2,3,3,4,4,5,5,6,6,7,7,8,8,9,9,10,10,11,11,12,12,13,13,14,14],"right_children":[2,4,6,8,10,12,14,16,18,20,22,24,26,28,30,-1,-1,-1,-1,-1,-1,-1,-1,-1,-1,-1,-1,-1,-1,-1,-1],"split_conditions":[-2.744E1,1.776E0,-1.34E-1,-1.5847E2,1.792E0,-2E0,7.8333335E0,6.7E-1,8.04E-1,-1.8408E2,1.4010417E1,-8.4E0,4E-1,9.14E-1,-2E0,-7.655371E-5,-2.8477266E-2,-1.4770403E-2,2.1377712E-2,-2.6224872E-2,1.988312E-2,-3.3827532E-2,-8.567772E-3,-6.101535E-3,4.2344104E-2,6.221057E-3,3.31146E-2,3.8983665E-2,5.6006955E-3,-3.6946584E-2,-3.1377372E-4],"split_indices":[21,16,25,21,7,28,4,6,25,21,4,28,29,16,28,0,0,0,0,0,0,0,0,0,0,0,0,0,0,0,0],"split_type":[0,0,0,0,0,0,0,0,0,0,0,0,0,0,0,0,0,0,0,0,0,0,0,0,0,0,0,0,0,0,0],"sum_hessian":[3.1896472E2,1.478968E2,1.7106793E2,1.14274254E2,3.3622555E1,8.5430145E1,8.563779E1,5.735875E1,5.6915504E1,2.329327E1,1.0329284E1,2.4582422E1,6.084772E1,6.2064346E1,2.3573439E1,3.7478385E0,5.3610912E1,5.0791626E1,6.1238785E0,1.8783045E0,2.1414967E1,5.3447537E0,4.9845295E0,1.4717596E0,2.3110662E1,4.6558464E1,1.4289257E1,6.8230915E0,5.5241253E1,8.129083E0,1.5444357E1],"tree_param":{"num_deleted":"0","num_feature":"30","num_nodes":"31","size_leaf_vector":"1"}},{"base_weights":[8.020854E-3,-1.7816915E-1,8.646244E-2,-2.2028713E-1,4.680576E-2,-4.8314384E-1,1.1780196E-1,-3.6824682E-1,5.238662E-2,6.7562484E-3,-2.901817E-2,9.031751E-2,6.0014408E-2,2.8856967E-2,-2.0207573E-2,-4.2933654E-3,5.2487023E-2,3.2913429E-3,5.781395E-2],"categories":[],"categories_nodes":[],"categories_segments":[],"categories_sizes":[],"default_left":[1,1,0,0,0,0,0,0,1,0,0,0,0,0,0,0,0,0,0],"id":13,"left_children":[1,3,5,7,-1,9,11,13,15,-1,-1,17,-1,-1,-1,-1,-1,-1,-1],"loss_changes":[3.6711397E0,3.7036395E0,3.2127256E0,2.9490185E0,0E0,6.4436007E-1,4.9008274E0,1.8353429E0,3.7329946E0,0E0,0E0,4.238734E0,0E0,0E0,0E0,0E0,0E0,0E0,0E0],"parents":[2147483647,0,0,1,1,2,2,3,3,5,5,6,6,7,7,8,8,11,11],"right_children":[2,4,6,8,-1,10,12,14,16,-1,-1,18,-1,-1,-1,-1,-1,-1,-1],"split_conditions":[-2.25E0,2.544E0,-9.7333336E-1,5E-1,4.680576E-2,1.6666666E0,8E-1,2.8020833E0,2.505E-1,6.7562484E-3,-2.901817E-2,1.3633333E0,6.0014408E-2,2.8856967E-2,-2.0207573E-2,-4.2933654E-3,5.2487023E-2,3.2913429E-3,5.781395E-2],"split_indices":[28,7,25,20,0,9,11,4,24,0,0,24,0,0,0,0,0,0,0],"split_type":[0,0,0,0,0,0,0,0,0,0,0,0,0,0,0,0,0,0,0],"sum_hessian":[2.493064E2,7.3522064E1,1.7578433E2,7.161736E1,1.9047033E0,8.415388E0,1.6736894E2,4.619842E1,2.5418938E1,1.0904927E0,7.324896E0,1.6428127E2,3.087684E0,1.1388091E0,4.5059612E1,2.3126966E1,2.2919726E0,1.6162955E2,2.6517138E0],"tree_param":{"num_deleted":"0","num_feature":"30","num_nodes":"19","size_leaf_vector":"1"}},{"base_weights":[3.082313E-3,2.5834835E-1,-2.7472615E-1,4.9623433E-1,-4.4188395E-2,-9.416465E-2,-4.352023E-1,6.336989E-1,1.8226694E-1,6.565066E-1,-1.258733E-1,6.0489636E-2,-3.93865E-1,-4.7894463E-1,8.3743446E-2,3.683366E-2,1.6409118E-3,2.0443851E-2,-1.4690312E-2,3.9600536E-2,-2.1883186E-3,4.810534E-2,-9.593162E-3,1.3561587E-2,-2.137411E-2,1.988809E-2,-2.2978475E-2,-2.564692E-2,1.9158976E-2,3.3744927E-2,-1.8143622E-2],"categories":[],"categories_nodes":[],"categories_segments":[],"categories_sizes":[],"default_left":[1,1,0,1,0,1,1,0,0,1,0,1,0,1,0,0,0,0,0,0,0,0,0,0,0,0,0,0,0,0,0],"id":14,"left_children":[1,3,5,7,9,11,13,15,17,19,21,23,25,27,29,-1,-1,-1,-1,-1,-1,-1,-1,-1,-1,-1,-1,-1,-1,-1,-1],"loss_changes":[2.159325E1,1.1441952E1,4.1841116E0,3.721918E0,4.133039E0,3.2631984E0,1.7862997E0,3.777092E0,3.1924639E0,7.510159E-1,4.7951107E0,4.945876E0,1.4270797E0,2.280079E0,2.0484648E0,0E0,0E0,0E0,0E0,0E0,0E0,0E0,0E0,0E0,0E0,0E0,0E0,0E0,0E0,0E0,0E0],"parents":[2147483647,0,0,1,1,2,2,3,3,4,4,5,5,6,6,7,7,8,8,9,9,10,10,11,11,12,12,13,13,14,14],"right_children":[2,4,6,8,10,12,14,16,18,20,22,24,26,28,30,-1,-1,-1,-1,-1,-1,-1,-1,-1,-1,-1,-1,-1,-1,-1,-1],"split_conditions":[-1.618E1,1.176E0,8.414E1,-1.1931E2,3.3333333E0,1.576E0,1.4E1,7E0,1.65E0,1.81051E3,-4.5E0,1.626E0,-1.15E0,2.06E1,2.5E-1,3.683366E-2,1.6409118E-3,2.0443851E-2,-1.4690312E-2,3.9600536E-2,-2.1883186E-3,4.810534E-2,-9.593162E-3,1.3561587E-2,-2.137411E-2,1.988809E-2,-2.2978475E-2,-2.564692E-2,1.9158976E-2,3.3744927E-2,-1.8143622E-2],"split_indices":[21,6,21,21,8,16,4,17,16,5,28,6,27,19,11,0,0,0,0,0,0,0,0,0,0,0,0,0,0,0,0],"split_type":[0,0,0,0,0,0,0,0,0,0,0,0,0,0,0,0,0,0,0,0,0,0,0,0,0,0,0,0,0,0,0],"sum_hessian":[3.0249368E2,1.5767921E2,1.4481447E2,8.791277E1,6.976645E1,6.888949E1,7.592499E1,6.0434383E1,2.747839E1,6.5493035E0,6.3217144E1,4.596721E1,2.292228E1,7.00938E1,5.8311796E0,5.139988E1,9.034505E0,1.8712444E1,8.765946E0,5.3777046E0,1.1715988E0,2.83853E0,6.0378613E1,3.241304E1,1.3554168E1,1.3694129E0,2.1552868E1,6.78245E1,2.2693036E0,2.2895367E0,3.5416427E0],"tree_param":{"num_deleted":"0","num_feature":"30","num_nodes":"31","size_leaf_vector":"1"}},{"base_weights":[-2.2105541E-2,-1.4908394E-1,3.9928782E-1,6.349936E-2,-2.543626E-1,7.454806E-1,2.045635E-1,2.9924202E-1,-9.2632994E-2,7.4522726E-2,-3.378505E-1,8.0034155E-1,-6.020625E-3,8.43413E-2,4.663567E-2,-1.3991661E-2,2.3523739E-2,2.333449E-3,-2.6400218E-2,-2.9229545E-3,4.697842E-2,-2.4080742E-2,-9.015239E-3,4.4242032E-2,5.6660366E-3,1.1885884E-2,-1.6451156E-2],"categories":[],"categories_nodes":[],"categories_segments":[],"categories_sizes":[],"default_left":[1,0,0,0,1,0,1,0,0,1,1,0,0,1,0,0,0,0,0,0,0,0,0,0,0,0,0],"id":15,"left_children":[1,3,5,7,9,11,13,15,17,19,21,23,-1,25,-1,-1,-1,-1,-1,-1,-1,-1,-1,-1,-1,-1,-1],"loss_changes":[1.747093E1,5.628713E0,4.9451904E0,3.1143782E0,4.6358805E0,1.3715658E0,4.278681E0,3.4681191E0,3.1305573E0,4.0599537E0,2.9505243E0,1.3728409E0,0E0,2.856505E0,0E0,0E0,0E0,0E0,0E0,0E0,0E0,0E0,0E0,0E0,0E0,0E0,0E0],"parents":[2147483647,0,0,1,1,2,2,3,3,4,4,5,5,6,6,7,7,8,8,9,9,10,10,11,11,13,13],"right_children":[2,4,6,8,10,12,14,16,18,20,22,24,-1,26,-1,-1,-1,-1,-1,-1,-1,-1,-1,-1,-1,-1,-1],"split_conditions":[1.86408E3,-9.4E-2,-7.916667E-1,6.0416665E0,1.002E0,2.2E0,1.956E0,1.3333334E0,2.6666667E0,1.764E0,0E0,3.4E0,-6.020625E-3,3.82E-1,4.663567E-2,-1.3991661E-2,2.3523739E-2,2.333449E-3,-2.6400218E-2,-2.9229545E-3,4.697842E-2,-2.4080742E-2,-9.015239E-3,4.4242032E-2,5.6660366E-3,1.1885884E-2,-1.6451156E-2],"split_indices":[5,25,22,13,15,27,16,18,18,6,29,18,0,24,0,0,0,0,0,0,0,0,0,0,0,0,0],"split_type":[0,0,0,0,0,0,0,0,0,0,0,0,0,0,0,0,0,0,0,0,0,0,0,0,0,0,0],"sum_hessian":[3.24399E2,2.4977925E2,7.4619736E1,8.286051E1,1.6691875E2,2.584411E1,4.8775627E1,3.2648415E1,5.0212097E1,3.3815624E1,1.3310312E2,2.4375443E1,1.4686677E0,4.2821377E1,5.954253E0,7.3061695E0,2.5342243E1,3.8716976E1,1.1495125E1,3.0118055E1,3.69757E0,6.851998E1,6.458314E1,2.1449373E1,2.92607E0,3.1542603E1,1.1278772E1],"tree_param":{"num_deleted":"0","num_feature":"30","num_nodes":"27","size_leaf_vector":"1"}},{"base_weights":[4.6018317E-2,-1.5638226E-1,1.3354722E-1,6.450985E-1,-2.3187204E-1,1.0613618E-1,9.727459E-1,-1.95271E-2,1.014525E0,-3.6779243E-1,1.4191562E-3,4.2913517E-1,4.5973107E-2,1.3046995E-2,6.445771E-2,1.3243874E-2,6.797017E-2,-2.1310998E-2,2.8833136E-2,-7.4628354E-3,2.185703E-2,4.3776106E-2,3.7942806E-3,-2.848503E-3,1.2900265E-2],"categories":[],"categories_nodes":[],"categories_segments":[],"categories_sizes":[],"default_left":[1,0,0,1,0,0,0,0,0,1,1,0,0,0,0,0,0,0,0,0,0,0,0,0,0],"id":16,"left_children":[1,3,5,7,9,11,13,-1,15,17,19,21,23,-1,-1,-1,-1,-1,-1,-1,-1,-1,-1,-1,-1],"loss_changes":[4.318237E0,4.6082087E0,3.8045204E0,2.92432E0,2.1594036E0,3.1988485E0,8.462033E-1,0E0,9.7098017E-1,2.619926E0,1.7761838E0,4.015486E0,3.086694E0,0E0,0E0,0E0,0E0,0E0,0E0,0E0,0E0,0E0,0E0,0E0,0E0],"parents":[2147483647,0,0,1,1,2,2,3,3,4,4,5,5,6,6,8,8,9,9,10,10,11,11,12,12],"right_children":[2,4,6,8,10,12,14,-1,16,18,20,22,24,-1,-1,-1,-1,-1,-1,-1,-1,-1,-1,-1,-1],"split_conditions":[-2.25E0,-3.3333334E-1,8E-1,1.76932E3,5.5E0,1E0,1.78451E3,-1.95271E-2,6.3125E0,2.544E0,-8.42E-1,6.12E-1,7.916667E-1,1.3046995E-2,6.445771E-2,1.3243874E-2,6.797017E-2,-2.1310998E-2,2.8833136E-2,-7.4628354E-3,2.185703E-2,4.3776106E-2,3.7942806E-3,-2.848503E-3,1.2900265E-2],"split_indices":[28,29,11,14,17,16,14,0,13,7,24,25,22,0,0,0,0,0,0,0,0,0,0,0,0],"split_type":[0,0,0,0,0,0,0,0,0,0,0,0,0,0,0,0,0,0,0,0,0,0,0,0,0],"sum_hessian":[2.4157037E2,7.269193E1,1.6887843E2,5.607816E0,6.708412E1,1.6462762E2,4.2508144E0,1.4594041E0,4.1484118E0,4.202369E1,2.5060429E1,2.488642E1,1.397412E2,1.8695914E0,2.381223E0,1.8642347E0,2.2841773E0,4.0092155E1,1.9315372E0,1.9109623E1,5.950806E0,1.03407545E1,1.4545665E1,9.456198E1,4.517922E1],"tree_param":{"num_deleted":"0","num_feature":"30","num_nodes":"25","size_leaf_vector":"1"}},{"base_weights":[-1.4062164E-3,2.4060725E-1,-3.1364778E-1,5.297918E-1,1.6671393E-2,-1.4414717E-1,-4.532158E-1,-1.034282E-1,6.0207087E-1,-7.08257E-2,5.9982795E-1,3.6916977E-3,-3.5717317E-1,-5.000417E-1,3.332398E-2,-2.5469346E-2,4.2360652E-2,1.1901257E-2,3.943811E-2,3.7521686E-2,-7.151256E-3,-9.917517E-3,4.7561523E-2,7.856914E-3,-2.295259E-2,1.889939E-2,-2.2400236E-2,-2.6784956E-2,1.4747177E-2],"categories":[],"categories_nodes":[],"categories_segments":[],"categories_sizes":[],"default_left":[1,1,0,0,1,0,1,0,0,0,0,0,0,1,0,0,0,0,0,0,0,0,0,0,0,0,0,0,0],"id":17,"left_children":[1,3,5,7,9,11,13,15,17,19,21,23,25,27,-1,-1,-1,-1,-1,-1,-1,-1,-1,-1,-1,-1,-1,-1,-1],"loss_changes":[2.2722113E1,1.0961168E1,3.0406523E0,3.4443893E0,4.96644E0,1.914715E0,4.084051E0,3.6826055E0,4.3299675E0,5.135859E0,3.7496037E0,2.6890645E0,1.8320844E0,2.1206856E0,0E0,0E0,0E0,0E0,0E0,0E0,0E0,0E0,0E0,0E0,0E0,0E0,0E0,0E0,0E0],"parents":[2147483647,0,0,1,1,2,2,3,3,4,4,5,5,6,6,7,7,8,8,9,9,10,10,11,11,12,12,13,13],"right_children":[2,4,6,8,10,12,14,16,18,20,22,24,26,28,-1,-1,-1,-1,-1,-1,-1,-1,-1,-1,-1,-1,-1,-1,-1],"split_conditions":[-2.81E0,1.07E0,9.683E1,-1.015E0,1.1989583E1,4.6E0,2.06E1,1.5E0,1.80147E3,7E-1,-1.2E0,4.34E-1,-2.8E0,2.15E0,3.332398E-2,-2.5469346E-2,4.2360652E-2,1.1901257E-2,3.943811E-2,3.7521686E-2,-7.151256E-3,-9.917517E-3,4.7561523E-2,7.856914E-3,-2.295259E-2,1.889939E-2,-2.2400236E-2,-2.6784956E-2,1.4747177E-2],"split_indices":[21,6,21,24,13,17,19,9,14,16,26,24,26,7,0,0,0,0,0,0,0,0,0,0,0,0,0,0,0],"split_type":[0,0,0,0,0,0,0,0,0,0,0,0,0,0,0,0,0,0,0,0,0,0,0,0,0,0,0,0,0],"sum_hessian":[2.98691E2,1.6839789E2,1.302931E2,7.289609E1,9.550181E1,5.9755238E1,7.053787E1,7.4241233E0,6.547196E1,8.380605E1,1.1695753E1,3.5854843E1,2.3900394E1,6.823757E1,2.3002958E0,5.52774E0,1.896383E0,2.2965158E1,4.25068E1,6.013164E0,7.7792885E1,3.708281E0,7.987472E0,2.742206E1,8.432784E0,2.2805934E0,2.16198E1,6.562046E1,2.6171162E0],"tree_param":{"num_deleted":"0","num_feature":"30","num_nodes":"29","size_leaf_vector":"1"}},{"base_weights":[-2.2602756E-2,-1.5058258E-1,4.0045744E-1,-4.205997E-1,-2.2561762E-3,3.1105196E-1,8.7354505E-1,-4.946522E-1,4.0101048E-2,7.115429E-2,-4.183949E-1,4.926496E-1,-3.957988E-2,4.7124006E-2,1.2264292E-2,-2.7821207E-2,-9.122643E-4,-2.474253E-2,1.9883033E-2,7.883738E-3,-1.2521343E-2,-3.7170257E-2,-3.6292288E-3,3.4847148E-2,1.0341783E-2,-2.4633203E-2,1.374274E-2],"categories":[],"categories_nodes":[],"categories_segments":[],"categories_sizes":[],"default_left":[1,1,1,0,1,1,0,1,1,1,0,0,0,0,0,0,0,0,0,0,0,0,0,0,0,0,0],"id":18,"left_children":[1,3,5,7,9,11,13,15,17,19,21,23,25,-1,-1,-1,-1,-1,-1,-1,-1,-1,-1,-1,-1,-1,-1],"loss_changes":[1.7608059E1,9.993834E0,2.9236126E0,3.0382671E0,4.981083E0,4.164106E0,2.6491356E-1,2.235197E0,2.717253E0,3.8965886E0,2.6939993E0,2.3640614E0,3.4313247E0,0E0,0E0,0E0,0E0,0E0,0E0,0E0,0E0,0E0,0E0,0E0,0E0,0E0,0E0],"parents":[2147483647,0,0,1,1,2,2,3,3,4,4,5,5,6,6,7,7,8,8,9,9,10,10,11,11,12,12],"right_children":[2,4,6,8,10,12,14,16,18,20,22,24,26,-1,-1,-1,-1,-1,-1,-1,-1,-1,-1,-1,-1,-1,-1],"split_conditions":[1.86408E3,-1.1931E2,1.916E0,7.2E0,5.5E0,3.08E-1,1.378E0,1.80301E3,3.2E0,1.765E0,2.25E0,1.94E-1,6.1875E0,4.7124006E-2,1.2264292E-2,-2.7821207E-2,-9.122643E-4,-2.474253E-2,1.9883033E-2,7.883738E-3,-1.2521343E-2,-3.7170257E-2,-3.6292288E-3,3.4847148E-2,1.0341783E-2,-2.4633203E-2,1.374274E-2],"split_indices":[5,21,16,17,17,24,15,5,8,7,9,25,13,0,0,0,0,0,0,0,0,0,0,0,0,0,0],"split_type":[0,0,0,0,0,0,0,0,0,0,0,0,0,0,0,0,0,0,0,0,0,0,0,0,0,0,0],"sum_hessian":[3.230992E2,2.4855344E2,7.454577E1,8.747539E1,1.6107805E2,6.409113E1,1.0454636E1,7.5298325E1,1.2177062E1,1.3762825E2,2.34498E1,4.195629E1,2.213484E1,8.970241E0,1.4843947E0,6.650694E1,8.791386E0,4.7245727E0,7.452489E0,1.0885171E2,2.8776545E1,1.1495754E1,1.1954045E1,2.3628632E1,1.8327658E1,8.8359165E0,1.3298924E1],"tree_param":{"num_deleted":"0","num_feature":"30","num_nodes":"27","size_leaf_vector":"1"}},{"base_weights":[-2.7676416E-3,-4.334558E-1,3.330256E-2,1.0208274E-2,-4.859889E-1,5.3612914E-2,-2.8050572E-2,-2.8633228E-2,-5.7651542E-2,2.8124087E-2,5.924637E-1,2.8124267E-2,-2.2010678E-2,3.419579E-2,5.107343E-4,5.025646E-2,-1.2949056E-2],"categories":[],"categories_nodes":[],"categories_segments":[],"categories_sizes":[],"default_left":[1,0,1,0,0,1,0,0,1,0,0,0,0,0,0,0,0],"id":19,"left_children":[1,3,5,-1,7,9,-1,-1,11,13,15,-1,-1,-1,-1,-1,-1],"loss_changes":[3.8395078E0,7.389655E-1,2.7836976E0,0E0,6.330714E-1,3.025543E0,0E0,0E0,1.2277459E0,2.489307E0,3.757871E0,0E0,0E0,0E0,0E0,0E0,0E0],"parents":[2147483647,0,0,1,1,2,2,4,4,5,5,8,8,9,9,10,10],"right_children":[2,4,6,-1,8,10,-1,-1,12,14,16,-1,-1,-1,-1,-1,-1],"split_conditions":[7E0,7.88E-1,2.8841E2,1.0208274E-2,2.296E0,9.7E-1,-2.8050572E-2,-2.8633228E-2,1.70685E3,-2.5E0,1.402E0,2.8124267E-2,-2.2010678E-2,3.419579E-2,5.107343E-4,5.025646E-2,-1.2949056E-2],"split_indices":[10,16,21,0,15,24,0,0,5,27,7,0,0,0,0,0,0],"split_type":[0,0,0,0,0,0,0,0,0,0,0,0,0,0,0,0,0],"sum_hessian":[2.4522275E2,1.8098976E1,2.2712378E2,1.1579475E0,1.6941029E1,2.2049817E2,6.6256137E0,1.3809647E1,3.1313813E0,2.1154387E2,8.954299E0,1.0152841E0,2.116097E0,4.6350193E0,2.0690884E2,5.909616E0,3.044683E0],"tree_param":{"num_deleted":"0","num_feature":"30","num_nodes":"17","size_leaf_vector":"1"}},{"base_weights":[-2.0890893E-2,2.1262448E-1,-3.171295E-1,4.289248E-1,2.6675157E-2,-3.2475542E-2,-2.4555695E-1,5.297688E-1,-1.5412451E-1,7.08786E-1,-4.5393977E-2,6.8067E-1,-2.771856E-1,4.0402476E-2,1.6513549E-2,-3.2005873E-2,1.6088683E-2,-4.1978844E-3,4.3474432E-2,2.6816536E-2,-6.0498733E-3,1.0256695E-3,4.919039E-2,-6.2539647E-3,-2.1665363E-2],"categories":[],"categories_nodes":[],"categories_segments":[],"categories_sizes":[],"default_left":[1,0,1,1,0,0,0,0,0,0,0,0,0,0,0,0,0,0,0,0,0,0,0,0,0],"id":20,"left_children":[1,3,5,7,9,-1,11,13,15,17,19,21,23,-1,-1,-1,-1,-1,-1,-1,-1,-1,-1,-1,-1],"loss_changes":[2.1382881E1,6.94301E0,3.0812416E0,4.777401E0,4.6552315E0,0E0,3.5194726E0,3.5256023E0,3.1088088E0,1.2255354E0,3.8470268E0,7.8903735E-1,2.5735054E0,0E0,0E0,0E0,0E0,0E0,0E0,0E0,0E0,0E0,0E0,0E0,0E0],"parents":[2147483647,0,0,1,1,2,2,3,3,4,4,6,6,7,7,8,8,9,9,10,10,11,11,12,12],"right_children":[2,4,6,8,10,-1,12,14,16,18,20,22,24,-1,-1,-1,-1,-1,-1,-1,-1,-1,-1,-1,-1],"split_conditions":[-2.81E0,1.438E0,8.16E-1,1.652E0,8.4E0,-3.2475542E-2,2.5E0,4.6770835E0,6.9375E0,6.4E0,1.64251E3,-4E0,9.683E1,4.0402476E-2,1.6513549E-2,-3.2005873E-2,1.6088683E-2,-4.1978844E-3,4.3474432E-2,2.6816536E-2,-6.0498733E-3,1.0256695E-3,4.919039E-2,-6.2539647E-3,-2.1665363E-2],"split_indices":[21,15,15,6,19,0,17,13,13,19,5,28,21,0,0,0,0,0,0,0,0,0,0,0,0],"split_type":[0,0,0,0,0,0,0,0,0,0,0,0,0,0,0,0,0,0,0,0,0,0,0,0,0],"sum_hessian":[3.0713245E2,1.7190642E2,1.3522604E2,7.886372E1,9.304269E1,2.2528648E1,1.12697395E2,6.731272E1,1.1551004E1,8.046871E0,8.499582E1,3.043699E0,1.09653694E2,2.6832914E1,4.0479805E1,5.5441647E0,6.00684E0,1.4367857E0,6.610085E0,9.075E0,7.5920815E1,1.2938011E0,1.749898E0,5.6453403E1,5.320029E1],"tree_param":{"num_deleted":"0","num_feature":"30","num_nodes":"25","size_leaf_vector":"1"}},{"base_weights":[-1.3077688E-2,-1.4200373E-1,3.7176076E-1,-3.9774176E-1,1.205564E-3,7.1512187E-1,2.2373323E-1,-5.2182144E-1,-1.0429935E-1,3.6372384E-1,-5.9026554E-2,8.4399384E-1,-1.5594484E-2,-7.3989076E-3,4.3633702E-1,-1.5131262E-2,-3.3860397E-2,-2.087293E-2,2.4743486E-2,2.7169807E-2,-9.832857E-3,-3.229199E-2,-1.6038529E-4,1.2650047E-2,4.374784E-2,1.0993602E-2,-2.245845E-2,3.8061213E-2,8.064448E-3],"categories":[],"categories_nodes":[],"categories_segments":[],"categories_sizes":[],"default_left":[1,1,0,1,1,0,0,1,0,1,0,0,0,0,1,0,0,0,0,0,0,0,0,0,0,0,0,0,0],"id":21,"left_children":[1,3,5,7,9,11,13,15,17,19,21,23,-1,25,27,-1,-1,-1,-1,-1,-1,-1,-1,-1,-1,-1,-1,-1,-1],"loss_changes":[1.609103E1,8.894834E0,3.9769993E0,3.119834E0,3.442509E0,3.4481812E0,2.8695288E0,1.8734818E0,5.3024187E0,2.3684666E0,4.42686E0,1.7482185E-1,0E0,3.0034182E0,2.593697E0,0E0,0E0,0E0,0E0,0E0,0E0,0E0,0E0,0E0,0E0,0E0,0E0,0E0,0E0],"parents":[2147483647,0,0,1,1,2,2,3,3,4,4,5,5,6,6,7,7,8,8,9,9,10,10,11,11,13,13,14,14],"right_children":[2,4,6,8,10,12,14,16,18,20,22,24,-1,26,28,-1,-1,-1,-1,-1,-1,-1,-1,-1,-1,-1,-1,-1,-1],"split_conditions":[1.85731E3,-1.1931E2,2E-1,1.202E0,-5.42E-1,1.22E-1,1.94317E3,-1.015E0,4.2E0,2.128E0,-1.75E0,-1.5E0,-1.5594484E-2,4.28E-1,0E0,-1.5131262E-2,-3.3860397E-2,-2.087293E-2,2.4743486E-2,2.7169807E-2,-9.832857E-3,-3.229199E-2,-1.6038529E-4,1.2650047E-2,4.374784E-2,1.0993602E-2,-2.245845E-2,3.8061213E-2,8.064448E-3],"split_indices":[5,21,20,6,24,25,5,24,28,15,26,27,0,24,27,0,0,0,0,0,0,0,0,0,0,0,0,0,0],"split_type":[0,0,0,0,0,0,0,0,0,0,0,0,0,0,0,0,0,0,0,0,0,0,0,0,0,0,0,0,0],"sum_hessian":[3.222493E2,2.4185547E2,8.039382E1,8.618035E1,1.5567511E2,2.3064035E1,5.7329784E1,6.0022186E1,2.6158163E1,2.1462193E1,1.3421292E2,2.0650911E1,2.413124E0,2.7930428E1,2.9399357E1,2.6121458E1,3.3900726E1,1.7378473E1,8.779691E0,1.627449E1,5.187702E0,1.0739567E1,1.2347336E2,1.4846328E0,1.9166279E1,1.8774223E1,9.156204E0,1.2668132E1,1.6731226E1],"tree_param":{"num_deleted":"0","num_feature":"30","num_nodes":"29","size_leaf_vector":"1"}},{"base_weights":[2.8539337E-3,-1.1871069E-1,1.23695485E-1,2.7281958E-1,-1.684919E-1,-7.1907304E-2,2.2235915E-1,6.295224E-1,-2.6369065E-2,-4.550268E-1,-1.0253601E-1,-2.792386E-1,2.878043E-1,9.245663E-1,1.5957968E-1,-1.9427527E-2,4.1784063E-2,1.3570847E-2,-2.7046744E-2,-8.74361E-3,1.1692334E-2,5.0654627E-2,-1.8709779E-2,2.7114157E-2,-2.5902608E-2,5.3756893E-2,5.2325865E-3,1.1920197E-3,2.5185352E-2],"categories":[],"categories_nodes":[],"categories_segments":[],"categories_sizes":[],"default_left":[1,0,0,0,0,0,0,0,0,0,1,0,0,0,0,0,0,0,0,0,0,0,0,0,0,0,0,0,0],"id":22,"left_children":[1,3,5,7,9,11,13,15,-1,17,19,21,23,25,27,-1,-1,-1,-1,-1,-1,-1,-1,-1,-1,-1,-1,-1,-1],"loss_changes":[3.6918123E0,2.4880545E0,2.4480374E0,4.4751635E0,2.0658119E0,3.2879186E0,3.5560408E0,2.5276008E0,0E0,1.4339361E0,2.2832494E0,3.7894428E0,3.6067922E0,7.128973E-1,3.64671E0,0E0,0E0,0E0,0E0,0E0,0E0,0E0,0E0,0E0,0E0,0E0,0E0,0E0,0E0],"parents":[2147483647,0,0,1,1,2,2,3,3,4,4,5,5,6,6,7,7,9,9,10,10,11,11,12,12,13,13,14,14],"right_children":[2,4,6,8,10,12,14,16,-1,18,20,22,24,26,28,-1,-1,-1,-1,-1,-1,-1,-1,-1,-1,-1,-1,-1,-1],"split_conditions":[-3E-1,-3.3333334E-1,-3.54E-1,-1E0,-3.6E0,1.86E0,9.36E-1,1.125E1,-2.6369065E-2,2.5E0,1.62E1,6.5E-1,1.492E0,1.122E0,1.45E0,-1.9427527E-2,4.1784063E-2,1.3570847E-2,-2.7046744E-2,-8.74361E-3,1.1692334E-2,5.0654627E-2,-1.8709779E-2,2.7114157E-2,-2.5902608E-2,5.3756893E-2,5.2325865E-3,1.1920197E-3,2.5185352E-2],"split_indices":[28,29,24,28,28,15,6,19,0,17,10,16,6,15,15,0,0,0,0,0,0,0,0,0,0,0,0,0,0],"split_type":[0,0,0,0,0,0,0,0,0,0,0,0,0,0,0,0,0,0,0,0,0,0,0,0,0,0,0,0,0],"sum_hessian":[2.4931409E2,1.24294E2,1.25020096E2,1.3515326E1,1.1077867E2,4.200852E1,8.301157E1,9.495738E0,4.019588E0,1.9624443E1,9.115423E1,2.6790607E1,1.5217909E1,5.6858983E0,7.7325676E1,1.4500844E0,8.045653E0,1.8469696E0,1.7777473E1,7.5416664E1,1.5737565E1,1.171941E0,2.5618668E1,1.181421E1,3.4036987E0,4.540743E0,1.1451555E0,5.621947E1,2.1106205E1],"tree_param":{"num_deleted":"0","num_feature":"30","num_nodes":"29","size_leaf_vector":"1"}},{"base_weights":[1.3764894E-2,5.256169E-1,-9.3440406E-2,6.055352E-1,-2.5582364E-2,-2.3992865E-1,1.3070475E-1,9.669621E-2,6.8082136E-1,-1.5436721E-1,-5.704891E-1,-2.0953391E-1,2.3051165E-1,-2.56562E-2,1.9128231E-2,3.8571913E-2,8.464981E-3,-2.7816951E-2,-4.6002823E-3,-1.5643602E-2,-3.3551108E-2,4.1406475E-2,-1.5589075E-2,-2.2817928E-2,1.4134705E-2],"categories":[],"categories_nodes":[],"categories_segments":[],"categories_sizes":[],"default_left":[1,1,1,1,0,0,0,0,1,0,1,0,0,0,0,0,0,0,0,0,0,0,0,0,0],"id":23,"left_children":[1,3,5,7,-1,9,11,13,15,17,19,21,23,-1,-1,-1,-1,-1,-1,-1,-1,-1,-1,-1,-1],"loss_changes":[1.6715466E1,4.682477E0,8.304901E0,1.8278732E0,0E0,4.231868E0,3.4521904E0,1.5101837E0,1.8577461E0,3.0247016E0,5.938196E-1,2.7259202E0,2.923975E0,0E0,0E0,0E0,0E0,0E0,0E0,0E0,0E0,0E0,0E0,0E0,0E0],"parents":[2147483647,0,0,1,1,2,2,3,3,5,5,6,6,7,7,8,8,9,9,10,10,11,11,12,12],"right_children":[2,4,6,8,-1,10,12,14,16,18,20,22,24,-1,-1,-1,-1,-1,-1,-1,-1,-1,-1,-1,-1],"split_conditions":[1.66487E3,4E-1,1.22E-1,8.8E-1,-2.5582364E-2,1.93898E3,1.75205E3,1.12E1,1.04E0,8.44E-1,8.8E0,2.5E0,1.176E0,-2.56562E-2,1.9128231E-2,3.8571913E-2,8.464981E-3,-2.7816951E-2,-4.6002823E-3,-1.5643602E-2,-3.3551108E-2,4.1406475E-2,-1.5589075E-2,-2.2817928E-2,1.4134705E-2],"split_indices":[5,11,25,15,0,5,14,19,25,15,19,17,7,0,0,0,0,0,0,0,0,0,0,0,0],"split_type":[0,0,0,0,0,0,0,0,0,0,0,0,0,0,0,0,0,0,0,0,0,0,0,0,0],"sum_hessian":[3.0272452E2,5.1748455E1,2.5097606E2,4.8433044E1,3.315412E0,1.517383E2,9.9237755E1,6.536816E0,4.189623E1,1.2170378E2,3.0034515E1,2.2258799E1,7.697895E1,1.8325717E0,4.704244E0,3.5159534E1,6.736692E0,1.5281393E1,1.0642239E2,9.584994E0,2.0449522E1,1.359778E0,2.0899021E1,4.8883843E0,7.209057E1],"tree_param":{"num_deleted":"0","num_feature":"30","num_nodes":"25","size_leaf_vector":"1"}},{"base_weights":[-5.5802288E-3,-1.2109878E-1,3.5413525E-1,-3.816901E-1,1.7985905E-2,6.5211165E-1,2.183083E-1,-4.8483813E-1,-1.2830292E-1,4.270289E-1,-3.8918592E-2,8.0871964E-1,-3.69845E-1,-4.551277E-1,2.7119264E-1,2.0980749E-3,-2.7922196E-2,3.909379E-2,-1.4884295E-2,-2.761904E-2,2.820513E-2,3.114286E-3,-1.1999505E-2,4.4643734E-2,-8.98544E-3,-2.5343299E-2,-3.953468E-3,-2.8755052E-2,-6.2764543E-3,1.582487E-2,-2.9230759E-2],"categories":[],"categories_nodes":[],"categories_segments":[],"categories_sizes":[],"default_left":[1,1,0,1,1,0,0,0,1,0,1,0,0,0,1,0,0,0,0,0,0,0,0,0,0,0,0,0,0,0,0],"id":24,"left_children":[1,3,5,7,9,11,13,15,17,19,21,23,25,27,29,-1,-1,-1,-1,-1,-1,-1,-1,-1,-1,-1,-1,-1,-1,-1,-1],"loss_changes":[1.3404868E1,8.855547E0,3.0314837E0,2.1594963E0,3.7440064E0,4.148239E0,2.095325E0,2.351983E0,4.2337627E0,2.9483423E0,2.8942852E0,1.9212494E0,1.1458951E-1,1.0198784E-1,2.199763E0,0E0,0E0,0E0,0E0,0E0,0E0,0E0,0E0,0E0,0E0,0E0,0E0,0E0,0E0,0E0,0E0],"parents":[2147483647,0,0,1,1,2,2,3,3,4,4,5,5,6,6,7,7,8,8,9,9,10,10,11,11,12,12,13,13,14,14],"right_children":[2,4,6,8,10,12,14,16,18,20,22,24,26,28,30,-1,-1,-1,-1,-1,-1,-1,-1,-1,-1,-1,-1,-1,-1,-1,-1],"split_conditions":[1.85731E3,-1.1931E2,2E-1,4.2E0,7.66E-1,1.22E-1,8.9E-1,-9.6E-1,-8.92E-1,4.5E-1,2.4E-1,1.342E0,4.8020835E0,-2E0,5E-1,2.0980749E-3,-2.7922196E-2,3.909379E-2,-1.4884295E-2,-2.761904E-2,2.820513E-2,3.114286E-3,-1.1999505E-2,4.4643734E-2,-8.98544E-3,-2.5343299E-2,-3.953468E-3,-2.8755052E-2,-6.2764543E-3,1.582487E-2,-2.9230759E-2],"split_indices":[5,21,20,8,15,25,15,24,25,15,25,24,13,28,29,0,0,0,0,0,0,0,0,0,0,0,0,0,0,0,0],"split_type":[0,0,0,0,0,0,0,0,0,0,0,0,0,0,0,0,0,0,0,0,0,0,0,0,0,0,0,0,0,0,0],"sum_hessian":[3.2055856E2,2.431402E2,7.741837E1,8.400422E1,1.5913599E2,2.305011E1,5.436826E1,5.905207E1,2.4952145E1,1.8640358E1,1.4049562E2,2.0168135E1,2.8819752E0,3.404816E0,5.0963444E1,7.292102E0,5.1759968E1,3.3476324E0,2.1604513E1,1.9165494E0,1.672381E1,9.391572E1,4.65799E1,1.8674828E1,1.4933069E0,1.4537697E0,1.4282055E0,1.9501221E0,1.4546937E0,4.899968E1,1.9637663E0],"tree_param":{"num_deleted":"0","num_feature":"30","num_nodes":"31","size_leaf_vector":"1"}},{"base_weights":[-3.1041717E-3,-3.1013095E-1,5.936117E-2,5.8365685E-1,-3.857339E-1,7.6834995E-1,4.3196216E-2,-1.694946E-2,5.4583844E-2,2.5910676E-2,-4.2427796E-1,6.0584188E-2,-1.9770293E-3,-4.663644E-2,1.873497E-1,-2.3190929E-2,1.8331125E-2,-6.3006557E-3,1.1132426E-2,-9.7996425E-3,1.5876304E-2],"categories":[],"categories_nodes":[],"categories_segments":[],"categories_sizes":[],"default_left":[1,0,0,0,0,0,0,0,0,0,1,0,0,0,1,0,0,0,0,0,0],"id":25,"left_children":[1,3,5,7,9,11,13,-1,-1,-1,15,-1,-1,17,19,-1,-1,-1,-1,-1,-1],"loss_changes":[4.805385E0,3.0873585E0,2.3534384E0,2.104988E0,1.6015563E0,1.6892176E0,2.6590297E0,0E0,0E0,0E0,1.3766761E0,0E0,0E0,2.7402685E0,3.993187E0,0E0,0E0,0E0,0E0,0E0,0E0],"parents":[2147483647,0,0,1,1,2,2,3,3,4,4,5,5,6,6,10,10,13,13,14,14],"right_children":[2,4,6,8,10,12,14,-1,-1,-1,16,-1,-1,18,20,-1,-1,-1,-1,-1,-1],"split_conditions":[9E0,-3.3333334E-1,-2.5E0,5.2E0,7E-1,1.104E0,4.6E0,-1.694946E-2,5.4583844E-2,2.5910676E-2,4.8E0,6.0584188E-2,-1.9770293E-3,5.4E0,-1.0104166E0,-2.3190929E-2,1.8331125E-2,-6.3006557E-3,1.1132426E-2,-9.7996425E-3,1.5876304E-2],"split_indices":[10,29,27,17,16,16,8,0,0,0,18,0,0,17,22,0,0,0,0,0,0],"split_type":[0,0,0,0,0,0,0,0,0,0,0,0,0,0,0,0,0,0,0,0,0],"sum_hessian":[2.4860071E2,4.135748E1,2.0724323E2,2.7013812E0,3.8656097E1,3.5825408E0,2.0366069E2,1.0773909E0,1.6239904E0,1.0719391E0,3.758416E1,1.9904563E0,1.5920844E0,1.2588744E2,7.7773254E1,3.618849E1,1.3956664E0,9.7638695E1,2.8248747E1,1.958725E1,5.8186E1],"tree_param":{"num_deleted":"0","num_feature":"30","num_nodes":"21","size_leaf_vector":"1"}},{"base_weights":[1.155861E-2,2.3468356E-1,-2.7976367E-1,4.5940804E-1,4.2424034E-2,-1.1506822E-1,-4.2609036E-1,-1.5415025E-1,5.3015465E-1,1.8776841E-1,-2.781601E-1,1.0250841E-1,-3.0637318E-1,-4.5901525E-1,1.8935535E-2,-2.5708282E-2,2.920658E-2,9.988662E-3,3.4068614E-2,1.5656132E-2,-1.3121495E-2,2.0726247E-2,-2.221735E-2,1.4919071E-2,-2.1534683E-2,-2.2754725E-2,2.3592047E-3,-2.4704115E-2,1.4577719E-2],"categories":[],"categories_nodes":[],"categories_segments":[],"categories_sizes":[],"default_left":[1,1,0,0,0,0,1,0,0,0,0,0,0,1,0,0,0,0,0,0,0,0,0,0,0,0,0,0,0],"id":26,"left_children":[1,3,5,7,9,11,13,15,17,19,21,23,25,27,-1,-1,-1,-1,-1,-1,-1,-1,-1,-1,-1,-1,-1,-1,-1],"loss_changes":[1.970803E1,7.3973894E0,3.120491E0,3.512989E0,4.41433E0,2.6639144E0,2.0094357E0,2.6784205E0,3.4160614E0,3.751002E0,3.5923455E0,3.297251E0,1.8042722E0,1.9075804E0,0E0,0E0,0E0,0E0,0E0,0E0,0E0,0E0,0E0,0E0,0E0,0E0,0E0,0E0,0E0],"parents":[2147483647,0,0,1,1,2,2,3,3,4,4,5,5,6,6,7,7,8,8,9,9,10,10,11,11,12,12,13,13],"right_children":[2,4,6,8,10,12,14,16,18,20,22,24,26,28,-1,-1,-1,-1,-1,-1,-1,-1,-1,-1,-1,-1,-1,-1,-1],"split_conditions":[-2.81E0,1.07E0,9.683E1,-1.015E0,1.56E1,1.77183E3,2.06E1,1.5E0,1.8002E3,1.734E0,-1.6301E2,7.9618053E0,1.66E1,2.15E0,1.8935535E-2,-2.5708282E-2,2.920658E-2,9.988662E-3,3.4068614E-2,1.5656132E-2,-1.3121495E-2,2.0726247E-2,-2.221735E-2,1.4919071E-2,-2.1534683E-2,-2.2754725E-2,2.3592047E-3,-2.4704115E-2,1.4577719E-2],"split_indices":[21,6,21,24,10,14,19,9,14,16,21,13,19,7,0,0,0,0,0,0,0,0,0,0,0,0,0,0,0],"split_type":[0,0,0,0,0,0,0,0,0,0,0,0,0,0,0,0,0,0,0,0,0,0,0,0,0,0,0,0,0],"sum_hessian":[3.0118448E2,1.706655E2,1.30519E2,7.804836E1,9.2617134E1,6.2245754E1,6.827324E1,7.9471197E0,7.010124E1,6.401067E1,2.8606459E1,2.9340322E1,3.2905434E1,6.6002686E1,2.2705557E0,5.5461583E0,2.4009614E0,2.2739939E1,4.73613E1,5.0307438E1,1.3703236E1,5.246045E0,2.3360413E1,2.1779844E1,7.560479E0,2.2960201E1,9.9452305E0,6.3383114E1,2.619573E0],"tree_param":{"num_deleted":"0","num_feature":"30","num_nodes":"29","size_leaf_vector":"1"}},{"base_weights":[5.3514987E-3,-2.0711462E-1,2.0122007E-1,-3.173284E-1,6.620054E-2,1.1293639E-1,4.6567044E-1,-4.4789633E-1,-9.456995E-2,3.2050154E-1,-2.347216E-1,4.3102625E-1,2.7952807E-2,7.5274426E-1,1.7985286E-1,-3.8137098E-4,-2.5190039E-2,1.3058159E-2,-1.0684553E-2,-2.1430591E-2,2.2726165E-2,-3.0582905E-2,6.871165E-3,4.2088028E-2,1.2986814E-2,-6.044788E-3,1.18849855E-2,4.1216854E-2,2.9253298E-3,1.7052338E-2,-3.260083E-2],"categories":[],"categories_nodes":[],"categories_segments":[],"categories_sizes":[],"default_left":[1,1,0,1,1,0,1,0,1,0,0,0,0,1,0,0,0,0,0,0,0,0,0,0,0,0,0,0,0,0,0],"id":27,"left_children":[1,3,5,7,9,11,13,15,17,19,21,23,25,27,29,-1,-1,-1,-1,-1,-1,-1,-1,-1,-1,-1,-1,-1,-1,-1,-1],"loss_changes":[1.3346815E1,4.655543E0,3.8431058E0,3.151579E0,3.5218918E0,3.405395E0,3.2650461E0,1.6936016E0,1.8291318E0,2.688047E0,3.0587559E0,1.6517401E0,3.1768658E0,9.6381855E-1,3.1832435E0,0E0,0E0,0E0,0E0,0E0,0E0,0E0,0E0,0E0,0E0,0E0,0E0,0E0,0E0,0E0,0E0],"parents":[2147483647,0,0,1,1,2,2,3,3,4,4,5,5,6,6,7,7,8,8,9,9,10,10,11,11,12,12,13,13,14,14],"right_children":[2,4,6,8,10,12,14,16,18,20,22,24,26,28,30,-1,-1,-1,-1,-1,-1,-1,-1,-1,-1,-1,-1,-1,-1,-1,-1],"split_conditions":[-2.561E1,1.78382E3,1.83E0,-1.1931E2,1.8E-2,9.5E0,6.8958335E0,-1.015E0,-5.42E-1,1.062E0,4.25E0,1.244E0,1.84422E3,1.578E0,1.756E0,-3.8137098E-4,-2.5190039E-2,1.3058159E-2,-1.0684553E-2,-2.1430591E-2,2.2726165E-2,-3.0582905E-2,6.871165E-3,4.2088028E-2,1.2986814E-2,-6.044788E-3,1.18849855E-2,4.1216854E-2,2.9253298E-3,1.7052338E-2,-3.260083E-2],"split_indices":[21,5,16,21,25,10,13,24,24,6,8,6,5,15,6,0,0,0,0,0,0,0,0,0,0,0,0,0,0,0,0],"split_type":[0,0,0,0,0,0,0,0,0,0,0,0,0,0,0,0,0,0,0,0,0,0,0,0,0,0,0,0,0,0,0],"sum_hessian":[3.1871646E2,1.5285327E2,1.658632E2,1.08813446E2,4.403982E1,1.2542019E2,4.044301E1,6.7965416E1,4.084803E1,2.3833622E1,2.02062E1,2.5584953E1,9.9835236E1,1.9362127E1,2.1080881E1,7.7857866E0,6.017963E1,9.947937E0,3.0900091E1,3.2833412E0,2.055028E1,9.718732E0,1.0487469E1,6.377698E0,1.9207254E1,5.8642635E1,4.11926E1,1.73822E1,1.9799268E0,1.8153288E1,2.9275942E0],"tree_param":{"num_deleted":"0","num_feature":"30","num_nodes":"31","size_leaf_vector":"1"}},{"base_weights":[8.021426E-3,8.126581E-2,-2.3789738E-1,1.14267925E-2,3.6971155E-1,-4.1590753E-1,3.5552442E-2,-4.4857863E-2,4.6093827E-1,6.4712095E-1,-1.0337295E-2,4.960305E-1,-4.9220526E-1,-4.0694988E-1,3.7566316E-1,4.3234058E-2,-3.6866472E-3,3.2736838E-2,-1.38215795E-2,3.8653336E-2,-2.1845402E-2,-1.5230581E-2,1.8811904E-2,-1.6457524E-2,5.2741934E-2,1.2570214E-2,-2.7327402E-2,5.8012744E-3,-2.8412942E-2,5.295685E-2,-3.7668967E-3],"categories":[],"categories_nodes":[],"categories_segments":[],"categories_sizes":[],"default_left":[0,1,1,1,0,0,1,0,0,0,0,0,0,0,0,0,0,0,0,0,0,0,0,0,0,0,0,0,0,0,0],"id":28,"left_children":[1,3,5,7,9,11,13,15,17,19,21,23,25,27,29,-1,-1,-1,-1,-1,-1,-1,-1,-1,-1,-1,-1,-1,-1,-1,-1],"loss_changes":[4.475537E0,3.8508697E0,2.7908301E0,3.944763E0,3.9361382E0,2.653101E0,3.6757956E0,3.7077634E0,2.660031E0,3.281392E0,2.0155783E0,1.8094449E0,1.4487367E0,9.6460974E-1,4.3198404E0,0E0,0E0,0E0,0E0,0E0,0E0,0E0,0E0,0E0,0E0,0E0,0E0,0E0,0E0,0E0,0E0],"parents":[2147483647,0,0,1,1,2,2,3,3,4,4,5,5,6,6,7,7,8,8,9,9,10,10,11,11,12,12,13,13,14,14],"right_children":[2,4,6,8,10,12,14,16,18,20,22,24,26,28,30,-1,-1,-1,-1,-1,-1,-1,-1,-1,-1,-1,-1,-1,-1,-1,-1],"split_conditions":[1.744E0,5.4E0,1.83422E3,4.2E0,3.36E-1,1.65629E3,1.04E1,2.2E0,1.84422E3,5.8E0,1.3E1,1.59746E3,-1.25E0,9.1E-1,1.298E0,4.3234058E-2,-3.6866472E-3,3.2736838E-2,-1.38215795E-2,3.8653336E-2,-2.1845402E-2,-1.5230581E-2,1.8811904E-2,-1.6457524E-2,5.2741934E-2,1.2570214E-2,-2.7327402E-2,5.8012744E-3,-2.8412942E-2,5.295685E-2,-3.7668967E-3],"split_indices":[6,17,5,28,25,5,10,17,5,8,19,5,22,16,16,0,0,0,0,0,0,0,0,0,0,0,0,0,0,0,0],"split_type":[0,0,0,0,0,0,0,0,0,0,0,0,0,0,0,0,0,0,0,0,0,0,0,0,0,0,0,0,0,0,0],"sum_hessian":[2.463996E2,1.9036954E2,5.6030064E1,1.5409853E2,3.6271008E1,3.3621925E1,2.240814E1,1.3775058E2,1.6347948E1,2.0560518E1,1.5710487E1,2.1710851E0,3.145084E1,9.652803E0,1.2755337E1,3.3479388E0,1.3440265E2,1.303429E1,3.313659E0,1.8677382E1,1.8831375E0,9.040544E0,6.669944E0,1.0425501E0,1.1285352E0,1.8949301E0,2.955591E1,2.3416688E0,7.3111343E0,4.534728E0,8.220609E0],"tree_param":{"num_deleted":"0","num_feature":"30","num_nodes":"31","size_leaf_vector":"1"}},{"base_weights":[-2.6168797E-2,9.937354E-2,-4.3051735E-1,4.678245E-1,1.2312174E-2,-4.6233675E-1,1.8891651E-2,5.637107E-1,-3.6722478E-1,2.5072736E-1,-4.3322977E-2,-4.9557632E-1,2.1114948E-1,3.2223422E-2,-1.1300943E-3,-2.9468954E-2,1.2929241E-2,-7.0482916E-3,2.084014E-2,4.567593E-3,-7.7689574E-3,-2.6917337E-2,-5.532801E-3,-1.9119991E-2,3.0574827E-2],"categories":[],"categories_nodes":[],"categories_segments":[],"categories_sizes":[],"default_left":[1,1,1,1,0,1,0,1,0,0,0,1,0,0,0,0,0,0,0,0,0,0,0,0,0],"id":29,"left_children":[1,3,5,7,9,11,-1,13,15,17,19,21,23,-1,-1,-1,-1,-1,-1,-1,-1,-1,-1,-1,-1],"loss_changes":[1.5393246E1,7.4223175E0,2.0222788E0,3.7486067E0,2.5089564E0,1.6618547E0,0E0,1.9118576E0,8.6996984E-1,2.3862917E0,2.3314734E0,1.0366764E0,1.1778971E0,0E0,0E0,0E0,0E0,0E0,0E0,0E0,0E0,0E0,0E0,0E0,0E0],"parents":[2147483647,0,0,1,1,2,2,3,3,4,4,5,5,7,7,8,8,9,9,10,10,11,11,12,12],"right_children":[2,4,6,8,10,12,-1,14,16,18,20,22,24,-1,-1,-1,-1,-1,-1,-1,-1,-1,-1,-1,-1],"split_conditions":[9.259E1,1.63362E3,2.06E1,3.3333334E-1,-1.5573E2,1.50625E1,1.8891651E-2,1.172E0,5E-1,3.7534723E0,4.4E0,6.4E0,1.388E0,3.2223422E-2,-1.1300943E-3,-2.9468954E-2,1.2929241E-2,-7.0482916E-3,2.084014E-2,4.567593E-3,-7.7689574E-3,-2.6917337E-2,-5.532801E-3,-1.9119991E-2,3.0574827E-2],"split_indices":[21,5,19,11,21,13,0,25,11,13,17,8,16,0,0,0,0,0,0,0,0,0,0,0,0],"split_type":[0,0,0,0,0,0,0,0,0,0,0,0,0,0,0,0,0,0,0,0,0,0,0,0,0],"sum_hessian":[3.0139554E2,2.305641E2,7.083142E1,4.323146E1,1.8733264E2,6.856069E1,2.2707334E0,3.90701E1,4.1613636E0,3.4780396E1,1.5255225E2,6.55878E1,2.9728904E0,3.425296E1,4.8171363E0,3.1141088E0,1.0472548E0,1.0400868E1,2.4379526E1,6.9367546E1,8.318469E1,5.8670086E1,6.9177136E0,1.2155545E0,1.7573359E0],"tree_param":{"num_deleted":"0","num_feature":"30","num_nodes":"25","size_leaf_vector":"1"}},{"base_weights":[6.4774244E-3,-1.1347006E-1,3.566696E-1,-3.1589356E-1,-3.0393894E-3,6.547872E-1,2.2877255E-1,-4.4715646E-1,-2.640081E-2,3.4894973E-1,-6.499031E-2,7.780389E-1,-1.5765652E-2,2.768596E-1,-3.1142732E-2,3.8233835E-3,-2.6729027E-2,-1.7766615E-2,2.240757E-2,2.5318393E-2,-1.4477073E-2,1.1810169E-2,-7.7447155E-3,4.28492E-2,-7.219168E-5,2.265092E-2,-6.2556675E-4],"categories":[],"categories_nodes":[],"categories_segments":[],"categories_sizes":[],"default_left":[1,1,0,1,1,0,1,0,0,1,0,0,0,1,0,0,0,0,0,0,0,0,0,0,0,0,0],"id":30,"left_children":[1,3,5,7,9,11,13,15,17,19,21,23,-1,25,-1,-1,-1,-1,-1,-1,-1,-1,-1,-1,-1,-1,-1],"loss_changes":[1.346523E1,5.3375607E0,2.9684095E0,3.1911259E0,3.4142027E0,3.1167545E0,2.5790632E0,2.6927729E0,4.429718E0,2.5019743E0,3.6406627E0,1.3302088E0,0E0,2.8764844E0,0E0,0E0,0E0,0E0,0E0,0E0,0E0,0E0,0E0,0E0,0E0,0E0,0E0],"parents":[2147483647,0,0,1,1,2,2,3,3,4,4,5,5,6,6,7,7,8,8,9,9,10,10,11,11,13,13],"right_children":[2,4,6,8,10,12,14,16,18,20,22,24,-1,26,-1,-1,-1,-1,-1,-1,-1,-1,-1,-1,-1,-1,-1],"split_conditions":[1.85557E3,-1.1931E2,2E-1,1.202E0,-5.42E-1,1.22E-1,5E-1,-9.6E-1,1.79666E3,1.495E0,9.16E-1,1.342E0,-1.5765652E-2,1.376E0,-3.1142732E-2,3.8233835E-3,-2.6729027E-2,-1.7766615E-2,2.240757E-2,2.5318393E-2,-1.4477073E-2,1.1810169E-2,-7.7447155E-3,4.28492E-2,-7.219168E-5,2.265092E-2,-6.2556675E-4],"split_indices":[5,21,20,6,24,25,29,24,5,16,15,24,0,7,0,0,0,0,0,0,0,0,0,0,0,0,0],"split_type":[0,0,0,0,0,0,0,0,0,0,0,0,0,0,0,0,0,0,0,0,0,0,0,0,0,0,0],"sum_hessian":[3.1860156E2,2.3781975E2,8.0781815E1,8.328843E1,1.5453133E2,2.3015324E1,5.7766495E1,5.693027E1,2.6358154E1,2.2434067E1,1.3209726E2,2.0596508E1,2.4188159E0,5.531788E1,2.4486141E0,8.163077E0,4.8767197E1,1.5715989E1,1.0642165E1,1.8162971E1,4.271096E0,2.9991922E1,1.0210533E2,1.8612072E1,1.9844356E0,3.4033787E1,2.1284094E1],"tree_param":{"num_deleted":"0","num_feature":"30","num_nodes":"27","size_leaf_vector":"1"}},{"base_weights":[-6.7566163E-3,-1.8074882E-1,6.383714E-2,6.549392E-1,-2.5710553E-1,4.7498512E-1,2.5784547E-2,-1.925904E-2,1.0276004E0,-2.8977746E-1,2.8407935E-2,7.1636516E-1,-2.915032E-1,2.2238654E-3,7.399761E-1,4.630096E-3,6.4255334E-2,-1.978342E-2,-2.5208497E-3,4.529085E-2,-1.9483661E-2,-2.316286E-2,5.2798144E-3,-1.0003676E-2,3.3632193E-3,5.1899474E-2,-5.0690834E-4],"categories":[],"categories_nodes":[],"categories_segments":[],"categories_sizes":[],"default_left":[1,0,0,1,1,0,0,0,0,0,0,0,0,0,0,0,0,0,0,0,0,0,0,0,0,0,0],"id":31,"left_children":[1,3,5,7,9,11,13,-1,15,17,-1,19,21,23,25,-1,-1,-1,-1,-1,-1,-1,-1,-1,-1,-1,-1],"loss_changes":[3.147538E0,4.8872967E0,2.8408997E0,2.9049006E0,2.011034E0,3.0564022E0,2.8248258E0,0E0,1.094068E0,1.6664114E0,0E0,2.866251E0,3.4879965E-1,2.1661952E0,1.2090244E0,0E0,0E0,0E0,0E0,0E0,0E0,0E0,0E0,0E0,0E0,0E0,0E0],"parents":[2147483647,0,0,1,1,2,2,3,3,4,4,5,5,6,6,8,8,9,9,11,11,12,12,13,13,14,14],"right_children":[2,4,6,8,10,12,14,-1,16,18,-1,20,22,24,26,-1,-1,-1,-1,-1,-1,-1,-1,-1,-1,-1,-1],"split_conditions":[-2.25E0,-3.3333334E-1,-1.6E0,1.76932E3,2.544E0,1.85571E3,8E-1,-1.925904E-2,3.8020833E0,3.5E0,2.8407935E-2,1.3145833E1,1.97392E3,-3E-1,1E0,4.630096E-3,6.4255334E-2,-1.978342E-2,-2.5208497E-3,4.529085E-2,-1.9483661E-2,-2.316286E-2,5.2798144E-3,-1.0003676E-2,3.3632193E-3,5.1899474E-2,-5.0690834E-4],"split_indices":[28,29,28,14,7,14,11,0,13,18,0,4,14,28,27,0,0,0,0,0,0,0,0,0,0,0,0],"split_type":[0,0,0,0,0,0,0,0,0,0,0,0,0,0,0,0,0,0,0,0,0,0,0,0,0,0,0],"sum_hessian":[2.5431711E2,7.295204E1,1.8136507E2,5.4731913E0,6.747885E1,1.4391074E1,1.66974E2,1.4348483E0,4.038343E0,6.553328E1,1.9455745E0,1.0994207E1,3.396867E0,1.6261263E2,4.361363E0,1.1656196E0,2.8727236E0,4.498104E1,2.0552237E1,9.540973E0,1.4532347E0,2.2549505E0,1.1419165E0,3.9056854E1,1.2355578E2,2.8466432E0,1.5147197E0],"tree_param":{"num_deleted":"0","num_feature":"30","num_nodes":"27","size_leaf_vector":"1"}},{"base_weights":[-1.3513772E-2,1.828256E-1,-2.8004313E-1,3.4288794E-1,-6.732532E-3,-9.5102414E-2,-3.89462E-1,-2.568847E-1,4.0122643E-1,-2.3941717E-1,1.8448244E-1,-5.2279735E-1,1.308296E-1,-4.1906995E-1,2.804291E-2,-3.1011982E-2,9.154412E-3,2.6742471E-2,9.443164E-3,3.8381364E-2,-1.51038235E-2,-1.3482401E-2,1.6610434E-2,-3.1088963E-2,6.921695E-3,2.9885411E-2,-7.298046E-3,-2.3110043E-2,3.9428333E-3],"categories":[],"categories_nodes":[],"categories_segments":[],"categories_sizes":[],"default_left":[1,1,0,0,1,1,1,0,1,0,0,1,0,1,0,0,0,0,0,0,0,0,0,0,0,0,0,0,0],"id":32,"left_children":[1,3,5,7,9,11,13,15,17,19,21,23,25,27,-1,-1,-1,-1,-1,-1,-1,-1,-1,-1,-1,-1,-1,-1,-1],"loss_changes":[1.5639544E1,5.2250147E0,2.5279016E0,3.369254E0,3.5940783E0,4.749046E0,2.4666576E0,1.5338781E0,2.3241167E0,2.530363E0,3.0655975E0,1.1950259E0,4.286543E0,1.7005911E0,0E0,0E0,0E0,0E0,0E0,0E0,0E0,0E0,0E0,0E0,0E0,0E0,0E0,0E0,0E0],"parents":[2147483647,0,0,1,1,2,2,3,3,4,4,5,5,6,6,7,7,8,8,9,9,10,10,11,11,12,12,13,13],"right_children":[2,4,6,8,10,12,14,16,18,20,22,24,26,28,-1,-1,-1,-1,-1,-1,-1,-1,-1,-1,-1,-1,-1,-1,-1],"split_conditions":[-2.81E0,1.164E0,7.488E1,-1.015E0,6.1458335E0,-4E-1,2.18E1,5.6666665E0,-1.3176E2,-1.8E0,1.15E0,6.92E-1,3.3333334E-1,1.4E1,2.804291E-2,-3.1011982E-2,9.154412E-3,2.6742471E-2,9.443164E-3,3.8381364E-2,-1.51038235E-2,-1.3482401E-2,1.6610434E-2,-3.1088963E-2,6.921695E-3,2.9885411E-2,-7.298046E-3,-2.3110043E-2,3.9428333E-3],"split_indices":[21,6,21,24,4,26,19,17,21,27,7,25,27,4,0,0,0,0,0,0,0,0,0,0,0,0,0,0,0],"split_type":[0,0,0,0,0,0,0,0,0,0,0,0,0,0,0,0,0,0,0,0,0,0,0,0,0,0,0,0,0],"sum_hessian":[2.9688428E2,1.7113292E2,1.2575135E2,9.2346725E1,7.8786194E1,4.7438892E1,7.831246E1,7.884417E0,8.446231E1,3.5425602E1,4.336059E1,1.5943497E1,3.1495396E1,7.648843E1,1.8240341E0,4.0937996E0,3.7906175E0,5.0910126E1,3.3552185E1,1.4160703E0,3.400953E1,1.0440317E1,3.2920277E1,1.3919504E1,2.0239925E0,1.1290919E1,2.0204475E1,7.045711E1,6.031317E0],"tree_param":{"num_deleted":"0","num_feature":"30","num_nodes":"29","size_leaf_vector":"1"}},{"base_weights":[3.4850282E-3,-2.0671451E-1,1.8752608E-1,-3.2416806E-1,2.6814006E-2,5.705108E-1,1.3166451E-1,-4.377946E-1,-9.335944E-2,-1.939389E-1,3.6334145E-1,-2.5563136E-2,6.758286E-1,1.0410213E-1,3.8894977E-2,2.1144233E-3,-2.4902236E-2,9.78245E-4,-3.295743E-2,-3.120068E-2,1.0379403E-3,-5.3033396E-3,2.8221061E-2,3.8827468E-2,7.850707E-3,7.5449436E-3,-1.2324444E-2],"categories":[],"categories_nodes":[],"categories_segments":[],"categories_sizes":[],"default_left":[1,1,1,1,0,0,0,0,0,0,0,0,1,0,0,0,0,0,0,0,0,0,0,0,0,0,0],"id":33,"left_children":[1,3,5,7,9,11,13,15,17,19,21,-1,23,25,-1,-1,-1,-1,-1,-1,-1,-1,-1,-1,-1,-1,-1],"loss_changes":[1.2315788E1,4.085294E0,3.556128E0,2.5545874E0,3.83396E0,2.772841E0,2.5805528E0,1.9314547E0,2.180022E0,2.8979216E0,1.986872E0,0E0,9.15123E-1,2.407405E0,0E0,0E0,0E0,0E0,0E0,0E0,0E0,0E0,0E0,0E0,0E0,0E0,0E0],"parents":[2147483647,0,0,1,1,2,2,3,3,4,4,5,5,6,6,7,7,8,8,9,9,10,10,12,12,13,13],"right_children":[2,4,6,8,10,12,14,16,18,20,22,-1,24,26,-1,-1,-1,-1,-1,-1,-1,-1,-1,-1,-1,-1,-1],"split_conditions":[-2.561E1,4.25E0,7.54E-1,-1.1931E2,1.0416666E0,4.5E-1,3.1066E2,-9.6E-1,-3.451E1,4.28125E0,-2.38E-1,-2.5563136E-2,1.3333334E0,1.1666666E0,3.8894977E-2,2.1144233E-3,-2.4902236E-2,9.78245E-4,-3.295743E-2,-3.120068E-2,1.0379403E-3,-5.3033396E-3,2.8221061E-2,3.8827468E-2,7.850707E-3,7.5449436E-3,-1.2324444E-2],"split_indices":[21,8,15,21,22,15,21,24,21,13,24,0,18,22,0,0,0,0,0,0,0,0,0,0,0,0,0],"split_type":[0,0,0,0,0,0,0,0,0,0,0,0,0,0,0,0,0,0,0,0,0,0,0,0,0,0,0],"sum_hessian":[3.16356E2,1.476251E2,1.6873087E2,9.796522E1,4.9659897E1,2.0305332E1,1.4842552E2,6.5046295E1,3.291892E1,3.0244217E1,1.9415682E1,1.4595059E0,1.8845827E1,1.4346762E2,4.957905E0,7.286259E0,5.7760036E1,2.8246662E1,4.672256E0,9.435962E0,2.0808254E1,5.9644823E0,1.34512E1,1.5365957E1,3.4798691E0,1.2707526E2,1.6392365E1],"tree_param":{"num_deleted":"0","num_feature":"30","num_nodes":"27","size_leaf_vector":"1"}},{"base_weights":[6.7288335E-3,-2.025983E-1,6.4590625E-2,-2.605657E-1,4.290178E-2,3.3954528E-1,1.2921569E-2,-4.2921224E-1,-4.5365677E-3,9.4191605E-1,2.064059E-1,-1.0579692E-1,1.3373893E-1,2.7318705E-2,-2.4282563E-2,7.804581E-3,-2.6107077E-2,5.83201E-2,4.3603107E-3,-6.6814753E-3,2.0118995E-2,-1.5911652E-2,3.4652257E-3,-5.7492114E-4,1.7504279E-2],"categories":[],"categories_nodes":[],"categories_segments":[],"categories_sizes":[],"default_left":[1,1,0,0,0,0,0,0,1,0,0,0,0,0,0,0,0,0,0,0,0,0,0,0,0],"id":34,"left_children":[1,3,5,7,-1,9,11,13,15,17,19,21,23,-1,-1,-1,-1,-1,-1,-1,-1,-1,-1,-1,-1],"loss_changes":[3.0063462E0,3.5288458E0,2.7569737E0,2.2321465E0,0E0,2.2683642E0,2.37595E0,1.9823179E0,1.873874E0,9.109869E-1,1.815028E0,3.132212E0,2.582221E0,0E0,0E0,0E0,0E0,0E0,0E0,0E0,0E0,0E0,0E0,0E0,0E0],"parents":[2147483647,0,0,1,1,2,2,3,3,5,5,6,6,7,7,8,8,9,9,10,10,11,11,12,12],"right_children":[2,4,6,8,-1,10,12,14,16,18,20,22,24,-1,-1,-1,-1,-1,-1,-1,-1,-1,-1,-1,-1],"split_conditions":[-3.25E0,2.544E0,1E0,5.2E0,4.290178E-2,1.6666666E0,1.46E0,2E0,1.93898E3,1.86287E3,-3.3333334E-1,1.256E0,1.42E1,2.7318705E-2,-2.4282563E-2,7.804581E-3,-2.6107077E-2,5.83201E-2,4.3603107E-3,-6.6814753E-3,2.0118995E-2,-1.5911652E-2,3.4652257E-3,-5.7492114E-4,1.7504279E-2],"split_indices":[28,7,16,17,0,18,16,17,5,5,29,6,10,0,0,0,0,0,0,0,0,0,0,0,0],"split_type":[0,0,0,0,0,0,0,0,0,0,0,0,0,0,0,0,0,0,0,0,0,0,0,0,0],"sum_hessian":[2.4613089E2,5.2759815E1,1.9337108E2,5.074097E1,2.018844E0,2.9708271E1,1.6366281E2,3.0182995E1,2.0557976E1,4.2780695E0,2.54302E1,8.261114E1,8.105167E1,1.175905E0,2.900709E1,1.6222185E1,4.335791E0,3.09936E0,1.1787095E0,9.414019E0,1.6016182E1,3.6956924E1,4.5654213E1,4.906219E1,3.1989475E1],"tree_param":{"num_deleted":"0","num_feature":"30","num_nodes":"25","size_leaf_vector":"1"}},{"base_weights":[-2.8140962E-2,-2.11473E-1,1.6153261E-1,-1.1055878E-1,-4.5449638E-1,-3.0632455E-2,3.2451284E-1,-3.5050515E-2,-5.228711E-1,1.5482923E-1,-5.0505596E-1,2.1458323E-1,-2.5284886E-1,2.1464886E-1,6.135349E-1,4.752538E-3,-1.590004E-2,7.3456974E-3,-3.405526E-2,-2.2606838E-2,4.2628158E-2,-2.9529E-2,-1.3827751E-2,-8.579808E-3,2.7218936E-2,2.5510762E-2,-2.0164935E-2,1.4643746E-2,-2.507253E-2,-4.917647E-3,3.4107912E-2],"categories":[],"categories_nodes":[],"categories_segments":[],"categories_sizes":[],"default_left":[0,1,1,0,0,1,0,0,0,0,0,0,0,0,0,0,0,0,0,0,0,0,0,0,0,0,0,0,0,0,0],"id":35,"left_children":[1,3,5,7,9,11,13,15,17,19,21,23,25,27,29,-1,-1,-1,-1,-1,-1,-1,-1,-1,-1,-1,-1,-1,-1,-1,-1],"loss_changes":[1.077036E1,3.810697E0,4.780368E0,3.4860516E0,1.4913397E0,3.9129624E0,2.488038E0,3.571941E0,1.9389954E0,2.198019E0,6.689892E-1,4.44985E0,4.523279E0,3.5817347E0,1.1508999E0,0E0,0E0,0E0,0E0,0E0,0E0,0E0,0E0,0E0,0E0,0E0,0E0,0E0,0E0,0E0,0E0],"parents":[2147483647,0,0,1,1,2,2,3,3,4,4,5,5,6,6,7,7,8,8,9,9,10,10,11,11,12,12,13,13,14,14],"right_children":[2,4,6,8,10,12,14,16,18,20,22,24,26,28,30,-1,-1,-1,-1,-1,-1,-1,-1,-1,-1,-1,-1,-1,-1,-1,-1],"split_conditions":[1.76E-1,1.85557E3,1.084E0,1.772E0,1.5E0,1.184E0,1.868E3,7E-1,-1.146E0,1.25E0,2.5E-1,3.6666667E0,7E-1,3.5E-1,1.158E0,4.752538E-3,-1.590004E-2,7.3456974E-3,-3.405526E-2,-2.2606838E-2,4.2628158E-2,-2.9529E-2,-1.3827751E-2,-8.579808E-3,2.7218936E-2,2.5510762E-2,-2.0164935E-2,1.4643746E-2,-2.507253E-2,-4.917647E-3,3.4107912E-2],"split_indices":[25,5,16,15,9,6,5,27,24,9,20,8,16,24,16,0,0,0,0,0,0,0,0,0,0,0,0,0,0,0,0],"split_type":[0,0,0,0,0,0,0,0,0,0,0,0,0,0,0,0,0,0,0,0,0,0,0,0,0,0,0,0,0,0,0],"sum_hessian":[3.077489E2,1.5643205E2,1.5131683E2,1.1156159E2,4.4870453E1,6.981368E1,8.150316E1,9.521038E1,1.6351217E1,3.2799075E0,4.1590546E1,3.3205635E1,3.6608047E1,6.0317684E1,2.1185474E1,6.567631E1,2.9534067E1,3.138382E0,1.3212835E1,1.9422855E0,1.3376219E0,2.9110428E1,1.2480119E1,1.551628E1,1.7689354E1,5.6352816E0,3.0972767E1,5.491034E1,5.4073434E0,1.824557E0,1.9360916E1],"tree_param":{"num_deleted":"0","num_feature":"30","num_nodes":"31","size_leaf_vector":"1"}},{"base_weights":[-3.5691585E-3,-1.456827E-1,2.381535E-1,-1.6419303E-1,3.9069954E-2,5.2948946E-1,1.4813635E-1,1.656502E-2,-2.4858715E-1,7.75582E-2,7.1475005E-1,7.7987134E-1,9.389265E-2,1.2363686E-2,-8.234402E-3,-1.321767E-2,3.5192054E-2,2.1401145E-2,-3.111871E-2,-2.7633994E-3,4.1484106E-2,-1.7198687E-3,4.743244E-2,-1.0539317E-2,1.3083062E-2],"categories":[],"categories_nodes":[],"categories_segments":[],"categories_sizes":[],"default_left":[1,1,1,0,0,0,0,0,1,0,0,0,0,0,0,0,0,0,0,0,0,0,0,0,0],"id":36,"left_children":[1,3,5,7,-1,9,11,13,15,17,19,21,23,-1,-1,-1,-1,-1,-1,-1,-1,-1,-1,-1,-1],"loss_changes":[1.09241085E1,3.5646915E0,3.00946E0,3.0117087E0,0E0,2.2390442E0,3.0567927E0,2.7039974E0,2.2052374E0,2.4960773E0,1.7552595E0,1.0064411E0,4.412984E0,0E0,0E0,0E0,0E0,0E0,0E0,0E0,0E0,0E0,0E0,0E0,0E0],"parents":[2147483647,0,0,1,1,2,2,3,3,5,5,6,6,7,7,8,8,9,9,10,10,11,11,12,12],"right_children":[2,4,6,8,-1,10,12,14,16,18,20,22,24,-1,-1,-1,-1,-1,-1,-1,-1,-1,-1,-1,-1],"split_conditions":[4.108E1,1.98696E3,-1E0,2.8E-2,3.9069954E-2,-5.4E-2,1.73519E3,6.9166665E0,8.22E-1,-2.88E-1,1E0,1.2E0,1.82755E3,1.2363686E-2,-8.234402E-3,-1.321767E-2,3.5192054E-2,2.1401145E-2,-3.111871E-2,-2.7633994E-3,4.1484106E-2,-1.7198687E-3,4.743244E-2,-1.0539317E-2,1.3083062E-2],"split_indices":[21,5,22,25,0,24,5,4,24,24,16,18,5,0,0,0,0,0,0,0,0,0,0,0,0],"split_type":[0,0,0,0,0,0,0,0,0,0,0,0,0,0,0,0,0,0,0,0,0,0,0,0,0],"sum_hessian":[3.1599442E2,1.9924919E2,1.1674524E2,1.961556E2,3.0935922E0,2.6404928E1,9.034031E1,6.2689316E1,1.3346628E2,8.089575E0,1.8315353E1,6.085852E0,8.425446E1,2.7421501E1,3.5267815E1,1.3200357E2,1.4627097E0,5.649354E0,2.4402208E0,2.4461098E0,1.5869244E1,1.1815666E0,4.9042854E0,2.9828142E1,5.442632E1],"tree_param":{"num_deleted":"0","num_feature":"30","num_nodes":"25","size_leaf_vector":"1"}},{"base_weights":[1.4953415E-2,5.2635003E-2,3.7107693E-3,2.6241997E-1,-4.2554375E-2,-3.2882953E-1,3.3892083E-1,-1.00618444E-1,1.7794621E-1,5.014307E-3,-2.4530515E-2,-2.1426827E-2,2.0073595E-2,-7.7742334E-3,1.577846E-2,-1.0062772E-3,2.7892197E-2],"categories":[],"categories_nodes":[],"categories_segments":[],"categories_sizes":[],"default_left":[0,0,0,0,1,0,0,1,0,0,0,0,0,0,0,0,0],"id":37,"left_children":[1,-1,3,5,7,9,11,13,15,-1,-1,-1,-1,-1,-1,-1,-1],"loss_changes":[2.9050772E0,0E0,2.9755263E0,1.8171484E0,2.7187889E0,3.8436693E-1,1.7986021E0,3.8766518E0,3.347122E0,0E0,0E0,0E0,0E0,0E0,0E0,0E0,0E0],"parents":[2147483647,0,0,2,2,3,3,4,4,5,5,6,6,7,7,8,8],"right_children":[2,-1,4,6,8,10,12,14,16,-1,-1,-1,-1,-1,-1,-1,-1],"split_conditions":[4.5E-1,5.2635003E-2,1E0,5.84E-1,5.2E0,2E0,-3.8E0,3.8E0,1.4E1,5.014307E-3,-2.4530515E-2,-2.1426827E-2,2.0073595E-2,-7.7742334E-3,1.577846E-2,-1.0062772E-3,2.7892197E-2],"split_indices":[15,0,16,16,17,9,28,28,19,0,0,0,0,0,0,0,0],"split_type":[0,0,0,0,0,0,0,0,0,0,0,0,0,0,0,0,0],"sum_hessian":[2.4833397E2,1.6687241E0,2.4666525E2,3.671079E1,2.0995445E2,3.8278966E0,3.2882893E1,1.6662187E2,4.3332592E1,1.152105E0,2.6757915E0,2.0371768E0,3.0845716E1,1.4776796E2,1.8853912E1,2.9104868E1,1.4227725E1],"tree_param":{"num_deleted":"0","num_feature":"30","num_nodes":"17","size_leaf_vector":"1"}},{"base_weights":[-4.163809E-3,1.78121E-1,-2.732E-1,4.692785E-1,6.3394465E-2,-6.072865E-1,-1.9914173E-1,5.22699E-1,-2.842235E-2,2.9440066E-1,-1.0691333E-1,-3.2067105E-1,-3.2511663E-2,3.77051E-2,-2.2801027E-1,2.7926965E-2,-2.1216251E-2,2.0627515E-2,-1.739647E-2,2.3660613E-2,-8.100607E-3,6.294261E-3,-2.4542088E-2,3.1080429E-2,-1.2491707E-2],"categories":[],"categories_nodes":[],"categories_segments":[],"categories_sizes":[],"default_left":[1,1,1,1,0,0,0,1,0,0,0,0,0,0,0,0,0,0,0,0,0,0,0,0,0],"id":38,"left_children":[1,3,5,7,9,11,13,15,-1,17,19,21,-1,-1,23,-1,-1,-1,-1,-1,-1,-1,-1,-1,-1],"loss_changes":[1.4591294E1,5.8951845E0,2.8521528E0,3.0678205E0,5.0827894E0,5.387163E-2,2.919645E0,1.8680439E0,0E0,4.298867E0,2.4624949E0,4.228071E-1,0E0,0E0,1.9664993E0,0E0,0E0,0E0,0E0,0E0,0E0,0E0,0E0,0E0,0E0],"parents":[2147483647,0,0,1,1,2,2,3,3,4,4,5,5,6,6,7,7,9,9,10,10,11,11,14,14],"right_children":[2,4,6,8,10,12,14,16,-1,18,20,22,-1,-1,24,-1,-1,-1,-1,-1,-1,-1,-1,-1,-1],"split_conditions":[1.64E0,1.02E1,8.44E-1,1.63125E1,1.444E0,3.2395833E0,2.5E0,-3.81E0,-2.842235E-2,1.626E0,8.24E-1,1.38E0,-3.2511663E-2,3.77051E-2,8.62E-1,2.7926965E-2,-2.1216251E-2,2.0627515E-2,-1.739647E-2,2.3660613E-2,-8.100607E-3,6.294261E-3,-2.4542088E-2,3.1080429E-2,-1.2491707E-2],"split_indices":[21,10,15,13,15,4,17,21,0,6,16,7,0,0,15,0,0,0,0,0,0,0,0,0,0],"split_type":[0,0,0,0,0,0,0,0,0,0,0,0,0,0,0,0,0,0,0,0,0,0,0,0,0],"sum_hessian":[2.95539E2,1.763747E2,1.1916431E2,4.8980255E1,1.2739444E2,2.0316011E1,9.88483E1,4.705428E1,1.9259768E0,5.3753853E1,7.364059E1,3.750803E0,1.6565208E1,2.1671388E0,9.668115E1,4.5733696E1,1.3205843E0,4.5704697E1,8.049155E0,5.729306E0,6.791128E1,1.1067495E0,2.6440535E0,1.7329552E0,9.49482E1],"tree_param":{"num_deleted":"0","num_feature":"30","num_nodes":"25","size_leaf_vector":"1"}},{"base_weights":[-7.4633257E-3,-2.3312475E-1,1.3780744E-1,-3.3965886E-1,1.3306068E-1,4.011154E-1,6.3424654E-2,-3.8273817E-1,1.0450334E-1,-4.5153955E-1,2.6919895E-1,5.1908255E-2,5.9646505E-1,-7.183317E-2,2.1293563E-1,-2.0390658E-2,2.224384E-2,-9.588797E-3,3.4034263E-2,-2.9454622E-2,2.7127916E-3,4.1929062E-2,6.0399077E-3,1.9277016E-2,-2.2334848E-2,3.6035653E-2,-6.0616096E-4,6.294797E-4,-3.190406E-2,1.9843003E-2,-1.1143003E-3],"categories":[],"categories_nodes":[],"categories_segments":[],"categories_sizes":[],"default_left":[1,1,1,0,0,0,0,0,1,1,0,0,1,0,0,0,0,0,0,0,0,0,0,0,0,0,0,0,0,0,0],"id":39,"left_children":[1,3,5,7,9,11,13,15,17,19,21,23,25,27,29,-1,-1,-1,-1,-1,-1,-1,-1,-1,-1,-1,-1,-1,-1,-1,-1],"loss_changes":[1.0025756E1,4.7172766E0,3.619212E0,1.820507E0,2.326792E0,2.752429E0,2.973586E0,1.9462328E0,1.6691285E0,4.2208362E-1,1.8506931E0,2.7892792E0,1.9800091E0,3.715352E0,3.0257788E0,0E0,0E0,0E0,0E0,0E0,0E0,0E0,0E0,0E0,0E0,0E0,0E0,0E0,0E0,0E0,0E0],"parents":[2147483647,0,0,1,1,2,2,3,3,4,4,5,5,6,6,7,7,8,8,9,9,10,10,11,11,12,12,13,13,14,14],"right_children":[2,4,6,8,10,12,14,16,18,20,22,24,26,28,30,-1,-1,-1,-1,-1,-1,-1,-1,-1,-1,-1,-1,-1,-1,-1,-1],"split_conditions":[-5.9E1,1.79764E3,-1.0416666E0,7.2E0,-1.7809E2,-5.4E-2,2.5E0,8.2166664E1,1.122E0,4.8E0,3.8020833E0,1.534E0,9.208333E0,5.5E0,-1.34E-1,-2.0390658E-2,2.224384E-2,-9.588797E-3,3.4034263E-2,-2.9454622E-2,2.7127916E-3,4.1929062E-2,6.0399077E-3,1.9277016E-2,-2.2334848E-2,3.6035653E-2,-6.0616096E-4,6.294797E-4,-3.190406E-2,1.9843003E-2,-1.1143003E-3],"split_indices":[21,5,22,17,21,24,9,13,16,28,13,7,13,17,25,0,0,0,0,0,0,0,0,0,0,0,0,0,0,0,0],"split_type":[0,0,0,0,0,0,0,0,0,0,0,0,0,0,0,0,0,0,0,0,0,0,0,0,0,0,0,0,0,0,0],"sum_hessian":[3.0385104E2,1.1876246E2,1.8508858E2,9.205376E1,2.6708702E1,3.980172E1,1.4528685E2,8.404091E1,8.012845E0,4.6073236E0,2.2101377E1,1.4732184E1,2.5069536E1,7.6552124E1,6.8734726E1,8.206185E1,1.979057E0,5.732361E0,2.2804844E0,3.4927676E0,1.1145562E0,3.6078897E0,1.8493488E1,8.962118E0,5.7700663E0,2.0666145E1,4.403391E0,6.74706E1,9.081526E0,3.8187775E1,3.0546953E1],"tree_param":{"num_deleted":"0","num_feature":"30","num_nodes":"31","size_leaf_vector":"1"}},{"base_weights":[1.1975949E-2,-2.1773423E-1,7.731495E-2,7.945854E-1,-3.2944852E-1,5.90242E-2,8.9130527E-1,5.305468E-2,2.6192857E-4,1.9508809E-1,-4.0273282E-1,-2.13147E-1,1.1440958E-1,5.7441797E-2,5.2287215E-3,4.0392797E-2,-7.5029023E-3,-2.196708E-2,1.9247735E-2,1.7538153E-2,-1.839724E-2,7.4473964E-3,-2.4338333E-2],"categories":[],"categories_nodes":[],"categories_segments":[],"categories_sizes":[],"default_left":[1,0,1,0,1,0,0,0,0,1,1,0,1,0,0,0,0,0,0,0,0,0,0],"id":40,"left_children":[1,3,5,7,9,11,13,-1,-1,15,17,19,21,-1,-1,-1,-1,-1,-1,-1,-1,-1,-1],"loss_changes":[3.7604592E0,6.5380135E0,2.8495665E0,1.2164271E0,2.0270548E0,2.9143472E0,7.334318E-1,0E0,0E0,1.5778664E0,1.4610271E0,2.9892364E0,3.393621E0,0E0,0E0,0E0,0E0,0E0,0E0,0E0,0E0,0E0,0E0],"parents":[2147483647,0,0,1,1,2,2,3,3,4,4,5,5,6,6,9,9,10,10,11,11,12,12],"right_children":[2,4,6,8,10,12,14,-1,-1,16,18,20,22,-1,-1,-1,-1,-1,-1,-1,-1,-1,-1],"split_conditions":[9.8E0,-3.3333334E-1,1.3633333E0,1.98563E3,7.88E-1,3.25E0,1.328E0,5.305468E-2,2.6192857E-4,1.70685E3,2.544E0,1.16E1,1.6666666E0,5.7441797E-2,5.2287215E-3,4.0392797E-2,-7.5029023E-3,-2.196708E-2,1.9247735E-2,1.7538153E-2,-1.839724E-2,7.4473964E-3,-2.4338333E-2],"split_indices":[10,29,24,5,16,17,7,0,0,5,7,10,27,0,0,0,0,0,0,0,0,0,0],"split_type":[0,0,0,0,0,0,0,0,0,0,0,0,0,0,0,0,0,0,0,0,0,0,0],"sum_hessian":[2.4842476E2,5.4497463E1,1.939273E2,4.8088174E0,4.9688644E1,1.9071437E2,3.2129316E0,3.3376532E0,1.4711641E0,5.8873725E0,4.3801273E1,3.1765587E1,1.5894879E2,2.0738173E0,1.1391146E0,1.6382408E0,4.249131E0,4.2278564E1,1.5227107E0,6.5691204E0,2.5196466E1,1.5102448E2,7.92431E0],"tree_param":{"num_deleted":"0","num_feature":"30","num_nodes":"23","size_leaf_vector":"1"}},{"base_weights":[4.669046E-3,2.0887405E-1,-2.1612883E-1,3.7841618E-1,9.423086E-3,-3.4542793E-1,-6.066086E-2,-2.5198817E-1,4.3065447E-1,-8.499361E-2,5.636007E-1,-2.0276664E-1,-4.6625417E-1,4.6467602E-2,-3.48086E-1,-2.3426682E-2,1.7903961E-2,4.326242E-3,2.7172362E-2,-1.0238547E-2,1.4411314E-2,-1.7543212E-2,4.7197197E-2,-2.3163632E-2,1.2032775E-3,-3.182167E-2,-1.6602531E-2,1.6832266E-2,-1.3216222E-2,-2.2047926E-2,2.5184995E-2],"categories":[],"categories_nodes":[],"categories_segments":[],"categories_sizes":[],"default_left":[1,1,0,0,1,0,1,0,1,1,0,0,0,0,0,0,0,0,0,0,0,0,0,0,0,0,0,0,0,0,0],"id":41,"left_children":[1,3,5,7,9,11,13,15,17,19,21,23,25,27,29,-1,-1,-1,-1,-1,-1,-1,-1,-1,-1,-1,-1,-1,-1,-1,-1],"loss_changes":[1.3354886E1,5.1995416E0,2.8400712E0,2.8465738E0,3.8007498E0,1.2411661E0,2.0433757E0,1.0916494E0,2.9476252E0,2.83741E0,4.008236E0,2.2154636E0,7.293062E-1,4.4938836E0,1.6455393E0,0E0,0E0,0E0,0E0,0E0,0E0,0E0,0E0,0E0,0E0,0E0,0E0,0E0,0E0,0E0,0E0],"parents":[2147483647,0,0,1,1,2,2,3,3,4,4,5,5,6,6,7,7,8,8,9,9,10,10,11,11,12,12,13,13,14,14],"right_children":[2,4,6,8,10,12,14,16,18,20,22,24,26,28,30,-1,-1,-1,-1,-1,-1,-1,-1,-1,-1,-1,-1,-1,-1,-1,-1],"split_conditions":[-2.102E1,1.164E0,-2E-2,-1.052E0,1.1875E1,1.0477E2,1.662E0,3.5E0,1.75205E3,-7.437E1,-2.26E-1,2.946E1,3.12E-1,4.838E1,4.6E0,-2.3426682E-2,1.7903961E-2,4.326242E-3,2.7172362E-2,-1.0238547E-2,1.4411314E-2,-1.7543212E-2,4.7197197E-2,-2.3163632E-2,1.2032775E-3,-3.182167E-2,-1.6602531E-2,1.6832266E-2,-1.3216222E-2,-2.2047926E-2,2.5184995E-2],"split_indices":[21,6,25,24,4,21,6,8,14,21,24,21,24,21,9,0,0,0,0,0,0,0,0,0,0,0,0,0,0,0,0],"split_type":[0,0,0,0,0,0,0,0,0,0,0,0,0,0,0,0,0,0,0,0,0,0,0,0,0,0,0,0,0,0,0],"sum_hessian":[2.9419458E2,1.5286829E2,1.413263E2,8.214452E1,7.072377E1,7.6489716E1,6.483658E1,5.993384E0,7.615114E1,6.115181E1,9.571962E0,3.6303646E1,4.018607E1,4.784298E1,1.6993599E1,4.5945354E0,1.3988489E0,1.9234373E1,5.6916763E1,4.6636208E1,1.4515602E1,2.834482E0,6.7374806E0,1.6412413E1,1.9891233E1,1.6068205E1,2.4117865E1,2.4699018E1,2.3143959E1,1.5757796E1,1.235802E0],"tree_param":{"num_deleted":"0","num_feature":"30","num_nodes":"31","size_leaf_vector":"1"}},{"base_weights":[-2.0675309E-2,-1.2509093E-1,2.9000407E-1,-3.4700152E-1,-3.867045E-3,2.0701586E-1,7.5153226E-1,-3.911435E-1,1.3267103E-1,-5.6897774E-2,3.7229317E-1,2.6900363E-1,-4.5014358E-1,4.0634394E-2,9.549647E-3,-2.314881E-2,-6.4357193E-3,-7.2243423E-3,2.3299925E-2,2.695224E-3,-1.5644869E-2,3.6316447E-2,-1.8545038E-3,1.9877512E-2,-5.771181E-3,1.1350679E-2,-3.4881365E-2],"categories":[],"categories_nodes":[],"categories_segments":[],"categories_sizes":[],"default_left":[1,1,1,0,0,1,0,1,0,0,0,1,0,0,0,0,0,0,0,0,0,0,0,0,0,0,0],"id":42,"left_children":[1,3,5,7,9,11,13,15,17,19,21,23,25,-1,-1,-1,-1,-1,-1,-1,-1,-1,-1,-1,-1,-1,-1],"loss_changes":[1.0285458E1,6.378701E0,2.8999581E0,1.8257532E0,3.101004E0,2.9317768E0,2.4854231E-1,1.3913708E0,7.8853786E-1,3.879739E0,2.8110528E0,3.1925726E0,1.2177472E0,0E0,0E0,0E0,0E0,0E0,0E0,0E0,0E0,0E0,0E0,0E0,0E0,0E0,0E0],"parents":[2147483647,0,0,1,1,2,2,3,3,4,4,5,5,6,6,7,7,8,8,9,9,10,10,11,11,12,12],"right_children":[2,4,6,8,10,12,14,16,18,20,22,24,26,-1,-1,-1,-1,-1,-1,-1,-1,-1,-1,-1,-1,-1,-1],"split_conditions":[1.85731E3,-1.1068E2,1.916E0,4E0,7.78E-1,1.88E1,7.5E-1,1.906E0,1.118E0,1.80393E3,1.562E0,8.541667E-1,2E-1,4.0634394E-2,9.549647E-3,-2.314881E-2,-6.4357193E-3,-7.2243423E-3,2.3299925E-2,2.695224E-3,-1.5644869E-2,3.6316447E-2,-1.8545038E-3,1.9877512E-2,-5.771181E-3,1.1350679E-2,-3.4881365E-2],"split_indices":[5,21,16,23,24,19,11,7,6,5,16,22,20,0,0,0,0,0,0,0,0,0,0,0,0,0,0],"split_type":[0,0,0,0,0,0,0,0,0,0,0,0,0,0,0,0,0,0,0,0,0,0,0,0,0,0,0],"sum_hessian":[3.149448E2,2.361687E2,7.877611E1,8.277661E1,1.5339209E2,6.799783E1,1.0778272E1,7.597002E1,6.8065968E0,1.3518288E2,1.8209219E1,6.2676422E1,5.3214135E0,9.31244E0,1.4658325E0,5.904412E1,1.6925892E1,4.0257583E0,2.7808385E0,9.4898254E1,4.0284615E1,9.349523E0,8.859695E0,4.6944695E1,1.5731725E1,1.4464353E0,3.874978E0],"tree_param":{"num_deleted":"0","num_feature":"30","num_nodes":"27","size_leaf_vector":"1"}},{"base_weights":[-1.6321002E-2,-1.8992975E-1,5.2120075E-2,-3.1330645E-1,2.648976E-2,2.7253227E-2,7.787323E-1,1.5907705E-1,-4.0608412E-1,-8.00783E-2,4.8041094E-2,4.5449823E-1,-1.4883296E-2,5.243094E-2,-2.4509316E-4,4.9784835E-2,-6.537994E-3,-2.3498012E-2,2.2854375E-2,1.01675615E-2,-1.7378533E-2,3.1463847E-2,-2.2146044E-2,-2.4323672E-2,7.435886E-4],"categories":[],"categories_nodes":[],"categories_segments":[],"categories_sizes":[],"default_left":[1,0,0,0,1,0,0,0,0,0,0,0,0,0,0,0,0,0,0,0,0,0,0,0,0],"id":43,"left_children":[1,3,5,7,9,11,13,15,17,19,-1,21,23,-1,-1,-1,-1,-1,-1,-1,-1,-1,-1,-1,-1],"loss_changes":[2.9454806E0,1.8793435E0,3.1947684E0,2.0240226E0,2.7021112E0,3.1236444E0,1.2431023E0,2.0841126E0,2.2907152E0,1.9348905E0,0E0,2.7215087E0,2.2321904E0,0E0,0E0,0E0,0E0,0E0,0E0,0E0,0E0,0E0,0E0,0E0,0E0],"parents":[2147483647,0,0,1,1,2,2,3,3,4,4,5,5,6,6,7,7,8,8,9,9,11,11,12,12],"right_children":[2,4,6,8,10,12,14,16,18,20,-1,22,24,-1,-1,-1,-1,-1,-1,-1,-1,-1,-1,-1,-1],"split_conditions":[-2.25E0,5E-1,8E-1,-1.8E0,7.1041665E0,-1.6E0,1E0,3.8125E0,3.5E0,1.87672E3,4.8041094E-2,1.3145833E1,-2.2083333E0,5.243094E-2,-2.4509316E-4,4.9784835E-2,-6.537994E-3,-2.3498012E-2,2.2854375E-2,1.01675615E-2,-1.7378533E-2,3.1463847E-2,-2.2146044E-2,-2.4323672E-2,7.435886E-4],"split_indices":[28,20,11,26,13,28,27,4,18,5,0,4,22,0,0,0,0,0,0,0,0,0,0,0,0],"split_type":[0,0,0,0,0,0,0,0,0,0,0,0,0,0,0,0,0,0,0,0,0,0,0,0,0],"sum_hessian":[2.4606186E2,6.907359E1,1.7698828E2,4.3708508E1,2.5365082E1,1.7213481E2,4.8534617E0,7.0579395E0,3.6650566E1,2.3588877E1,1.7762067E0,1.4574074E1,1.5756075E2,3.3586E0,1.4948621E0,1.189386E0,5.868553E0,3.45494E1,2.1011693E0,1.1569672E1,1.2019204E1,1.2448444E1,2.1256294E0,8.440316E0,1.4912042E2],"tree_param":{"num_deleted":"0","num_feature":"30","num_nodes":"25","size_leaf_vector":"1"}},{"base_weights":[3.0552284E-3,1.16967045E-1,-3.857457E-1,3.069507E-1,1.1809607E-3,-4.2048338E-1,2.7836297E-2,-2.6536113E-1,3.6997792E-1,-1.7292765E-1,1.9792713E-1,-4.7949395E-1,-4.6492126E-2,-2.6026485E-2,1.7443232E-2,4.340275E-3,2.7007839E-2,-2.7681174E-4,-1.8060355E-2,3.0783946E-2,5.270525E-3,5.842348E-3,-2.6089612E-2,-1.736622E-2,3.0213226E-2],"categories":[],"categories_nodes":[],"categories_segments":[],"categories_sizes":[],"default_left":[1,1,1,0,1,1,0,0,0,0,0,0,0,0,0,0,0,0,0,0,0,0,0,0,0],"id":44,"left_children":[1,3,5,7,9,11,-1,13,15,17,19,21,23,-1,-1,-1,-1,-1,-1,-1,-1,-1,-1,-1,-1],"loss_changes":[1.3149218E1,5.050259E0,2.4366846E0,3.2341776E0,4.95537E0,1.4222574E0,0E0,1.6246032E0,3.7472086E0,2.4168482E0,2.55984E0,1.4842997E0,2.1729884E0,0E0,0E0,0E0,0E0,0E0,0E0,0E0,0E0,0E0,0E0,0E0,0E0],"parents":[2147483647,0,0,1,1,2,2,3,3,4,4,5,5,7,7,8,8,9,9,10,10,11,11,12,12],"right_children":[2,4,6,8,10,12,-1,14,16,18,20,22,24,-1,-1,-1,-1,-1,-1,-1,-1,-1,-1,-1,-1],"split_conditions":[8.414E1,1.064E0,2.18E1,-1.052E0,1.22E-1,1.29375E1,2.7836297E-2,8.104167E0,1.80147E3,4.6666665E0,3.3333333E0,-3.2395833E0,5.2E0,-2.6026485E-2,1.7443232E-2,4.340275E-3,2.7007839E-2,-2.7681174E-4,-1.8060355E-2,3.0783946E-2,5.270525E-3,5.842348E-3,-2.6089612E-2,-1.736622E-2,3.0213226E-2],"split_indices":[21,6,19,24,25,4,0,4,14,17,8,22,8,0,0,0,0,0,0,0,0,0,0,0,0],"split_type":[0,0,0,0,0,0,0,0,0,0,0,0,0,0,0,0,0,0,0,0,0,0,0,0,0],"sum_hessian":[2.948769E2,2.2860023E2,6.627667E1,8.593906E1,1.4266118E2,6.445484E1,1.8218298E0,8.206906E0,7.773215E1,7.574895E1,6.691223E1,5.5427124E1,9.0277195E0,5.9059386E0,2.3009675E0,2.9745918E1,4.798623E1,4.064372E1,3.510523E1,1.1106571E1,5.5805656E1,3.5543137E0,5.187281E1,6.4925942E0,2.5351253E0],"tree_param":{"num_deleted":"0","num_feature":"30","num_nodes":"25","size_leaf_vector":"1"}},{"base_weights":[1.2554788E-2,-2.4720922E-1,1.1617536E-1,-3.8618404E-1,1.1277086E-1,2.3704068E-1,-1.09641165E-1,1.767393E-2,-4.5072985E-1,-2.6341307E-1,3.7784415E-1,1.2299431E-1,4.147869E-1,-3.605856E-2,-6.1797637E-1,-2.4267228E-2,4.0544644E-2,-3.4679454E-3,-2.8211733E-2,-2.6157735E-2,1.3467778E-2,4.0190574E-2,-1.4207347E-2,1.672254E-2,-3.1295177E-3,2.4931012E-2,-1.632214E-2,1.11875655E-2,-7.776645E-3,-3.5369135E-2,-1.8041522E-3],"categories":[],"categories_nodes":[],"categories_segments":[],"categories_sizes":[],"default_left":[1,1,1,0,0,0,0,0,1,1,0,1,0,0,0,0,0,0,0,0,0,0,0,0,0,0,0,0,0,0,0],"id":45,"left_children":[1,3,5,7,9,11,13,15,17,19,21,23,25,27,29,-1,-1,-1,-1,-1,-1,-1,-1,-1,-1,-1,-1,-1,-1,-1,-1],"loss_changes":[8.498886E0,4.548662E0,6.184112E0,1.7074366E0,2.677814E0,2.934579E0,2.9455914E0,4.3621144E0,2.3957481E0,1.7014881E0,4.6214485E0,3.5974932E0,3.7136345E0,2.219253E0,4.9322104E-1,0E0,0E0,0E0,0E0,0E0,0E0,0E0,0E0,0E0,0E0,0E0,0E0,0E0,0E0,0E0,0E0],"parents":[2147483647,0,0,1,1,2,2,3,3,4,4,5,5,6,6,7,7,8,8,9,9,10,10,11,11,12,12,13,13,14,14],"right_children":[2,4,6,8,10,12,14,16,18,20,22,24,26,28,30,-1,-1,-1,-1,-1,-1,-1,-1,-1,-1,-1,-1,-1,-1,-1,-1],"split_conditions":[-1.1931E2,4.4E0,1.24E-1,-9.6E-1,4.66E-1,1.84422E3,4.2E0,1.28E1,1.75793E3,1.98159E3,3E0,6.9583335E0,5E-1,1.036E0,4E0,-2.4267228E-2,4.0544644E-2,-3.4679454E-3,-2.8211733E-2,-2.6157735E-2,1.3467778E-2,4.0190574E-2,-1.4207347E-2,1.672254E-2,-3.1295177E-3,2.4931012E-2,-1.632214E-2,1.11875655E-2,-7.776645E-3,-3.5369135E-2,-1.8041522E-3],"split_indices":[21,8,25,24,25,5,28,10,14,14,9,4,20,16,18,0,0,0,0,0,0,0,0,0,0,0,0,0,0,0,0],"split_type":[0,0,0,0,0,0,0,0,0,0,0,0,0,0,0,0,0,0,0,0,0,0,0,0,0,0,0,0,0,0,0],"sum_hessian":[3.1367844E2,8.905153E1,2.2462692E2,6.419533E1,2.4856201E1,1.462818E2,7.8345116E1,8.946152E0,5.5249172E1,1.0277272E1,1.4578929E1,9.013861E1,5.6143196E1,6.937401E1,8.971102E0,5.712018E0,3.2341337E0,1.3041476E1,4.2207695E1,6.9210744E0,3.356198E0,8.7405E0,5.838428E0,4.1757584E1,4.8381027E1,5.0732624E1,5.41057E0,2.1577848E1,4.779616E1,7.58936E0,1.3817415E0],"tree_param":{"num_deleted":"0","num_feature":"30","num_nodes":"31","size_leaf_vector":"1"}},{"base_weights":[-7.576421E-3,5.4286316E-2,-2.2400077E-1,1.0299886E-2,3.6001176E-1,-3.250925E-1,1.1475689E-1,4.1249323E-1,-2.7283983E-2,6.01586E-1,-2.2255972E-1,2.206003E-1,-3.7275875E-1,-2.662589E-2,4.8627982E-1,4.4656526E-3,5.0071802E-2,3.0372456E-2,-2.5782136E-3,4.2441085E-2,6.0658525E-3,-2.70511E-2,2.0719929E-2,-1.9691734E-2,3.5857927E-2,1.5284699E-2,-2.061097E-2,3.790943E-2,-2.075335E-2],"categories":[],"categories_nodes":[],"categories_segments":[],"categories_sizes":[],"default_left":[0,0,1,0,0,0,1,0,0,0,0,0,0,0,0,0,0,0,0,0,0,0,0,0,0,0,0,0,0],"id":46,"left_children":[1,3,5,7,9,11,13,15,17,19,21,23,25,-1,27,-1,-1,-1,-1,-1,-1,-1,-1,-1,-1,-1,-1,-1,-1],"loss_changes":[3.3434546E0,2.6093192E0,1.9381557E0,2.5945566E0,3.569295E0,1.2009711E0,3.5045009E0,2.7022429E0,2.454496E0,1.9779816E0,1.8236899E0,1.5282807E0,1.1949391E0,0E0,2.544304E0,0E0,0E0,0E0,0E0,0E0,0E0,0E0,0E0,0E0,0E0,0E0,0E0,0E0,0E0],"parents":[2147483647,0,0,1,1,2,2,3,3,4,4,5,5,6,6,7,7,8,8,9,9,10,10,11,11,12,12,14,14],"right_children":[2,4,6,8,10,12,14,16,18,20,22,24,26,-1,28,-1,-1,-1,-1,-1,-1,-1,-1,-1,-1,-1,-1,-1,-1],"split_conditions":[1.764E0,3E0,6E0,3.0833333E0,1.87013E3,-1.1458334E0,1.06E1,2.25E0,-2.5E0,1.26E1,2.25E0,5.8958335E0,1.64906E3,-2.662589E-2,7.9618053E0,4.4656526E-3,5.0071802E-2,3.0372456E-2,-2.5782136E-3,4.2441085E-2,6.0658525E-3,-2.70511E-2,2.0719929E-2,-1.9691734E-2,3.5857927E-2,1.5284699E-2,-2.061097E-2,3.790943E-2,-2.075335E-2],"split_indices":[6,9,8,13,5,22,19,28,27,10,28,4,5,0,13,0,0,0,0,0,0,0,0,0,0,0,0,0,0],"split_type":[0,0,0,0,0,0,0,0,0,0,0,0,0,0,0,0,0,0,0,0,0,0,0,0,0,0,0,0,0],"sum_hessian":[2.4781569E2,1.9330931E2,5.4506367E1,1.6989873E2,2.3410591E1,4.2010094E1,1.2496272E1,1.3667243E1,1.5623148E2,1.6525389E1,6.8852024E0,3.083342E0,3.8926754E1,4.398967E0,8.097305E0,9.568315E0,4.098928E0,4.8711853E0,1.5136029E2,1.040279E1,6.122598E0,4.690629E0,2.1945739E0,1.4705603E0,1.6127818E0,1.768795E0,3.715796E1,6.342726E0,1.7545792E0],"tree_param":{"num_deleted":"0","num_feature":"30","num_nodes":"29","size_leaf_vector":"1"}},{"base_weights":[1.7962506E-3,1.11019954E-1,-3.6928943E-1,2.8344744E-1,-7.785799E-3,-4.0271688E-1,2.6849186E-2,4.5155814E-1,3.300685E-2,8.331621E-2,-3.3536345E-1,-5.467868E-1,-2.6809236E-1,-9.866303E-3,2.734728E-2,-7.245168E-3,2.0264855E-2,2.267941E-3,4.9884077E-2,-2.078712E-2,3.7769586E-2,8.340693E-3,-2.9279111E-2,2.629271E-2,-1.5527807E-2],"categories":[],"categories_nodes":[],"categories_segments":[],"categories_sizes":[],"default_left":[1,1,1,1,0,1,0,0,1,0,1,1,0,0,0,0,0,0,0,0,0,0,0,0,0],"id":47,"left_children":[1,3,5,7,9,11,-1,13,15,17,19,21,23,-1,-1,-1,-1,-1,-1,-1,-1,-1,-1,-1,-1],"loss_changes":[1.2100859E1,4.727169E0,2.2730436E0,3.9476423E0,4.1323104E0,1.13447E0,0E0,3.5887327E0,2.6340091E0,3.7172208E0,2.9552298E0,9.5434E-1,1.380588E0,0E0,0E0,0E0,0E0,0E0,0E0,0E0,0E0,0E0,0E0,0E0,0E0],"parents":[2147483647,0,0,1,1,2,2,3,3,4,4,5,5,7,7,8,8,9,9,10,10,11,11,12,12],"right_children":[2,4,6,8,10,12,-1,14,16,18,20,22,24,-1,-1,-1,-1,-1,-1,-1,-1,-1,-1,-1,-1],"split_conditions":[8.414E1,1.064E0,2.18E1,-1.1931E2,4.82E-1,3.12E-1,2.6849186E-2,-1.015E0,1.8E0,4.28E-1,1.4E1,1E0,-1.4E0,-9.866303E-3,2.734728E-2,-7.245168E-3,2.0264855E-2,2.267941E-3,4.9884077E-2,-2.078712E-2,3.7769586E-2,8.340693E-3,-2.9279111E-2,2.629271E-2,-1.5527807E-2],"split_indices":[21,6,19,21,24,24,0,24,28,24,4,18,26,0,0,0,0,0,0,0,0,0,0,0,0],"split_type":[0,0,0,0,0,0,0,0,0,0,0,0,0,0,0,0,0,0,0,0,0,0,0,0,0],"sum_hessian":[2.9654398E2,2.296505E2,6.689348E1,9.3118355E1,1.3653215E2,6.504979E1,1.8436956E0,5.523695E1,3.7881405E1,1.07407036E2,2.9125109E1,2.9943666E1,3.510612E1,6.9423175E0,4.8294632E1,2.6045532E1,1.1835872E1,1.0413381E2,3.2732248E0,2.7702528E1,1.4225812E0,1.3738223E0,2.8569845E1,1.2043711E0,3.390175E1],"tree_param":{"num_deleted":"0","num_feature":"30","num_nodes":"25","size_leaf_vector":"1"}},{"base_weights":[4.2991972E-4,-1.8412188E-1,1.2440773E-1,3.8327016E-2,-3.0403128E-1,-4.2001775E-1,1.6999465E-1,-1.553354E-1,3.9699265E-1,-7.6277405E-2,-4.01634E-1,-5.7815695E-1,2.917545E-2,2.4649885E-1,-4.195496E-2,-3.1692877E-2,3.4963996E-3,3.9752636E-2,5.730072E-4,-1.7526655E-2,2.0304086E-2,8.616055E-3,-2.2868095E-2,-3.217277E-2,4.1604023E-3,4.4181626E-3,1.7836487E-2,-2.872859E-2,6.4208605E-3],"categories":[],"categories_nodes":[],"categories_segments":[],"categories_sizes":[],"default_left":[1,1,0,1,1,0,1,1,0,1,0,0,0,0,0,0,0,0,0,0,0,0,0,0,0,0,0,0,0],"id":48,"left_children":[1,3,5,7,9,11,13,15,17,19,21,23,-1,25,27,-1,-1,-1,-1,-1,-1,-1,-1,-1,-1,-1,-1,-1,-1],"loss_changes":[7.130829E0,3.3521533E0,4.698119E0,3.1700926E0,1.7807145E0,2.6689034E0,2.8111496E0,3.2542996E0,2.4420857E0,3.5393748E0,1.8957615E0,6.2334156E-1,0E0,2.1833677E0,4.308405E0,0E0,0E0,0E0,0E0,0E0,0E0,0E0,0E0,0E0,0E0,0E0,0E0,0E0,0E0],"parents":[2147483647,0,0,1,1,2,2,3,3,4,4,5,5,6,6,7,7,8,8,9,9,10,10,11,11,13,13,14,14],"right_children":[2,4,6,8,10,12,14,16,18,20,22,24,-1,26,28,-1,-1,-1,-1,-1,-1,-1,-1,-1,-1,-1,-1,-1,-1],"split_conditions":[1.77211E3,1.74141E3,-1.8E0,1.28E1,-8.74E-1,1.90411E3,2.44E-1,-2.4E-1,2.25E0,-2.2289E2,-5.66E-1,1.782E0,2.917545E-2,2.2E0,3.46E-1,-3.1692877E-2,3.4963996E-3,3.9752636E-2,5.730072E-4,-1.7526655E-2,2.0304086E-2,8.616055E-3,-2.2868095E-2,-3.217277E-2,4.1604023E-3,4.4181626E-3,1.7836487E-2,-2.872859E-2,6.4208605E-3],"split_indices":[5,14,26,10,24,5,25,24,28,21,25,7,0,18,25,0,0,0,0,0,0,0,0,0,0,0,0,0,0],"split_type":[0,0,0,0,0,0,0,0,0,0,0,0,0,0,0,0,0,0,0,0,0,0,0,0,0,0,0,0,0],"sum_hessian":[3.0965652E2,1.242357E2,1.8542082E2,4.375127E1,8.0484436E1,1.3691801E1,1.7172902E2,2.8778925E1,1.4972345E1,2.4678713E1,5.580572E1,1.2194089E1,1.4977119E0,1.2606298E2,4.5666035E1,8.630816E0,2.0148108E1,6.84387E0,8.128475E0,1.5907472E1,8.77124E0,4.753729E0,5.1051994E1,1.1122967E1,1.0711223E0,5.2520077E1,7.35429E1,1.0492372E1,3.517366E1],"tree_param":{"num_deleted":"0","num_feature":"30","num_nodes":"29","size_leaf_vector":"1"}},{"base_weights":[6.8466207E-3,-2.3966983E-2,3.4555903E-1,-8.793969E-2,1.8866926E-1,9.078714E-1,4.6400584E-2,-1.6222116E-1,1.3787934E-1,-4.0812054E-1,2.6781714E-1,2.6564475E-3,5.376139E-2,5.709394E-1,-1.6907485E-1,-2.4346992E-2,-5.634518E-3,2.8345957E-2,-1.0021041E-3,-2.6705056E-2,6.1608646E-3,4.7993243E-2,8.484779E-3,4.4289667E-2,-1.135897E-3,-1.8347858E-2,1.8816559E-2],"categories":[],"categories_nodes":[],"categories_segments":[],"categories_sizes":[],"default_left":[1,1,0,1,0,0,0,0,0,0,1,0,0,0,0,0,0,0,0,0,0,0,0,0,0,0,0],"id":49,"left_children":[1,3,5,7,9,11,13,15,17,