{"learner":{"attributes":{"scikit_learn":"{\"_estimator_type\": \"classifier\"}"},"feature_names":["is_cup_match","is_european_match","is_premier_league_match","home_last5_matches","home_days_rest","home_current_elo","home_last5_avg_xg","home_last5_avg_xga","home_last5_avg_shots_on_target","home_last5_avg_big_chances","home_last5_avg_tackles_won","home_last5_clean_sheet_rate","away_last5_matches","away_days_rest","away_current_elo","away_last5_avg_xg","away_last5_avg_xga","away_last5_avg_shots_on_target","away_last5_avg_big_chances","away_last5_avg_tackles_won","away_last5_clean_sheet_rate","elo_diff","days_rest_diff","last5_matches_diff","last5_avg_xg_diff","last5_avg_xga_diff","last5_avg_shots_on_target_diff","last5_avg_big_chances_diff","last5_avg_tackles_won_diff","last5_clean_sheet_rate_diff"],"feature_types":["int","int","int","int","float","float","float","float","float","float","float","float","int","float","float","float","float","float","float","float","float","float","float","int","float","float","float","float","float","float"],"gradient_booster":{"model":{"cats":{"enc":[],"feature_segments":[],"sorted_idx":[]},"gbtree_model_param":{"num_parallel_tree":"1","num_trees":"1200"},"iteration_indptr":[0,3,6,9,12,15,18,21,24,27,30,33,36,39,42,45,48,51,54,57,60,63,66,69,72,75,78,81,84,87,90,93,96,99,102,105,108,111,114,117,120,123,126,129,132,135,138,141,144,147,150,153,156,159,162,165,168,171,174,177,180,183,186,189,192,195,198,201,204,207,210,213,216,219,222,225,228,231,234,237,240,243,246,249,252,255,258,261,264,267,270,273,276,279,282,285,288,291,294,297,300,303,306,309,312,315,318,321,324,327,330,333,336,339,342,345,348,351,354,357,360,363,366,369,372,375,378,381,384,387,390,393,396,399,402,405,408,411,414,417,420,423,426,429,432,435,438,441,444,447,450,453,456,459,462,465,468,471,474,477,480,483,486,489,492,495,498,501,504,507,510,513,516,519,522,525,528,531,534,537,540,543,546,549,552,555,558,561,564,567,570,573,576,579,582,585,588,591,594,597,600,603,606,609,612,615,618,621,624,627,630,633,636,639,642,645,648,651,654,657,660,663,666,669,672,675,678,681,684,687,690,693,696,699,702,705,708,711,714,717,720,723,726,729,732,735,738,741,744,747,750,753,756,759,762,765,768,771,774,777,780,783,786,789,792,795,798,801,804,807,810,813,816,819,822,825,828,831,834,837,840,843,846,849,852,855,858,861,864,867,870,873,876,879,882,885,888,891,894,897,900,903,906,909,912,915,918,921,924,927,930,933,936,939,942,945,948,951,954,957,960,963,966,969,972,975,978,981,984,987,990,993,996,999,1002,1005,1008,1011,1014,1017,1020,1023,1026,1029,1032,1035,1038,1041,1044,1047,1050,1053,1056,1059,1062,1065,1068,1071,1074,1077,1080,1083,1086,1089,1092,1095,1098,1101,1104,1107,1110,1113,1116,1119,1122,1125,1128,1131,1134,1137,1140,1143,1146,1149,1152,1155,1158,1161,1164,1167,1170,1173,1176,1179,1182,1185,1188,1191,1194,1197,1200],"tree_info":[0,1,2,0,1,2,0,1,2,0,1,2,0,1,2,0,1,2,0,1,2,0,1,2,0,1,2,0,1,2,0,1,2,0,1,2,0,1,2,0,1,2,0,1,2,0,1,2,0,1,2,0,1,2,0,1,2,0,1,2,0,1,2,0,1,2,0,1,2,0,1,2,0,1,2,0,1,2,0,1,2,0,1,2,0,1,2,0,1,2,0,1,2,0,1,2,0,1,2,0,1,2,0,1,2,0,1,2,0,1,2,0,1,2,0,1,2,0,1,2,0,1,2,0,1,2,0,1,2,0,1,2,0,1,2,0,1,2,0,1,2,0,1,2,0,1,2,0,1,2,0,1,2,0,1,2,0,1,2,0,1,2,0,1,2,0,1,2,0,1,2,0,1,2,0,1,2,0,1,2,0,1,2,0,1,2,0,1,2,0,1,2,0,1,2,0,1,2,0,1,2,0,1,2,0,1,2,0,1,2,0,1,2,0,1,2,0,1,2,0,1,2,0,1,2,0,1,2,0,1,2,0,1,2,0,1,2,0,1,2,0,1,2,0,1,2,0,1,2,0,1,2,0,1,2,0,1,2,0,1,2,0,1,2,0,1,2,0,1,2,0,1,2,0,1,2,0,1,2,0,1,2,0,1,2,0,1,2,0,1,2,0,1,2,0,1,2,0,1,2,0,1,2,0,1,2,0,1,2,0,1,2,0,1,2,0,1,2,0,1,2,0,1,2,0,1,2,0,1,2,0,1,2,0,1,2,0,1,2,0,1,2,0,1,2,0,1,2,0,1,2,0,1,2,0,1,2,0,1,2,0,1,2,0,1,2,0,1,2,0,1,2,0,1,2,0,1,2,0,1,2,0,1,2,0,1,2,0,1,2,0,1,2,0,1,2,0,1,2,0,1,2,0,1,2,0,1,2,0,1,2,0,1,2,0,1,2,0,1,2,0,1,2,0,1,2,0,1,2,0,1,2,0,1,2,0,1,2,0,1,2,0,1,2,0,1,2,0,1,2,0,1,2,0,1,2,0,1,2,0,1,2,0,1,2,0,1,2,0,1,2,0,1,2,0,1,2,0,1,2,0,1,2,0,1,2,0,1,2,0,1,2,0,1,2,0,1,2,0,1,2,0,1,2,0,1,2,0,1,2,0,1,2,0,1,2,0,1,2,0,1,2,0,1,2,0,1,2,0,1,2,0,1,2,0,1,2,0,1,2,0,1,2,0,1,2,0,1,2,0,1,2,0,1,2,0,1,2,0,1,2,0,1,2,0,1,2,0,1,2,0,1,2,0,1,2,0,1,2,0,1,2,0,1,2,0,1,2,0,1,2,0,1,2,0,1,2,0,1,2,0,1,2,0,1,2,0,1,2,0,1,2,0,1,2,0,1,2,0,1,2,0,1,2,0,1,2,0,1,2,0,1,2,0,1,2,0,1,2,0,1,2,0,1,2,0,1,2,0,1,2,0,1,2,0,1,2,0,1,2,0,1,2,0,1,2,0,1,2,0,1,2,0,1,2,0,1,2,0,1,2,0,1,2,0,1,2,0,1,2,0,1,2,0,1,2,0,1,2,0,1,2,0,1,2,0,1,2,0,1,2,0,1,2,0,1,2,0,1,2,0,1,2,0,1,2,0,1,2,0,1,2,0,1,2,0,1,2,0,1,2,0,1,2,0,1,2,0,1,2,0,1,2,0,1,2,0,1,2,0,1,2,0,1,2,0,1,2,0,1,2,0,1,2,0,1,2,0,1,2,0,1,2,0,1,2,0,1,2,0,1,2,0,1,2,0,1,2,0,1,2,0,1,2,0,1,2,0,1,2,0,1,2,0,1,2,0,1,2,0,1,2,0,1,2,0,1,2,0,1,2,0,1,2,0,1,2,0,1,2,0,1,2,0,1,2,0,1,2,0,1,2,0,1,2,0,1,2,0,1,2,0,1,2,0,1,2,0,1,2,0,1,2,0,1,2,0,1,2,0,1,2,0,1,2,0,1,2,0,1,2,0,1,2,0,1,2,0,1,2,0,1,2,0,1,2,0,1,2,0,1,2,0,1,2,0,1,2,0,1,2,0,1,2,0,1,2,0,1,2,0,1,2,0,1,2,0,1,2,0,1,2,0,1,2,0,1,2,0,1,2,0,1,2,0,1,2,0,1,2,0,1,2,0,1,2,0,1,2,0,1,2,0,1,2,0,1,2,0,1,2,0,1,2,0,1,2,0,1,2,0,1,2,0,1,2,0,1,2,0,1,2,0,1,2,0,1,2,0,1,2,0,1,2,0,1,2,0,1,2,0,1,2,0,1,2,0,1,2,0,1,2,0,1,2,0,1,2,0,1,2,0,1,2,0,1,2,0,1,2,0,1,2,0,1,2,0,1,2,0,1,2,0,1,2,0,1,2,0,1,2,0,1,2,0,1,2,0,1,2,0,1,2,0,1,2,0,1,2,0,1,2,0,1,2,0,1,2,0,1,2,0,1,2,0,1,2,0,1,2,0,1,2,0,1,2,0,1,2,0,1,2,0,1,2,0,1,2,0,1,2,0,1,2,0,1,2,0,1,2,0,1,2,0,1,2,0,1,2,0,1,2,0,1,2,0,1,2,0,1,2,0,1,2,0,1,2,0,1,2,0,1,2,0,1,2,0,1,2,0,1,2,0,1,2,0,1,2,0,1,2,0,1,2,0,1,2,0,1,2],"trees":[{"base_weights":[2.2228045E-2,-1.949504E-1,4.1165257E-1,1.4291537E-1,-2.913376E-1,7.344691E-1,3.0255604E-1,-1.1777535E-1,3.763557E-1,-3.6253455E-1,1.7835084E-1,2.0130363E-1,9.323291E-1,2.4181992E-1,5.2170534E-2,1.316043E-2,-2.8525159E-2,3.0802593E-2,-4.639733E-3,-3.1895563E-2,-1.3670248E-2,-1.0164968E-2,3.0868772E-2,2.9335264E-2,-2.9583914E-2,-2.2406741E-4,5.2945476E-2,5.528386E-5,2.2259139E-2],"categories":[],"categories_nodes":[],"categories_segments":[],"categories_sizes":[],"default_left":[1,0,1,1,0,0,0,0,0,1,1,0,0,0,0,0,0,0,0,0,0,0,0,0,0,0,0,0,0],"id":0,"left_children":[1,3,5,7,9,11,13,15,17,19,21,23,25,27,-1,-1,-1,-1,-1,-1,-1,-1,-1,-1,-1,-1,-1,-1,-1],"loss_changes":[2.6976347E1,6.712357E0,3.7989502E0,2.8520136E0,5.4051085E0,2.7808466E0,3.664145E0,4.0409884E0,2.821153E0,3.2374535E0,3.7600408E0,3.0645976E0,2.4058037E0,4.001154E0,0E0,0E0,0E0,0E0,0E0,0E0,0E0,0E0,0E0,0E0,0E0,0E0,0E0,0E0,0E0],"parents":[2147483647,0,0,1,1,2,2,3,3,4,4,5,5,6,6,7,7,8,8,9,9,10,10,11,11,12,12,13,13],"right_children":[2,4,6,8,10,12,14,16,18,20,22,24,26,28,-1,-1,-1,-1,-1,-1,-1,-1,-1,-1,-1,-1,-1,-1,-1],"split_conditions":[4.108E1,-1.34E-1,-1E0,-4.675E1,8.2958336E1,-5.6E-2,2.9385E2,5.9791665E0,1.6E0,-2.6E0,4E0,-2.88E-1,1E0,2E0,5.2170534E-2,1.316043E-2,-2.8525159E-2,3.0802593E-2,-4.639733E-3,-3.1895563E-2,-1.3670248E-2,-1.0164968E-2,3.0868772E-2,2.9335264E-2,-2.9583914E-2,-2.2406741E-4,5.2945476E-2,5.528386E-5,2.2259139E-2],"split_indices":[21,25,22,21,13,24,21,13,28,28,8,24,16,18,0,0,0,0,0,0,0,0,0,0,0,0,0,0,0],"split_type":[0,0,0,0,0,0,0,0,0,0,0,0,0,0,0,0,0,0,0,0,0,0,0,0,0,0,0,0,0],"sum_hessian":[3.170162E2,2.0383737E2,1.13178825E2,4.513679E1,1.5870058E2,2.713982E1,8.6039E1,2.155787E1,2.3578922E1,1.3800887E2,2.0691708E1,7.891721E0,1.92481E1,8.074577E1,5.293227E0,1.1933822E1,9.62405E0,1.5398479E1,8.180442E0,3.2240566E1,1.057683E2,1.1356379E1,9.335328E0,5.485708E0,2.4060125E0,2.4060125E0,1.6842087E1,3.7437553E1,4.3308224E1],"tree_param":{"num_deleted":"0","num_feature":"30","num_nodes":"29","size_leaf_vector":"1"}},{"base_weights":[-3.018866E-3,3.3019173E-1,-5.3888418E-2,-3.2731897E-1,4.4626793E-1,-7.870344E-3,-4.0563956E-1,7.959279E-3,-2.542752E-2,7.5548436E-3,6.981458E-1,1.4414252E-2,-2.8663356E-2,2.0347228E-2,-4.742861E-1,6.0546517E-2,-1.4740074E-2,-8.814555E-3,4.9853604E-2,3.80437E-2,-9.32732E-5,-2.6879186E-2,2.4652202E-3],"categories":[],"categories_nodes":[],"categories_segments":[],"categories_sizes":[],"default_left":[0,1,0,0,0,1,0,0,0,0,0,0,0,0,1,0,0,0,0,0,0,0,0],"id":1,"left_children":[1,3,5,7,9,11,13,-1,-1,15,17,19,-1,-1,21,-1,-1,-1,-1,-1,-1,-1,-1],"loss_changes":[4.2305756E0,2.669097E0,3.5009463E0,5.691683E-1,3.1463256E0,2.4331257E0,1.5889211E0,0E0,0E0,4.509672E0,4.908925E0,2.263331E0,0E0,0E0,8.0657625E-1,0E0,0E0,0E0,0E0,0E0,0E0,0E0,0E0],"parents":[2147483647,0,0,1,1,2,2,3,3,4,4,5,5,6,6,9,9,10,10,11,11,14,14],"right_children":[2,4,6,8,10,12,14,-1,-1,16,18,20,-1,-1,22,-1,-1,-1,-1,-1,-1,-1,-1],"split_conditions":[1E0,-2.75E0,1.4208333E1,4E0,-3.3333334E-1,2.8841E2,1.64906E3,7.959279E-3,-2.542752E-2,8.18E-1,1.73308E3,2.2E0,-2.8663356E-2,2.0347228E-2,1.44E1,6.0546517E-2,-1.4740074E-2,-8.814555E-3,4.9853604E-2,3.80437E-2,-9.32732E-5,-2.6879186E-2,2.4652202E-3],"split_indices":[16,28,4,17,29,21,5,0,0,6,5,17,0,0,10,0,0,0,0,0,0,0,0],"split_type":[0,0,0,0,0,0,0,0,0,0,0,0,0,0,0,0,0,0,0,0,0,0,0],"sum_hessian":[2.4753769E2,3.2057915E1,2.1547977E2,4.537199E0,2.7520716E1,1.9145493E2,2.4024841E1,1.2644653E0,3.272734E0,1.0413244E1,1.7107471E1,1.851326E2,6.3223267E0,1.4876063E0,2.2537235E1,1.4876063E0,8.925638E0,4.462819E0,1.2644653E1,2.9752126E0,1.821574E2,2.0082685E1,2.4545503E0],"tree_param":{"num_deleted":"0","num_feature":"30","num_nodes":"23","size_leaf_vector":"1"}},{"base_weights":[2.2348927E-2,3.3121908E-1,-3.566772E-1,6.2080616E-1,-6.9257646E-4,-1.608656E-1,-4.9211478E-1,-1.7112045E-1,7.079411E-1,-4.5539862E-1,1.415793E-1,2.3638744E-2,-4.0968707E-1,-5.21151E-1,2.4123754E-1,-2.1741044E-2,4.1223675E-2,4.664527E-2,1.594891E-2,-2.9528094E-2,-1.5092025E-3,1.337058E-2,-1.0930691E-2,-2.2025527E-2,1.25531005E-2,-2.9012028E-2,-6.9410703E-3,-2.8031854E-2,4.5019607E-3,-1.0587599E-3,2.0082459E-2],"categories":[],"categories_nodes":[],"categories_segments":[],"categories_sizes":[],"default_left":[1,1,0,0,1,0,1,0,1,0,0,1,0,1,0,0,0,0,0,0,0,0,0,0,0,0,0,0,0,0,0],"id":2,"left_children":[1,3,5,7,9,11,13,15,17,19,21,23,25,27,29,-1,-1,-1,-1,-1,-1,-1,-1,-1,-1,-1,-1,-1,-1,-1,-1],"loss_changes":[3.5488415E1,1.6051054E1,3.5312939E0,6.2751045E0,5.162697E0,2.633317E0,1.8290291E0,2.8907628E0,6.7496185E0,1.0752401E0,2.813661E0,3.6743674E0,1.0460963E0,1.9150524E0,1.6551986E-1,0E0,0E0,0E0,0E0,0E0,0E0,0E0,0E0,0E0,0E0,0E0,0E0,0E0,0E0,0E0,0E0],"parents":[2147483647,0,0,1,1,2,2,3,3,4,4,5,5,6,6,7,7,8,8,9,9,10,10,11,11,12,12,13,13,14,14],"right_children":[2,4,6,8,10,12,14,16,18,20,22,24,26,28,30,-1,-1,-1,-1,-1,-1,-1,-1,-1,-1,-1,-1,-1,-1,-1,-1],"split_conditions":[-2.81E0,1.182E0,8.414E1,-1.015E0,3.125E0,1.78828E3,2.06E1,2E0,-1.1931E2,3E0,1.56E1,-4E-1,1.56E1,1.4E1,9.895833E0,-2.1741044E-2,4.1223675E-2,4.664527E-2,1.594891E-2,-2.9528094E-2,-1.5092025E-3,1.337058E-2,-1.0930691E-2,-2.2025527E-2,1.25531005E-2,-2.9012028E-2,-6.9410703E-3,-2.8031854E-2,4.5019607E-3,-1.0587599E-3,2.0082459E-2],"split_indices":[21,6,21,24,13,14,19,9,21,9,10,26,19,4,4,0,0,0,0,0,0,0,0,0,0,0,0,0,0,0,0],"split_type":[0,0,0,0,0,0,0,0,0,0,0,0,0,0,0,0,0,0,0,0,0,0,0,0,0,0,0,0,0,0,0],"sum_hessian":[3.0112964E2,1.6598987E2,1.3513977E2,8.818211E1,7.780775E1,5.6148983E1,7.899079E1,8.645306E0,7.953681E1,1.8018637E1,5.9789112E1,3.2761158E1,2.3387827E1,7.62607E1,2.7300963E0,7.280257E0,1.3650482E0,4.950575E1,3.0031061E1,1.3377473E1,4.641164E0,4.4500572E1,1.528854E1,1.046537E1,2.2295788E1,1.3650482E1,9.737344E0,7.171053E1,4.550161E0,1.3650482E0,1.3650482E0],"tree_param":{"num_deleted":"0","num_feature":"30","num_nodes":"31","size_leaf_vector":"1"}},{"base_weights":[-1.11805E-2,-3.0973166E-1,2.544285E-1,-3.7386432E-1,2.9847807E-1,4.03887E-1,-7.01869E-2,-5.7849485E-1,-1.9656003E-1,-3.8471994E-1,4.7158733E-1,1.6853273E-1,6.812369E-1,9.275821E-2,-6.1849904E-1,-7.928167E-3,-3.2190353E-2,-3.2301893E-4,-2.3124479E-2,-3.3925872E-3,-2.5068602E-2,1.1827596E-2,3.642587E-2,2.716794E-2,2.2208346E-3,4.7667578E-2,2.240254E-2,-5.9650545E-3,2.1027321E-2,-1.25227785E-2,-3.7272375E-2],"categories":[],"categories_nodes":[],"categories_segments":[],"categories_sizes":[],"default_left":[1,0,1,1,0,0,0,0,1,0,0,1,1,0,0,0,0,0,0,0,0,0,0,0,0,0,0,0,0,0,0],"id":3,"left_children":[1,3,5,7,9,11,13,15,17,19,21,23,25,27,29,-1,-1,-1,-1,-1,-1,-1,-1,-1,-1,-1,-1,-1,-1,-1,-1],"loss_changes":[2.6332512E1,6.20916E0,8.5553E0,5.033102E0,2.0107114E0,7.7504196E0,5.083975E0,1.6899395E0,3.915759E0,1.0191578E-1,6.000097E-1,3.0700357E0,3.061699E0,3.1254086E0,4.2160034E-1,0E0,0E0,0E0,0E0,0E0,0E0,0E0,0E0,0E0,0E0,0E0,0E0,0E0,0E0,0E0,0E0],"parents":[2147483647,0,0,1,1,2,2,3,3,4,4,5,5,6,6,7,7,8,8,9,9,10,10,11,11,12,12,13,13,14,14],"right_children":[2,4,6,8,10,12,14,16,18,20,22,24,26,28,30,-1,-1,-1,-1,-1,-1,-1,-1,-1,-1,-1,-1,-1,-1,-1,-1],"split_conditions":[-2.744E1,4E0,1.24E-1,-1.602E2,3.2E0,1.84422E3,1.382E0,-9.6E-1,2.4E-1,1.484E0,1.95676E3,8.44E-1,2E-1,1.56E1,-8E-1,-7.928167E-3,-3.2190353E-2,-3.2301893E-4,-2.3124479E-2,-3.3925872E-3,-2.5068602E-2,1.1827596E-2,3.642587E-2,2.716794E-2,2.2208346E-3,4.7667578E-2,2.240254E-2,-5.9650545E-3,2.1027321E-2,-1.25227785E-2,-3.7272375E-2],"split_indices":[21,23,25,21,8,5,16,24,25,7,5,15,20,10,26,0,0,0,0,0,0,0,0,0,0,0,0,0,0,0,0],"split_type":[0,0,0,0,0,0,0,0,0,0,0,0,0,0,0,0,0,0,0,0,0,0,0,0,0,0,0,0,0,0,0],"sum_hessian":[3.3007706E2,1.5532347E2,1.7475359E2,1.408562E2,1.4467278E1,1.19492836E2,5.5260746E1,6.4338776E1,7.651742E1,2.6775541E0,1.1789723E1,6.5509926E1,5.398291E1,4.3241306E1,1.2019441E1,9.121153E0,5.521762E1,4.521779E1,3.1299631E1,1.1460735E0,1.5314806E0,7.160292E0,4.6294317E0,1.545588E1,5.0054047E1,2.3486805E1,3.0496105E1,2.664174E1,1.6599566E1,3.845019E0,8.174421E0],"tree_param":{"num_deleted":"0","num_feature":"30","num_nodes":"31","size_leaf_vector":"1"}},{"base_weights":[5.810888E-3,7.4602686E-2,-2.3616987E-1,-3.2765023E-2,3.0444515E-1,3.689178E-1,-2.9655325E-1,-8.454845E-2,3.855378E-1,1.026076E0,1.4598325E-1,-1.5136279E-1,7.756294E-1,-3.947533E-1,8.098079E-2,-7.952537E-3,2.2431342E-2,3.447969E-2,-2.5581721E-2,-1.99208E-2,6.4544864E-2,3.5419594E-2,2.8597438E-3,-1.758912E-2,6.0347132E-3,5.308337E-2,6.1106076E-3,-2.6581278E-2,-6.5644295E-3,-2.7142623E-2,2.8218566E-2],"categories":[],"categories_nodes":[],"categories_segments":[],"categories_sizes":[],"default_left":[0,0,0,1,0,0,1,1,0,0,0,0,0,0,0,0,0,0,0,0,0,0,0,0,0,0,0,0,0,0,0],"id":4,"left_children":[1,3,5,7,9,11,13,15,17,19,21,23,25,27,29,-1,-1,-1,-1,-1,-1,-1,-1,-1,-1,-1,-1,-1,-1,-1,-1],"loss_changes":[4.170258E0,4.822185E0,2.1357808E0,2.9312205E0,6.961243E0,1.2765694E0,1.9220886E0,4.8339543E0,4.4230576E0,4.6755285E0,2.5638719E0,2.191293E-1,4.7541285E-1,1.39533E0,3.730075E0,0E0,0E0,0E0,0E0,0E0,0E0,0E0,0E0,0E0,0E0,0E0,0E0,0E0,0E0,0E0,0E0],"parents":[2147483647,0,0,1,1,2,2,3,3,4,4,5,5,6,6,7,7,8,8,9,9,10,10,11,11,12,12,13,13,14,14],"right_children":[2,4,6,8,10,12,14,16,18,20,22,24,26,28,30,-1,-1,-1,-1,-1,-1,-1,-1,-1,-1,-1,-1,-1,-1,-1,-1],"split_conditions":[1.77E0,1.402E0,-1.1041666E0,4E0,-7.493E1,1.64E0,6E0,1.908E0,1.638E0,1.0333333E1,9.4E-1,7.9618053E0,1.8497E3,1.6E1,1.025E1,-7.952537E-3,2.2431342E-2,3.447969E-2,-2.5581721E-2,-1.99208E-2,6.4544864E-2,3.5419594E-2,2.8597438E-3,-1.758912E-2,6.0347132E-3,5.308337E-2,6.1106076E-3,-2.6581278E-2,-6.5644295E-3,-2.7142623E-2,2.8218566E-2],"split_indices":[6,6,22,28,21,21,8,15,15,10,16,13,5,19,19,0,0,0,0,0,0,0,0,0,0,0,0,0,0,0,0],"split_type":[0,0,0,0,0,0,0,0,0,0,0,0,0,0,0,0,0,0,0,0,0,0,0,0,0,0,0,0,0,0,0],"sum_hessian":[2.484633E2,1.940027E2,5.4460598E1,1.3281668E2,6.1186024E1,4.4780025E0,4.9982594E1,1.1889594E2,1.392074E1,1.0030806E1,5.1155216E1,2.2401528E0,2.2378495E0,3.9629097E1,1.0353498E1,1.0493476E2,1.3961179E1,1.0569915E1,3.3508253E0,1.4933738E0,8.537432E0,6.023347E0,4.513187E1,1.1211644E0,1.1189885E0,1.121926E0,1.1159235E0,2.5410362E1,1.4218734E1,4.466415E0,5.8870835E0],"tree_param":{"num_deleted":"0","num_feature":"30","num_nodes":"31","size_leaf_vector":"1"}},{"base_weights":[2.8407004E-2,3.131997E-1,-3.3723888E-1,5.7387394E-1,1.4665656E-2,-1.1641851E-1,-4.8855266E-1,-1.3629091E-1,6.573548E-1,7.537585E-1,-5.9552968E-2,1.3144074E-1,-3.400508E-1,-5.3029394E-1,5.109179E-1,4.510658E-2,-2.2860369E-2,-7.883853E-3,3.659651E-2,4.8555546E-2,-1.153955E-2,4.434425E-2,-6.00736E-3,-1.3171216E-2,2.3703337E-2,-2.0665843E-2,1.9271396E-2,-2.895907E-2,6.936507E-4,-8.445983E-4,4.104295E-2],"categories":[],"categories_nodes":[],"categories_segments":[],"categories_sizes":[],"default_left":[1,1,0,0,0,0,1,0,0,0,0,0,1,1,0,0,0,0,0,0,0,0,0,0,0,0,0,0,0,0,0],"id":5,"left_children":[1,3,5,7,9,11,13,15,17,19,21,23,25,27,29,-1,-1,-1,-1,-1,-1,-1,-1,-1,-1,-1,-1,-1,-1,-1,-1],"loss_changes":[3.228797E1,1.3551865E1,4.480562E0,5.6030025E0,4.5568533E0,3.178104E0,3.6196632E0,3.9483542E0,5.1838264E0,1.8460374E0,4.446369E0,3.849951E0,1.7536814E0,2.070856E0,6.2359685E-1,0E0,0E0,0E0,0E0,0E0,0E0,0E0,0E0,0E0,0E0,0E0,0E0,0E0,0E0,0E0,0E0],"parents":[2147483647,0,0,1,1,2,2,3,3,4,4,5,5,6,6,7,7,8,8,9,9,10,10,11,11,12,12,13,13,14,14],"right_children":[2,4,6,8,10,12,14,16,18,20,22,24,26,28,30,-1,-1,-1,-1,-1,-1,-1,-1,-1,-1,-1,-1,-1,-1,-1,-1],"split_conditions":[-2.81E0,1.176E0,8.414E1,-4.36E-1,3.3333333E0,4.2E0,2.06E1,8.66E-1,-1.052E0,1.476E0,-4.5E0,1.6666666E0,6.9E-1,1.4E1,4.875E0,4.510658E-2,-2.2860369E-2,-7.883853E-3,3.659651E-2,4.8555546E-2,-1.153955E-2,4.434425E-2,-6.00736E-3,-1.3171216E-2,2.3703337E-2,-2.0665843E-2,1.9271396E-2,-2.895907E-2,6.936507E-4,-8.445983E-4,4.104295E-2],"split_indices":[21,6,21,25,8,17,19,7,24,16,28,18,25,4,4,0,0,0,0,0,0,0,0,0,0,0,0,0,0,0,0],"split_type":[0,0,0,0,0,0,0,0,0,0,0,0,0,0,0,0,0,0,0,0,0,0,0,0,0,0,0,0,0,0,0],"sum_hessian":[3.080496E2,1.7325159E2,1.34798E2,9.19982E1,8.125339E1,5.5529778E1,7.9268234E1,9.610433E0,8.238777E1,6.579244E0,7.467414E1,2.6533758E1,2.899602E1,7.6541046E1,2.7271905E0,1.8412852E0,7.769147E0,6.813118E0,7.557465E1,5.4006324E0,1.1786121E0,3.6727042E0,7.1001434E1,1.2434533E1,1.4099225E1,2.672713E1,2.2688885E0,7.017247E1,6.3685713E0,1.3587778E0,1.3684127E0],"tree_param":{"num_deleted":"0","num_feature":"30","num_nodes":"31","size_leaf_vector":"1"}},{"base_weights":[9.395704E-3,-2.906978E-1,2.3581278E-1,1.6018854E-1,-3.614203E-1,9.441506E-2,4.7944075E-1,-2.7325642E-1,5.8810467E-1,2.4468152E-2,-3.7895712E-1,3.8239995E-1,5.261112E-3,6.2155944E-1,1.2267603E-1,1.0863969E-2,-2.1038752E-2,3.418116E-2,-4.3856734E-3,1.0063198E-4,-2.1281285E-2,2.678736E-2,-4.6119457E-3,2.5873322E-2,-3.3782402E-3,3.504921E-2,-7.3906924E-3,1.9370016E-2,-2.7377278E-2],"categories":[],"categories_nodes":[],"categories_segments":[],"categories_sizes":[],"default_left":[1,1,0,1,0,0,1,0,0,0,0,0,0,1,0,0,0,0,0,0,0,0,0,0,0,0,0,0,0],"id":6,"left_children":[1,3,5,7,9,11,13,15,17,-1,19,21,23,25,27,-1,-1,-1,-1,-1,-1,-1,-1,-1,-1,-1,-1,-1,-1],"loss_changes":[2.2328627E1,4.5646734E0,6.406254E0,3.8434594E0,2.012805E0,3.0725274E0,3.39853E0,8.546239E-1,7.254219E-1,0E0,2.144453E0,2.1087852E0,3.483678E0,3.0834045E0,3.8970172E0,0E0,0E0,0E0,0E0,0E0,0E0,0E0,0E0,0E0,0E0,0E0,0E0,0E0,0E0],"parents":[2147483647,0,0,1,1,2,2,3,3,4,4,5,5,6,6,7,7,8,8,10,10,11,11,12,12,13,13,14,14],"right_children":[2,4,6,8,10,12,14,16,18,-1,20,22,24,26,28,-1,-1,-1,-1,-1,-1,-1,-1,-1,-1,-1,-1,-1,-1],"split_conditions":[-4.675E1,2.7395833E0,1.85654E3,3.8E0,-2.25E0,9.16E-1,7.4E-2,8.32E-1,1.792E0,2.4468152E-2,-3.96E-1,1.68E1,9.333333E0,8E-1,7.1458335E0,1.0863969E-2,-2.1038752E-2,3.418116E-2,-4.3856734E-3,1.0063198E-4,-2.1281285E-2,2.678736E-2,-4.6119457E-3,2.5873322E-2,-3.3782402E-3,3.504921E-2,-7.3906924E-3,1.9370016E-2,-2.7377278E-2],"split_indices":[21,13,5,8,22,15,25,6,7,0,25,10,10,11,4,0,0,0,0,0,0,0,0,0,0,0,0,0,0],"split_type":[0,0,0,0,0,0,0,0,0,0,0,0,0,0,0,0,0,0,0,0,0,0,0,0,0,0,0,0,0],"sum_hessian":[3.266128E2,1.4033229E2,1.862805E2,1.8855478E1,1.2147681E2,1.187484E2,6.753211E1,9.546778E0,9.308701E0,1.9099971E0,1.1956681E2,2.729404E1,9.145436E1,4.776322E1,1.9768888E1,2.097888E0,7.4488897E0,8.145839E0,1.1628618E0,1.3152871E1,1.0641394E2,2.0531832E1,6.762209E0,1.0624401E1,8.0829956E1,4.337443E1,4.388788E0,1.4473948E1,5.294941E0],"tree_param":{"num_deleted":"0","num_feature":"30","num_nodes":"29","size_leaf_vector":"1"}},{"base_weights":[7.0783733E-3,6.7302175E-2,-2.91793E-1,8.911456E-2,-2.8220182E-2,-3.4810176E-1,2.9899746E-2,3.5523063E-1,4.1517753E-2,4.2825857E-1,-4.1542506E-1,3.7701923E-2,4.154201E-3,-8.160442E-4,1.3462189E-2,4.3669064E-2,-1.7056415E-2,-2.3592267E-2,5.1654717E-3],"categories":[],"categories_nodes":[],"categories_segments":[],"categories_sizes":[],"default_left":[0,1,1,0,0,0,0,0,1,1,0,0,0,0,0,0,0,0,0],"id":7,"left_children":[1,3,5,7,-1,9,-1,11,13,15,17,-1,-1,-1,-1,-1,-1,-1,-1],"loss_changes":[4.5537453E0,2.9503903E0,2.3342597E0,2.5731058E0,0E0,2.2968774E0,0E0,3.2873511E0,2.3020692E0,1.5744798E0,1.1554432E0,0E0,0E0,0E0,0E0,0E0,0E0,0E0,0E0],"parents":[2147483647,0,0,1,1,2,2,3,3,5,5,7,7,8,8,9,9,10,10],"right_children":[2,4,6,8,-1,10,-1,12,14,16,18,-1,-1,-1,-1,-1,-1,-1,-1],"split_conditions":[1.29375E1,2.8841E2,9.12E-1,1E0,-2.8220182E-2,1.65076E3,2.9899746E-2,3.82E-1,5.2E0,1.79399E3,7.5E-1,3.7701923E-2,4.154201E-3,-8.160442E-4,1.3462189E-2,4.3669064E-2,-1.7056415E-2,-2.3592267E-2,5.1654717E-3],"split_indices":[4,21,25,16,0,14,0,25,17,5,20,0,0,0,0,0,0,0,0],"split_type":[0,0,0,0,0,0,0,0,0,0,0,0,0,0,0,0,0,0,0],"sum_hessian":[2.5090645E2,2.0947183E2,4.143462E1,2.0331058E2,6.16125E0,3.9541107E1,1.8935139E0,2.9865849E1,1.7344473E2,2.7274468E0,3.681366E1,1.1395704E1,1.8470144E1,1.3905531E2,3.4389416E1,1.6421998E0,1.085247E0,3.328392E1,3.5297415E0],"tree_param":{"num_deleted":"0","num_feature":"30","num_nodes":"19","size_leaf_vector":"1"}},{"base_weights":[6.061153E-3,6.33286E-1,-9.575701E-2,7.3307943E-1,-3.2050693E-1,-2.6236388E-1,1.6937958E-1,8.303271E-1,-7.664184E-2,-2.8229738E-2,1.2831061E-2,-8.1995726E-2,-4.8595133E-1,-2.4148336E-1,2.9295924E-1,4.617235E-2,1.4123396E-3,2.7377596E-2,-2.704214E-2,-2.5488606E-2,9.861215E-4,-2.883449E-2,-8.346631E-3,1.7022198E-2,-2.0602448E-2,1.0263341E-2,4.34386E-2],"categories":[],"categories_nodes":[],"categories_segments":[],"categories_sizes":[],"default_left":[1,1,1,0,1,0,0,1,1,0,0,1,0,0,0,0,0,0,0,0,0,0,0,0,0,0,0],"id":8,"left_children":[1,3,5,7,9,11,13,15,17,-1,-1,19,21,23,25,-1,-1,-1,-1,-1,-1,-1,-1,-1,-1,-1,-1],"loss_changes":[1.9631824E1,4.321232E0,1.1729466E1,3.147934E0,8.1572795E-1,6.5271397E0,5.284565E0,2.59206E0,1.7783024E0,0E0,0E0,3.98422E0,2.0025654E0,2.5514631E0,3.830614E0,0E0,0E0,0E0,0E0,0E0,0E0,0E0,0E0,0E0,0E0,0E0,0E0],"parents":[2147483647,0,0,1,1,2,2,3,3,4,4,5,5,6,6,7,7,8,8,11,11,12,12,13,13,14,14],"right_children":[2,4,6,8,10,12,14,16,18,-1,-1,20,22,24,26,-1,-1,-1,-1,-1,-1,-1,-1,-1,-1,-1,-1],"split_conditions":[1.63362E3,3.3333334E-1,1.22E-1,3.6666667E0,2.58E-1,1.82146E3,1.75205E3,2.8E-2,1.504E0,-2.8229738E-2,1.2831061E-2,1.66436E3,1.88038E3,3.2E0,1.0885417E1,4.617235E-2,1.4123396E-3,2.7377596E-2,-2.704214E-2,-2.5488606E-2,9.861215E-4,-2.883449E-2,-8.346631E-3,1.7022198E-2,-2.0602448E-2,1.0263341E-2,4.34386E-2],"split_indices":[5,11,25,18,24,5,14,24,7,0,0,14,14,8,4,0,0,0,0,0,0,0,0,0,0,0,0],"split_type":[0,0,0,0,0,0,0,0,0,0,0,0,0,0,0,0,0,0,0,0,0,0,0,0,0,0,0],"sum_hessian":[3.0545633E2,4.193104E1,2.635253E2,3.816891E1,3.7621303E0,1.618391E2,1.01686195E2,3.405362E1,4.115293E0,2.6591845E0,1.1029458E0,9.0333626E1,7.150546E1,2.3292383E1,7.8393814E1,3.037574E1,3.6778777E0,1.6785929E0,2.4366999E0,1.6582825E1,7.37508E1,5.504214E1,1.6463322E1,5.0538692E0,1.8238514E1,6.921007E1,9.183748E0],"tree_param":{"num_deleted":"0","num_feature":"30","num_nodes":"27","size_leaf_vector":"1"}},{"base_weights":[-1.4423652E-2,-1.5344922E-1,4.0311712E-1,-4.285562E-1,1.3357469E-2,7.749454E-1,2.317336E-1,-4.7675642E-1,5.0556395E-2,1.3836668E-1,-1.778031E-1,9.1014224E-1,-2.7480854E-2,2.810268E-1,-3.038984E-2,-3.0169139E-2,-1.5987346E-2,2.4474448E-2,-2.3647584E-2,-2.6054585E-2,9.0476E-3,-1.962497E-2,1.621065E-4,4.7125507E-2,1.3235326E-2,-6.2836385E-3,1.9786876E-2],"categories":[],"categories_nodes":[],"categories_segments":[],"categories_sizes":[],"default_left":[1,1,0,1,1,0,1,0,0,0,0,0,0,0,0,0,0,0,0,0,0,0,0,0,0,0,0],"id":9,"left_children":[1,3,5,7,9,11,13,15,17,19,21,23,-1,25,-1,-1,-1,-1,-1,-1,-1,-1,-1,-1,-1,-1,-1],"loss_changes":[1.8580276E1,1.1021616E1,4.916068E0,2.1173096E0,3.6189353E0,4.941636E0,2.4949305E0,1.4463387E0,2.3430858E0,2.6639805E0,2.3298752E0,2.2853088E-1,0E0,2.5564017E0,0E0,0E0,0E0,0E0,0E0,0E0,0E0,0E0,0E0,0E0,0E0,0E0,0E0],"parents":[2147483647,0,0,1,1,2,2,3,3,4,4,5,5,6,6,7,7,8,8,9,9,10,10,11,11,13,13],"right_children":[2,4,6,8,10,12,14,16,18,20,22,24,-1,26,-1,-1,-1,-1,-1,-1,-1,-1,-1,-1,-1,-1,-1],"split_conditions":[1.85654E3,-1.1068E2,2E-1,1.746E0,1.24E-1,1.22E-1,5E-1,1.568E0,3.2E0,-1.8E0,6.8125E0,7.2E0,-2.7480854E-2,4.21875E0,-3.038984E-2,-3.0169139E-2,-1.5987346E-2,2.4474448E-2,-2.3647584E-2,-2.6054585E-2,9.0476E-3,-1.962497E-2,1.621065E-4,4.7125507E-2,1.3235326E-2,-6.2836385E-3,1.9786876E-2],"split_indices":[5,21,20,6,25,25,29,15,9,26,13,8,0,13,0,0,0,0,0,0,0,0,0,0,0,0,0],"split_type":[0,0,0,0,0,0,0,0,0,0,0,0,0,0,0,0,0,0,0,0,0,0,0,0,0,0,0],"sum_hessian":[3.180144E2,2.3905159E2,7.896281E1,8.964117E1,1.4941043E2,2.3801699E1,5.516111E1,8.1451775E1,8.189387E0,9.050256E1,5.8907864E1,2.188118E1,1.9205188E0,5.2730297E1,2.4308133E0,4.351471E1,3.793707E1,4.4898663E0,3.6995215E0,4.808209E0,8.569435E1,2.6415054E1,3.249281E1,2.0397976E1,1.4832041E0,1.1579684E1,4.115061E1],"tree_param":{"num_deleted":"0","num_feature":"30","num_nodes":"27","size_leaf_vector":"1"}},{"base_weights":[1.7620824E-2,-2.163322E-1,9.27259E-2,-2.6937932E-1,4.8218902E-2,4.0830982E-1,3.1264555E-2,-4.680665E-1,-7.06383E-3,2.035228E-1,9.280668E-1,-2.2090079E-1,1.137405E-1,2.9234195E-2,-2.6107827E-2,5.802774E-2,-5.9762313E-3,2.0106172E-2,-2.0273147E-2,-1.7521573E-2,5.8418423E-2,2.2519622E-2,-1.5477701E-2,-6.0613373E-5,1.747155E-2],"categories":[],"categories_nodes":[],"categories_segments":[],"categories_sizes":[],"default_left":[1,1,0,0,0,1,0,0,0,1,0,0,0,0,0,0,0,0,0,0,0,0,0,0,0],"id":10,"left_children":[1,3,5,7,-1,9,11,13,15,17,19,21,23,-1,-1,-1,-1,-1,-1,-1,-1,-1,-1,-1,-1],"loss_changes":[4.4462347E0,4.112689E0,3.6994007E0,3.1056814E0,0E0,3.1229305E0,3.3791833E0,2.2372313E0,3.647971E0,3.017484E0,3.024962E0,2.5250912E0,3.310804E0,0E0,0E0,0E0,0E0,0E0,0E0,0E0,0E0,0E0,0E0,0E0,0E0],"parents":[2147483647,0,0,1,1,2,2,3,3,5,5,6,6,7,7,8,8,9,9,10,10,11,11,12,12],"right_children":[2,4,6,8,-1,10,12,14,16,18,20,22,24,-1,-1,-1,-1,-1,-1,-1,-1,-1,-1,-1,-1],"split_conditions":[-3.25E0,2.544E0,1E0,5.2E0,4.8218902E-2,4.22E0,1.05E1,2E0,3.0104167E0,-8.041E1,2E-1,1.122E0,1.468E0,2.9234195E-2,-2.6107827E-2,5.802774E-2,-5.9762313E-3,2.0106172E-2,-2.0273147E-2,-1.7521573E-2,5.8418423E-2,2.2519622E-2,-1.5477701E-2,-6.0613373E-5,1.747155E-2],"split_indices":[28,7,16,17,0,21,10,17,4,21,11,16,6,0,0,0,0,0,0,0,0,0,0,0,0],"split_type":[0,0,0,0,0,0,0,0,0,0,0,0,0,0,0,0,0,0,0,0,0,0,0,0,0],"sum_hessian":[2.5090143E2,6.05153E1,1.9038612E2,5.8652023E1,1.8632773E0,3.0114527E1,1.6027159E2,3.2927322E1,2.5724703E1,2.2601133E1,7.513394E0,3.9087006E1,1.21184586E2,1.1297438E0,3.1797579E1,1.4412596E0,2.4283443E1,1.729924E1,5.301894E0,1.1162441E0,6.39715E0,4.0837746E0,3.500323E1,8.212488E1,3.905971E1],"tree_param":{"num_deleted":"0","num_feature":"30","num_nodes":"25","size_leaf_vector":"1"}},{"base_weights":[-1.0974427E-2,4.4045416E-1,-1.5161262E-1,5.7812923E-1,-1.2316145E-1,-4.3772296E-3,-3.762187E-1,6.553074E-1,-2.9144922E-2,3.9173953E-2,-2.7367723E-1,-4.3584624E-1,9.9712014E-2,-5.337568E-1,-1.4143106E-1,3.7671182E-2,-1.0987853E-2,2.8593529E-2,-2.3671139E-2,-2.7719274E-2,1.4220232E-2,1.0693754E-2,-1.1799607E-2,1.1516872E-2,-2.8198112E-2,1.4841734E-2,-1.9586127E-2],"categories":[],"categories_nodes":[],"categories_segments":[],"categories_sizes":[],"default_left":[1,1,0,1,0,1,1,0,0,0,0,1,1,0,1,0,0,0,0,0,0,0,0,0,0,0,0],"id":11,"left_children":[1,3,5,7,9,11,13,15,-1,-1,17,19,21,23,25,-1,-1,-1,-1,-1,-1,-1,-1,-1,-1,-1,-1],"loss_changes":[1.9373413E1,5.6961975E0,7.6906753E0,5.6181374E0,2.2689576E0,6.3990955E0,3.3308163E0,4.910412E0,0E0,0E0,2.5766678E0,2.52184E0,4.451133E0,1.393568E0,4.3219557E0,0E0,0E0,0E0,0E0,0E0,0E0,0E0,0E0,0E0,0E0,0E0,0E0],"parents":[2147483647,0,0,1,1,2,2,3,3,4,4,5,5,6,6,7,7,10,10,11,11,12,12,13,13,14,14],"right_children":[2,4,6,8,10,12,14,16,-1,-1,18,20,22,24,26,-1,-1,-1,-1,-1,-1,-1,-1,-1,-1,-1,-1],"split_conditions":[1.70685E3,1.58E1,1.83165E3,1.2E0,-5.84E-1,1.69864E3,1.37E0,3.8E0,-2.9144922E-2,3.9173953E-2,2.6E0,5.6E0,6E-1,1.5E0,-2.8E0,3.7671182E-2,-1.0987853E-2,2.8593529E-2,-2.3671139E-2,-2.7719274E-2,1.4220232E-2,1.0693754E-2,-1.1799607E-2,1.1516872E-2,-2.8198112E-2,1.4841734E-2,-1.9586127E-2],"split_indices":[5,10,5,26,25,14,7,18,0,0,8,8,27,9,28,0,0,0,0,0,0,0,0,0,0,0,0],"split_type":[0,0,0,0,0,0,0,0,0,0,0,0,0,0,0,0,0,0,0,0,0,0,0,0,0,0,0],"sum_hessian":[3.0309845E2,7.149093E1,2.3160753E2,5.743537E1,1.4055556E1,1.4051537E2,9.109216E1,5.4263817E1,3.171554E0,1.4024606E0,1.2653096E1,2.6690619E1,1.13824745E2,5.3752125E1,3.7340034E1,4.8917923E1,5.3458934E0,2.0618846E0,1.0591211E1,2.3116398E1,3.5742202E0,8.521018E1,2.8614561E1,1.7921089E0,5.196002E1,1.3505557E1,2.3834478E1],"tree_param":{"num_deleted":"0","num_feature":"30","num_nodes":"27","size_leaf_vector":"1"}},{"base_weights":[1.0700962E-3,-2.7778092E-1,2.4285597E-1,-3.764305E-1,5.8942247E-2,4.1743556E-1,6.5523185E-2,-5.3244543E-1,-2.1331759E-1,3.027423E-1,-4.6933943E-1,7.872135E-1,2.5782534E-1,1.9862461E-1,-2.7781114E-1,-2.1815683E-4,-2.843414E-2,-1.4862944E-2,2.147561E-2,-2.6483446E-2,1.9820504E-2,-3.3992883E-2,-8.325822E-3,-5.965028E-3,4.237045E-2,6.0782917E-3,3.3264387E-2,3.926153E-2,5.670243E-3,-3.7025534E-2,-1.8192783E-4],"categories":[],"categories_nodes":[],"categories_segments":[],"categories_sizes":[],"default_left":[1,0,1,1,0,1,0,0,0,0,0,0,0,0,0,0,0,0,0,0,0,0,0,0,0,0,0,0,0,0,0],"id":12,"left_children":[1,3,5,7,9,11,13,15,17,19,21,23,25,27,29,-1,-1,-1,-1,-1,-1,-1,-1,-1,-1,-1,-1,-1,-1,-1,-1],"loss_changes":[2.1643402E1,4.9743156E0,5.2954006E0,2.824068E0,4.6041265E0,4.8994484E0,4.0071244E0,1.1138096E0,3.262921E0,2.105628E0,6.091912E-1,1.4968462E0,3.3543868E0,3.055477E0,3.1150646E0,0E0,0E0,0E0,0E0,0E0,0E0,0E0,0E0,0E0,0E0,0E0,0E0,0E0,0E0,0E0,0E0],"parents":[2147483647,0,0,1,1,2,2,3,3,4,4,5,5,6,6,7,7,8,8,9,9,10,10,11,11,12,12,13,13,14,14],"right_children":[2,4,6,8,10,12,14,16,18,20,22,24,26,28,30,-1,-1,-1,-1,-1,-1,-1,-1,-1,-1,-1,-1,-1,-1,-1,-1],"split_conditions":[-2.744E1,1.776E0,-1.34E-1,-1.5847E2,1.792E0,-2E0,7.8333335E0,6.7E-1,8.04E-1,-1.8408E2,1.4010417E1,-8.4E0,4E-1,9.14E-1,-2E0,-2.1815683E-4,-2.843414E-2,-1.4862944E-2,2.147561E-2,-2.6483446E-2,1.9820504E-2,-3.3992883E-2,-8.325822E-3,-5.965028E-3,4.237045E-2,6.0782917E-3,3.3264387E-2,3.926153E-2,5.670243E-3,-3.7025534E-2,-1.8192783E-4],"split_indices":[21,16,25,21,7,28,4,6,25,21,4,28,29,16,28,0,0,0,0,0,0,0,0,0,0,0,0,0,0,0,0],"split_type":[0,0,0,0,0,0,0,0,0,0,0,0,0,0,0,0,0,0,0,0,0,0,0,0,0,0,0,0,0,0,0],"sum_hessian":[3.1901227E2,1.4808145E2,1.7093082E2,1.1443699E2,3.3644463E1,8.545177E1,8.547905E1,5.7333817E1,5.710317E1,2.3312677E1,1.0331786E1,2.4578133E1,6.087364E1,6.190258E1,2.357647E1,3.7535918E0,5.3580227E1,5.09833E1,6.1198683E0,1.8871453E0,2.1425533E1,5.3603096E0,4.9714766E0,1.4693006E0,2.3108831E1,4.6591366E1,1.4282271E1,6.810265E0,5.5092316E1,8.139382E0,1.5437087E1],"tree_param":{"num_deleted":"0","num_feature":"30","num_nodes":"31","size_leaf_vector":"1"}},{"base_weights":[8.232172E-3,-1.7689636E-1,8.607056E-2,-2.189831E-1,4.660119E-2,-4.8269746E-1,1.1732462E-1,-3.6821064E-1,5.7184417E-2,6.6980817E-3,-2.899459E-2,8.988728E-2,5.9829053E-2,2.8896222E-2,-2.0206243E-2,-4.000991E-3,5.1478308E-2,3.2709967E-3,5.771924E-2],"categories":[],"categories_nodes":[],"categories_segments":[],"categories_sizes":[],"default_left":[1,1,0,0,0,0,0,0,1,0,0,0,0,0,0,0,0,0,0],"id":13,"left_children":[1,3,5,7,-1,9,11,13,15,-1,-1,17,-1,-1,-1,-1,-1,-1,-1],"loss_changes":[3.6213636E0,3.6764846E0,3.200354E0,3.0085351E0,0E0,6.415155E-1,4.8803263E0,1.8372502E0,3.590557E0,0E0,0E0,4.2310095E0,0E0,0E0,0E0,0E0,0E0,0E0,0E0],"parents":[2147483647,0,0,1,1,2,2,3,3,5,5,6,6,7,7,8,8,11,11],"right_children":[2,4,6,8,-1,10,12,14,16,-1,-1,18,-1,-1,-1,-1,-1,-1,-1],"split_conditions":[-2.25E0,2.544E0,-9.7333336E-1,5E-1,4.660119E-2,1.6666666E0,8E-1,2.8020833E0,2.46E-1,6.6980817E-3,-2.899459E-2,1.3633333E0,5.9829053E-2,2.8896222E-2,-2.0206243E-2,-4.000991E-3,5.1478308E-2,3.2709967E-3,5.771924E-2],"split_indices":[28,7,25,20,0,9,11,4,24,0,0,24,0,0,0,0,0,0,0],"split_type":[0,0,0,0,0,0,0,0,0,0,0,0,0,0,0,0,0,0,0],"sum_hessian":[2.4925061E2,7.340166E1,1.7584895E2,7.14909E1,1.9107609E0,8.407275E0,1.6744168E2,4.6195698E1,2.52952E1,1.0931832E0,7.3140917E0,1.6434686E2,3.0948145E0,1.1374913E0,4.5058205E1,2.2971588E1,2.323611E0,1.6169185E2,2.6550107E0],"tree_param":{"num_deleted":"0","num_feature":"30","num_nodes":"19","size_leaf_vector":"1"}},{"base_weights":[3.4184118E-3,2.5891644E-1,-2.7460414E-1,5.0940347E-1,-5.269635E-2,-9.3421884E-2,-4.3551663E-1,6.426761E-1,2.0042971E-1,6.580227E-1,-1.3432142E-1,6.061159E-2,-3.923158E-1,-4.7929704E-1,8.412132E-2,-4.3181004E-3,3.61405E-2,2.1994624E-2,-1.4608613E-2,3.976943E-2,-2.3320864E-3,4.8285462E-2,-9.997167E-3,1.35043515E-2,-2.1278692E-2,1.96111E-2,-2.2883452E-2,-2.5653241E-2,1.8743584E-2,3.382471E-2,-1.8162506E-2],"categories":[],"categories_nodes":[],"categories_segments":[],"categories_sizes":[],"default_left":[1,1,0,1,0,1,1,0,0,1,0,1,0,1,0,0,0,0,0,0,0,0,0,0,0,0,0,0,0,0,0],"id":14,"left_children":[1,3,5,7,9,11,13,15,17,19,21,23,25,27,29,-1,-1,-1,-1,-1,-1,-1,-1,-1,-1,-1,-1,-1,-1,-1,-1],"loss_changes":[2.1626955E1,1.2410199E1,4.2102776E0,3.4966621E0,4.2423515E0,3.2399943E0,1.7909431E0,3.6295204E0,3.429719E0,7.675309E-1,4.8894157E0,4.898166E0,1.4044626E0,2.2436905E0,2.055798E0,0E0,0E0,0E0,0E0,0E0,0E0,0E0,0E0,0E0,0E0,0E0,0E0,0E0,0E0,0E0,0E0],"parents":[2147483647,0,0,1,1,2,2,3,3,4,4,5,5,6,6,7,7,8,8,9,9,10,10,11,11,12,12,13,13,14,14],"right_children":[2,4,6,8,10,12,14,16,18,20,22,24,26,28,30,-1,-1,-1,-1,-1,-1,-1,-1,-1,-1,-1,-1,-1,-1,-1,-1],"split_conditions":[-1.618E1,1.176E0,8.414E1,-1.1931E2,3.3333333E0,1.576E0,1.4E1,-1.015E0,1.65E0,1.81051E3,-4.5E0,1.626E0,-1.15E0,2.06E1,2.5E-1,-4.3181004E-3,3.61405E-2,2.1994624E-2,-1.4608613E-2,3.976943E-2,-2.3320864E-3,4.8285462E-2,-9.997167E-3,1.35043515E-2,-2.1278692E-2,1.96111E-2,-2.2883452E-2,-2.5653241E-2,1.8743584E-2,3.382471E-2,-1.8162506E-2],"split_indices":[21,6,21,21,8,16,4,24,16,5,28,6,27,19,11,0,0,0,0,0,0,0,0,0,0,0,0,0,0,0,0],"split_type":[0,0,0,0,0,0,0,0,0,0,0,0,0,0,0,0,0,0,0,0,0,0,0,0,0,0,0,0,0,0,0],"sum_hessian":[3.0245737E2,1.5764917E2,1.448082E2,8.704451E1,7.060466E1,6.885748E1,7.5950714E1,6.0058758E1,2.6985754E1,6.546036E0,6.4058624E1,4.596623E1,2.289125E1,7.012057E1,5.830147E0,5.9400425E0,5.4118713E1,1.8230553E1,8.7552E0,5.3703938E0,1.1756417E0,2.8340876E0,6.1224533E1,3.2435646E1,1.3530583E1,1.3756456E0,2.1515604E1,6.783807E1,2.2824972E0,2.2881765E0,3.5419703E0],"tree_param":{"num_deleted":"0","num_feature":"30","num_nodes":"31","size_leaf_vector":"1"}},{"base_weights":[-2.2638697E-2,-1.555456E-1,3.8178858E-1,-4.687263E-1,-9.0612054E-2,2.1898122E-1,7.5799966E-1,-6.3363326E-1,-2.2804193E-1,-1.3302774E-2,-3.1932157E-1,3.4399924E-1,-1.2040634E-1,2.7864194E-1,9.547826E-1,-1.6428104E-3,-3.3417474E-2,2.3973932E-2,-2.3569684E-2,-3.4817734E-3,2.7862286E-2,1.0547093E-2,-2.1638619E-2,2.076464E-2,-2.9826835E-2,-2.644814E-2,8.413356E-3,-8.630054E-3,4.124053E-2,1.9135784E-2,5.0318033E-2],"categories":[],"categories_nodes":[],"categories_segments":[],"categories_sizes":[],"default_left":[1,0,1,0,0,1,0,0,0,0,1,1,0,0,0,0,0,0,0,0,0,0,0,0,0,0,0,0,0,0,0],"id":15,"left_children":[1,3,5,7,9,11,13,15,17,19,21,23,25,27,29,-1,-1,-1,-1,-1,-1,-1,-1,-1,-1,-1,-1,-1,-1,-1,-1],"loss_changes":[1.7554504E1,4.9538074E0,4.782771E0,1.5206118E0,3.6157475E0,2.4937813E0,1.997652E0,4.855423E-1,3.4318347E0,4.990261E0,3.2002115E0,3.0974264E0,2.0114272E0,2.2116895E0,1.0469055E-1,0E0,0E0,0E0,0E0,0E0,0E0,0E0,0E0,0E0,0E0,0E0,0E0,0E0,0E0,0E0,0E0],"parents":[2147483647,0,0,1,1,2,2,3,3,4,4,5,5,6,6,7,7,8,8,9,9,10,10,11,11,12,12,13,13,14,14],"right_children":[2,4,6,8,10,12,14,16,18,20,22,24,26,28,30,-1,-1,-1,-1,-1,-1,-1,-1,-1,-1,-1,-1,-1,-1,-1,-1],"split_conditions":[1.85732E3,-1.75E0,1.604E0,1.76E0,5.25E0,8.541667E-1,5E-2,-5E-1,1.9E0,1.744E0,8.54E-1,1.88E1,2.5E0,1.93328E3,8.8E0,-1.6428104E-3,-3.3417474E-2,2.3973932E-2,-2.3569684E-2,-3.4817734E-3,2.7862286E-2,1.0547093E-2,-2.1638619E-2,2.076464E-2,-2.9826835E-2,-2.644814E-2,8.413356E-3,-8.630054E-3,4.124053E-2,1.9135784E-2,5.0318033E-2],"split_indices":[5,26,16,15,8,22,29,29,15,6,15,19,9,5,19,0,0,0,0,0,0,0,0,0,0,0,0,0,0,0,0],"split_type":[0,0,0,0,0,0,0,0,0,0,0,0,0,0,0,0,0,0,0,0,0,0,0,0,0,0,0,0,0,0,0],"sum_hessian":[3.244834E2,2.4468726E2,7.979616E1,4.095222E1,2.0373503E2,5.679841E1,2.2997747E1,2.3332872E1,1.7619347E1,1.5305646E2,5.0678574E1,4.149834E1,1.5300067E1,7.3963737E0,1.5601375E1,1.3809751E0,2.1951899E1,4.2608995E0,1.3358447E1,1.4010158E2,1.2954877E1,8.780346E0,4.1898228E1,3.909347E1,2.404872E0,5.990038E0,9.310029E0,4.4246874E0,2.9716864E0,1.9866791E0,1.3614696E1],"tree_param":{"num_deleted":"0","num_feature":"30","num_nodes":"31","size_leaf_vector":"1"}},{"base_weights":[4.5929812E-2,-1.5540257E-1,1.3283081E-1,5.7107306E-1,-2.2831817E-1,1.0550303E-1,9.679097E-1,-1.9728024E-1,1.0638775E0,-3.6574775E-1,6.835058E-3,6.6111996E-3,3.030975E-1,4.8449486E-3,5.951325E-2,6.1585363E-3,-1.9597827E-2,6.770779E-2,5.768046E-3,-2.12244E-2,2.8691396E-2,-7.136737E-3,2.1725861E-2,-1.95479E-3,3.401557E-2,3.9855685E-2,4.232596E-3],"categories":[],"categories_nodes":[],"categories_segments":[],"categories_sizes":[],"default_left":[1,0,0,0,0,0,0,0,0,1,1,0,1,0,0,0,0,0,0,0,0,0,0,0,0,0,0],"id":16,"left_children":[1,3,5,7,9,11,13,15,17,19,21,23,25,-1,-1,-1,-1,-1,-1,-1,-1,-1,-1,-1,-1,-1,-1],"loss_changes":[4.264869E0,4.028999E0,3.7770734E0,2.8599684E0,2.1871173E0,3.2362509E0,9.041829E-1,2.715131E-1,1.0608745E0,2.599317E0,1.7198379E0,3.4589887E0,5.8951945E0,0E0,0E0,0E0,0E0,0E0,0E0,0E0,0E0,0E0,0E0,0E0,0E0,0E0,0E0],"parents":[2147483647,0,0,1,1,2,2,3,3,4,4,5,5,6,6,7,7,8,8,9,9,10,10,11,11,12,12],"right_children":[2,4,6,8,10,12,14,16,18,20,22,24,26,-1,-1,-1,-1,-1,-1,-1,-1,-1,-1,-1,-1,-1,-1],"split_conditions":[-2.25E0,-3.3333334E-1,8E-1,2.2E0,5.5E0,6.875E-1,3E0,-4.2E-2,1.86408E3,2.544E0,-8.42E-1,5.8E0,1.76648E3,4.8449486E-3,5.951325E-2,6.1585363E-3,-1.9597827E-2,6.770779E-2,5.768046E-3,-2.12244E-2,2.8691396E-2,-7.136737E-3,2.1725861E-2,-1.95479E-3,3.401557E-2,3.9855685E-2,4.232596E-3],"split_indices":[28,29,11,9,17,22,3,24,5,7,24,28,14,0,0,0,0,0,0,0,0,0,0,0,0,0,0],"split_type":[0,0,0,0,0,0,0,0,0,0,0,0,0,0,0,0,0,0,0,0,0,0,0,0,0,0,0],"sum_hessian":[2.4158289E2,7.2598434E1,1.6898445E2,5.998816E0,6.659962E1,1.6472035E2,4.2641E0,2.5783985E0,3.4204175E0,4.1683407E1,2.4916214E1,1.10467285E2,5.425307E1,1.159172E0,3.104928E0,1.1132369E0,1.4651617E0,2.2914877E0,1.1289299E0,3.9746742E1,1.9366654E0,1.8953886E1,5.962328E0,1.0433095E2,6.1363354E0,1.5822147E1,3.8430923E1],"tree_param":{"num_deleted":"0","num_feature":"30","num_nodes":"27","size_leaf_vector":"1"}},{"base_weights":[-9.041148E-4,2.4144362E-1,-3.135021E-1,5.310144E-1,1.725704E-2,-1.4385316E-1,-4.531652E-1,6.7644614E-1,1.9849409E-1,-7.045101E-2,6.0232264E-1,-6.624569E-2,-5.609311E-1,-4.9985284E-1,3.3054836E-2,-1.8691982E-3,3.8161527E-2,1.7427457E-2,-2.945525E-2,3.726029E-2,-7.1162856E-3,-9.678553E-3,4.7546145E-2,1.9256895E-3,-2.7703708E-2,-3.2854285E-2,1.1227432E-3,-2.6774565E-2,1.4719921E-2],"categories":[],"categories_nodes":[],"categories_segments":[],"categories_sizes":[],"default_left":[1,1,0,1,1,0,1,0,1,0,0,0,1,1,0,0,0,0,0,0,0,0,0,0,0,0,0,0,0],"id":17,"left_children":[1,3,5,7,9,11,13,15,17,19,21,23,25,27,-1,-1,-1,-1,-1,-1,-1,-1,-1,-1,-1,-1,-1,-1,-1],"loss_changes":[2.2774616E1,1.0984218E1,3.0454016E0,3.437624E0,4.993348E0,1.9290007E0,4.0521355E0,3.1862068E0,3.0287433E0,5.0773625E0,3.7028766E0,2.6965475E0,5.418055E-1,2.117342E0,0E0,0E0,0E0,0E0,0E0,0E0,0E0,0E0,0E0,0E0,0E0,0E0,0E0,0E0,0E0],"parents":[2147483647,0,0,1,1,2,2,3,3,4,4,5,5,6,6,7,7,8,8,9,9,10,10,11,11,12,12,13,13],"right_children":[2,4,6,8,10,12,14,16,18,20,22,24,26,28,-1,-1,-1,-1,-1,-1,-1,-1,-1,-1,-1,-1,-1,-1,-1],"split_conditions":[-2.81E0,1.07E0,9.683E1,-1.1931E2,1.1989583E1,5E-1,2.06E1,-1.015E0,1.794E0,7E-1,-1.2E0,3.5E0,2.074E0,2.15E0,3.3054836E-2,-1.8691982E-3,3.8161527E-2,1.7427457E-2,-2.945525E-2,3.726029E-2,-7.1162856E-3,-9.678553E-3,4.7546145E-2,1.9256895E-3,-2.7703708E-2,-3.2854285E-2,1.1227432E-3,-2.6774565E-2,1.4719921E-2],"split_indices":[21,6,21,21,13,20,19,24,16,16,26,9,6,7,0,0,0,0,0,0,0,0,0,0,0,0,0,0,0],"split_type":[0,0,0,0,0,0,0,0,0,0,0,0,0,0,0,0,0,0,0,0,0,0,0,0,0,0,0,0,0],"sum_hessian":[2.986264E2,1.683429E2,1.3028351E2,7.286201E1,9.548089E1,5.974327E1,7.0540245E1,4.9971893E1,2.2890116E1,8.3798164E1,1.1682722E1,5.1347633E1,8.395639E0,6.82327E1,2.3075488E0,5.4785185E0,4.4493374E1,1.9695198E1,3.194918E0,6.0275474E0,7.777062E1,3.693885E0,7.9888372E0,4.302847E1,8.319164E0,7.099206E0,1.2964332E0,6.5614334E1,2.6183586E0],"tree_param":{"num_deleted":"0","num_feature":"30","num_nodes":"29","size_leaf_vector":"1"}},{"base_weights":[-2.3326527E-2,-1.508467E-1,3.9820006E-1,-4.215774E-1,-2.0235537E-3,3.0750558E-1,8.7935805E-1,-4.9588165E-1,4.141467E-2,6.8951994E-2,-4.1313234E-1,4.8970726E-1,-4.3917134E-2,4.742014E-2,1.2421775E-2,-2.7938068E-2,-4.3743025E-4,-2.3156045E-2,1.6986696E-2,7.7099106E-3,-1.2459622E-2,-3.721055E-2,-3.6584418E-3,3.3961765E-2,9.24796E-3,-2.4671989E-2,1.3387418E-2],"categories":[],"categories_nodes":[],"categories_segments":[],"categories_sizes":[],"default_left":[1,1,1,0,1,1,0,1,1,1,0,0,0,0,0,0,0,0,0,0,0,0,0,0,0,0,0],"id":18,"left_children":[1,3,5,7,9,11,13,15,17,19,21,23,25,-1,-1,-1,-1,-1,-1,-1,-1,-1,-1,-1,-1,-1,-1],"loss_changes":[1.7488499E1,1.005784E1,3.027772E0,3.0668879E0,4.7583575E0,4.191815E0,2.6312447E-1,2.3347492E0,2.1394205E0,3.8106806E0,2.6478124E0,2.356514E0,3.376297E0,0E0,0E0,0E0,0E0,0E0,0E0,0E0,0E0,0E0,0E0,0E0,0E0,0E0,0E0],"parents":[2147483647,0,0,1,1,2,2,3,3,4,4,5,5,6,6,7,7,8,8,9,9,10,10,11,11,12,12],"right_children":[2,4,6,8,10,12,14,16,18,20,22,24,26,-1,-1,-1,-1,-1,-1,-1,-1,-1,-1,-1,-1,-1,-1],"split_conditions":[1.86408E3,-1.1931E2,1.916E0,7.2E0,5.5E0,3.08E-1,1.378E0,1.80301E3,3.2E0,1.765E0,2.25E0,2.4E-1,6.1875E0,4.742014E-2,1.2421775E-2,-2.7938068E-2,-4.3743025E-4,-2.3156045E-2,1.6986696E-2,7.7099106E-3,-1.2459622E-2,-3.721055E-2,-3.6584418E-3,3.3961765E-2,9.24796E-3,-2.4671989E-2,1.3387418E-2],"split_indices":[5,21,16,17,17,24,15,5,8,7,9,25,13,0,0,0,0,0,0,0,0,0,0,0,0,0,0],"split_type":[0,0,0,0,0,0,0,0,0,0,0,0,0,0,0,0,0,0,0,0,0,0,0,0,0,0,0],"sum_hessian":[3.2323093E2,2.4865115E2,7.457977E1,8.755084E1,1.611003E2,6.413073E1,1.0449041E1,7.538197E1,1.2168873E1,1.3809183E2,2.3008476E1,4.1974674E1,2.2156055E1,8.964785E0,1.4842572E0,6.6633766E1,8.748208E0,4.316356E0,7.852516E0,1.0931609E2,2.877573E1,1.1054141E1,1.1954335E1,2.512202E1,1.6852655E1,8.832907E0,1.3323149E1],"tree_param":{"num_deleted":"0","num_feature":"30","num_nodes":"27","size_leaf_vector":"1"}},{"base_weights":[-2.399615E-3,-4.330409E-1,3.3643253E-2,1.0190693E-2,-4.8556384E-1,5.3838987E-2,-2.7977932E-2,-2.861127E-2,-5.796246E-2,2.83411E-2,5.9262896E-1,2.8271476E-2,-2.2053292E-2,3.411213E-2,5.2282907E-4,5.0453544E-2,-1.306467E-2],"categories":[],"categories_nodes":[],"categories_segments":[],"categories_sizes":[],"default_left":[1,0,1,0,0,1,0,0,1,0,0,0,0,0,0,0,0],"id":19,"left_children":[1,3,5,-1,7,9,-1,-1,11,13,15,-1,-1,-1,-1,-1,-1],"loss_changes":[3.8349757E0,7.3723435E-1,2.762248E0,0E0,6.3101435E-1,3.0255933E0,0E0,0E0,1.2364728E0,2.4780073E0,3.804305E0,0E0,0E0,0E0,0E0,0E0,0E0],"parents":[2147483647,0,0,1,1,2,2,4,4,5,5,8,8,9,9,10,10],"right_children":[2,4,6,-1,8,10,-1,-1,12,14,16,-1,-1,-1,-1,-1,-1],"split_conditions":[7E0,7.82E-1,2.8841E2,1.0190693E-2,2.296E0,9.7E-1,-2.7977932E-2,-2.861127E-2,1.70685E3,-2.5E0,1.404E0,2.8271476E-2,-2.2053292E-2,3.411213E-2,5.2282907E-4,5.0453544E-2,-1.306467E-2],"split_indices":[10,16,21,0,15,24,0,0,5,27,7,0,0,0,0,0,0],"split_type":[0,0,0,0,0,0,0,0,0,0,0,0,0,0,0,0,0],"sum_hessian":[2.4513571E2,1.80816E1,2.2705411E2,1.1581575E0,1.6923443E1,2.204578E2,6.5963116E0,1.3790345E1,3.1330976E0,2.1150124E2,8.956558E0,1.0114048E0,2.121693E0,4.641716E0,2.0685953E2,5.8983536E0,3.058205E0],"tree_param":{"num_deleted":"0","num_feature":"30","num_nodes":"17","size_leaf_vector":"1"}},{"base_weights":[-2.0407593E-2,2.206507E-1,-3.095025E-1,4.6839038E-1,1.4622774E-2,-3.254841E-2,-2.3726453E-1,5.610776E-1,-1.03234455E-1,6.7742914E-1,-5.199334E-2,6.6874695E-1,-2.6735997E-1,3.1779137E-2,-1.6476069E-2,-3.1996924E-2,2.363813E-2,-3.8905074E-3,4.1980397E-2,2.7482737E-2,-6.507184E-3,6.258444E-4,4.872198E-2,-5.841981E-3,-2.1637592E-2],"categories":[],"categories_nodes":[],"categories_segments":[],"categories_sizes":[],"default_left":[1,0,1,1,0,0,0,1,0,0,0,0,0,0,0,0,0,0,0,0,0,0,0,0,0],"id":20,"left_children":[1,3,5,7,9,-1,11,13,15,17,19,21,23,-1,-1,-1,-1,-1,-1,-1,-1,-1,-1,-1,-1],"loss_changes":[2.153664E1,8.59721E0,3.3109818E0,4.111351E0,4.1443877E0,0E0,3.383521E0,4.5879097E0,3.86349E0,1.1150985E0,4.0914044E0,8.031032E-1,2.799097E0,0E0,0E0,0E0,0E0,0E0,0E0,0E0,0E0,0E0,0E0,0E0,0E0],"parents":[2147483647,0,0,1,1,2,2,3,3,4,4,6,6,7,7,8,8,9,9,10,10,11,11,12,12],"right_children":[2,4,6,8,10,-1,12,14,16,18,20,22,24,-1,-1,-1,-1,-1,-1,-1,-1,-1,-1,-1,-1],"split_conditions":[-5.35E0,1.436E0,8.16E-1,1.652E0,8.4E0,-3.254841E-2,2.5E0,9.9E-1,6.9375E0,6.4E0,1.64251E3,-4E0,9.683E1,3.1779137E-2,-1.6476069E-2,-3.1996924E-2,2.363813E-2,-3.8905074E-3,4.1980397E-2,2.7482737E-2,-6.507184E-3,6.258444E-4,4.872198E-2,-5.841981E-3,-2.1637592E-2],"split_indices":[21,15,15,6,19,0,17,25,13,19,5,28,21,0,0,0,0,0,0,0,0,0,0,0,0],"split_type":[0,0,0,0,0,0,0,0,0,0,0,0,0,0,0,0,0,0,0,0,0,0,0,0,0],"sum_hessian":[3.0706052E2,1.6757057E2,1.3948993E2,7.5505295E1,9.2065285E1,2.2957842E1,1.165321E2,6.49864E1,1.0518897E1,7.570672E0,8.449461E1,3.0642138E0,1.1346788E2,6.023375E1,4.75265E0,5.387711E0,5.1311855E0,1.4302874E0,6.1403847E0,9.019993E0,7.547462E1,1.3045924E0,1.7596214E0,6.029807E1,5.316981E1],"tree_param":{"num_deleted":"0","num_feature":"30","num_nodes":"25","size_leaf_vector":"1"}},{"base_weights":[-1.38637405E-2,-1.4569883E-1,3.68415E-1,-4.0492967E-1,-2.458809E-4,6.9157606E-1,2.2532703E-1,-4.808413E-1,3.1772945E-2,3.9822102E-1,-6.2101513E-2,8.119616E-1,-1.5459174E-2,3.4719196E-1,-1.6407377E-1,-1.4413439E-2,-2.9688478E-2,-1.8016534E-2,3.073142E-2,3.0252708E-2,-9.780797E-3,7.2472566E-3,-1.1358698E-2,4.214825E-2,1.1191676E-2,3.0034363E-2,6.914213E-3,1.6804075E-2,-2.0664273E-2],"categories":[],"categories_nodes":[],"categories_segments":[],"categories_sizes":[],"default_left":[1,1,0,1,1,0,1,1,0,1,0,0,0,0,0,0,0,0,0,0,0,0,0,0,0,0,0,0,0],"id":21,"left_children":[1,3,5,7,9,11,13,15,17,19,21,23,-1,25,27,-1,-1,-1,-1,-1,-1,-1,-1,-1,-1,-1,-1,-1,-1],"loss_changes":[1.6351414E1,9.093555E0,3.691782E0,2.8888855E0,3.8571708E0,3.2693357E0,2.8641725E0,1.4361076E0,3.3695228E0,2.7012331E0,4.6626945E0,2.2410679E-1,0E0,2.3199463E0,1.9810777E0,0E0,0E0,0E0,0E0,0E0,0E0,0E0,0E0,0E0,0E0,0E0,0E0,0E0,0E0],"parents":[2147483647,0,0,1,1,2,2,3,3,4,4,5,5,6,6,7,7,8,8,9,9,10,10,11,11,13,13,14,14],"right_children":[2,4,6,8,10,12,14,16,18,20,22,24,-1,26,28,-1,-1,-1,-1,-1,-1,-1,-1,-1,-1,-1,-1,-1,-1],"split_conditions":[1.85654E3,-1.1931E2,2E-1,1.504E0,-5.8E-1,1.22E-1,3.88E-1,-1.015E0,4.2E0,2.128E0,-1.34E-1,8E-1,-1.5459174E-2,1.68E0,8.4E0,-1.4413439E-2,-2.9688478E-2,-1.8016534E-2,3.073142E-2,3.0252708E-2,-9.780797E-3,7.2472566E-3,-1.1358698E-2,4.214825E-2,1.1191676E-2,3.0034363E-2,6.914213E-3,1.6804075E-2,-2.0664273E-2],"split_indices":[5,21,20,6,24,25,24,24,28,15,25,11,0,15,10,0,0,0,0,0,0,0,0,0,0,0,0,0,0],"split_type":[0,0,0,0,0,0,0,0,0,0,0,0,0,0,0,0,0,0,0,0,0,0,0,0,0,0,0,0,0],"sum_hessian":[3.223822E2,2.4017334E2,8.220885E1,8.5682816E1,1.5449052E2,2.4052832E1,5.8156017E1,7.290817E1,1.2774642E1,2.0028877E1,1.3446165E2,2.16385E1,2.4143312E0,4.437655E1,1.3779469E1,2.826372E1,4.464445E1,7.8652477E0,4.9093943E0,1.4840908E1,5.18797E0,5.9701427E1,7.476022E1,2.0143333E1,1.4951661E0,1.9201483E1,2.5175066E1,4.4666166E0,9.312852E0],"tree_param":{"num_deleted":"0","num_feature":"30","num_nodes":"29","size_leaf_vector":"1"}},{"base_weights":[3.2894178E-3,-1.1931488E-1,1.2568197E-1,2.8780052E-1,-1.7432696E-1,-6.69143E-2,2.2192292E-1,6.2685686E-1,-2.6445413E-2,-4.5901164E-1,-1.0682504E-1,-2.7462175E-1,2.8898373E-1,9.198107E-1,1.5938802E-1,-1.9347303E-2,4.0741984E-2,1.3715962E-2,-2.7187062E-2,8.745521E-4,-1.5813414E-2,5.114482E-2,-1.8545961E-2,2.7215203E-2,-2.5914017E-2,5.347673E-2,5.189263E-3,1.1809737E-3,2.5187373E-2],"categories":[],"categories_nodes":[],"categories_segments":[],"categories_sizes":[],"default_left":[1,0,0,0,0,0,0,0,0,0,1,0,0,0,0,0,0,0,0,0,0,0,0,0,0,0,0,0,0],"id":22,"left_children":[1,3,5,7,9,11,13,15,-1,17,19,21,23,25,27,-1,-1,-1,-1,-1,-1,-1,-1,-1,-1,-1,-1,-1,-1],"loss_changes":[3.7694068E0,2.8609715E0,2.3446574E0,4.5730476E0,2.087598E0,3.2321281E0,3.5212631E0,2.4652762E0,0E0,1.4544334E0,2.3795676E0,3.8085375E0,3.6221366E0,7.078271E-1,3.6508353E0,0E0,0E0,0E0,0E0,0E0,0E0,0E0,0E0,0E0,0E0,0E0,0E0,0E0,0E0],"parents":[2147483647,0,0,1,1,2,2,3,3,4,4,5,5,6,6,7,7,9,9,10,10,11,11,12,12,13,13,14,14],"right_children":[2,4,6,8,10,12,14,16,-1,18,20,22,24,26,28,-1,-1,-1,-1,-1,-1,-1,-1,-1,-1,-1,-1,-1,-1],"split_conditions":[-3E-1,-3.3333334E-1,-3.5E-1,-1E0,-3.6E0,1.86E0,9.34E-1,1.125E1,-2.6445413E-2,2.5E0,1.79918E3,6.5E-1,1.492E0,1.122E0,1.448E0,-1.9347303E-2,4.0741984E-2,1.3715962E-2,-2.7187062E-2,8.745521E-4,-1.5813414E-2,5.114482E-2,-1.8545961E-2,2.7215203E-2,-2.5914017E-2,5.347673E-2,5.189263E-3,1.1809737E-3,2.5187373E-2],"split_indices":[28,29,24,28,28,15,6,19,0,17,14,16,6,15,15,0,0,0,0,0,0,0,0,0,0,0,0,0,0],"split_type":[0,0,0,0,0,0,0,0,0,0,0,0,0,0,0,0,0,0,0,0,0,0,0,0,0,0,0,0,0],"sum_hessian":[2.4919644E2,1.245031E2,1.2469335E2,1.4317228E1,1.1018587E2,4.1649525E1,8.304382E1,1.0281378E1,4.03585E0,2.0007141E1,9.017873E1,2.6444492E1,1.5205034E1,5.70191E0,7.734191E1,1.4426525E0,8.838725E0,1.8404596E0,1.8166681E1,5.7164776E1,3.301395E1,1.1622329E0,2.5282259E1,1.1799005E1,3.4060304E0,4.555421E0,1.1464893E0,5.6237915E1,2.1104E1],"tree_param":{"num_deleted":"0","num_feature":"30","num_nodes":"29","size_leaf_vector":"1"}},{"base_weights":[1.4338474E-2,5.2838856E-1,-9.31761E-2,6.090293E-1,-2.5728822E-2,-2.4125138E-1,1.3395232E-1,9.433226E-2,6.853882E-1,-1.5666491E-1,-5.6914335E-1,-2.0684436E-1,2.3385395E-1,-2.5552128E-2,1.8857332E-2,3.8666178E-2,9.157436E-3,-2.7851034E-2,-4.7300383E-3,-1.5608892E-2,-3.348E-2,4.1192885E-2,-1.5441102E-2,-2.3033319E-2,1.4345787E-2],"categories":[],"categories_nodes":[],"categories_segments":[],"categories_sizes":[],"default_left":[1,1,1,1,0,0,0,0,1,0,1,0,0,0,0,0,0,0,0,0,0,0,0,0,0],"id":23,"left_children":[1,3,5,7,-1,9,11,13,15,17,19,21,23,-1,-1,-1,-1,-1,-1,-1,-1,-1,-1,-1,-1],"loss_changes":[1.6829832E1,4.743128E0,8.506067E0,1.8747578E0,0E0,4.1509056E0,3.455624E0,1.4827511E0,1.7491455E0,3.0012481E0,5.904312E-1,2.694748E0,3.0015202E0,0E0,0E0,0E0,0E0,0E0,0E0,0E0,0E0,0E0,0E0,0E0,0E0],"parents":[2147483647,0,0,1,1,2,2,3,3,5,5,6,6,7,7,8,8,9,9,10,10,11,11,12,12],"right_children":[2,4,6,8,-1,10,12,14,16,18,20,22,24,-1,-1,-1,-1,-1,-1,-1,-1,-1,-1,-1,-1],"split_conditions":[1.66487E3,4E-1,1.22E-1,8.8E-1,-2.5728822E-2,1.93898E3,1.75205E3,1.12E1,1.04E0,8.44E-1,8.8E0,2.5E0,1.176E0,-2.5552128E-2,1.8857332E-2,3.8666178E-2,9.157436E-3,-2.7851034E-2,-4.7300383E-3,-1.5608892E-2,-3.348E-2,4.1192885E-2,-1.5441102E-2,-2.3033319E-2,1.4345787E-2],"split_indices":[5,11,25,15,0,5,14,19,25,15,19,17,7,0,0,0,0,0,0,0,0,0,0,0,0],"split_type":[0,0,0,0,0,0,0,0,0,0,0,0,0,0,0,0,0,0,0,0,0,0,0,0,0],"sum_hessian":[3.0262302E2,5.1668816E1,2.5095421E2,4.8346764E1,3.3220518E0,1.5187671E2,9.9077484E1,6.5347404E0,4.1812023E1,1.2190628E2,2.9970436E1,2.2217152E1,7.686034E1,1.8238122E0,4.710928E0,3.5122753E1,6.6892667E0,1.529141E1,1.0661487E2,9.577925E0,2.0392511E1,1.3629392E0,2.0854212E1,4.910152E0,7.195018E1],"tree_param":{"num_deleted":"0","num_feature":"30","num_nodes":"25","size_leaf_vector":"1"}},{"base_weights":[-6.062423E-3,-1.2436872E-1,3.514725E-1,-3.8883168E-1,1.7061614E-2,2.7968368E-1,4.45009E-2,-4.9182603E-1,-1.3214055E-1,4.2604893E-1,-4.0312964E-2,3.122497E-1,-2.9361606E-2,1.3584096E-3,-2.8251905E-2,3.8905583E-2,-1.4710987E-2,-2.8011445E-2,2.8244222E-2,3.1799723E-3,-1.22702075E-2,3.0697022E-2,1.0009153E-2],"categories":[],"categories_nodes":[],"categories_segments":[],"categories_sizes":[],"default_left":[1,1,1,1,1,1,0,0,1,0,1,0,0,0,0,0,0,0,0,0,0,0,0],"id":24,"left_children":[1,3,5,7,9,11,-1,13,15,17,19,21,-1,-1,-1,-1,-1,-1,-1,-1,-1,-1,-1],"loss_changes":[1.3650687E1,9.074898E0,2.8533297E0,2.16955E0,3.746454E0,2.2234454E0,0E0,2.293295E0,4.0012836E0,3.0055685E0,3.0053518E0,2.2538376E0,0E0,0E0,0E0,0E0,0E0,0E0,0E0,0E0,0E0,0E0,0E0],"parents":[2147483647,0,0,1,1,2,2,3,3,4,4,5,5,7,7,8,8,9,9,10,10,11,11],"right_children":[2,4,6,8,10,12,-1,14,16,18,20,22,-1,-1,-1,-1,-1,-1,-1,-1,-1,-1,-1],"split_conditions":[1.85654E3,-1.1931E2,1.994E0,4.2E0,7.66E-1,1.3633333E0,4.45009E-2,-9.6E-1,-8.92E-1,4.5E-1,2.4E-1,2E-1,-2.9361606E-2,1.3584096E-3,-2.8251905E-2,3.8905583E-2,-1.4710987E-2,-2.8011445E-2,2.8244222E-2,3.1799723E-3,-1.22702075E-2,3.0697022E-2,1.0009153E-2],"split_indices":[5,21,16,8,15,24,0,24,25,15,25,20,0,0,0,0,0,0,0,0,0,0,0],"split_type":[0,0,0,0,0,0,0,0,0,0,0,0,0,0,0,0,0,0,0,0,0,0,0],"sum_hessian":[3.206883E2,2.4144699E2,7.92413E1,8.352079E1,1.5792621E2,7.126139E1,7.9799075E0,5.8951252E1,2.4569534E1,1.8638475E1,1.3928772E2,6.9298004E1,1.9633894E0,7.365652E0,5.15856E1,3.1391206E0,2.1430412E1,1.9253957E0,1.671308E1,9.290564E1,4.6382088E1,1.7556473E1,5.174153E1],"tree_param":{"num_deleted":"0","num_feature":"30","num_nodes":"23","size_leaf_vector":"1"}},{"base_weights":[-2.960748E-3,-3.0801564E-1,5.8890793E-2,5.969019E-1,-3.8427234E-1,7.6873296E-1,4.2714395E-2,-1.699396E-2,5.5899013E-2,2.6784707E-2,-4.2325118E-1,6.0328133E-2,-1.8085715E-3,-4.608218E-2,1.8480211E-1,-2.3135161E-2,1.8069778E-2,-6.2982365E-3,1.12772975E-2,-9.799615E-3,1.5690267E-2],"categories":[],"categories_nodes":[],"categories_segments":[],"categories_sizes":[],"default_left":[1,0,0,0,0,0,0,0,0,0,1,0,0,0,1,0,0,0,0,0,0],"id":25,"left_children":[1,3,5,7,9,11,13,-1,-1,-1,15,-1,-1,17,19,-1,-1,-1,-1,-1,-1],"loss_changes":[4.7268662E0,3.143516E0,2.3593495E0,2.1732812E0,1.6452003E0,1.6587262E0,2.5917864E0,0E0,0E0,0E0,1.3592443E0,0E0,0E0,2.779825E0,3.9395175E0,0E0,0E0,0E0,0E0,0E0,0E0],"parents":[2147483647,0,0,1,1,2,2,3,3,4,4,5,5,6,6,10,10,13,13,14,14],"right_children":[2,4,6,8,10,12,14,-1,-1,-1,16,-1,-1,18,20,-1,-1,-1,-1,-1,-1],"split_conditions":[9E0,-3.3333334E-1,-2.5E0,5.2E0,7E-1,1.104E0,4.6E0,-1.699396E-2,5.5899013E-2,2.6784707E-2,4.8E0,6.0328133E-2,-1.8085715E-3,5.4E0,-1.0104166E0,-2.3135161E-2,1.8069778E-2,-6.2982365E-3,1.12772975E-2,-9.799615E-3,1.5690267E-2],"split_indices":[10,29,27,17,16,16,8,0,0,0,18,0,0,17,22,0,0,0,0,0,0],"split_type":[0,0,0,0,0,0,0,0,0,0,0,0,0,0,0,0,0,0,0,0,0],"sum_hessian":[2.4856001E2,4.123028E1,2.0732973E2,2.6737752E0,3.8556507E1,3.5829544E0,2.0374678E2,1.0799706E0,1.5938045E0,1.0492504E0,3.7507256E1,1.9974327E0,1.5855217E0,1.2580293E2,7.794385E1,3.6102337E1,1.4049201E0,9.762798E1,2.8174952E1,1.9592123E1,5.8351723E1],"tree_param":{"num_deleted":"0","num_feature":"30","num_nodes":"21","size_leaf_vector":"1"}},{"base_weights":[1.1774168E-2,2.3509236E-1,-2.7977094E-1,4.6183297E-1,4.148275E-2,-1.1622038E-1,-4.2533034E-1,-1.3427751E-1,5.2962387E-1,1.8677661E-1,-2.7899384E-1,1.05595745E-1,-3.1027114E-1,-5.0161994E-1,-4.4326708E-2,-2.5305262E-2,3.1384144E-2,1.0588383E-2,3.392485E-2,1.5636964E-2,-1.3239305E-2,2.0575998E-2,-2.2236716E-2,1.6219748E-2,-2.2357626E-2,-2.2895385E-2,2.0490119E-3,-2.6529102E-2,1.9953273E-2,-2.0280441E-2,2.9287836E-2],"categories":[],"categories_nodes":[],"categories_segments":[],"categories_sizes":[],"default_left":[1,1,0,0,0,0,1,0,0,0,0,0,0,1,0,0,0,0,0,0,0,0,0,0,0,0,0,0,0,0,0],"id":26,"left_children":[1,3,5,7,9,11,13,15,17,19,21,23,25,27,29,-1,-1,-1,-1,-1,-1,-1,-1,-1,-1,-1,-1,-1,-1,-1,-1],"loss_changes":[1.973885E1,7.515951E0,3.0815268E0,3.2619534E0,4.4144363E0,2.757749E0,1.9894772E0,2.8279648E0,3.220766E0,3.7834399E0,3.573561E0,3.807932E0,1.7830143E0,1.713417E0,3.1156604E0,0E0,0E0,0E0,0E0,0E0,0E0,0E0,0E0,0E0,0E0,0E0,0E0,0E0,0E0,0E0,0E0],"parents":[2147483647,0,0,1,1,2,2,3,3,4,4,5,5,6,6,7,7,8,8,9,9,10,10,11,11,12,12,13,13,14,14],"right_children":[2,4,6,8,10,12,14,16,18,20,22,24,26,28,30,-1,-1,-1,-1,-1,-1,-1,-1,-1,-1,-1,-1,-1,-1,-1,-1],"split_conditions":[-2.81E0,1.07E0,9.683E1,-1.015E0,1.56E1,1.77183E3,2.58E-1,1.5E0,1.79976E3,1.734E0,-1.6301E2,7.9618053E0,1.66E1,2.28E1,1.74499E3,-2.5305262E-2,3.1384144E-2,1.0588383E-2,3.392485E-2,1.5636964E-2,-1.3239305E-2,2.0575998E-2,-2.2236716E-2,1.6219748E-2,-2.2357626E-2,-2.2895385E-2,2.0490119E-3,-2.6529102E-2,1.9953273E-2,-2.0280441E-2,2.9287836E-2],"split_indices":[21,6,21,24,10,14,25,9,14,16,21,13,19,19,14,0,0,0,0,0,0,0,0,0,0,0,0,0,0,0,0],"split_type":[0,0,0,0,0,0,0,0,0,0,0,0,0,0,0,0,0,0,0,0,0,0,0,0,0,0,0,0,0,0,0],"sum_hessian":[3.0116382E2,1.7064587E2,1.3051796E2,7.7959885E1,9.268598E1,6.2307587E1,6.821037E1,7.86033E0,7.0099556E1,6.406028E1,2.8625696E1,2.9286512E1,3.3021076E1,5.6567165E1,1.1643205E1,5.5081854E0,2.3521447E0,2.3132427E1,4.696713E1,5.032863E1,1.3731654E1,5.253879E0,2.3371819E1,2.1277267E1,8.009245E0,2.303532E1,9.985756E0,5.5202995E1,1.3641716E0,7.626516E0,4.016689E0],"tree_param":{"num_deleted":"0","num_feature":"30","num_nodes":"31","size_leaf_vector":"1"}},{"base_weights":[4.9588624E-3,-2.1167368E-1,1.9904558E-1,-3.2055703E-1,5.7784487E-2,1.12169094E-1,4.6421123E-1,-4.5152378E-1,-8.587514E-2,3.2689425E-1,-2.6741627E-1,4.407214E-1,2.4325391E-2,7.3956454E-1,2.0094721E-1,-1.1105753E-3,-2.5310904E-2,1.3397545E-2,-1.0580576E-2,-2.1780616E-2,2.3204675E-2,-2.0654952E-2,2.995791E-2,2.7288735E-2,-6.981056E-3,-6.1764E-3,1.1965433E-2,4.0612977E-2,2.7703966E-3,-1.166982E-2,2.6229307E-2],"categories":[],"categories_nodes":[],"categories_segments":[],"categories_sizes":[],"default_left":[1,1,0,1,1,0,1,0,1,0,0,0,0,1,0,0,0,0,0,0,0,0,0,0,0,0,0,0,0,0,0],"id":27,"left_children":[1,3,5,7,9,11,13,15,17,19,21,23,25,27,29,-1,-1,-1,-1,-1,-1,-1,-1,-1,-1,-1,-1,-1,-1,-1,-1],"loss_changes":[1.3491211E1,4.4675684E0,3.846415E0,3.2853365E0,3.9807656E0,3.7062027E0,2.8556595E0,1.6131611E0,1.8350257E0,2.7959259E0,2.8601038E0,1.7290449E0,3.293203E0,9.43902E-1,3.2937064E0,0E0,0E0,0E0,0E0,0E0,0E0,0E0,0E0,0E0,0E0,0E0,0E0,0E0,0E0,0E0,0E0],"parents":[2147483647,0,0,1,1,2,2,3,3,4,4,5,5,6,6,7,7,8,8,9,9,10,10,11,11,12,12,13,13,14,14],"right_children":[2,4,6,8,10,12,14,16,18,20,22,24,26,28,30,-1,-1,-1,-1,-1,-1,-1,-1,-1,-1,-1,-1,-1,-1,-1,-1],"split_conditions":[-2.744E1,1.78382E3,1.83E0,-1.1931E2,1.8E-2,9.5E0,6.8958335E0,-1.015E0,-5.42E-1,1.06E0,1.86145E3,1.9993E3,1.84422E3,1.578E0,1.12E1,-1.1105753E-3,-2.5310904E-2,1.3397545E-2,-1.0580576E-2,-2.1780616E-2,2.3204675E-2,-2.0654952E-2,2.995791E-2,2.7288735E-2,-6.981056E-3,-6.1764E-3,1.1965433E-2,4.0612977E-2,2.7703966E-3,-1.166982E-2,2.6229307E-2],"split_indices":[21,5,16,21,25,10,13,24,24,6,5,5,5,15,10,0,0,0,0,0,0,0,0,0,0,0,0,0,0,0,0],"split_type":[0,0,0,0,0,0,0,0,0,0,0,0,0,0,0,0,0,0,0,0,0,0,0,0,0,0,0,0,0,0,0],"sum_hessian":[3.1886963E2,1.5064006E2,1.6822957E2,1.07152115E2,4.348794E1,1.27785934E2,4.0443626E1,6.817972E1,3.89724E1,2.3793316E1,1.9694626E1,2.6110512E1,1.0167542E2,1.888363E1,2.1559998E1,7.8634195E0,6.0316296E1,9.921616E0,2.9050783E1,3.2966466E0,2.049667E1,1.7308186E1,2.3864415E0,2.2158886E1,3.9516258E0,6.049546E1,4.1179966E1,1.6900616E1,1.9830153E0,9.324617E0,1.223538E1],"tree_param":{"num_deleted":"0","num_feature":"30","num_nodes":"31","size_leaf_vector":"1"}},{"base_weights":[8.194429E-3,8.112346E-2,-2.3698561E-1,9.9342605E-3,3.7840837E-1,-4.1506907E-1,3.6057506E-2,3.996087E-1,-5.4305468E-2,6.47694E-1,1.3076838E-3,5.023025E-1,-4.9164304E-1,-4.0497643E-1,3.7355164E-1,3.0503342E-2,-1.1856758E-2,-5.7365424E-3,1.84171E-2,3.869979E-2,-2.1872815E-2,-1.5363936E-2,2.1322465E-2,-1.6286014E-2,5.283769E-2,1.2758915E-2,-2.7309332E-2,6.5177814E-3,-2.8443431E-2,5.337143E-2,-3.9927177E-3],"categories":[],"categories_nodes":[],"categories_segments":[],"categories_sizes":[],"default_left":[0,1,1,0,0,0,1,0,1,0,0,0,0,0,0,0,0,0,0,0,0,0,0,0,0,0,0,0,0,0,0],"id":28,"left_children":[1,3,5,7,9,11,13,15,17,19,21,23,25,27,29,-1,-1,-1,-1,-1,-1,-1,-1,-1,-1,-1,-1,-1,-1,-1,-1],"loss_changes":[4.4419713E0,4.0466256E0,2.7846768E0,3.9126875E0,3.7512164E0,2.6743717E0,3.635131E0,3.108613E0,3.472589E0,3.2926788E0,2.2819376E0,1.7934937E0,1.4591169E0,1.0064676E0,4.4203596E0,0E0,0E0,0E0,0E0,0E0,0E0,0E0,0E0,0E0,0E0,0E0,0E0,0E0,0E0,0E0,0E0],"parents":[2147483647,0,0,1,1,2,2,3,3,4,4,5,5,6,6,7,7,8,8,9,9,10,10,11,11,12,12,13,13,14,14],"right_children":[2,4,6,8,10,12,14,16,18,20,22,24,26,28,30,-1,-1,-1,-1,-1,-1,-1,-1,-1,-1,-1,-1,-1,-1,-1,-1],"split_conditions":[1.744E0,5.4E0,1.83432E3,9.4E0,3.36E-1,1.65629E3,1.04E1,3.1E-1,4.44E-1,5.8E0,1.3E1,1.59746E3,-1.25E0,9.1E-1,1.298E0,3.0503342E-2,-1.1856758E-2,-5.7365424E-3,1.84171E-2,3.869979E-2,-2.1872815E-2,-1.5363936E-2,2.1322465E-2,-1.6286014E-2,5.283769E-2,1.2758915E-2,-2.7309332E-2,6.5177814E-3,-2.8443431E-2,5.337143E-2,-3.9927177E-3],"split_indices":[6,17,5,19,25,5,10,24,24,8,19,5,22,16,16,0,0,0,0,0,0,0,0,0,0,0,0,0,0,0,0],"split_type":[0,0,0,0,0,0,0,0,0,0,0,0,0,0,0,0,0,0,0,0,0,0,0,0,0,0,0,0,0,0,0],"sum_hessian":[2.4634691E2,1.9038565E2,5.5961258E1,1.544369E2,3.5948746E1,3.3555573E1,2.2405685E1,2.1117683E1,1.3331921E2,2.0553812E1,1.5394933E1,2.1568134E0,3.139876E1,9.626249E0,1.2779436E1,1.5903211E1,5.2144723E0,1.17280334E2,1.6038881E1,1.8667788E1,1.8860257E0,9.080871E0,6.3140626E0,1.0304562E0,1.1263572E0,1.886739E0,2.951202E1,2.3042731E0,7.321976E0,4.5152335E0,8.264203E0],"tree_param":{"num_deleted":"0","num_feature":"30","num_nodes":"31","size_leaf_vector":"1"}},{"base_weights":[-2.6291871E-2,9.8929726E-2,-4.3005282E-1,4.677973E-1,1.1876836E-2,-4.617977E-1,1.8766169E-2,5.645755E-1,-3.7163705E-1,6.476221E-2,-2.4638084E-1,-4.9495822E-1,2.0946983E-1,3.238914E-2,-8.975287E-4,-2.9524673E-2,1.2325685E-2,1.1302217E-2,-2.8775726E-3,1.2950854E-2,-1.7473107E-2,-2.6881685E-2,-5.5725737E-3,-1.8981526E-2,3.018834E-2],"categories":[],"categories_nodes":[],"categories_segments":[],"categories_sizes":[],"default_left":[1,1,1,1,0,1,0,1,0,0,1,1,0,0,0,0,0,0,0,0,0,0,0,0,0],"id":29,"left_children":[1,3,5,7,9,11,-1,13,15,17,19,21,23,-1,-1,-1,-1,-1,-1,-1,-1,-1,-1,-1,-1],"loss_changes":[1.5333135E1,7.4329243E0,2.008442E0,3.8009615E0,2.5897386E0,1.6508188E0,0E0,1.9520044E0,8.453429E-1,3.114214E0,1.7700363E0,1.0289326E0,1.152411E0,0E0,0E0,0E0,0E0,0E0,0E0,0E0,0E0,0E0,0E0,0E0,0E0],"parents":[2147483647,0,0,1,1,2,2,3,3,4,4,5,5,7,7,8,8,9,9,10,10,11,11,12,12],"right_children":[2,4,6,8,10,12,-1,14,16,18,20,22,24,-1,-1,-1,-1,-1,-1,-1,-1,-1,-1,-1,-1],"split_conditions":[9.259E1,1.63362E3,2.06E1,3.3333334E-1,5.34E-1,1.50625E1,1.8766169E-2,1.15E0,5E-1,4.4E0,1.4E0,6.4E0,1.388E0,3.238914E-2,-8.975287E-4,-2.9524673E-2,1.2325685E-2,1.1302217E-2,-2.8775726E-3,1.2950854E-2,-1.7473107E-2,-2.6881685E-2,-5.5725737E-3,-1.8981526E-2,3.018834E-2],"split_indices":[21,5,19,11,24,13,0,6,11,17,9,8,16,0,0,0,0,0,0,0,0,0,0,0,0],"split_type":[0,0,0,0,0,0,0,0,0,0,0,0,0,0,0,0,0,0,0,0,0,0,0,0,0],"sum_hessian":[3.014271E2,2.3064905E2,7.0778046E1,4.320473E1,1.874443E2,6.850446E1,2.2735813E0,3.9032158E1,4.172575E0,1.5620605E2,3.123826E1,6.5529945E1,2.9745169E0,3.4055664E1,4.976491E0,3.1145942E0,1.0579808E0,6.700524E1,8.9200806E1,5.035744E0,2.6202517E1,5.86065E1,6.9234476E0,1.2075582E0,1.7669587E0],"tree_param":{"num_deleted":"0","num_feature":"30","num_nodes":"25","size_leaf_vector":"1"}},{"base_weights":[6.171828E-3,-1.1726812E-1,3.6464638E-1,-3.2623562E-1,-3.0100439E-3,6.591995E-1,2.3876056E-1,-3.8421604E-1,2.282437E-1,3.842194E-1,-6.636693E-2,7.8367186E-1,-1.5958946E-2,2.8761238E-1,-3.15359E-2,-5.4139685E-4,-2.1727998E-2,-2.6465371E-2,2.9027224E-2,2.7992586E-2,-1.4089115E-2,1.1888751E-2,-7.8002894E-3,4.31396E-2,-4.1210227E-5,-1.1461928E-2,1.8623237E-2],"categories":[],"categories_nodes":[],"categories_segments":[],"categories_sizes":[],"default_left":[1,1,0,1,1,0,1,0,0,1,0,0,0,0,0,0,0,0,0,0,0,0,0,0,0,0,0],"id":30,"left_children":[1,3,5,7,9,11,13,15,17,19,21,23,-1,25,-1,-1,-1,-1,-1,-1,-1,-1,-1,-1,-1,-1,-1],"loss_changes":[1.41932125E1,5.6965866E0,2.888895E0,2.799283E0,3.8352025E0,3.1765738E0,2.6927278E0,1.4376965E0,2.605727E0,2.7290058E0,3.698586E0,1.3418827E0,0E0,2.570508E0,0E0,0E0,0E0,0E0,0E0,0E0,0E0,0E0,0E0,0E0,0E0,0E0,0E0],"parents":[2147483647,0,0,1,1,2,2,3,3,4,4,5,5,6,6,7,7,8,8,9,9,10,10,11,11,13,13],"right_children":[2,4,6,8,10,12,14,16,18,20,22,24,-1,26,-1,-1,-1,-1,-1,-1,-1,-1,-1,-1,-1,-1,-1],"split_conditions":[1.85654E3,-1.1931E2,2E-1,1.746E0,-5.8E-1,1.22E-1,5E-1,-9.6E-1,6.7E-1,1.482E0,9.16E-1,1.342E0,-1.5958946E-2,1.6666666E0,-3.15359E-2,-5.4139685E-4,-2.1727998E-2,-2.6465371E-2,2.9027224E-2,2.7992586E-2,-1.4089115E-2,1.1888751E-2,-7.8002894E-3,4.31396E-2,-4.1210227E-5,-1.1461928E-2,1.8623237E-2],"split_indices":[5,21,20,6,24,25,29,24,16,16,15,24,0,9,0,0,0,0,0,0,0,0,0,0,0,0,0],"split_type":[0,0,0,0,0,0,0,0,0,0,0,0,0,0,0,0,0,0,0,0,0,0,0,0,0,0,0],"sum_hessian":[3.1878363E2,2.3762933E2,8.115429E1,8.334456E1,1.5428477E2,2.3030361E1,5.8123928E1,7.573248E1,7.612075E0,2.0981863E1,1.3330292E2,2.0607607E1,2.4227545E0,5.566556E1,2.4583683E0,9.142191E0,6.6590294E1,2.2568176E0,5.3552575E0,1.6729488E1,4.252374E0,2.9968409E1,1.033345E2,1.8628983E1,1.9786248E0,7.610007E0,4.8055553E1],"tree_param":{"num_deleted":"0","num_feature":"30","num_nodes":"27","size_leaf_vector":"1"}},{"base_weights":[-6.49489E-3,-1.7949565E-1,6.355505E-2,5.780656E-1,-2.5342506E-1,4.7748625E-1,2.5334004E-2,-6.904543E-2,6.185745E-2,-2.860553E-1,2.7992621E-2,7.164951E-1,-2.8753883E-1,1.9378742E-3,7.307418E-1,2.6168158E-2,-2.2761706E-2,-1.9670673E-2,-2.2027253E-3,4.5364287E-2,-1.9565206E-2,5.7482696E-3,-2.3119567E-2,-1.0164991E-2,3.4295488E-3,5.1809996E-2,-1.0099049E-3],"categories":[],"categories_nodes":[],"categories_segments":[],"categories_sizes":[],"default_left":[1,0,0,0,1,0,0,0,0,0,0,0,0,0,0,0,0,0,0,0,0,0,0,0,0,0,0],"id":31,"left_children":[1,3,5,7,9,11,13,15,-1,17,-1,19,21,23,25,-1,-1,-1,-1,-1,-1,-1,-1,-1,-1,-1,-1],"loss_changes":[3.1046665E0,4.281227E0,2.8739548E0,3.01498E0,1.963572E0,3.0153327E0,2.7721517E0,1.2478744E0,0E0,1.6973491E0,0E0,2.8898735E0,3.6078823E-1,2.252822E0,1.2578177E0,0E0,0E0,0E0,0E0,0E0,0E0,0E0,0E0,0E0,0E0,0E0,0E0],"parents":[2147483647,0,0,1,1,2,2,3,3,4,4,5,5,6,6,7,7,9,9,11,11,12,12,13,13,14,14],"right_children":[2,4,6,8,10,12,14,16,-1,18,-1,20,22,24,26,-1,-1,-1,-1,-1,-1,-1,-1,-1,-1,-1,-1],"split_conditions":[-2.25E0,-3.3333334E-1,-1.6E0,5E-1,2.544E0,1.85571E3,8E-1,-1.4E0,6.185745E-2,3.5E0,2.7992621E-2,1.3145833E1,1.09E0,-3E-1,1E0,2.6168158E-2,-2.2761706E-2,-1.9670673E-2,-2.2027253E-3,4.5364287E-2,-1.9565206E-2,5.7482696E-3,-2.3119567E-2,-1.0164991E-2,3.4295488E-3,5.1809996E-2,-1.0099049E-3],"split_indices":[28,29,28,27,7,14,11,26,0,18,0,4,16,28,27,0,0,0,0,0,0,0,0,0,0,0,0],"split_type":[0,0,0,0,0,0,0,0,0,0,0,0,0,0,0,0,0,0,0,0,0,0,0,0,0,0,0],"sum_hessian":[2.542469E2,7.282651E1,1.814204E2,5.8688383E0,6.695767E1,1.4364212E1,1.6705618E2,3.4130387E0,2.4557996E0,6.499809E1,1.9595798E0,1.0993167E1,3.3710454E0,1.6266388E2,4.392296E0,1.2067297E0,2.206309E0,4.4590748E1,2.0407341E1,9.532444E0,1.4607228E0,1.1246476E0,2.2463977E0,3.9373917E1,1.2328996E2,2.8522298E0,1.5400661E0],"tree_param":{"num_deleted":"0","num_feature":"30","num_nodes":"27","size_leaf_vector":"1"}},{"base_weights":[-1.3352238E-2,1.8337569E-1,-2.803411E-1,3.5174266E-1,-2.058496E-2,-9.591288E-2,-3.8955128E-1,-2.3952357E-1,4.078853E-1,-2.479527E-1,1.754824E-1,-5.2365774E-1,1.3027497E-1,-4.190543E-1,2.7758736E-2,-3.0844746E-2,1.0825196E-2,-3.0400865E-3,2.2904593E-2,-1.5504203E-2,3.833432E-2,-1.3499086E-2,1.6367136E-2,-3.1161645E-2,7.165752E-3,2.971521E-2,-7.272283E-3,-2.3104848E-2,3.885636E-3],"categories":[],"categories_nodes":[],"categories_segments":[],"categories_sizes":[],"default_left":[1,1,0,0,1,1,1,0,0,1,0,1,0,1,0,0,0,0,0,0,0,0,0,0,0,0,0,0,0],"id":32,"left_children":[1,3,5,7,9,11,13,15,17,19,21,23,25,27,-1,-1,-1,-1,-1,-1,-1,-1,-1,-1,-1,-1,-1,-1,-1],"loss_changes":[1.5696488E1,5.917281E0,2.5158052E0,3.2291012E0,3.5550153E0,4.757921E0,2.4426365E0,1.6497705E0,2.0638247E0,2.563185E0,2.9892538E0,1.2160397E0,4.245449E0,1.6921444E0,0E0,0E0,0E0,0E0,0E0,0E0,0E0,0E0,0E0,0E0,0E0,0E0,0E0,0E0,0E0],"parents":[2147483647,0,0,1,1,2,2,3,3,4,4,5,5,6,6,7,7,8,8,9,9,10,10,11,11,12,12,13,13],"right_children":[2,4,6,8,10,12,14,16,18,20,22,24,26,28,-1,-1,-1,-1,-1,-1,-1,-1,-1,-1,-1,-1,-1,-1,-1],"split_conditions":[-2.81E0,1.174E0,7.488E1,-1.015E0,6.1458335E0,-4E-1,2.18E1,5.6666665E0,-4.36E-1,2.434E0,1.15E0,6.9E-1,3.3333334E-1,1.4E1,2.7758736E-2,-3.0844746E-2,1.0825196E-2,-3.0400865E-3,2.2904593E-2,-1.5504203E-2,3.833432E-2,-1.3499086E-2,1.6367136E-2,-3.1161645E-2,7.165752E-3,2.971521E-2,-7.272283E-3,-2.3104848E-2,3.885636E-3],"split_indices":[21,6,21,24,4,26,19,17,25,15,7,25,27,4,0,0,0,0,0,0,0,0,0,0,0,0,0,0,0],"split_type":[0,0,0,0,0,0,0,0,0,0,0,0,0,0,0,0,0,0,0,0,0,0,0,0,0,0,0,0,0],"sum_hessian":[2.9686444E2,1.7110252E2,1.25761925E2,9.3332855E1,7.776967E1,4.7472023E1,7.82899E1,7.8104787E0,8.552238E1,3.5887928E1,4.188174E1,1.5965137E1,3.1506886E1,7.6458595E1,1.8313107E0,4.08079E0,3.729689E0,8.254463E0,7.7267914E1,3.4471462E1,1.4164677E0,1.045002E1,3.1431719E1,1.3948314E1,2.0168228E0,1.1312627E1,2.0194258E1,7.042626E1,6.032334E0],"tree_param":{"num_deleted":"0","num_feature":"30","num_nodes":"29","size_leaf_vector":"1"}},{"base_weights":[3.209822E-3,-1.7123203E-1,2.2606504E-1,-2.9709578E-1,6.0238004E-2,6.0355383E-1,1.6593005E-1,-4.415835E-1,-1.01869434E-1,5.377694E-1,-7.249986E-2,6.773833E-1,-7.8312075E-3,-6.611421E-2,2.649795E-1,1.4772847E-3,-2.504085E-2,3.0322818E-3,-2.4457267E-2,3.6366306E-2,3.5714142E-3,-7.503768E-3,4.4723358E-2,4.2943038E-2,1.7711272E-2,3.4058183E-2,-6.949853E-3,3.0891409E-3,2.1180041E-2],"categories":[],"categories_nodes":[],"categories_segments":[],"categories_sizes":[],"default_left":[1,1,1,1,1,1,0,0,0,0,0,1,0,0,0,0,0,0,0,0,0,0,0,0,0,0,0,0,0],"id":33,"left_children":[1,3,5,7,9,11,13,15,17,19,21,23,-1,25,27,-1,-1,-1,-1,-1,-1,-1,-1,-1,-1,-1,-1,-1,-1],"loss_changes":[1.2382843E1,5.223549E0,3.07449E0,3.2246704E0,4.0810475E0,1.1633506E0,2.8218286E0,1.8653679E0,3.2143495E0,1.1846399E0,3.9433627E0,7.1375513E-1,0E0,2.126247E0,2.7364035E0,0E0,0E0,0E0,0E0,0E0,0E0,0E0,0E0,0E0,0E0,0E0,0E0,0E0,0E0],"parents":[2147483647,0,0,1,1,2,2,3,3,4,4,5,5,6,6,7,7,8,8,9,9,10,10,11,11,13,13,14,14],"right_children":[2,4,6,8,10,12,14,16,18,20,22,24,-1,26,28,-1,-1,-1,-1,-1,-1,-1,-1,-1,-1,-1,-1,-1,-1],"split_conditions":[5.15E0,4.25E0,7.54E-1,-1.1931E2,-1.25E0,1.4E1,1.6666666E0,-9.6E-1,5.2E0,3.2E0,7.54E-1,1.904E0,-7.8312075E-3,-9.7333336E-1,8.524E1,1.4772847E-3,-2.504085E-2,3.0322818E-3,-2.4457267E-2,3.6366306E-2,3.5714142E-3,-7.503768E-3,4.4723358E-2,4.2943038E-2,1.7711272E-2,3.4058183E-2,-6.949853E-3,3.0891409E-3,2.1180041E-2],"split_indices":[21,8,15,21,22,13,18,24,17,9,24,16,0,25,21,0,0,0,0,0,0,0,0,0,0,0,0,0,0],"split_type":[0,0,0,0,0,0,0,0,0,0,0,0,0,0,0,0,0,0,0,0,0,0,0,0,0,0,0,0,0],"sum_hessian":[3.1653174E2,1.7768158E2,1.3885016E2,1.1491311E2,6.2768467E1,1.7838001E1,1.2101215E2,6.531289E1,4.960022E1,1.2988892E1,4.9779575E1,1.6358187E1,1.4798133E0,3.6301273E1,8.471088E1,7.35044E0,5.796245E1,3.5532776E1,1.4067445E1,8.837152E0,4.1517396E0,4.686463E1,2.9149451E0,9.413876E0,6.944311E0,2.4842203E0,3.3817055E1,3.774648E1,4.69644E1],"tree_param":{"num_deleted":"0","num_feature":"30","num_nodes":"29","size_leaf_vector":"1"}},{"base_weights":[6.4525614E-3,-2.043078E-1,6.5066494E-2,-2.6187885E-1,4.2614073E-2,3.4742516E-1,1.2280274E-2,-4.314207E-1,-9.777703E-4,9.6085614E-1,2.1226594E-1,-1.0747199E-1,1.3463129E-1,2.6732584E-2,-2.4353066E-2,8.193858E-3,-2.6252955E-2,5.9024777E-2,4.991947E-3,-6.5575563E-3,2.0524679E-2,-1.6796255E-2,3.5421562E-3,-7.8728603E-4,1.8119661E-2],"categories":[],"categories_nodes":[],"categories_segments":[],"categories_sizes":[],"default_left":[1,1,0,0,0,0,0,0,1,0,0,0,0,0,0,0,0,0,0,0,0,0,0,0,0],"id":34,"left_children":[1,3,5,7,-1,9,11,13,15,17,19,21,23,-1,-1,-1,-1,-1,-1,-1,-1,-1,-1,-1,-1],"loss_changes":[3.067029E0,3.5097609E0,2.8897157E0,2.2998514E0,0E0,2.328563E0,2.4264693E0,1.9545784E0,1.9422936E0,8.714695E-1,1.845134E0,3.435503E0,2.8098025E0,0E0,0E0,0E0,0E0,0E0,0E0,0E0,0E0,0E0,0E0,0E0,0E0],"parents":[2147483647,0,0,1,1,2,2,3,3,5,5,6,6,7,7,8,8,9,9,10,10,11,11,12,12],"right_children":[2,4,6,8,-1,10,12,14,16,18,20,22,24,-1,-1,-1,-1,-1,-1,-1,-1,-1,-1,-1,-1],"split_conditions":[-3.25E0,2.544E0,1E0,5.2E0,4.2614073E-2,1.6666666E0,1.46E0,2E0,1.93898E3,1.86287E3,-3.3333334E-1,1.254E0,1.42E1,2.6732584E-2,-2.4353066E-2,8.193858E-3,-2.6252955E-2,5.9024777E-2,4.991947E-3,-6.5575563E-3,2.0524679E-2,-1.6796255E-2,3.5421562E-3,-7.8728603E-4,1.8119661E-2],"split_indices":[28,7,16,17,0,18,16,17,5,5,29,6,10,0,0,0,0,0,0,0,0,0,0,0,0],"split_type":[0,0,0,0,0,0,0,0,0,0,0,0,0,0,0,0,0,0,0,0,0,0,0,0,0],"sum_hessian":[2.4619608E2,5.302966E1,1.9316641E2,5.1002785E1,2.0268734E0,2.9545092E1,1.6362132E2,3.0517776E1,2.0485008E1,4.231414E0,2.5313677E1,8.2750275E1,8.087105E1,1.1931106E0,2.9324665E1,1.610601E1,4.3789983E0,3.0757618E0,1.1556523E0,9.387975E0,1.5925702E1,3.5887794E1,4.686248E1,4.9271206E1,3.159984E1],"tree_param":{"num_deleted":"0","num_feature":"30","num_nodes":"25","size_leaf_vector":"1"}},{"base_weights":[-2.7931446E-2,1.8914868E-1,-1.8783213E-1,3.5107264E-1,-1.914858E-2,-3.0873597E-1,1.6017152E-2,-9.373364E-2,4.478825E-1,3.9029013E-2,-8.936027E-2,-3.598943E-1,5.951849E-2,7.8069377E-1,-8.442784E-2,3.8336199E-3,-2.716775E-2,2.4943866E-2,-2.2365853E-2,-2.056366E-2,1.9251354E-3,-7.845591E-3,-2.4618825E-2,1.5711388E-2,-2.8928408E-2,-1.5936565E-4,4.5792248E-2,-6.999172E-3,4.457809E-2],"categories":[],"categories_nodes":[],"categories_segments":[],"categories_sizes":[],"default_left":[1,1,1,1,0,1,0,1,1,0,0,0,0,0,0,0,0,0,0,0,0,0,0,0,0,0,0,0,0],"id":35,"left_children":[1,3,5,7,9,11,13,15,17,-1,19,21,23,25,27,-1,-1,-1,-1,-1,-1,-1,-1,-1,-1,-1,-1,-1,-1],"loss_changes":[1.0752945E1,4.4407115E0,4.3992853E0,3.2292337E0,3.3515067E0,2.130806E0,5.237372E0,1.1186633E0,3.0059805E0,0E0,2.264285E0,2.5702667E0,2.5409462E0,8.414445E-1,3.400598E0,0E0,0E0,0E0,0E0,0E0,0E0,0E0,0E0,0E0,0E0,0E0,0E0,0E0,0E0],"parents":[2147483647,0,0,1,1,2,2,3,3,4,4,5,5,6,6,7,7,8,8,10,10,11,11,12,12,13,13,14,14],"right_children":[2,4,6,8,10,12,14,16,18,-1,20,22,24,26,28,-1,-1,-1,-1,-1,-1,-1,-1,-1,-1,-1,-1,-1,-1],"split_conditions":[1.176E0,0E0,1.24E-1,7.88E-1,9.3E-1,1.29375E1,3.3333333E0,6.0416665E0,1.83216E3,3.9029013E-2,1.8E0,1.302E0,1.708E0,1.196E0,2.572E0,3.8336199E-3,-2.716775E-2,2.4943866E-2,-2.2365853E-2,-2.056366E-2,1.9251354E-3,-7.845591E-3,-2.4618825E-2,1.5711388E-2,-2.8928408E-2,-1.5936565E-4,4.5792248E-2,-6.999172E-3,4.457809E-2],"split_indices":[6,29,25,15,16,4,8,4,5,0,18,15,15,6,15,0,0,0,0,0,0,0,0,0,0,0,0,0,0],"split_type":[0,0,0,0,0,0,0,0,0,0,0,0,0,0,0,0,0,0,0,0,0,0,0,0,0,0,0,0,0],"sum_hessian":[3.0775906E2,1.3046191E2,1.7729715E2,7.301603E1,5.744588E1,1.109674E2,6.632976E1,1.3056753E1,5.995928E1,3.8198059E0,5.3626076E1,9.7451965E1,1.3515437E1,6.9149156E0,5.9414837E1,1.0069787E1,2.986966E0,5.7146652E1,2.8126252E0,1.4614787E1,3.9011288E1,3.934853E1,5.8103436E1,1.0022312E1,3.493125E0,1.1604843E0,5.7544312E0,5.7025394E1,2.3894448E0],"tree_param":{"num_deleted":"0","num_feature":"30","num_nodes":"29","size_leaf_vector":"1"}},{"base_weights":[-4.1626845E-3,-1.460917E-1,2.3738302E-1,-1.7281626E-1,5.679112E-1,5.161253E-1,1.5310545E-1,6.8923035E-3,-2.5779575E-1,2.3294695E-1,3.9354376E-2,7.834067E-2,6.9983345E-1,7.803364E-1,9.956533E-2,1.1713154E-2,-8.4009655E-3,-1.3701527E-2,3.529863E-2,2.8247366E-2,-3.5084772E-3,2.1508746E-2,-3.1224791E-2,-2.8804226E-3,4.082268E-2,-1.6852418E-3,4.742639E-2,-1.0497413E-2,1.3409847E-2],"categories":[],"categories_nodes":[],"categories_segments":[],"categories_sizes":[],"default_left":[1,1,1,0,0,0,0,0,1,0,0,0,0,0,0,0,0,0,0,0,0,0,0,0,0,0,0,0,0],"id":36,"left_children":[1,3,5,7,9,11,13,15,17,19,-1,21,23,25,27,-1,-1,-1,-1,-1,-1,-1,-1,-1,-1,-1,-1,-1,-1],"loss_changes":[1.0909225E1,3.9224906E0,2.6879005E0,2.9638186E0,3.6465192E-1,2.110394E0,3.0071673E0,2.5546124E0,2.2543116E0,4.7968736E-1,0E0,2.5149703E0,1.7110758E0,1.0010848E0,4.533608E0,0E0,0E0,0E0,0E0,0E0,0E0,0E0,0E0,0E0,0E0,0E0,0E0,0E0,0E0],"parents":[2147483647,0,0,1,1,2,2,3,3,4,4,5,5,6,6,7,7,8,8,9,9,11,11,12,12,13,13,14,14],"right_children":[2,4,6,8,10,12,14,16,18,20,-1,22,24,26,28,-1,-1,-1,-1,-1,-1,-1,-1,-1,-1,-1,-1,-1,-1],"split_conditions":[4.108E1,1.96583E3,-1E0,2.8E-2,1.98696E3,-5.6E-2,1.73519E3,6.9166665E0,8.22E-1,1.96775E3,3.9354376E-2,-2.88E-1,1E0,1.2E0,1.82869E3,1.1713154E-2,-8.4009655E-3,-1.3701527E-2,3.529863E-2,2.8247366E-2,-3.5084772E-3,2.1508746E-2,-3.1224791E-2,-2.8804226E-3,4.082268E-2,-1.6852418E-3,4.742639E-2,-1.0497413E-2,1.3409847E-2],"split_indices":[21,5,22,25,5,24,5,4,24,5,0,24,16,18,5,0,0,0,0,0,0,0,0,0,0,0,0,0,0],"split_type":[0,0,0,0,0,0,0,0,0,0,0,0,0,0,0,0,0,0,0,0,0,0,0,0,0,0,0,0,0],"sum_hessian":[3.1620544E2,1.9942258E2,1.1678285E2,1.9295827E2,6.4643135E0,2.5922346E1,9.086051E1,6.224529E1,1.3071298E2,3.3726954E0,3.0916178E0,8.084076E0,1.783827E1,6.0782356E0,8.478227E1,2.6916597E1,3.532869E1,1.292514E2,1.4615843E0,1.1973997E0,2.1752958E0,5.645786E0,2.43829E0,2.447554E0,1.5390717E1,1.1777186E0,4.900517E0,2.981449E1,5.496778E1],"tree_param":{"num_deleted":"0","num_feature":"30","num_nodes":"29","size_leaf_vector":"1"}},{"base_weights":[1.5287302E-2,5.348114E-2,3.944929E-3,2.686139E-1,-4.3150883E-2,-3.3339843E-1,3.4744278E-1,-1.0127077E-1,1.776275E-1,4.5382944E-3,-2.463623E-2,-2.1483956E-2,2.0563822E-2,-7.817517E-3,1.587405E-2,-9.275158E-4,2.7592713E-2],"categories":[],"categories_nodes":[],"categories_segments":[],"categories_sizes":[],"default_left":[0,0,0,0,1,0,0,1,0,0,0,0,0,0,0,0,0],"id":37,"left_children":[1,-1,3,5,7,9,11,13,15,-1,-1,-1,-1,-1,-1,-1,-1],"loss_changes":[2.9764879E0,0E0,3.097896E0,1.8974104E0,2.7262301E0,3.7295687E-1,1.8476968E0,3.9179041E0,3.2659075E0,0E0,0E0,0E0,0E0,0E0,0E0,0E0,0E0],"parents":[2147483647,0,0,2,2,3,3,4,4,5,5,6,6,7,7,8,8],"right_children":[2,-1,4,6,8,10,12,14,16,-1,-1,-1,-1,-1,-1,-1,-1],"split_conditions":[4.5E-1,5.348114E-2,1E0,5.84E-1,5.2E0,2E0,-3.8E0,3.8E0,1.4E1,4.5382944E-3,-2.463623E-2,-2.1483956E-2,2.0563822E-2,-7.817517E-3,1.587405E-2,-9.275158E-4,2.7592713E-2],"split_indices":[15,0,16,16,17,9,28,28,19,0,0,0,0,0,0,0,0],"split_type":[0,0,0,0,0,0,0,0,0,0,0,0,0,0,0,0,0],"sum_hessian":[2.4825084E2,1.6491601E0,2.4660168E2,3.6541615E1,2.1006006E2,3.8569417E0,3.2684673E1,1.6671394E2,4.3346127E1,1.170665E0,2.6862767E0,2.0459309E0,3.063874E1,1.478884E2,1.8825537E1,2.9061752E1,1.4284374E1],"tree_param":{"num_deleted":"0","num_feature":"30","num_nodes":"17","size_leaf_vector":"1"}},{"base_weights":[-3.8082094E-3,1.7856781E-1,-2.7294907E-1,4.6824792E-1,6.421218E-2,-6.058684E-1,-1.9922143E-1,5.225047E-1,-2.9046252E-2,3.065896E-1,-1.06499426E-1,-3.253613E-1,-3.2398466E-2,3.7511047E-2,-2.2800988E-1,2.7911415E-2,-2.1167746E-2,2.091445E-2,-1.6191794E-2,-1.2809584E-2,5.736047E-3,6.0597705E-3,-2.4709387E-2,3.090337E-2,-1.248909E-2],"categories":[],"categories_nodes":[],"categories_segments":[],"categories_sizes":[],"default_left":[1,1,1,1,0,0,0,1,0,0,1,0,0,0,0,0,0,0,0,0,0,0,0,0,0],"id":38,"left_children":[1,3,5,7,9,11,13,15,-1,17,19,21,-1,-1,23,-1,-1,-1,-1,-1,-1,-1,-1,-1,-1],"loss_changes":[1.4603177E1,5.8449984E0,2.828761E0,3.1519184E0,5.3418746E0,4.0679455E-2,2.900727E0,1.8617306E0,0E0,3.8876576E0,2.5471196E0,4.2084575E-1,0E0,0E0,1.9539962E0,0E0,0E0,0E0,0E0,0E0,0E0,0E0,0E0,0E0,0E0],"parents":[2147483647,0,0,1,1,2,2,3,3,4,4,5,5,6,6,7,7,9,9,10,10,11,11,14,14],"right_children":[2,4,6,8,10,12,14,16,-1,18,20,22,-1,-1,24,-1,-1,-1,-1,-1,-1,-1,-1,-1,-1],"split_conditions":[1.64E0,1.02E1,8.44E-1,1.63125E1,1.436E0,3.2395833E0,2.5E0,-3.81E0,-2.9046252E-2,1.626E0,3.3E-1,2.5E0,-3.2398466E-2,3.7511047E-2,8.62E-1,2.7911415E-2,-2.1167746E-2,2.091445E-2,-1.6191794E-2,-1.2809584E-2,5.736047E-3,6.0597705E-3,-2.4709387E-2,3.090337E-2,-1.248909E-2],"split_indices":[21,10,15,13,15,4,17,21,0,6,25,17,0,0,15,0,0,0,0,0,0,0,0,0,0],"split_type":[0,0,0,0,0,0,0,0,0,0,0,0,0,0,0,0,0,0,0,0,0,0,0,0,0],"sum_hessian":[2.9551593E2,1.7635217E2,1.1916376E2,4.9037674E1,1.2731451E2,2.029653E1,9.8867226E1,4.710374E1,1.9339315E0,5.2284576E1,7.502993E1,3.787767E0,1.6508762E1,2.172087E0,9.669514E1,4.578436E1,1.319383E0,4.470092E1,7.583655E0,4.46552E1,3.0374725E1,1.1165501E0,2.6712167E0,1.7387147E0,9.495643E1],"tree_param":{"num_deleted":"0","num_feature":"30","num_nodes":"25","size_leaf_vector":"1"}},{"base_weights":[-7.193004E-3,-2.3418602E-1,1.3917372E-1,-3.3900353E-1,1.5658195E-1,3.961625E-1,6.7696765E-2,-2.5388226E-1,-5.63661E-1,-2.9391095E-2,3.0336168E-1,-2.7861191E-2,4.6935937E-1,-6.2410023E-2,2.122262E-1,1.8099485E-2,-1.5063504E-2,-3.2987576E-2,-8.7644E-3,4.2967856E-2,7.5930962E-3,2.6962966E-2,-2.7778292E-2,8.7425514E-4,-3.1596214E-2,1.9747896E-2,-1.0869007E-3],"categories":[],"categories_nodes":[],"categories_segments":[],"categories_sizes":[],"default_left":[1,1,1,1,0,0,0,0,0,0,0,0,1,0,0,0,0,0,0,0,0,0,0,0,0,0,0],"id":39,"left_children":[1,3,5,7,9,11,13,15,17,-1,19,-1,21,23,25,-1,-1,-1,-1,-1,-1,-1,-1,-1,-1,-1,-1],"loss_changes":[1.0163941E1,4.964786E0,3.3901772E0,1.6711063E0,3.0242727E0,3.0720468E0,2.7727346E0,2.1701198E0,8.266163E-1,0E0,1.7576971E0,0E0,3.0180635E0,3.560164E0,2.9905014E0,0E0,0E0,0E0,0E0,0E0,0E0,0E0,0E0,0E0,0E0,0E0,0E0],"parents":[2147483647,0,0,1,1,2,2,3,3,4,4,5,5,6,6,7,7,8,8,10,10,12,12,13,13,14,14],"right_children":[2,4,6,8,10,12,14,16,18,-1,20,-1,22,24,26,-1,-1,-1,-1,-1,-1,-1,-1,-1,-1,-1,-1],"split_conditions":[-5.9E1,1.80063E3,-1.0416666E0,-3.3333334E-1,-1.7809E2,-1.8E0,2.5E0,1.74141E3,1.0625E0,-2.9391095E-2,3.8020833E0,-2.7861191E-2,8.34E-1,5.5E0,-1.34E-1,1.8099485E-2,-1.5063504E-2,-3.2987576E-2,-8.7644E-3,4.2967856E-2,7.5930962E-3,2.6962966E-2,-2.7778292E-2,8.7425514E-4,-3.1596214E-2,1.9747896E-2,-1.0869007E-3],"split_indices":[21,5,22,26,21,26,9,14,22,0,13,0,25,17,25,0,0,0,0,0,0,0,0,0,0,0,0],"split_type":[0,0,0,0,0,0,0,0,0,0,0,0,0,0,0,0,0,0,0,0,0,0,0,0,0,0,0],"sum_hessian":[3.0393863E2,1.18916626E2,1.85022E2,9.386993E1,2.5046698E1,3.9273876E1,1.4574812E2,6.962105E1,2.4248882E1,3.6303463E0,2.1416351E1,2.3287914E0,3.6945084E1,7.700009E1,6.874804E1,4.4998765E0,6.512117E1,1.8879095E1,5.3697877E0,3.5854864E0,1.7830864E1,3.50299E1,1.915185E0,6.837702E1,8.62307E0,3.8213924E1,3.0534115E1],"tree_param":{"num_deleted":"0","num_feature":"30","num_nodes":"27","size_leaf_vector":"1"}},{"base_weights":[1.2018193E-2,-2.1870558E-1,7.778306E-2,8.022573E-1,-3.3072707E-1,5.9609294E-2,8.823483E-1,5.3715426E-2,2.6304784E-4,1.9550654E-1,-4.040702E-1,-2.1310942E-1,1.1513005E-1,5.655692E-2,5.400473E-3,4.1010175E-2,-7.608041E-3,-2.2029335E-2,1.9168524E-2,1.712717E-2,-1.8336335E-2,7.4027376E-3,-2.4053644E-2],"categories":[],"categories_nodes":[],"categories_segments":[],"categories_sizes":[],"default_left":[1,0,1,0,1,0,0,0,0,1,1,0,1,0,0,0,0,0,0,0,0,0,0],"id":40,"left_children":[1,3,5,7,9,11,13,-1,-1,15,17,19,21,-1,-1,-1,-1,-1,-1,-1,-1,-1,-1],"loss_changes":[3.8017695E0,6.6230764E0,2.7963853E0,1.2493675E0,2.039703E0,2.9258204E0,6.930139E-1,0E0,0E0,1.6208236E0,1.4603634E0,2.9220438E0,3.2090423E0,0E0,0E0,0E0,0E0,0E0,0E0,0E0,0E0,0E0,0E0],"parents":[2147483647,0,0,1,1,2,2,3,3,4,4,5,5,6,6,9,9,10,10,11,11,12,12],"right_children":[2,4,6,8,10,12,14,-1,-1,16,18,20,22,-1,-1,-1,-1,-1,-1,-1,-1,-1,-1],"split_conditions":[9.8E0,-3.3333334E-1,1.3633333E0,9.2E0,7.82E-1,3.25E0,2E0,5.3715426E-2,2.6304784E-4,1.70685E3,2.544E0,1.16E1,1.6666666E0,5.655692E-2,5.400473E-3,4.1010175E-2,-7.608041E-3,-2.2029335E-2,1.9168524E-2,1.712717E-2,-1.8336335E-2,7.4027376E-3,-2.4053644E-2],"split_indices":[10,29,24,10,16,17,28,0,0,5,7,10,27,0,0,0,0,0,0,0,0,0,0],"split_type":[0,0,0,0,0,0,0,0,0,0,0,0,0,0,0,0,0,0,0,0,0,0,0],"sum_hessian":[2.4843176E2,5.4589417E1,1.9384235E2,4.788196E0,4.980122E1,1.9061086E2,3.2314887E0,3.3102944E0,1.4779015E0,5.8881774E0,4.3913044E1,3.1761173E1,1.5884969E2,2.0969667E0,1.1345218E0,1.6193426E0,4.2688346E0,4.2387848E1,1.525196E0,6.612628E0,2.5148546E1,1.512488E2,7.6008887E0],"tree_param":{"num_deleted":"0","num_feature":"30","num_nodes":"23","size_leaf_vector":"1"}},{"base_weights":[5.0190343E-3,2.0933495E-1,-2.15896E-1,3.8915136E-1,2.1240986E-3,-3.456303E-1,-5.9737477E-2,-6.649977E-2,4.6541363E-1,3.8496047E-1,-1.3767244E-1,-2.0304473E-1,-4.6637338E-1,4.7412947E-2,-3.4704584E-1,2.4819065E-2,-1.8763361E-2,-1.4040659E-2,2.6066823E-2,-2.6522116E-3,3.8640264E-2,-1.0725402E-2,2.7252903E-2,-2.2972487E-2,9.485732E-4,-3.171588E-2,-1.6539792E-2,1.6746705E-2,-1.3084123E-2,-2.199833E-2,2.5259454E-2],"categories":[],"categories_nodes":[],"categories_segments":[],"categories_sizes":[],"default_left":[1,1,0,0,0,0,1,0,0,0,1,0,0,0,0,0,0,0,0,0,0,0,0,0,0,0,0,0,0,0,0],"id":41,"left_children":[1,3,5,7,9,11,13,15,17,19,21,23,25,27,29,-1,-1,-1,-1,-1,-1,-1,-1,-1,-1,-1,-1,-1,-1,-1,-1],"loss_changes":[1.3366432E1,5.731028E0,2.8621888E0,2.8927374E0,3.9319806E0,1.2398434E0,2.0415664E0,2.3905118E0,3.0956717E0,3.3791423E0,2.9406304E0,2.1328735E0,7.2831726E-1,4.423936E0,1.6468327E0,0E0,0E0,0E0,0E0,0E0,0E0,0E0,0E0,0E0,0E0,0E0,0E0,0E0,0E0,0E0,0E0],"parents":[2147483647,0,0,1,1,2,2,3,3,4,4,5,5,6,6,7,7,8,8,9,9,10,10,11,11,12,12,13,13,14,14],"right_children":[2,4,6,8,10,12,14,16,18,20,22,24,26,28,30,-1,-1,-1,-1,-1,-1,-1,-1,-1,-1,-1,-1,-1,-1,-1,-1],"split_conditions":[-2.102E1,1.164E0,-2E-2,1.75205E3,1.362E0,1.0477E2,1.662E0,6.6875E0,-1.052E0,3.8E0,2.434E0,2.946E1,3.1E-1,4.838E1,4.6E0,2.4819065E-2,-1.8763361E-2,-1.4040659E-2,2.6066823E-2,-2.6522116E-3,3.8640264E-2,-1.0725402E-2,2.7252903E-2,-2.2972487E-2,9.485732E-4,-3.171588E-2,-1.6539792E-2,1.6746705E-2,-1.3084123E-2,-2.199833E-2,2.5259454E-2],"split_indices":[21,6,25,14,15,21,6,4,24,17,15,21,24,21,9,0,0,0,0,0,0,0,0,0,0,0,0,0,0,0,0],"split_type":[0,0,0,0,0,0,0,0,0,0,0,0,0,0,0,0,0,0,0,0,0,0,0,0,0,0,0,0,0,0,0],"sum_hessian":[2.9413257E2,1.5283434E2,1.4129825E2,8.1356E1,7.147833E1,7.651627E1,6.478197E1,1.1682647E1,6.9673355E1,1.8650297E1,5.2828033E1,3.6314316E1,4.0201958E1,4.7792816E1,1.6989151E1,3.9231493E0,7.759497E0,4.576998E0,6.509636E1,9.164165E0,9.486133E0,4.810053E1,4.727503E0,1.635574E1,1.9958578E1,1.6314293E1,2.3887667E1,2.4717216E1,2.30756E1,1.5755094E1,1.2340573E0],"tree_param":{"num_deleted":"0","num_feature":"30","num_nodes":"31","size_leaf_vector":"1"}},{"base_weights":[-2.1339888E-2,-1.2525736E-1,2.8609464E-1,-3.5285598E-1,-1.8194802E-3,2.022749E-1,7.5388277E-1,-3.9813688E-1,4.6154536E-2,-5.795851E-2,3.852766E-1,3.1910372E-1,-1.6565576E-1,4.0750314E-2,9.776595E-3,-2.4396699E-2,-4.1224393E-3,2.9042507E-2,-2.2019098E-2,2.6287509E-3,-1.5752817E-2,3.6411792E-2,2.7350034E-4,1.959625E-2,-1.974397E-2,-1.3640051E-2,2.9101266E-2],"categories":[],"categories_nodes":[],"categories_segments":[],"categories_sizes":[],"default_left":[1,1,1,1,0,1,0,1,1,0,0,1,0,0,0,0,0,0,0,0,0,0,0,0,0,0,0],"id":42,"left_children":[1,3,5,7,9,11,13,15,17,19,21,23,25,-1,-1,-1,-1,-1,-1,-1,-1,-1,-1,-1,-1,-1,-1],"loss_changes":[1.0135365E1,6.6565876E0,2.990788E0,1.5237484E0,3.382867E0,3.0338922E0,2.4386168E-1,2.0839167E0,2.6980116E0,3.87924E0,2.5643446E0,2.9092898E0,1.5504587E0,0E0,0E0,0E0,0E0,0E0,0E0,0E0,0E0,0E0,0E0,0E0,0E0,0E0,0E0],"parents":[2147483647,0,0,1,1,2,2,3,3,4,4,5,5,6,6,7,7,8,8,9,9,10,10,11,11,12,12],"right_children":[2,4,6,8,10,12,14,16,18,20,22,24,26,-1,-1,-1,-1,-1,-1,-1,-1,-1,-1,-1,-1,-1,-1],"split_conditions":[1.85732E3,-1.1068E2,1.916E0,1.746E0,7.78E-1,8.541667E-1,7.5E-1,1.902E0,2.6E0,1.80393E3,1.562E0,1.88E1,1.4010417E1,4.0750314E-2,9.776595E-3,-2.4396699E-2,-4.1224393E-3,2.9042507E-2,-2.2019098E-2,2.6287509E-3,-1.5752817E-2,3.6411792E-2,2.7350034E-4,1.959625E-2,-1.974397E-2,-1.3640051E-2,2.9101266E-2],"split_indices":[5,21,16,6,24,22,11,7,18,5,16,19,4,0,0,0,0,0,0,0,0,0,0,0,0,0,0],"split_type":[0,0,0,0,0,0,0,0,0,0,0,0,0,0,0,0,0,0,0,0,0,0,0,0,0,0,0],"sum_hessian":[3.1512576E2,2.3596024E2,7.916553E1,8.2319115E1,1.5364113E2,6.8350655E1,1.0814874E1,7.393136E1,8.387762E0,1.349239E2,1.8717213E1,5.197862E1,1.6372034E1,9.33346E0,1.4814137E0,5.713403E1,1.6797325E1,3.9037538E0,4.484008E0,9.491347E1,4.001044E1,9.353641E0,9.363573E0,4.7577156E1,4.401465E0,1.4875467E1,1.4965677E0],"tree_param":{"num_deleted":"0","num_feature":"30","num_nodes":"27","size_leaf_vector":"1"}},{"base_weights":[-1.656624E-2,-1.8905818E-1,5.1317763E-2,-3.13018E-1,2.8637134E-2,2.6502466E-2,7.7477384E-1,1.5866168E-1,-4.057207E-1,-7.803137E-2,4.8087087E-2,4.571264E-1,-1.5851833E-2,5.2668553E-2,-7.020141E-4,4.9338944E-2,-6.4951936E-3,-2.350043E-2,2.3526682E-2,9.9585075E-3,-1.7138405E-2,3.1591788E-2,-2.2088528E-2,-1.1445E-2,2.587415E-3],"categories":[],"categories_nodes":[],"categories_segments":[],"categories_sizes":[],"default_left":[1,0,0,0,1,0,0,0,0,0,0,0,0,0,0,0,0,0,0,0,0,0,0,0,0],"id":43,"left_children":[1,3,5,7,9,11,13,15,17,19,-1,21,23,-1,-1,-1,-1,-1,-1,-1,-1,-1,-1,-1,-1],"loss_changes":[2.903324E0,1.8979917E0,3.177161E0,2.0183725E0,2.694183E0,3.1670303E0,1.3051324E0,2.0540159E0,2.340856E0,1.869126E0,0E0,2.7207642E0,2.2974286E0,0E0,0E0,0E0,0E0,0E0,0E0,0E0,0E0,0E0,0E0,0E0,0E0],"parents":[2147483647,0,0,1,1,2,2,3,3,4,4,5,5,6,6,7,7,8,8,9,9,11,11,12,12],"right_children":[2,4,6,8,10,12,14,16,18,20,-1,22,24,-1,-1,-1,-1,-1,-1,-1,-1,-1,-1,-1,-1],"split_conditions":[-2.25E0,5E-1,8E-1,-1.8E0,7.1041665E0,-1.6E0,1E0,3.8125E0,3.5E0,1.87672E3,4.8087087E-2,1.3145833E1,-3E-1,5.2668553E-2,-7.020141E-4,4.9338944E-2,-6.4951936E-3,-2.350043E-2,2.3526682E-2,9.9585075E-3,-1.7138405E-2,3.1591788E-2,-2.2088528E-2,-1.1445E-2,2.587415E-3],"split_indices":[28,20,11,26,13,28,27,4,18,5,0,4,28,0,0,0,0,0,0,0,0,0,0,0,0],"split_type":[0,0,0,0,0,0,0,0,0,0,0,0,0,0,0,0,0,0,0,0,0,0,0,0,0],"sum_hessian":[2.4611865E2,6.900168E1,1.7711697E2,4.368739E1,2.5314293E1,1.722454E2,4.8715634E0,7.059008E0,3.662838E1,2.353971E1,1.7745838E0,1.4547311E1,1.5769809E2,3.3522234E0,1.51934E0,1.1988841E0,5.860124E0,3.4556686E1,2.071694E0,1.1620129E1,1.191958E1,1.242876E1,2.1185508E0,3.7410213E1,1.2028788E2],"tree_param":{"num_deleted":"0","num_feature":"30","num_nodes":"25","size_leaf_vector":"1"}},{"base_weights":[3.286625E-3,1.1709976E-1,-3.8530493E-1,2.6999766E-1,-2.3117542E-2,-4.199691E-1,2.7680784E-2,3.6273864E-1,-8.28852E-3,-1.2214005E-1,2.4520111E-1,-4.7865483E-1,-4.8803367E-2,2.2886453E-2,2.4990248E-3,-3.3831462E-2,7.323418E-3,3.9602383E-3,-1.7060097E-2,2.9095206E-2,-1.2555656E-4,6.065898E-3,-2.6055384E-2,-1.7420096E-2,2.9957999E-2],"categories":[],"categories_nodes":[],"categories_segments":[],"categories_sizes":[],"default_left":[1,1,1,1,1,1,0,1,1,0,0,0,0,0,0,0,0,0,0,0,0,0,0,0,0],"id":44,"left_children":[1,3,5,7,9,11,-1,13,15,17,19,21,23,-1,-1,-1,-1,-1,-1,-1,-1,-1,-1,-1,-1],"loss_changes":[1.3130477E1,4.928853E0,2.4215517E0,2.8398209E0,3.236718E0,1.4018946E0,0E0,2.4270859E0,3.041945E0,3.944871E0,2.7427678E0,1.4993906E0,2.1591055E0,0E0,0E0,0E0,0E0,0E0,0E0,0E0,0E0,0E0,0E0,0E0,0E0],"parents":[2147483647,0,0,1,1,2,2,3,3,4,4,5,5,7,7,8,8,9,9,10,10,11,11,12,12],"right_children":[2,4,6,8,10,12,-1,14,16,18,20,22,24,-1,-1,-1,-1,-1,-1,-1,-1,-1,-1,-1,-1],"split_conditions":[8.414E1,1.176E0,2.18E1,3.3333334E-1,3.94E-1,1.29375E1,2.7680784E-2,1.75538E3,1.6731E3,4.6666665E0,-1.2E0,-3.2395833E0,5.2E0,2.2886453E-2,2.4990248E-3,-3.3831462E-2,7.323418E-3,3.9602383E-3,-1.7060097E-2,2.9095206E-2,-1.2555656E-4,6.065898E-3,-2.6055384E-2,-1.7420096E-2,2.9957999E-2],"split_indices":[21,6,19,11,25,4,0,5,5,17,26,22,8,0,0,0,0,0,0,0,0,0,0,0,0],"split_type":[0,0,0,0,0,0,0,0,0,0,0,0,0,0,0,0,0,0,0,0,0,0,0,0,0],"sum_hessian":[2.9486923E2,2.2861089E2,6.625834E1,1.0891766E2,1.1969323E2,6.443227E1,1.8260757E0,8.146527E1,2.7452394E1,8.7826E1,3.186723E1,5.5385548E1,9.046713E0,6.2131317E1,1.9333952E1,4.5274997E0,2.2924894E1,4.6096283E1,4.1729717E1,1.2935514E1,1.8931717E1,3.5372329E0,5.1848316E1,6.502477E0,2.5442362E0],"tree_param":{"num_deleted":"0","num_feature":"30","num_nodes":"25","size_leaf_vector":"1"}},{"base_weights":[1.2782716E-2,-2.4754508E-1,1.1679774E-1,-3.883981E-1,1.1937115E-1,2.3767155E-1,-1.0920416E-1,1.5509641E-2,-4.5288306E-1,-2.5596157E-1,3.82614E-1,1.23882644E-1,4.1470924E-1,-3.0706467E-2,-6.257568E-1,-2.4465779E-2,4.0903315E-2,-3.385903E-3,-2.8349325E-2,-2.5992846E-2,1.4106481E-2,4.007962E-2,-1.361948E-2,1.6913086E-2,-3.200591E-3,2.4965856E-2,-1.66684E-2,1.201898E-2,-7.663797E-3,-3.5674978E-2,-1.3377646E-3],"categories":[],"categories_nodes":[],"categories_segments":[],"categories_sizes":[],"default_left":[1,1,1,0,0,0,0,0,1,1,0,1,0,0,0,0,0,0,0,0,0,0,0,0,0,0,0,0,0,0,0],"id":45,"left_children":[1,3,5,7,9,11,13,15,17,19,21,23,25,27,29,-1,-1,-1,-1,-1,-1,-1,-1,-1,-1,-1,-1,-1,-1,-1,-1],"loss_changes":[8.552493E0,4.7072763E0,6.1886415E0,1.7105255E0,2.6452951E0,2.915907E0,3.1961079E0,4.440132E0,2.4417372E0,1.7409575E0,4.48704E0,3.6908708E0,3.7871723E0,2.3589823E0,5.279856E-1,0E0,0E0,0E0,0E0,0E0,0E0,0E0,0E0,0E0,0E0,0E0,0E0,0E0,0E0,0E0,0E0],"parents":[2147483647,0,0,1,1,2,2,3,3,4,4,5,5,6,6,7,7,8,8,9,9,10,10,11,11,12,12,13,13,14,14],"right_children":[2,4,6,8,10,12,14,16,18,20,22,24,26,28,30,-1,-1,-1,-1,-1,-1,-1,-1,-1,-1,-1,-1,-1,-1,-1,-1],"split_conditions":[-1.1931E2,4.4E0,1.24E-1,-9.6E-1,4.6E-1,1.84422E3,4.2E0,1.28E1,1.75793E3,1.98159E3,3E0,6.9583335E0,5E-1,1.036E0,4E0,-2.4465779E-2,4.0903315E-2,-3.385903E-3,-2.8349325E-2,-2.5992846E-2,1.4106481E-2,4.007962E-2,-1.361948E-2,1.6913086E-2,-3.200591E-3,2.4965856E-2,-1.66684E-2,1.201898E-2,-7.663797E-3,-3.5674978E-2,-1.3377646E-3],"split_indices":[21,8,25,24,25,5,28,10,14,14,9,4,20,16,18,0,0,0,0,0,0,0,0,0,0,0,0,0,0,0,0],"split_type":[0,0,0,0,0,0,0,0,0,0,0,0,0,0,0,0,0,0,0,0,0,0,0,0,0,0,0,0,0,0,0],"sum_hessian":[3.137788E2,8.918574E1,2.245931E2,6.440369E1,2.478205E1,1.4629677E2,7.8296326E1,8.971198E0,5.5432487E1,1.0227417E1,1.4554632E1,9.009135E1,5.6205418E1,6.888734E1,9.408989E0,5.7467036E0,3.2244947E0,1.3032785E1,4.23997E1,6.8848004E0,3.342617E0,8.740135E0,5.814497E0,4.1706192E1,4.8385155E1,5.0793213E1,5.412204E0,2.1149645E1,4.7737694E1,8.040112E0,1.3688774E0],"tree_param":{"num_deleted":"0","num_feature":"30","num_nodes":"31","size_leaf_vector":"1"}},{"base_weights":[-7.260434E-3,5.4039396E-2,-2.2222318E-1,9.98813E-3,3.6030075E-1,-3.2362652E-1,1.1777339E-1,4.4607142E-1,-2.946623E-2,5.946217E-1,-2.1479033E-1,2.2436033E-1,-3.715037E-1,-2.6623312E-2,4.9107862E-1,6.0869665E-3,5.0284047E-2,3.0866032E-2,-2.6993465E-3,4.215205E-2,5.7540843E-3,-2.6826376E-2,2.1086033E-2,-1.9713623E-2,3.6331993E-2,1.5574293E-2,-2.0557813E-2,3.790921E-2,-2.048719E-2],"categories":[],"categories_nodes":[],"categories_segments":[],"categories_sizes":[],"default_left":[0,0,1,0,0,0,1,0,0,0,0,0,0,0,0,0,0,0,0,0,0,0,0,0,0,0,0,0,0],"id":46,"left_children":[1,3,5,7,9,11,13,15,17,19,21,23,25,-1,27,-1,-1,-1,-1,-1,-1,-1,-1,-1,-1,-1,-1,-1,-1],"loss_changes":[3.2894378E0,2.6182275E0,1.9475784E0,2.9540107E0,3.4169674E0,1.2095976E0,3.527915E0,2.4627414E0,2.5341375E0,2.0005736E0,1.8238066E0,1.5519756E0,1.2074275E0,0E0,2.4927883E0,0E0,0E0,0E0,0E0,0E0,0E0,0E0,0E0,0E0,0E0,0E0,0E0,0E0,0E0],"parents":[2147483647,0,0,1,1,2,2,3,3,4,4,5,5,6,6,7,7,8,8,9,9,10,10,11,11,12,12,14,14],"right_children":[2,4,6,8,10,12,14,16,18,20,22,24,26,-1,28,-1,-1,-1,-1,-1,-1,-1,-1,-1,-1,-1,-1,-1,-1],"split_conditions":[1.764E0,3E0,6E0,3.0833333E0,1.87013E3,-1.1458334E0,1.06E1,2.25E0,-2.5E0,1.26E1,2.25E0,5.8958335E0,1.64906E3,-2.6623312E-2,7.9618053E0,6.0869665E-3,5.0284047E-2,3.0866032E-2,-2.6993465E-3,4.215205E-2,5.7540843E-3,-2.6826376E-2,2.1086033E-2,-1.9713623E-2,3.6331993E-2,1.5574293E-2,-2.0557813E-2,3.790921E-2,-2.048719E-2],"split_indices":[6,9,8,13,5,22,19,28,27,10,28,4,5,0,13,0,0,0,0,0,0,0,0,0,0,0,0,0,0],"split_type":[0,0,0,0,0,0,0,0,0,0,0,0,0,0,0,0,0,0,0,0,0,0,0,0,0,0,0,0,0],"sum_hessian":[2.4772006E2,1.9333603E2,5.4384037E1,1.6992708E2,2.340894E1,4.1927414E1,1.2456625E1,1.3243425E1,1.5668365E2,1.6608032E1,6.8009067E0,3.0726533E0,3.885476E1,4.3876557E0,8.06897E0,9.155011E0,4.0884137E0,4.840096E0,1.5184357E2,1.0441127E1,6.166907E0,4.6218038E0,2.1791024E0,1.4732087E0,1.5994446E0,1.7558587E0,3.70989E1,6.345722E0,1.7232473E0],"tree_param":{"num_deleted":"0","num_feature":"30","num_nodes":"29","size_leaf_vector":"1"}},{"base_weights":[1.4435175E-3,1.1058202E-1,-3.6929882E-1,3.9598608E-1,4.1602425E-2,-4.0265313E-1,2.6680559E-2,4.871547E-1,-4.3620807E-1,1.129642E-1,-2.6311383E-1,-5.446947E-1,-2.6876536E-1,-1.3514221E-2,2.7013106E-2,-1.634824E-3,-2.884824E-2,1.2192051E-2,-3.7800276E-3,-1.5212112E-3,-2.596779E-2,6.902589E-3,-2.869442E-2,2.5806163E-2,-1.5554177E-2],"categories":[],"categories_nodes":[],"categories_segments":[],"categories_sizes":[],"default_left":[1,1,1,1,0,1,0,0,0,0,1,0,0,0,0,0,0,0,0,0,0,0,0,0,0],"id":47,"left_children":[1,3,5,7,9,11,-1,13,15,17,19,21,23,-1,-1,-1,-1,-1,-1,-1,-1,-1,-1,-1,-1],"loss_changes":[1.208305E1,4.525313E0,2.2602358E0,3.6105227E0,4.0941353E0,1.1100454E0,0E0,1.7887487E0,2.6226294E-1,3.7731676E0,2.1168225E0,6.987753E-1,1.3557589E0,0E0,0E0,0E0,0E0,0E0,0E0,0E0,0E0,0E0,0E0,0E0,0E0],"parents":[2147483647,0,0,1,1,2,2,3,3,4,4,5,5,7,7,8,8,9,9,10,10,11,11,12,12],"right_children":[2,4,6,8,10,12,-1,14,16,18,20,22,24,-1,-1,-1,-1,-1,-1,-1,-1,-1,-1,-1,-1],"split_conditions":[8.414E1,1.63362E3,2.18E1,3.3333334E-1,4.82E-1,3.16E-1,2.6680559E-2,-1.052E0,-1.04166664E-1,4.6666665E0,3.75E0,-4.2291665E0,-1.4E0,-1.3514221E-2,2.7013106E-2,-1.634824E-3,-2.884824E-2,1.2192051E-2,-3.7800276E-3,-1.5212112E-3,-2.596779E-2,6.902589E-3,-2.869442E-2,2.5806163E-2,-1.5554177E-2],"split_indices":[21,5,19,11,24,24,0,24,22,17,13,22,26,0,0,0,0,0,0,0,0,0,0,0,0],"split_type":[0,0,0,0,0,0,0,0,0,0,0,0,0,0,0,0,0,0,0,0,0,0,0,0,0],"sum_hessian":[2.9661588E2,2.2969914E2,6.691672E1,4.3787422E1,1.8591173E2,6.506713E1,1.8495904E0,3.983773E1,3.9496934E0,1.5114436E2,3.4767357E1,3.008337E1,3.4983757E1,2.3422494E0,3.749548E1,1.3401463E0,2.6095471E0,8.904672E1,6.2097645E1,1.8807379E1,1.5959976E1,1.0806862E0,2.9002684E1,1.2169179E0,3.376684E1],"tree_param":{"num_deleted":"0","num_feature":"30","num_nodes":"25","size_leaf_vector":"1"}},{"base_weights":[5.177166E-4,-1.8553177E-1,1.2574612E-1,3.901618E-2,-3.061814E-1,-4.1219077E-1,1.6933541E-1,-1.5364659E-1,3.9560282E-1,-7.7745E-2,-4.041937E-1,-5.736835E-1,2.8932188E-2,2.4857056E-1,-4.8150234E-2,-3.156058E-2,3.58758E-3,3.931747E-2,7.3856564E-4,-1.7830323E-2,2.0912128E-2,8.369135E-3,-2.2982432E-2,-3.2022048E-2,3.910065E-3,4.6078004E-3,1.7875904E-2,3.751811E-3,-3.0115372E-2],"categories":[],"categories_nodes":[],"categories_segments":[],"categories_sizes":[],"default_left":[1,1,0,1,1,0,1,1,0,1,0,0,0,0,0,0,0,0,0,0,0,0,0,0,0,0,0,0,0],"id":48,"left_children":[1,3,5,7,9,11,13,15,17,19,21,23,-1,25,27,-1,-1,-1,-1,-1,-1,-1,-1,-1,-1,-1,-1,-1,-1],"loss_changes":[7.265372E0,3.4107041E0,4.4401073E0,3.134074E0,1.7982473E0,2.6140053E0,2.9952445E0,3.249039E0,2.3650668E0,3.7139335E0,1.8819485E0,6.0559845E-1,0E0,2.1321487E0,3.2581909E0,0E0,0E0,0E0,0E0,0E0,0E0,0E0,0E0,0E0,0E0,0E0,0E0,0E0,0E0],"parents":[2147483647,0,0,1,1,2,2,3,3,4,4,5,5,6,6,7,7,8,8,9,9,10,10,11,11,13,13,14,14],"right_children":[2,4,6,8,10,12,14,16,18,20,22,24,-1,26,28,-1,-1,-1,-1,-1,-1,-1,-1,-1,-1,-1,-1,-1,-1],"split_conditions":[1.77211E3,1.74141E3,-1.8E0,1.28E1,-8.74E-1,1.90411E3,2.44E-1,-2.4E-1,2.25E0,-2.2289E2,-5.66E-1,1.782E0,2.8932188E-2,2.2E0,1.36E0,-3.156058E-2,3.58758E-3,3.931747E-2,7.3856564E-4,-1.7830323E-2,2.0912128E-2,8.369135E-3,-2.2982432E-2,-3.2022048E-2,3.910065E-3,4.6078004E-3,1.7875904E-2,3.751811E-3,-3.0115372E-2],"split_indices":[5,14,26,10,24,5,25,24,28,21,25,7,0,18,16,0,0,0,0,0,0,0,0,0,0,0,0,0,0],"split_type":[0,0,0,0,0,0,0,0,0,0,0,0,0,0,0,0,0,0,0,0,0,0,0,0,0,0,0,0,0],"sum_hessian":[3.0983487E2,1.2445415E2,1.8538074E2,4.3734318E1,8.0719826E1,1.3261679E1,1.7211906E2,2.8762915E1,1.4971404E1,2.4773548E1,5.594628E1,1.1765131E1,1.4965482E0,1.260523E2,4.6066757E1,8.645254E0,2.011766E1,6.8639383E0,8.107466E0,1.6037643E1,8.735904E0,4.769409E0,5.1176872E1,1.0688147E1,1.0769842E0,5.2510098E1,7.35422E1,3.8396088E1,7.67067E0],"tree_param":{"num_deleted":"0","num_feature":"30","num_nodes":"29","size_leaf_vector":"1"}},{"base_weights":[6.8805944E-3,5.8415763E-2,-1.9322398E-1,-2.5613185E-3,3.2330102E-1,-2.8524262E-1,1.5625948E-1,-5.7805095E-2,5.4495233E-1,-3.7141705E-1,4.3479395E-1,-5.348798E-3,-4.0723285E-1,4.790364E-2,-1.6843043E-1,-1.12311905E-2,3.012085E-3,-1.4716644E-4,4.5016073E-2,5.4803244E-3,-2.5655022E-2,4.375631E-2,1.1323893E-2,4.1636795E-2,-1.2174691E-2,-2.3209296E-2,1.7516037E-2,1.3660966E-2,-2.103209E-2],"categories":[],"categories_nodes":[],"categories_segments":[],"categories_sizes":[],"default_left":[0,1,1,1,0,1,0,0,0,0,0,0,1,0,0,0,0,0,0,0,0,0,0,0,0,0,0,0,0],"id":49,"left_children":[1,3,5,7,9,11,13,15,17,19,21,23,25,-1,27,-1,-1,-1,-1,-1,-1,-1,-1,-1,-1,-1,-1,-1,-1],"loss_changes":[2.595987E0,3.2324572E0,1.7027677E0,4.9807615E0,3.0620143E0,1.4035308E0,3.1273794E0,2.958272E0,2.9413047E0,4.459375E-1,2.804009E0,