{"learner":{"attributes":{"scikit_learn":"{\"_estimator_type\": \"classifier\"}"},"feature_names":["is_cup_match","is_european_match","is_premier_league_match","home_last5_matches","home_days_rest","home_current_elo","home_last5_avg_xg","home_last5_avg_xga","home_last5_avg_shots_on_target","home_last5_avg_big_chances","home_last5_avg_tackles_won","home_last5_clean_sheet_rate","away_last5_matches","away_days_rest","away_current_elo","away_last5_avg_xg","away_last5_avg_xga","away_last5_avg_shots_on_target","away_last5_avg_big_chances","away_last5_avg_tackles_won","away_last5_clean_sheet_rate","elo_diff","days_rest_diff","last5_matches_diff","last5_avg_xg_diff","last5_avg_xga_diff","last5_avg_shots_on_target_diff","last5_avg_big_chances_diff","last5_avg_tackles_won_diff","last5_clean_sheet_rate_diff"],"feature_types":["int","int","int","int","float","float","float","float","float","float","float","float","int","float","float","float","float","float","float","float","float","float","float","int","float","float","float","float","float","float"],"gradient_booster":{"model":{"cats":{"enc":[],"feature_segments":[],"sorted_idx":[]},"gbtree_model_param":{"num_parallel_tree":"1","num_trees":"1200"},"iteration_indptr":[0,3,6,9,12,15,18,21,24,27,30,33,36,39,42,45,48,51,54,57,60,63,66,69,72,75,78,81,84,87,90,93,96,99,102,105,108,111,114,117,120,123,126,129,132,135,138,141,144,147,150,153,156,159,162,165,168,171,174,177,180,183,186,189,192,195,198,201,204,207,210,213,216,219,222,225,228,231,234,237,240,243,246,249,252,255,258,261,264,267,270,273,276,279,282,285,288,291,294,297,300,303,306,309,312,315,318,321,324,327,330,333,336,339,342,345,348,351,354,357,360,363,366,369,372,375,378,381,384,387,390,393,396,399,402,405,408,411,414,417,420,423,426,429,432,435,438,441,444,447,450,453,456,459,462,465,468,471,474,477,480,483,486,489,492,495,498,501,504,507,510,513,516,519,522,525,528,531,534,537,540,543,546,549,552,555,558,561,564,567,570,573,576,579,582,585,588,591,594,597,600,603,606,609,612,615,618,621,624,627,630,633,636,639,642,645,648,651,654,657,660,663,666,669,672,675,678,681,684,687,690,693,696,699,702,705,708,711,714,717,720,723,726,729,732,735,738,741,744,747,750,753,756,759,762,765,768,771,774,777,780,783,786,789,792,795,798,801,804,807,810,813,816,819,822,825,828,831,834,837,840,843,846,849,852,855,858,861,864,867,870,873,876,879,882,885,888,891,894,897,900,903,906,909,912,915,918,921,924,927,930,933,936,939,942,945,948,951,954,957,960,963,966,969,972,975,978,981,984,987,990,993,996,999,1002,1005,1008,1011,1014,1017,1020,1023,1026,1029,1032,1035,1038,1041,1044,1047,1050,1053,1056,1059,1062,1065,1068,1071,1074,1077,1080,1083,1086,1089,1092,1095,1098,1101,1104,1107,1110,1113,1116,1119,1122,1125,1128,1131,1134,1137,1140,1143,1146,1149,1152,1155,1158,1161,1164,1167,1170,1173,1176,1179,1182,1185,1188,1191,1194,1197,1200],"tree_info":[0,1,2,0,1,2,0,1,2,0,1,2,0,1,2,0,1,2,0,1,2,0,1,2,0,1,2,0,1,2,0,1,2,0,1,2,0,1,2,0,1,2,0,1,2,0,1,2,0,1,2,0,1,2,0,1,2,0,1,2,0,1,2,0,1,2,0,1,2,0,1,2,0,1,2,0,1,2,0,1,2,0,1,2,0,1,2,0,1,2,0,1,2,0,1,2,0,1,2,0,1,2,0,1,2,0,1,2,0,1,2,0,1,2,0,1,2,0,1,2,0,1,2,0,1,2,0,1,2,0,1,2,0,1,2,0,1,2,0,1,2,0,1,2,0,1,2,0,1,2,0,1,2,0,1,2,0,1,2,0,1,2,0,1,2,0,1,2,0,1,2,0,1,2,0,1,2,0,1,2,0,1,2,0,1,2,0,1,2,0,1,2,0,1,2,0,1,2,0,1,2,0,1,2,0,1,2,0,1,2,0,1,2,0,1,2,0,1,2,0,1,2,0,1,2,0,1,2,0,1,2,0,1,2,0,1,2,0,1,2,0,1,2,0,1,2,0,1,2,0,1,2,0,1,2,0,1,2,0,1,2,0,1,2,0,1,2,0,1,2,0,1,2,0,1,2,0,1,2,0,1,2,0,1,2,0,1,2,0,1,2,0,1,2,0,1,2,0,1,2,0,1,2,0,1,2,0,1,2,0,1,2,0,1,2,0,1,2,0,1,2,0,1,2,0,1,2,0,1,2,0,1,2,0,1,2,0,1,2,0,1,2,0,1,2,0,1,2,0,1,2,0,1,2,0,1,2,0,1,2,0,1,2,0,1,2,0,1,2,0,1,2,0,1,2,0,1,2,0,1,2,0,1,2,0,1,2,0,1,2,0,1,2,0,1,2,0,1,2,0,1,2,0,1,2,0,1,2,0,1,2,0,1,2,0,1,2,0,1,2,0,1,2,0,1,2,0,1,2,0,1,2,0,1,2,0,1,2,0,1,2,0,1,2,0,1,2,0,1,2,0,1,2,0,1,2,0,1,2,0,1,2,0,1,2,0,1,2,0,1,2,0,1,2,0,1,2,0,1,2,0,1,2,0,1,2,0,1,2,0,1,2,0,1,2,0,1,2,0,1,2,0,1,2,0,1,2,0,1,2,0,1,2,0,1,2,0,1,2,0,1,2,0,1,2,0,1,2,0,1,2,0,1,2,0,1,2,0,1,2,0,1,2,0,1,2,0,1,2,0,1,2,0,1,2,0,1,2,0,1,2,0,1,2,0,1,2,0,1,2,0,1,2,0,1,2,0,1,2,0,1,2,0,1,2,0,1,2,0,1,2,0,1,2,0,1,2,0,1,2,0,1,2,0,1,2,0,1,2,0,1,2,0,1,2,0,1,2,0,1,2,0,1,2,0,1,2,0,1,2,0,1,2,0,1,2,0,1,2,0,1,2,0,1,2,0,1,2,0,1,2,0,1,2,0,1,2,0,1,2,0,1,2,0,1,2,0,1,2,0,1,2,0,1,2,0,1,2,0,1,2,0,1,2,0,1,2,0,1,2,0,1,2,0,1,2,0,1,2,0,1,2,0,1,2,0,1,2,0,1,2,0,1,2,0,1,2,0,1,2,0,1,2,0,1,2,0,1,2,0,1,2,0,1,2,0,1,2,0,1,2,0,1,2,0,1,2,0,1,2,0,1,2,0,1,2,0,1,2,0,1,2,0,1,2,0,1,2,0,1,2,0,1,2,0,1,2,0,1,2,0,1,2,0,1,2,0,1,2,0,1,2,0,1,2,0,1,2,0,1,2,0,1,2,0,1,2,0,1,2,0,1,2,0,1,2,0,1,2,0,1,2,0,1,2,0,1,2,0,1,2,0,1,2,0,1,2,0,1,2,0,1,2,0,1,2,0,1,2,0,1,2,0,1,2,0,1,2,0,1,2,0,1,2,0,1,2,0,1,2,0,1,2,0,1,2,0,1,2,0,1,2,0,1,2,0,1,2,0,1,2,0,1,2,0,1,2,0,1,2,0,1,2,0,1,2,0,1,2,0,1,2,0,1,2,0,1,2,0,1,2,0,1,2,0,1,2,0,1,2,0,1,2,0,1,2,0,1,2,0,1,2,0,1,2,0,1,2,0,1,2,0,1,2,0,1,2,0,1,2,0,1,2,0,1,2,0,1,2,0,1,2,0,1,2,0,1,2,0,1,2,0,1,2,0,1,2,0,1,2,0,1,2,0,1,2,0,1,2,0,1,2,0,1,2,0,1,2,0,1,2,0,1,2,0,1,2,0,1,2,0,1,2,0,1,2,0,1,2,0,1,2,0,1,2,0,1,2,0,1,2,0,1,2,0,1,2,0,1,2,0,1,2,0,1,2,0,1,2,0,1,2,0,1,2,0,1,2,0,1,2,0,1,2,0,1,2,0,1,2,0,1,2,0,1,2,0,1,2,0,1,2,0,1,2,0,1,2,0,1,2,0,1,2,0,1,2,0,1,2,0,1,2,0,1,2,0,1,2,0,1,2,0,1,2,0,1,2,0,1,2,0,1,2,0,1,2,0,1,2,0,1,2,0,1,2,0,1,2,0,1,2,0,1,2,0,1,2,0,1,2,0,1,2,0,1,2,0,1,2,0,1,2,0,1,2,0,1,2,0,1,2,0,1,2,0,1,2,0,1,2,0,1,2,0,1,2,0,1,2],"trees":[{"base_weights":[1.7334802E-2,-1.9541384E-1,3.9457428E-1,-6.4287275E-2,-4.3802297E-1,7.965748E-1,2.6681986E-1,-4.0074915E-1,7.935282E-2,-4.8131958E-1,2.9087732E-2,5.2187424E-2,3.907668E-1,2.0026904E-1,5.2803975E-2,-3.543994E-2,-1.1384017E-2,-5.910878E-3,1.2868931E-2,-2.5146527E-2,1.6144952E-2,3.3422526E-2,-1.827876E-2,-1.4165066E-2,1.541249E-2],"categories":[],"categories_nodes":[],"categories_segments":[],"categories_sizes":[],"default_left":[1,0,1,0,1,1,0,0,0,1,0,0,0,0,0,0,0,0,0,0,0,0,0,0,0],"id":0,"left_children":[1,3,5,7,9,11,13,15,17,19,-1,-1,21,23,-1,-1,-1,-1,-1,-1,-1,-1,-1,-1,-1],"loss_changes":[2.6005209E1,6.5645256E0,5.787382E0,6.5900173E0,3.4827452E0,2.367588E0,4.5240726E0,2.0119252E0,3.4046726E0,1.381258E0,0E0,0E0,2.7798629E0,4.4933414E0,0E0,0E0,0E0,0E0,0E0,0E0,0E0,0E0,0E0,0E0,0E0],"parents":[2147483647,0,0,1,1,2,2,3,3,4,4,5,5,6,6,7,7,8,8,9,9,12,12,13,13],"right_children":[2,4,6,8,10,12,14,16,18,20,-1,-1,22,24,-1,-1,-1,-1,-1,-1,-1,-1,-1,-1,-1],"split_conditions":[4.108E1,1.765E0,-1E0,-1.1171E2,7E0,2.5E-1,2.9385E2,1.424E0,1.408E0,2.515625E1,2.9087732E-2,5.2187424E-2,7.9583335E0,-1.04166664E-1,5.2803975E-2,-3.543994E-2,-1.1384017E-2,-5.910878E-3,1.2868931E-2,-2.5146527E-2,1.6144952E-2,3.3422526E-2,-1.827876E-2,-1.4165066E-2,1.541249E-2],"split_indices":[21,7,22,21,17,20,21,15,16,13,0,0,13,22,0,0,0,0,0,0,0,0,0,0,0],"split_type":[0,0,0,0,0,0,0,0,0,0,0,0,0,0,0,0,0,0,0,0,0,0,0,0,0],"sum_hessian":[3.2206268E2,2.0623566E2,1.1582703E2,1.3469827E2,7.153739E1,2.6670065E1,8.915697E1,3.9764393E1,9.4933876E1,6.913035E1,2.4070456E0,1.5597655E1,1.107241E1,8.338006E1,5.7769094E0,1.3190609E1,2.6573782E1,4.5156174E1,4.9777702E1,6.768612E1,1.4442273E0,8.183955E0,2.8884547E0,1.4923682E1,6.8456375E1],"tree_param":{"num_deleted":"0","num_feature":"30","num_nodes":"25","size_leaf_vector":"1"}},{"base_weights":[-2.4149679E-2,2.924987E-1,-7.20195E-2,8.452175E-1,1.20685875E-1,-2.6069278E-2,-4.3506008E-1,1.1561829E0,-4.227146E-3,4.363231E-2,3.6022283E-2,-6.1746895E-2,3.3939087E-1,2.01704E-2,-5.067179E-1,6.8800986E-2,6.0022827E-3,1.2842225E-2,-1.3122856E-2,-6.728367E-3,1.0053149E-2,-1.3527562E-2,3.293909E-2,-2.866523E-2,-1.1524893E-3],"categories":[],"categories_nodes":[],"categories_segments":[],"categories_sizes":[],"default_left":[0,0,0,0,0,1,0,1,0,0,0,1,0,0,1,0,0,0,0,0,0,0,0,0,0],"id":1,"left_children":[1,3,5,7,9,11,13,15,-1,-1,17,19,21,-1,23,-1,-1,-1,-1,-1,-1,-1,-1,-1,-1],"loss_changes":[3.838257E0,3.0573182E0,3.6513116E0,2.3305378E0,1.6585784E0,2.5759778E0,1.682683E0,1.1685238E0,0E0,0E0,1.7087665E0,3.4598954E0,3.6034741E0,0E0,7.3106194E-1,0E0,0E0,0E0,0E0,0E0,0E0,0E0,0E0,0E0,0E0],"parents":[2147483647,0,0,1,1,2,2,3,3,4,4,5,5,6,6,7,7,10,10,11,11,12,12,14,14],"right_children":[2,4,6,8,10,12,14,16,-1,-1,18,20,22,-1,24,-1,-1,-1,-1,-1,-1,-1,-1,-1,-1],"split_conditions":[1.004E0,1.098E0,1.4208333E1,3.25E0,1.68208E3,4.2E0,1.65161E3,1.87281E3,-4.227146E-3,4.363231E-2,1.35E1,5.2E0,1.26E0,2.01704E-2,1.44E1,6.8800986E-2,6.0022827E-3,1.2842225E-2,-1.3122856E-2,-6.728367E-3,1.0053149E-2,-1.3527562E-2,3.293909E-2,-2.866523E-2,-1.1524893E-3],"split_indices":[16,7,4,9,14,28,5,5,0,0,10,17,16,0,10,0,0,0,0,0,0,0,0,0,0],"split_type":[0,0,0,0,0,0,0,0,0,0,0,0,0,0,0,0,0,0,0,0,0,0,0,0,0],"sum_hessian":[2.5082848E2,3.2268585E1,2.185599E2,6.7226214E0,2.5545961E1,1.9495602E2,2.3603872E1,4.8552265E0,1.8673949E0,1.6433074E0,2.3902655E1,1.7837357E2,1.6582466E1,1.4939159E0,2.2109955E1,3.7347898E0,1.1204369E0,1.3818722E1,1.0083933E1,1.4005461E2,3.8318943E1,5.7515764E0,1.0830891E1,1.9271515E1,2.8384402E0],"tree_param":{"num_deleted":"0","num_feature":"30","num_nodes":"25","size_leaf_vector":"1"}},{"base_weights":[2.837409E-2,3.2718605E-1,-3.3317906E-1,6.255093E-1,1.04531586E-1,-1.4380614E-1,-4.7403988E-1,-1.8969385E-1,7.205725E-1,-3.344306E-1,2.376443E-1,9.137652E-2,-3.4658748E-1,-5.053538E-1,2.4513824E-2,-2.4632717E-2,2.8566346E-2,4.6820823E-2,1.4959878E-2,9.787443E-3,-2.4589334E-2,1.1345864E-3,1.998443E-2,-1.6791133E-2,2.7933497E-2,-2.1195477E-2,4.1423287E-2,-2.7135467E-2,1.4419234E-3],"categories":[],"categories_nodes":[],"categories_segments":[],"categories_sizes":[],"default_left":[1,1,0,0,1,0,1,0,1,0,0,0,1,1,0,0,0,0,0,0,0,0,0,0,0,0,0,0,0],"id":2,"left_children":[1,3,5,7,9,11,13,15,17,19,21,23,25,27,-1,-1,-1,-1,-1,-1,-1,-1,-1,-1,-1,-1,-1,-1,-1],"loss_changes":[3.312022E1,1.1080269E1,3.633235E0,5.6786137E0,5.7640104E0,2.9228024E0,2.6373844E0,2.185882E0,5.5636787E0,2.0194411E0,2.611446E0,5.9488974E0,3.327908E0,1.5549641E0,0E0,0E0,0E0,0E0,0E0,0E0,0E0,0E0,0E0,0E0,0E0,0E0,0E0,0E0,0E0],"parents":[2147483647,0,0,1,1,2,2,3,3,4,4,5,5,6,6,7,7,8,8,9,9,10,10,11,11,12,12,13,13],"right_children":[2,4,6,8,10,12,14,16,18,20,22,24,26,28,-1,-1,-1,-1,-1,-1,-1,-1,-1,-1,-1,-1,-1,-1,-1],"split_conditions":[-2.81E0,1.068E0,8.414E1,-1.04E0,3.125E0,4.2E0,2.18E1,8.104167E0,-1.2063E2,1.45E0,1.2E-1,1.6666666E0,6.9E-1,1.4E1,2.4513824E-2,-2.4632717E-2,2.8566346E-2,4.6820823E-2,1.4959878E-2,9.787443E-3,-2.4589334E-2,1.1345864E-3,1.998443E-2,-1.6791133E-2,2.7933497E-2,-2.1195477E-2,4.1423287E-2,-2.7135467E-2,1.4419234E-3],"split_indices":[21,6,21,24,13,17,19,4,21,15,25,18,25,4,0,0,0,0,0,0,0,0,0,0,0,0,0,0,0],"split_type":[0,0,0,0,0,0,0,0,0,0,0,0,0,0,0,0,0,0,0,0,0,0,0,0,0,0,0,0,0],"sum_hessian":[3.0455634E2,1.6679813E2,1.377582E2,7.0512596E1,9.628554E1,5.962262E1,7.8135574E1,7.259984E0,6.325261E1,2.2052202E1,7.423334E1,2.786019E1,3.176243E1,7.6139084E1,1.9964956E0,5.4449883E0,1.814996E0,4.101891E1,2.2233702E1,4.991239E0,1.7060963E1,3.239768E1,4.183566E1,1.47014675E1,1.3158721E1,3.0401182E1,1.3612471E0,7.114784E1,4.991239E0],"tree_param":{"num_deleted":"0","num_feature":"30","num_nodes":"29","size_leaf_vector":"1"}},{"base_weights":[-1.723585E-2,-2.3768534E-1,3.6201152E-1,-4.017038E-1,3.3844084E-2,1.4428683E-1,5.6951684E-1,-5.686002E-1,-1.9009975E-1,1.6144046E-1,-3.5576615E-1,5.0876594E-1,-7.662868E-2,8.7186354E-1,3.6834896E-1,-3.2561384E-2,-1.321652E-2,-3.7517154E-3,-3.344784E-2,1.5748646E-2,-1.1058549E-2,1.3415217E-2,-2.7014045E-2,3.5580117E-2,-1.5588026E-2,1.2151408E-2,-1.6077833E-2,4.876223E-2,-1.0953973E-2,2.8381506E-2,2.4107486E-4],"categories":[],"categories_nodes":[],"categories_segments":[],"categories_sizes":[],"default_left":[1,1,0,1,0,1,1,1,1,1,0,1,0,1,0,0,0,0,0,0,0,0,0,0,0,0,0,0,0,0,0],"id":3,"left_children":[1,3,5,7,9,11,13,15,17,19,21,23,25,27,29,-1,-1,-1,-1,-1,-1,-1,-1,-1,-1,-1,-1,-1,-1,-1,-1],"loss_changes":[2.8183146E1,9.505692E0,5.517147E0,4.5871525E0,4.0933323E0,5.0165296E0,3.5178432E0,1.6838875E0,3.2626984E0,3.702562E0,2.4871747E0,4.1263194E0,3.159631E0,2.975235E0,2.8683863E0,0E0,0E0,0E0,0E0,0E0,0E0,0E0,0E0,0E0,0E0,0E0,0E0,0E0,0E0,0E0,0E0],"parents":[2147483647,0,0,1,1,2,2,3,3,4,4,5,5,6,6,7,7,8,8,9,9,10,10,11,11,12,12,13,13,14,14],"right_children":[2,4,6,8,10,12,14,16,18,20,22,24,26,28,30,-1,-1,-1,-1,-1,-1,-1,-1,-1,-1,-1,-1,-1,-1,-1,-1],"split_conditions":[3.772E1,1.78023E3,1.85654E3,-1.1171E2,1.704E0,9.18E-1,2E-1,1.54E1,1.808E0,1.8E0,1.07E0,1.68E1,1.70078E3,1.64E-1,4.28E-1,-3.2561384E-2,-1.321652E-2,-3.7517154E-3,-3.344784E-2,1.5748646E-2,-1.1058549E-2,1.3415217E-2,-2.7014045E-2,3.5580117E-2,-1.5588026E-2,1.2151408E-2,-1.6077833E-2,4.876223E-2,-1.0953973E-2,2.8381506E-2,2.4107486E-4],"split_indices":[21,5,5,21,7,15,20,10,7,28,16,10,14,25,24,0,0,0,0,0,0,0,0,0,0,0,0,0,0,0,0],"split_type":[0,0,0,0,0,0,0,0,0,0,0,0,0,0,0,0,0,0,0,0,0,0,0,0,0,0,0,0,0,0,0],"sum_hessian":[3.350701E2,2.1213387E2,1.2293622E2,1.3194969E2,8.018417E1,6.0818172E1,6.2118046E1,7.282448E1,5.9125214E1,6.0843662E1,1.9340513E1,2.2459766E1,3.8358406E1,2.3485836E1,3.863221E1,5.6374992E1,1.6449484E1,4.8603004E1,1.0522212E1,4.3546368E1,1.7297293E1,4.309775E0,1.5030738E1,1.811455E1,4.3452168E0,1.6643995E1,2.1714413E1,2.154977E1,1.9360659E0,2.4590538E1,1.4041674E1],"tree_param":{"num_deleted":"0","num_feature":"30","num_nodes":"31","size_leaf_vector":"1"}},{"base_weights":[-8.610771E-3,6.020326E-2,-2.056395E-2,-3.607342E-1,1.8538272E-2,1.2899439E-2,-4.1950926E-1,-3.3713924E-3,5.8018464E-1,1.7483038E-3,-2.6300091E-2,3.1897135E-2,-1.0443758E-3,-2.7940047E-3,5.0255604E-2],"categories":[],"categories_nodes":[],"categories_segments":[],"categories_sizes":[],"default_left":[0,0,1,0,1,0,1,0,0,0,0,0,0,0,0],"id":4,"left_children":[1,-1,3,5,7,-1,9,11,13,-1,-1,-1,-1,-1,-1],"loss_changes":[3.7056363E0,0E0,3.3644943E0,1.0564554E0,2.7997918E0,0E0,1.1893215E0,2.482668E0,2.3649673E0,0E0,0E0,0E0,0E0,0E0,0E0],"parents":[2147483647,0,0,2,2,3,3,4,4,6,6,7,7,8,8],"right_children":[2,-1,4,6,8,-1,10,12,14,-1,-1,-1,-1,-1,-1],"split_conditions":[4.5E-1,6.020326E-2,7.6E0,5.8541665E0,5.8E0,1.2899439E-2,7.82E-1,-2.5E0,1.246E0,1.7483038E-3,-2.6300091E-2,3.1897135E-2,-1.0443758E-3,-2.7940047E-3,5.0255604E-2],"split_indices":[15,0,10,4,28,0,16,27,6,0,0,0,0,0,0],"split_type":[0,0,0,0,0,0,0,0,0,0,0,0,0,0,0],"sum_hessian":[2.5293524E2,1.4953657E0,2.5143988E2,2.5074919E1,2.2636496E2,1.8812836E0,2.3193634E1,2.1882274E2,7.542216E0,4.53052E0,1.8663115E1,4.876066E0,2.1394669E2,3.3684902E0,4.1737256E0],"tree_param":{"num_deleted":"0","num_feature":"30","num_nodes":"15","size_leaf_vector":"1"}},{"base_weights":[2.447951E-2,3.0677605E-1,-3.3510664E-1,5.7082415E-1,2.6774406E-2,-1.0487007E-1,-4.920439E-1,-2.7876958E-1,6.4291275E-1,-2.995866E-1,1.5905678E-1,1.5246478E-1,-3.3926925E-1,-5.2254355E-1,2.4046842E-2,2.0555472E-2,-2.4415193E-2,-8.161236E-3,3.5839893E-2,-2.1020768E-2,2.5604812E-2,-6.893135E-3,1.6485402E-2,-1.360749E-2,2.6438192E-2,2.8663307E-2,-2.0875052E-2,-2.84117E-2,-1.3944895E-3],"categories":[],"categories_nodes":[],"categories_segments":[],"categories_sizes":[],"default_left":[1,1,0,0,1,0,1,0,0,1,0,0,0,1,0,0,0,0,0,0,0,0,0,0,0,0,0,0,0],"id":5,"left_children":[1,3,5,7,9,11,13,15,17,19,21,23,25,27,-1,-1,-1,-1,-1,-1,-1,-1,-1,-1,-1,-1,-1,-1,-1],"loss_changes":[3.1878796E1,1.29885845E1,4.940069E0,5.7202835E0,3.7782543E0,3.5060787E0,2.681158E0,1.3244668E0,5.1022034E0,2.6936502E0,3.194212E0,4.615944E0,2.4009774E0,1.7893105E0,0E0,0E0,0E0,0E0,0E0,0E0,0E0,0E0,0E0,0E0,0E0,0E0,0E0,0E0,0E0],"parents":[2147483647,0,0,1,1,2,2,3,3,4,4,5,5,6,6,7,7,8,8,9,9,10,10,11,11,12,12,13,13],"right_children":[2,4,6,8,10,12,14,16,18,20,22,24,26,28,-1,-1,-1,-1,-1,-1,-1,-1,-1,-1,-1,-1,-1,-1,-1],"split_conditions":[-2.81E0,1.164E0,8.414E1,-1.04E0,-1.25E0,4.2E0,2.18E1,9.75E0,-4.78E-1,2.49E0,5.8541665E0,1.6666666E0,2.7534723E0,1.4E1,2.4046842E-2,2.0555472E-2,-2.4415193E-2,-8.161236E-3,3.5839893E-2,-2.1020768E-2,2.5604812E-2,-6.893135E-3,1.6485402E-2,-1.360749E-2,2.6438192E-2,2.8663307E-2,-2.0875052E-2,-2.84117E-2,-1.3944895E-3],"split_indices":[21,6,21,24,27,17,19,10,25,15,4,18,4,4,0,0,0,0,0,0,0,0,0,0,0,0,0,0,0],"split_type":[0,0,0,0,0,0,0,0,0,0,0,0,0,0,0,0,0,0,0,0,0,0,0,0,0,0,0,0,0],"sum_hessian":[3.1203336E2,1.7488506E2,1.3714832E2,8.9472115E1,8.541294E1,5.6267986E1,8.088033E1,6.773745E0,8.269837E1,2.4270103E1,6.1142834E1,2.6988379E1,2.9279606E1,7.887094E1,2.0093915E0,1.3539457E0,5.4198E0,6.8416862E0,7.585668E1,2.1544926E1,2.7251778E0,2.2385681E1,3.8757153E1,1.2810184E1,1.4178196E1,1.812293E0,2.7467312E1,7.20656E1,6.8053417E0],"tree_param":{"num_deleted":"0","num_feature":"30","num_nodes":"29","size_leaf_vector":"1"}},{"base_weights":[8.101406E-3,-2.8023311E-1,2.6790702E-1,-3.9289168E-1,3.6711026E-2,1.0559372E-1,5.264934E-1,-4.1876727E-1,2.9724702E-2,-2.0644146E-1,3.0362326E-1,4.404129E-1,-1.2256186E-2,-2.932095E-1,5.839511E-1,1.1593914E-3,-2.3762885E-2,2.238236E-2,-1.9208688E-2,-2.9536873E-2,2.3194123E-2,-1.8796926E-2,2.7405528E-2,2.4751231E-2,-4.5485892E-3,1.5390845E-2,-3.098145E-2,3.7160937E-2,1.0669137E-2],"categories":[],"categories_nodes":[],"categories_segments":[],"categories_sizes":[],"default_left":[1,1,0,1,0,1,0,0,0,0,1,0,0,0,1,0,0,0,0,0,0,0,0,0,0,0,0,0,0],"id":6,"left_children":[1,3,5,7,9,11,13,15,-1,17,19,21,23,25,27,-1,-1,-1,-1,-1,-1,-1,-1,-1,-1,-1,-1,-1,-1],"loss_changes":[2.4973358E1,5.656946E0,7.3040543E0,3.2297897E0,2.8115304E0,4.3054895E0,3.3441753E0,2.8641014E0,0E0,2.8177927E0,3.2260065E0,2.702859E0,3.302556E0,1.1870999E0,3.5767612E0,0E0,0E0,0E0,0E0,0E0,0E0,0E0,0E0,0E0,0E0,0E0,0E0,0E0,0E0],"parents":[2147483647,0,0,1,1,2,2,3,3,4,4,5,5,6,6,7,7,9,9,10,10,11,11,12,12,13,13,14,14],"right_children":[2,4,6,8,10,12,14,16,-1,18,20,22,24,26,28,-1,-1,-1,-1,-1,-1,-1,-1,-1,-1,-1,-1,-1,-1],"split_conditions":[-2.69E1,1.79644E3,1.85654E3,1.63125E1,5E-1,9.18E-1,-6.94E-1,-9.6E-1,2.9724702E-2,1.122E0,1.068E0,8E-1,-5.74E-1,2.5E-1,8.6E-2,1.1593914E-3,-2.3762885E-2,2.238236E-2,-1.9208688E-2,-2.9536873E-2,2.3194123E-2,-1.8796926E-2,2.7405528E-2,2.4751231E-2,-4.5485892E-3,1.5390845E-2,-3.098145E-2,3.7160937E-2,1.0669137E-2],"split_indices":[21,5,5,13,27,15,24,24,0,7,6,18,24,11,25,0,0,0,0,0,0,0,0,0,0,0,0,0,0],"split_type":[0,0,0,0,0,0,0,0,0,0,0,0,0,0,0,0,0,0,0,0,0,0,0,0,0,0,0,0,0],"sum_hessian":[3.3137183E2,1.5702524E2,1.743466E2,1.1567032E2,4.1354916E1,1.0797783E2,6.636877E1,1.1327763E2,2.3926919E0,2.1759207E1,1.959571E1,2.7398853E1,8.057898E1,4.078671E0,6.2290096E1,1.2904928E1,1.003727E2,4.3247275E0,1.7434479E1,2.569565E0,1.7026144E1,2.9030402E0,2.4495813E1,1.0113565E1,7.0465416E1,1.4555676E0,2.6231034E0,4.286249E1,1.9427605E1],"tree_param":{"num_deleted":"0","num_feature":"30","num_nodes":"29","size_leaf_vector":"1"}},{"base_weights":[7.112959E-4,9.0816E-2,-2.0777735E-1,5.0012654E-1,3.8488492E-2,-2.869988E-1,1.0073691E-1,7.751805E-1,-2.3994026E-1,5.8181133E-2,2.020922E-2,2.887162E-2,-3.126966E-1,-4.3474683E-1,4.7087938E-1,-2.8506974E-3,5.1084172E-2,2.9404983E-2,-2.6826873E-2,-1.618743E-2,3.410117E-3,-1.1698958E-2,-2.9131493E-2,-2.7800594E-2,6.4422647E-3,5.8595087E-2,3.8705864E-3],"categories":[],"categories_nodes":[],"categories_segments":[],"categories_sizes":[],"default_left":[0,0,1,0,0,0,0,0,0,0,1,0,1,0,0,0,0,0,0,0,0,0,0,0,0,0,0],"id":7,"left_children":[1,3,5,7,9,11,13,15,17,-1,19,-1,21,23,25,-1,-1,-1,-1,-1,-1,-1,-1,-1,-1,-1,-1],"loss_changes":[4.824868E0,3.8216019E0,1.9232025E0,4.3067527E0,3.268851E0,1.5562501E0,3.4901311E0,3.134265E0,1.8502027E0,0E0,2.63922E0,0E0,1.1553669E0,5.701908E-1,2.7451136E0,0E0,0E0,0E0,0E0,0E0,0E0,0E0,0E0,0E0,0E0,0E0,0E0],"parents":[2147483647,0,0,1,1,2,2,3,3,4,4,5,5,6,6,7,7,8,8,10,10,12,12,13,13,14,14],"right_children":[2,4,6,8,10,12,14,16,18,-1,20,-1,22,24,26,-1,-1,-1,-1,-1,-1,-1,-1,-1,-1,-1,-1],"split_conditions":[1.86195E3,9.06E-1,8.541667E-1,1.736E0,4.5E-1,-2E0,1.93044E3,2.5E-1,-5E-1,5.8181133E-2,9E0,2.887162E-2,1.76E-1,1.738E0,5.8541665E0,-2.8506974E-3,5.1084172E-2,2.9404983E-2,-2.6826873E-2,-1.618743E-2,3.410117E-3,-1.1698958E-2,-2.9131493E-2,-2.7800594E-2,6.4422647E-3,5.8595087E-2,3.8705864E-3],"split_indices":[5,16,22,6,15,27,5,20,28,0,10,0,25,6,4,0,0,0,0,0,0,0,0,0,0,0,0],"split_type":[0,0,0,0,0,0,0,0,0,0,0,0,0,0,0,0,0,0,0,0,0,0,0,0,0,0,0],"sum_hessian":[2.5483134E2,1.7832652E2,7.650482E1,1.9243612E1,1.5908292E2,6.0928986E1,1.5575834E1,1.3994832E1,5.2487807E0,1.5415045E0,1.5754141E2,1.1391673E0,5.9789818E1,6.294731E0,9.281103E0,3.3737502E0,1.0621081E1,1.1250485E0,4.123732E0,1.858689E1,1.3895453E2,4.773595E1,1.2053865E1,5.1912155E0,1.1035155E0,2.6253142E0,6.6557894E0],"tree_param":{"num_deleted":"0","num_feature":"30","num_nodes":"27","size_leaf_vector":"1"}},{"base_weights":[1.1736928E-2,-2.1062447E-1,2.6701912E-1,-6.939124E-2,-5.496479E-1,-9.022486E-2,4.3977776E-1,-5.723944E-1,6.8082795E-3,-6.13798E-1,-9.604501E-2,6.590055E-1,-2.2244374E-1,5.750532E-1,4.3333042E-3,-3.427681E-2,-7.355572E-3,1.7138636E-2,-5.4440545E-3,-1.5488872E-2,-3.4747977E-2,2.644006E-2,-2.9164923E-2,4.8626762E-2,-2.1867542E-2,2.4543948E-2,-1.5594515E-2,-2.4429746E-2,3.04011E-2,2.3611164E-2,-1.8050082E-2],"categories":[],"categories_nodes":[],"categories_segments":[],"categories_sizes":[],"default_left":[0,1,1,0,0,0,1,0,0,0,0,1,0,0,0,0,0,0,0,0,0,0,0,0,0,0,0,0,0,0,0],"id":8,"left_children":[1,3,5,7,9,11,13,15,17,19,21,23,25,27,29,-1,-1,-1,-1,-1,-1,-1,-1,-1,-1,-1,-1,-1,-1,-1,-1],"loss_changes":[1.768465E1,7.9358687E0,8.989535E0,4.553745E0,1.361948E0,4.9113355E0,5.7652473E0,6.5115976E-1,4.0825615E0,8.357334E-1,2.511401E0,2.9921176E0,2.8093488E0,2.916582E0,4.3099146E0,0E0,0E0,0E0,0E0,0E0,0E0,0E0,0E0,0E0,0E0,0E0,0E0,0E0,0E0,0E0,0E0],"parents":[2147483647,0,0,1,1,2,2,3,3,4,4,5,5,6,6,7,7,8,8,9,9,10,10,11,11,12,12,13,13,14,14],"right_children":[2,4,6,8,10,12,14,16,18,20,22,24,26,28,30,-1,-1,-1,-1,-1,-1,-1,-1,-1,-1,-1,-1,-1,-1,-1,-1],"split_conditions":[1.76E-1,1.85654E3,1.7564E3,1.64648E3,-2E-3,-1.2E0,2E-1,7.8958335E0,1.038E0,9.6E0,-1.8E0,1.71249E3,3.8125E0,-2.6E0,2.5E-1,-3.427681E-2,-7.355572E-3,1.7138636E-2,-5.4440545E-3,-1.5488872E-2,-3.4747977E-2,2.644006E-2,-2.9164923E-2,4.8626762E-2,-2.1867542E-2,2.4543948E-2,-1.5594515E-2,-2.4429746E-2,3.04011E-2,2.3611164E-2,-1.8050082E-2],"split_indices":[25,5,14,14,25,26,27,13,6,19,28,5,13,27,20,0,0,0,0,0,0,0,0,0,0,0,0,0,0,0,0],"split_type":[0,0,0,0,0,0,0,0,0,0,0,0,0,0,0,0,0,0,0,0,0,0,0,0,0,0,0,0,0,0,0],"sum_hessian":[3.095512E2,1.6553676E2,1.4401447E2,1.17706345E2,4.7830414E1,4.7098404E1,9.691606E1,1.4628683E1,1.0307766E2,4.1594772E1,6.2356405E0,6.4672036E0,4.0631203E1,7.3699814E1,2.3216246E1,1.1071327E1,3.5573556E0,2.5900158E1,7.71775E1,9.779357E0,3.1815416E1,2.694713E0,3.5409276E0,5.1168537E0,1.3503499E0,4.0271707E0,3.660403E1,1.8002287E0,7.189958E1,1.0051089E1,1.3165157E1],"tree_param":{"num_deleted":"0","num_feature":"30","num_nodes":"31","size_leaf_vector":"1"}},{"base_weights":[-1.9140862E-2,-2.3411322E-1,2.6722768E-1,-3.8583252E-1,3.7369095E-2,-3.968126E-1,3.1977454E-1,-5.101014E-1,-1.7859186E-1,-2.818831E-1,3.0177698E-1,1.3306655E-2,-6.242797E-1,7.457774E-1,2.1856323E-1,-2.8540676E-2,6.0621736E-4,-1.1198825E-2,3.6243822E-2,2.0989455E-2,-1.8398985E-2,2.3570169E-2,-2.2108426E-2,-3.6393162E-2,-3.8950162E-3,4.032844E-2,-6.1162184E-3,-1.5008877E-2,1.3676994E-2],"categories":[],"categories_nodes":[],"categories_segments":[],"categories_sizes":[],"default_left":[1,1,0,1,1,0,1,0,1,0,0,0,0,1,0,0,0,0,0,0,0,0,0,0,0,0,0,0,0],"id":9,"left_children":[1,3,5,7,9,11,13,15,17,19,21,-1,23,25,27,-1,-1,-1,-1,-1,-1,-1,-1,-1,-1,-1,-1,-1,-1],"loss_changes":[2.0039974E1,7.67132E0,4.9985495E0,2.9823284E0,5.7876706E0,1.777302E0,5.439189E0,2.3552132E0,2.0597644E0,2.0345507E0,4.9324713E0,0E0,4.1042376E-1,1.3931341E0,3.116578E0,0E0,0E0,0E0,0E0,0E0,0E0,0E0,0E0,0E0,0E0,0E0,0E0,0E0,0E0],"parents":[2147483647,0,0,1,1,2,2,3,3,4,4,5,5,6,6,7,7,8,8,9,9,10,10,12,12,13,13,14,14],"right_children":[2,4,6,8,10,12,14,16,18,20,22,-1,24,26,28,-1,-1,-1,-1,-1,-1,-1,-1,-1,-1,-1,-1,-1,-1],"split_conditions":[5.15E0,1.78023E3,-3.3333334E-1,-1.0209E2,2.2E0,-1.0416666E0,9.2E0,7.2E0,1.63125E1,1.78553E3,1.734E0,1.3306655E-2,1.6E1,2.038E0,1.004E0,-2.8540676E-2,6.0621736E-4,-1.1198825E-2,3.6243822E-2,2.0989455E-2,-1.8398985E-2,2.3570169E-2,-2.2108426E-2,-3.6393162E-2,-3.8950162E-3,4.032844E-2,-6.1162184E-3,-1.5008877E-2,1.3676994E-2],"split_indices":[21,5,29,21,9,22,10,17,13,5,7,0,10,7,16,0,0,0,0,0,0,0,0,0,0,0,0,0,0],"split_type":[0,0,0,0,0,0,0,0,0,0,0,0,0,0,0,0,0,0,0,0,0,0,0,0,0,0,0,0,0],"sum_hessian":[3.2351242E2,1.8489622E2,1.386162E2,1.1834006E2,6.655617E1,9.684207E0,1.2893199E2,7.306581E1,4.5274246E1,3.0121128E1,3.643504E1,2.4305272E0,7.2536798E0,2.3528973E1,1.0540302E2,6.537276E1,7.693052E0,4.3824852E1,1.4493952E0,2.868398E0,2.7252731E1,2.9968334E1,6.4667077E0,5.818451E0,1.435229E0,2.2055363E1,1.4736092E0,9.672884E0,9.573014E1],"tree_param":{"num_deleted":"0","num_feature":"30","num_nodes":"29","size_leaf_vector":"1"}},{"base_weights":[1.9658633E-2,8.6989775E-2,-1.9556859E-1,-4.6405457E-3,3.031889E-1,-3.5646033E-1,2.5867786E-2,-5.7845186E-2,3.8797787E-1,9.6849304E-1,1.3908198E-1,4.73428E-1,-4.2579174E-1,-4.36444E-1,3.267441E-1,1.21191135E-2,-7.7535002E-3,3.3415097E-3,4.795579E-2,6.0608577E-2,-5.59406E-3,-7.2436105E-3,1.8708859E-2,-1.7328328E-2,5.319209E-2,1.3371388E-2,-2.3754185E-2,6.067568E-4,-2.9036218E-2,-1.5824756E-2,3.9115105E-2],"categories":[],"categories_nodes":[],"categories_segments":[],"categories_sizes":[],"default_left":[0,0,1,1,0,0,1,0,0,0,0,0,0,1,0,0,0,0,0,0,0,0,0,0,0,0,0,0,0,0,0],"id":10,"left_children":[1,3,5,7,9,11,13,15,17,19,21,23,25,27,29,-1,-1,-1,-1,-1,-1,-1,-1,-1,-1,-1,-1,-1,-1,-1,-1],"loss_changes":[3.7362082E0,3.887856E0,2.1990347E0,2.9212358E0,6.242764E0,2.2537436E0,3.870159E0,3.6302316E0,2.997295E0,3.1341047E0,3.2599902E0,1.9292905E0,1.2698078E0,7.185161E-1,5.1720324E0,0E0,0E0,0E0,0E0,0E0,0E0,0E0,0E0,0E0,0E0,0E0,0E0,0E0,0E0,0E0,0E0],"parents":[2147483647,0,0,1,1,2,2,3,3,4,4,5,5,6,6,7,7,8,8,9,9,10,10,11,11,12,12,13,13,14,14],"right_children":[2,4,6,8,10,12,14,16,18,20,22,24,26,28,30,-1,-1,-1,-1,-1,-1,-1,-1,-1,-1,-1,-1,-1,-1,-1,-1],"split_conditions":[1.744E0,1.402E0,1.83432E3,1.9075E0,-7.78E1,1.65749E3,1.06E1,1.6E0,7.0104165E0,1.79783E3,-7.6E-2,1.59874E3,-1.25E0,-2.1041667E0,-1.6666666E0,1.21191135E-2,-7.7535002E-3,3.3415097E-3,4.795579E-2,6.0608577E-2,-5.59406E-3,-7.2436105E-3,1.8708859E-2,-1.7328328E-2,5.319209E-2,1.3371388E-2,-2.3754185E-2,6.067568E-4,-2.9036218E-2,-1.5824756E-2,3.9115105E-2],"split_indices":[6,6,5,15,21,5,19,18,4,5,25,5,22,22,28,0,0,0,0,0,0,0,0,0,0,0,0,0,0,0,0],"split_type":[0,0,0,0,0,0,0,0,0,0,0,0,0,0,0,0,0,0,0,0,0,0,0,0,0,0,0,0,0,0,0],"sum_hessian":[2.5564682E2,1.9518231E2,6.0464516E1,1.3777045E2,5.7411854E1,3.4666607E1,2.5797909E1,1.220798E2,1.5690651E1,1.0389656E1,4.7022198E1,2.2234704E0,3.244314E1,9.992834E0,1.5805074E1,2.9497955E1,9.258185E1,1.075832E1,4.9323316E0,8.378004E0,2.0116518E0,2.147178E1,2.5550417E1,1.1036626E0,1.1198078E0,1.8599716E0,3.0583166E1,2.6547854E0,7.3380485E0,6.679295E0,9.125779E0],"tree_param":{"num_deleted":"0","num_feature":"30","num_nodes":"31","size_leaf_vector":"1"}},{"base_weights":[1.2695802E-2,4.6569923E-1,-1.2939468E-1,5.837129E-1,-1.8487737E-1,7.392342E-2,-3.1907406E-1,6.5480804E-1,-2.8883694E-2,-2.9313797E-2,1.9560632E-1,-1.0862082E-1,3.600164E-1,-4.9787587E-1,-1.7769103E-1,-2.4290202E-2,3.4930155E-2,3.2702237E-2,-2.6405035E-2,1.486204E-3,-2.8649488E-2,-1.6063726E-2,2.54004E-2,1.1822054E-2,-2.6393497E-2,2.5207473E-2,-1.2928617E-2],"categories":[],"categories_nodes":[],"categories_segments":[],"categories_sizes":[],"default_left":[1,1,0,1,1,0,0,0,0,0,0,0,0,0,0,0,0,0,0,0,0,0,0,0,0,0,0],"id":11,"left_children":[1,3,5,7,9,11,13,15,-1,-1,17,19,21,23,25,-1,-1,-1,-1,-1,-1,-1,-1,-1,-1,-1,-1],"loss_changes":[1.9904558E1,5.7763176E0,9.104453E0,5.558132E0,1.9619946E0,6.016725E0,2.9958315E0,3.3157845E0,0E0,0E0,2.654366E0,4.5553856E0,4.68183E0,1.2991829E0,3.9735305E0,0E0,0E0,0E0,0E0,0E0,0E0,0E0,0E0,0E0,0E0,0E0,0E0],"parents":[2147483647,0,0,1,1,2,2,3,3,4,4,5,5,6,6,7,7,10,10,11,11,12,12,13,13,14,14],"right_children":[2,4,6,8,10,12,14,16,-1,-1,18,20,22,24,26,-1,-1,-1,-1,-1,-1,-1,-1,-1,-1,-1,-1],"split_conditions":[1.70986E3,3.3333334E-1,2E-1,1.2E0,1.67427E3,2.86E-1,1.75529E3,-1.19E0,-2.8883694E-2,-2.9313797E-2,1.458E0,1.87955E3,1.76595E3,-1.96E-1,-3.4E0,-2.4290202E-2,3.4930155E-2,3.2702237E-2,-2.6405035E-2,1.486204E-3,-2.8649488E-2,-1.6063726E-2,2.54004E-2,1.1822054E-2,-2.6393497E-2,2.5207473E-2,-1.2928617E-2],"split_indices":[5,11,27,26,5,25,14,24,0,0,16,5,14,24,28,0,0,0,0,0,0,0,0,0,0,0,0],"split_type":[0,0,0,0,0,0,0,0,0,0,0,0,0,0,0,0,0,0,0,0,0,0,0,0,0,0,0],"sum_hessian":[3.0729703E2,7.2829475E1,2.3446754E2,6.173382E1,1.109565E1,1.1345979E2,1.2100775E2,5.858376E1,3.1500645E0,5.136223E0,5.959427E0,6.964348E1,4.3816322E1,5.2319622E1,6.868813E1,1.7930243E0,5.6790733E1,3.7072775E0,2.2521493E0,5.4378895E1,1.5264581E1,7.6103907E0,3.6205933E1,1.7830861E0,5.0536537E1,6.728952E0,6.195918E1],"tree_param":{"num_deleted":"0","num_feature":"30","num_nodes":"27","size_leaf_vector":"1"}},{"base_weights":[1.2054952E-2,-2.7243057E-1,2.1747665E-1,-3.8664111E-1,1.0473979E-1,9.100527E-2,4.3985796E-1,-4.9348244E-1,-8.111894E-2,4.137261E-1,-2.9402977E-1,5.134394E-1,3.7304062E-2,7.415939E-1,2.4473825E-1,-2.8985647E-2,-9.972941E-3,-2.6184002E-2,6.778983E-3,-2.703925E-2,2.7953202E-2,2.5190597E-2,-2.86106E-2,-2.4738891E-2,3.3641398E-2,4.1880485E-2,5.5876106E-4,4.4439398E-2,-9.936049E-3,-5.761156E-3,2.4569E-2],"categories":[],"categories_nodes":[],"categories_segments":[],"categories_sizes":[],"default_left":[1,1,0,1,1,0,1,1,0,0,0,0,0,1,0,0,0,0,0,0,0,0,0,0,0,0,0,0,0,0,0],"id":12,"left_children":[1,3,5,7,9,11,13,15,17,19,21,23,25,27,29,-1,-1,-1,-1,-1,-1,-1,-1,-1,-1,-1,-1,-1,-1,-1,-1],"loss_changes":[1.9050283E1,5.9293547E0,5.282977E0,3.392146E0,4.13364E0,2.7463925E0,3.842805E0,1.8545036E0,2.7983882E0,2.9050214E0,3.5730376E0,2.5298545E0,2.2749274E0,3.8237667E0,3.874506E0,0E0,0E0,0E0,0E0,0E0,0E0,0E0,0E0,0E0,0E0,0E0,0E0,0E0,0E0,0E0,0E0],"parents":[2147483647,0,0,1,1,2,2,3,3,4,4,5,5,6,6,7,7,8,8,9,9,10,10,11,11,12,12,13,13,14,14],"right_children":[2,4,6,8,10,12,14,16,18,20,22,24,26,28,30,-1,-1,-1,-1,-1,-1,-1,-1,-1,-1,-1,-1,-1,-1,-1,-1],"split_conditions":[-4.863E1,1.79783E3,1.85654E3,-1.1171E2,4.4E0,9.2E0,2E-1,1.54E1,1.376E0,1.25E0,2.25E0,-2.5E0,6.58E-1,1.64E-1,2.5E0,-2.8985647E-2,-9.972941E-3,-2.6184002E-2,6.778983E-3,-2.703925E-2,2.7953202E-2,2.5190597E-2,-2.86106E-2,-2.4738891E-2,3.3641398E-2,4.1880485E-2,5.5876106E-4,4.4439398E-2,-9.936049E-3,-5.761156E-3,2.4569E-2],"split_indices":[21,5,5,21,17,10,20,10,7,9,18,26,6,25,9,0,0,0,0,0,0,0,0,0,0,0,0,0,0,0,0],"split_type":[0,0,0,0,0,0,0,0,0,0,0,0,0,0,0,0,0,0,0,0,0,0,0,0,0,0,0,0,0,0,0],"sum_hessian":[3.239692E2,1.3570589E2,1.8826332E2,1.04144806E2,3.1561085E1,1.2090957E2,6.7353745E1,7.67056E1,2.7439213E1,1.776127E1,1.3799814E1,1.2671297E1,1.0823827E2,2.5350557E1,4.200319E1,5.85597E1,1.8145897E1,8.553621E0,1.8885592E1,1.9874899E0,1.577378E1,3.3579485E0,1.0441865E1,1.4424993E0,1.1228797E1,2.4401937E0,1.0579808E2,2.1966747E1,3.3838098E0,1.729493E1,2.470826E1],"tree_param":{"num_deleted":"0","num_feature":"30","num_nodes":"31","size_leaf_vector":"1"}},{"base_weights":[3.8229665E-3,6.468583E-2,-2.211713E-1,4.0462333E-1,1.4958148E-2,5.204512E-1,-2.865824E-1,7.3527265E-1,-7.927066E-2,-3.253832E-2,3.708505E-1,-1.5248942E-1,5.8971692E-2,-4.0818584E-1,1.6807227E-1,7.279862E-2,1.9828497E-2,3.6102932E-2,-1.841194E-2,3.4800548E-2,-2.7750202E-3,-1.9605627E-2,3.2334816E-2,-1.7736886E-2,6.1782184E-3,2.0360325E-2,-2.2496877E-2,-2.6177231E-2,3.0429417E-2],"categories":[],"categories_nodes":[],"categories_segments":[],"categories_sizes":[],"default_left":[0,0,0,0,1,0,1,0,0,0,0,0,0,0,0,0,0,0,0,0,0,0,0,0,0,0,0,0,0],"id":13,"left_children":[1,3,5,7,9,11,13,15,17,19,21,23,-1,25,27,-1,-1,-1,-1,-1,-1,-1,-1,-1,-1,-1,-1,-1,-1],"loss_changes":[3.5011394E0,3.3948984E0,2.790064E0,4.160116E0,2.996435E0,2.2940512E0,2.8701715E0,3.1640139E0,2.8846765E0,2.6597865E0,4.6455693E0,2.2496712E-1,0E0,1.5542107E0,3.7922707E0,0E0,0E0,0E0,0E0,0E0,0E0,0E0,0E0,0E0,0E0,0E0,0E0,0E0,0E0],"parents":[2147483647,0,0,1,1,2,2,3,3,4,4,5,5,6,6,7,7,8,8,9,9,10,10,11,11,13,13,14,14],"right_children":[2,4,6,8,10,12,14,16,18,20,22,24,-1,26,28,-1,-1,-1,-1,-1,-1,-1,-1,-1,-1,-1,-1,-1,-1],"split_conditions":[1.774E0,9.9E-1,-1.1041666E0,1.80471E3,1.2E0,1.64E0,6E0,3.9166667E0,1.034E0,-2.5E0,1.176E0,5.2083335E0,5.8971692E-2,1.65161E3,1.025E1,7.279862E-2,1.9828497E-2,3.6102932E-2,-1.841194E-2,3.4800548E-2,-2.7750202E-3,-1.9605627E-2,3.2334816E-2,-1.7736886E-2,6.1782184E-3,2.0360325E-2,-2.2496877E-2,-2.6177231E-2,3.0429417E-2],"split_indices":[6,16,22,5,27,21,8,4,7,27,7,4,0,5,19,0,0,0,0,0,0,0,0,0,0,0,0,0,0],"split_type":[0,0,0,0,0,0,0,0,0,0,0,0,0,0,0,0,0,0,0,0,0,0,0,0,0,0,0,0,0],"sum_hessian":[2.5362865E2,2.0018846E2,5.344018E1,2.4636568E1,1.755519E2,3.7675517E0,4.967263E1,1.432718E1,1.0309388E1,1.5568338E2,1.9868525E1,2.2443066E0,1.5232451E0,3.9271225E1,1.0401406E1,3.525936E0,1.0801244E1,2.3351371E0,7.974251E0,3.8612397E0,1.5182214E2,5.163974E0,1.4704552E1,1.1308031E0,1.1135036E0,1.486546E0,3.778468E1,3.9738781E0,6.4275284E0],"tree_param":{"num_deleted":"0","num_feature":"30","num_nodes":"29","size_leaf_vector":"1"}},{"base_weights":[1.5962302E-3,2.742931E-1,-2.800838E-1,5.6416345E-1,3.5914432E-2,-9.028358E-2,-4.5425984E-1,-2.1583448E-1,6.380785E-1,1.3010414E-1,-5.0627756E-1,4.2009693E-2,-1.4420125E-1,-4.973833E-1,4.1687433E-2,-2.204248E-2,1.9908695E-2,4.717637E-2,2.3997618E-2,2.2246793E-2,4.6850668E-4,-5.3954567E-3,-2.9875567E-2,4.2344697E-4,-2.069683E-2,-2.5971403E-2,1.5611611E-2,-1.4073074E-2,4.142694E-2],"categories":[],"categories_nodes":[],"categories_segments":[],"categories_sizes":[],"default_left":[1,1,0,0,0,0,1,0,0,0,0,0,1,1,0,0,0,0,0,0,0,0,0,0,0,0,0,0,0],"id":14,"left_children":[1,3,5,7,9,11,13,15,17,19,21,-1,23,25,27,-1,-1,-1,-1,-1,-1,-1,-1,-1,-1,-1,-1,-1,-1],"loss_changes":[2.3717903E1,1.0820354E1,4.980196E0,4.2154713E0,4.5168834E0,3.8302639E0,1.7093601E0,1.1246367E0,2.679802E0,2.848649E0,4.11798E-1,0E0,2.9164555E0,1.4600239E0,2.0738156E0,0E0,0E0,0E0,0E0,0E0,0E0,0E0,0E0,0E0,0E0,0E0,0E0,0E0,0E0],"parents":[2147483647,0,0,1,1,2,2,3,3,4,4,5,5,6,6,7,7,8,8,9,9,10,10,12,12,13,13,14,14],"right_children":[2,4,6,8,10,12,14,16,18,20,22,-1,24,26,28,-1,-1,-1,-1,-1,-1,-1,-1,-1,-1,-1,-1,-1,-1],"split_conditions":[-2.102E1,1.068E0,8.414E1,-1.04E0,8.1E-1,-8.84E-1,1.4E1,3.5E0,2E-1,1.362E0,1.398E0,4.2009693E-2,4.6E0,2.18E1,1.45E0,-2.204248E-2,1.9908695E-2,4.717637E-2,2.3997618E-2,2.2246793E-2,4.6850668E-4,-5.3954567E-3,-2.9875567E-2,4.2344697E-4,-2.069683E-2,-2.5971403E-2,1.5611611E-2,-1.4073074E-2,4.142694E-2],"split_indices":[21,6,21,24,24,24,4,8,11,15,6,0,17,19,7,0,0,0,0,0,0,0,0,0,0,0,0,0,0],"split_type":[0,0,0,0,0,0,0,0,0,0,0,0,0,0,0,0,0,0,0,0,0,0,0,0,0,0,0,0,0],"sum_hessian":[3.0677338E2,1.558855E2,1.5088788E2,6.972847E1,8.6157036E1,7.293199E1,7.795589E1,5.8695273E0,6.385894E1,7.4052635E1,1.2104399E1,3.1959188E0,6.973608E1,7.171707E1,6.238812E0,4.5017786E0,1.3677487E0,2.008816E1,4.3770782E1,1.9782248E1,5.4270386E1,2.662311E0,9.442088E0,4.514986E1,2.4586216E1,7.016499E1,1.5520791E0,4.877844E0,1.3609685E0],"tree_param":{"num_deleted":"0","num_feature":"30","num_nodes":"29","size_leaf_vector":"1"}},{"base_weights":[-3.0068155E-2,-1.6534397E-1,3.860922E-1,-5.140183E-1,-1.0945075E-1,2.4507807E-1,6.9561553E-1,2.3237407E-2,-5.867019E-1,-3.6227468E-1,-3.5811137E-2,3.64597E-1,-8.3283626E-2,8.42365E-2,8.421769E-1,-3.1956512E-2,1.5747314E-2,-2.475047E-2,-5.195191E-5,-5.1309727E-3,1.530266E-2,2.8807253E-2,2.5135467E-3,3.0602816E-2,-1.4206882E-2,3.826589E-2,-3.1427868E-2,8.835967E-3,4.855438E-2],"categories":[],"categories_nodes":[],"categories_segments":[],"categories_sizes":[],"default_left":[1,0,1,0,1,1,0,0,1,0,0,0,0,0,0,0,0,0,0,0,0,0,0,0,0,0,0,0,0],"id":15,"left_children":[1,3,5,7,9,11,13,-1,15,17,19,21,23,25,27,-1,-1,-1,-1,-1,-1,-1,-1,-1,-1,-1,-1,-1,-1],"loss_changes":[1.8698503E1,4.825775E0,3.386836E0,2.7155218E0,4.030258E0,2.2884035E0,2.1660624E0,0E0,1.733221E0,2.343051E0,3.8979504E0,2.7883306E0,2.4319432E0,3.364075E0,1.5463696E0,0E0,0E0,0E0,0E0,0E0,0E0,0E0,0E0,0E0,0E0,0E0,0E0,0E0,0E0],"parents":[2147483647,0,0,1,1,2,2,3,3,4,4,5,5,6,6,8,8,9,9,10,10,11,11,12,12,13,13,14,14],"right_children":[2,4,6,8,10,12,14,-1,16,18,20,22,24,26,28,-1,-1,-1,-1,-1,-1,-1,-1,-1,-1,-1,-1,-1,-1],"split_conditions":[1.85732E3,1.004E0,1.604E0,-4.2083335E0,1.66903E3,8.541667E-1,3.125E0,2.3237407E-2,4.2E0,1.774E0,6.44E-1,8.104167E0,1.032E0,3E0,2.6666667E0,-3.1956512E-2,1.5747314E-2,-2.475047E-2,-5.195191E-5,-5.1309727E-3,1.530266E-2,2.8807253E-2,2.5135467E-3,3.0602816E-2,-1.4206882E-2,3.826589E-2,-3.1427868E-2,8.835967E-3,4.855438E-2],"split_indices":[5,16,16,22,5,22,4,0,9,16,24,13,16,17,17,0,0,0,0,0,0,0,0,0,0,0,0,0,0],"split_type":[0,0,0,0,0,0,0,0,0,0,0,0,0,0,0,0,0,0,0,0,0,0,0,0,0,0,0,0,0],"sum_hessian":[3.3000974E2,2.4950809E2,8.050165E1,3.333852E1,2.1616956E2,5.653634E1,2.3965305E1,1.9317136E0,3.1406809E1,4.787673E1,1.6829283E2,4.1368465E1,1.5167876E1,4.938628E0,1.9026676E1,2.99561E1,1.4507082E0,3.474097E1,1.3135763E1,1.4136635E2,2.6926477E1,2.4228928E1,1.7139536E1,2.940576E0,1.22273E1,2.4878123E0,2.4508162E0,3.472409E0,1.5554267E1],"tree_param":{"num_deleted":"0","num_feature":"30","num_nodes":"29","size_leaf_vector":"1"}},{"base_weights":[4.0467795E-2,1.1210037E-1,-2.2643138E-1,1.9372166E-3,3.1226194E-1,-1.894258E-2,-4.767437E-1,-4.932711E-2,4.5299897E-1,9.330473E-3,5.91677E-1,4.537989E-2,-1.16409585E-1,-5.5571073E-1,3.11798E-2,-5.8278744E-3,2.2297664E-2,3.6840033E-2,-2.4220603E-2,-7.6219626E-3,2.5889903E-2,3.8780298E-2,-1.9900784E-2,-2.4214763E-2,7.62323E-3,-1.2385257E-2,-3.0923223E-2],"categories":[],"categories_nodes":[],"categories_segments":[],"categories_sizes":[],"default_left":[0,0,0,1,1,0,1,1,0,0,1,0,0,1,0,0,0,0,0,0,0,0,0,0,0,0,0],"id":16,"left_children":[1,3,5,7,9,11,13,15,17,19,21,-1,23,25,-1,-1,-1,-1,-1,-1,-1,-1,-1,-1,-1,-1,-1],"loss_changes":[4.742394E0,4.303321E0,2.71959E0,2.9567547E0,5.8588696E0,2.7938378E0,2.4119253E0,3.8763485E0,3.8284743E0,2.8968768E0,6.8663616E0,0E0,2.8256686E0,2.8569746E-1,0E0,0E0,0E0,0E0,0E0,0E0,0E0,0E0,0E0,0E0,0E0,0E0,0E0],"parents":[2147483647,0,0,1,1,2,2,3,3,4,4,5,5,6,6,7,7,8,8,9,9,10,10,12,12,13,13],"right_children":[2,4,6,8,10,12,14,16,18,20,22,-1,24,26,-1,-1,-1,-1,-1,-1,-1,-1,-1,-1,-1,-1,-1],"split_conditions":[1.774E0,1.366E0,1.81301E3,4E0,-1.28E-1,-1.1041666E0,2.05597E3,1.9075E0,1.638E0,1.65E1,1.87237E3,4.537989E-2,1.212E0,6.66E-1,3.11798E-2,-5.8278744E-3,2.2297664E-2,3.6840033E-2,-2.4220603E-2,-7.6219626E-3,2.5889903E-2,3.8780298E-2,-1.9900784E-2,-2.4214763E-2,7.62323E-3,-1.2385257E-2,-3.0923223E-2],"split_indices":[6,6,14,28,25,22,5,15,15,10,5,0,15,16,0,0,0,0,0,0,0,0,0,0,0,0,0],"split_type":[0,0,0,0,0,0,0,0,0,0,0,0,0,0,0,0,0,0,0,0,0,0,0,0,0,0,0],"sum_hessian":[2.4572272E2,1.941856E2,5.153712E1,1.2590229E2,6.828331E1,2.8767145E1,2.2769976E1,1.1385322E2,1.2049068E1,3.3258774E1,3.5024536E1,1.9469751E0,2.682017E1,2.1707108E1,1.0628686E0,1.0091894E2,1.2934282E1,9.413217E0,2.635852E0,2.5762571E1,7.4962015E0,2.9717937E1,5.3066006E0,1.0986608E1,1.5833563E1,4.5114484E0,1.719566E1],"tree_param":{"num_deleted":"0","num_feature":"30","num_nodes":"27","size_leaf_vector":"1"}},{"base_weights":[-3.4344306E-3,2.5459293E-1,-3.3360246E-1,5.186379E-1,5.331113E-2,-3.2834247E-2,-2.5698903E-1,7.021759E-1,1.3974904E-1,-2.9695237E-1,1.6131246E-1,-1.7040904E-1,-5.231342E-1,-1.6621364E-3,3.9706115E-2,2.3240443E-2,-1.7245727E-2,1.7488742E-3,-2.559395E-2,3.8498934E-2,4.632489E-3,6.459527E-4,-1.6644085E-2,-2.7990264E-3,-3.257459E-2],"categories":[],"categories_nodes":[],"categories_segments":[],"categories_sizes":[],"default_left":[1,1,1,1,1,0,0,0,0,0,0,0,0,0,0,0,0,0,0,0,0,0,0,0,0],"id":17,"left_children":[1,3,5,7,9,-1,11,13,15,17,19,21,23,-1,-1,-1,-1,-1,-1,-1,-1,-1,-1,-1,-1],"loss_changes":[2.5930069E1,9.05302E0,3.1360798E0,5.033392E0,3.7576423E0,0E0,2.4355774E0,3.3710232E0,4.150787E0,1.6918194E0,3.0882912E0,2.5109367E0,1.5472097E0,0E0,0E0,0E0,0E0,0E0,0E0,0E0,0E0,0E0,0E0,0E0,0E0],"parents":[2147483647,0,0,1,1,2,2,3,3,4,4,6,6,7,7,8,8,9,9,10,10,11,11,12,12],"right_children":[2,4,6,8,10,-1,12,14,16,18,20,22,24,-1,-1,-1,-1,-1,-1,-1,-1,-1,-1,-1,-1],"split_conditions":[-1.2E0,1.068E0,8.58E-1,-1.2063E2,3.125E0,-3.2834247E-2,1.80607E3,-1.024E0,1.426E0,1.398E0,7.32E-1,9.683E1,-8E-1,-1.6621364E-3,3.9706115E-2,2.3240443E-2,-1.7245727E-2,1.7488742E-3,-2.559395E-2,3.8498934E-2,4.632489E-3,6.459527E-4,-1.6644085E-2,-2.7990264E-3,-3.257459E-2],"split_indices":[21,6,15,21,13,0,14,24,15,6,16,21,27,0,0,0,0,0,0,0,0,0,0,0,0],"split_type":[0,0,0,0,0,0,0,0,0,0,0,0,0,0,0,0,0,0,0,0,0,0,0,0,0],"sum_hessian":[3.0237378E2,1.6985806E2,1.3251572E2,7.279182E1,9.7066246E1,2.3949228E1,1.0856649E2,4.8462696E1,2.4329119E1,2.246372E1,7.460252E1,8.3155396E1,2.54111E1,5.456686E0,4.300601E1,1.4586823E1,9.742295E0,9.157797E0,1.33059225E1,6.5272484E0,6.807528E1,3.950261E1,4.3652782E1,5.786701E0,1.96244E1],"tree_param":{"num_deleted":"0","num_feature":"30","num_nodes":"25","size_leaf_vector":"1"}},{"base_weights":[-2.7103054E-3,-1.7903964E-1,3.0905455E-1,-3.14103E-1,2.3952482E-2,6.426316E-1,2.028177E-1,-4.813624E-1,-1.3895315E-1,-2.0645566E-1,2.2753464E-1,-1.09341135E-2,7.1381235E-1,1.5027629E-1,4.3612435E-2,-2.991647E-2,-1.049002E-2,-9.405087E-3,3.308356E-2,-1.3036764E-2,3.4715064E-2,2.5667084E-2,1.3675251E-3,4.12611E-2,-1.1685818E-3,2.3120578E-2,2.0144698E-3],"categories":[],"categories_nodes":[],"categories_segments":[],"categories_sizes":[],"default_left":[1,1,1,1,1,0,0,0,1,0,0,0,1,0,0,0,0,0,0,0,0,0,0,0,0,0,0],"id":18,"left_children":[1,3,5,7,9,11,13,15,17,19,21,-1,23,25,-1,-1,-1,-1,-1,-1,-1,-1,-1,-1,-1,-1,-1],"loss_changes":[1.8178911E1,5.7982955E0,4.103362E0,3.6506386E0,4.048842E0,1.8970356E0,3.1073244E0,1.9233971E0,2.6189284E0,2.1633844E0,2.6046433E0,0E0,2.1926804E0,2.9536872E0,0E0,0E0,0E0,0E0,0E0,0E0,0E0,0E0,0E0,0E0,0E0,0E0,0E0],"parents":[2147483647,0,0,1,1,2,2,3,3,4,4,5,5,6,6,7,7,8,8,9,9,10,10,12,12,13,13],"right_children":[2,4,6,8,10,12,14,16,18,20,22,-1,24,26,-1,-1,-1,-1,-1,-1,-1,-1,-1,-1,-1,-1,-1],"split_conditions":[4.108E1,1.78023E3,-1E0,-1.3036E2,2.2E0,-1.2E0,2.9385E2,1.56E1,1.4104167E1,1.93503E3,1.81839E3,-1.09341135E-2,1.84E1,0E0,4.3612435E-2,-2.991647E-2,-1.049002E-2,-9.405087E-3,3.308356E-2,-1.3036764E-2,3.4715064E-2,2.5667084E-2,1.3675251E-3,4.12611E-2,-1.1685818E-3,2.3120578E-2,2.0144698E-3],"split_indices":[21,5,22,21,9,26,21,19,13,5,5,0,10,27,0,0,0,0,0,0,0,0,0,0,0,0,0],"split_type":[0,0,0,0,0,0,0,0,0,0,0,0,0,0,0,0,0,0,0,0,0,0,0,0,0,0,0],"sum_hessian":[3.2867972E2,2.1021252E2,1.184672E2,1.258976E2,8.4314926E1,2.7396109E1,9.107109E1,6.3505096E1,6.23925E1,3.9544987E1,4.4769936E1,1.933068E0,2.546304E1,8.557878E1,5.4923086E0,4.354579E1,1.9959307E1,5.9504692E1,2.8878071E0,3.7967594E1,1.5773902E0,1.779677E1,2.6973167E1,2.201632E1,3.4467208E0,2.1463264E1,6.411552E1],"tree_param":{"num_deleted":"0","num_feature":"30","num_nodes":"27","size_leaf_vector":"1"}},{"base_weights":[4.4492667E-4,-7.5125374E-2,2.1333185E-1,1.5546782E-1,-1.4925246E-1,-1.9147961E-1,3.8790408E-1,4.6427545E-1,-7.807522E-2,-2.339664E-1,1.862847E-1,-3.3851963E-1,5.0111866E-1,1.201655E-1,6.695145E-1,3.166945E-2,-2.3871623E-2,2.5809994E-2,-1.1207965E-2,-1.2690574E-2,3.102198E-2,3.298032E-2,-2.233989E-3,1.9555034E-3,-2.599234E-2,4.6601374E-2,-1.7053014E-2,1.8236471E-2,-2.840407E-2,-2.4139754E-2,4.234903E-2],"categories":[],"categories_nodes":[],"categories_segments":[],"categories_sizes":[],"default_left":[1,0,0,0,1,0,1,0,0,1,0,0,0,1,0,0,0,0,0,0,0,0,0,0,0,0,0,0,0,0,0],"id":19,"left_children":[1,3,5,7,9,11,13,15,17,19,21,23,25,27,29,-1,-1,-1,-1,-1,-1,-1,-1,-1,-1,-1,-1,-1,-1,-1,-1],"loss_changes":[4.043513E0,3.1939383E0,4.7274876E0,3.3259432E0,4.0481243E0,2.2582836E0,3.4132004E0,3.4534345E0,2.4447799E0,2.072237E0,3.1949263E0,1.2196178E0,1.7675991E0,4.4104667E0,4.9823294E0,0E0,0E0,0E0,0E0,0E0,0E0,0E0,0E0,0E0,0E0,0E0,0E0,0E0,0E0,0E0,0E0],"parents":[2147483647,0,0,1,1,2,2,3,3,4,4,5,5,6,6,7,7,8,8,9,9,10,10,11,11,12,12,13,13,14,14],"right_children":[2,4,6,8,10,12,14,16,18,20,22,24,26,28,30,-1,-1,-1,-1,-1,-1,-1,-1,-1,-1,-1,-1,-1,-1,-1,-1],"split_conditions":[1.62E1,1.122E0,-3.48E-1,1.266E0,1E0,1.654E0,1.272E0,1.0625E0,1.5E0,2.544E0,1.054E0,1.72754E3,-4.64E-1,6.8958335E0,2.8125E0,3.166945E-2,-2.3871623E-2,2.5809994E-2,-1.1207965E-2,-1.2690574E-2,3.102198E-2,3.298032E-2,-2.233989E-3,1.9555034E-3,-2.599234E-2,4.6601374E-2,-1.7053014E-2,1.8236471E-2,-2.840407E-2,-2.4139754E-2,4.234903E-2],"split_indices":[10,16,24,7,22,16,15,22,9,7,15,5,24,13,4,0,0,0,0,0,0,0,0,0,0,0,0,0,0,0,0],"split_type":[0,0,0,0,0,0,0,0,0,0,0,0,0,0,0,0,0,0,0,0,0,0,0,0,0,0,0,0,0,0,0],"sum_hessian":[2.4934213E2,1.8449681E2,6.4845314E1,4.461426E1,1.3988255E2,1.950915E1,4.5336163E1,1.8786034E1,2.5828226E1,1.1192682E2,2.795574E1,1.651435E1,2.9947984E0,2.397185E1,2.1364313E1,1.6203573E1,2.5824604E0,4.5963864E0,2.123184E1,1.1007311E2,1.8537061E0,8.559222E0,1.9396517E1,5.6117344E0,1.0902617E1,1.9105576E0,1.0842408E0,1.803374E1,5.938109E0,2.621579E0,1.8742733E1],"tree_param":{"num_deleted":"0","num_feature":"30","num_nodes":"31","size_leaf_vector":"1"}},{"base_weights":[-1.1898549E-2,2.1974722E-1,-3.146229E-1,3.5334182E-1,-1.2595446E-1,-3.2415263E-2,-2.3733972E-1,-1.468797E-1,4.17282E-1,-4.4971287E-1,2.0754915E-1,-2.9510796E-2,-3.9097294E-1,2.2954984E-2,-2.5052343E-2,-8.154898E-3,2.3299526E-2,3.7992336E-2,-2.7560944E-2,-1.9014841E-2,2.0622639E-2,3.7008529E-3,-2.664609E-2,1.517153E-2,-2.2377955E-2],"categories":[],"categories_nodes":[],"categories_segments":[],"categories_sizes":[],"default_left":[1,1,1,0,1,0,0,0,0,0,0,0,0,0,0,0,0,0,0,0,0,0,0,0,0],"id":20,"left_children":[1,3,5,7,9,-1,11,13,15,17,19,21,23,-1,-1,-1,-1,-1,-1,-1,-1,-1,-1,-1,-1],"loss_changes":[2.1996944E1,8.252934E0,3.3523521E0,4.169878E0,5.5219812E0,0E0,3.5636773E0,3.5133605E0,3.3031883E0,3.5898223E0,3.222353E0,2.5761688E0,2.6623354E0,0E0,0E0,0E0,0E0,0E0,0E0,0E0,0E0,0E0,0E0,0E0,0E0],"parents":[2147483647,0,0,1,1,2,2,3,3,4,4,6,6,7,7,8,8,9,9,10,10,11,11,12,12],"right_children":[2,4,6,8,10,-1,12,14,16,18,20,22,24,-1,-1,-1,-1,-1,-1,-1,-1,-1,-1,-1,-1],"split_conditions":[-1.2E0,1.402E0,8.36E-1,-3.92E-1,0E0,-3.2415263E-2,1.82923E3,-1.4258E2,-1.04E0,4E0,1.492E0,5.34E-1,2.8020833E0,2.2954984E-2,-2.5052343E-2,-8.154898E-3,2.3299526E-2,3.7992336E-2,-2.7560944E-2,-1.9014841E-2,2.0622639E-2,3.7008529E-3,-2.664609E-2,1.517153E-2,-2.2377955E-2],"split_indices":[21,6,15,25,29,0,5,21,24,3,6,24,4,0,0,0,0,0,0,0,0,0,0,0,0],"split_type":[0,0,0,0,0,0,0,0,0,0,0,0,0,0,0,0,0,0,0,0,0,0,0,0,0],"sum_hessian":[3.1169678E2,1.7673366E2,1.3496312E2,1.2745662E2,4.9277042E1,2.3990725E1,1.10972404E2,1.4298487E1,1.13158134E2,2.4827028E1,2.4450014E1,4.7673573E1,6.329883E1,5.1649637E0,9.133523E0,8.579674E0,1.0457846E2,1.4200299E0,2.3407E1,6.098398E0,1.8351616E1,4.0249184E1,7.4243865E0,4.440795E0,5.8858036E1],"tree_param":{"num_deleted":"0","num_feature":"30","num_nodes":"25","size_leaf_vector":"1"}},{"base_weights":[-1.0437144E-2,-1.4533135E-1,3.9586157E-1,-4.0152866E-1,2.2220698E-3,7.271884E-1,2.4993911E-1,-4.5170605E-1,1.5597244E-1,3.9747486E-1,-6.0125567E-2,8.1248593E-1,-1.7212619E-3,3.1480068E-1,-5.361097E-1,-2.5718434E-2,-7.3957145E-3,-1.5003069E-2,4.1969024E-2,2.9084025E-2,-1.42613E-2,-1.6831031E-2,3.4938492E-3,4.222161E-2,1.1148808E-2,1.9306753E-2,-1.8048672E-2,-3.176655E-2,-8.219226E-3],"categories":[],"categories_nodes":[],"categories_segments":[],"categories_sizes":[],"default_left":[1,1,0,1,1,0,1,0,0,1,0,0,0,1,0,0,0,0,0,0,0,0,0,0,0,0,0,0,0],"id":21,"left_children":[1,3,5,7,9,11,13,15,17,19,21,23,-1,25,27,-1,-1,-1,-1,-1,-1,-1,-1,-1,-1,-1,-1,-1,-1],"loss_changes":[1.803508E1,9.337669E0,3.784092E0,2.5956173E0,3.9105568E0,1.6232615E0,3.1498427E0,1.5052967E0,2.806518E0,2.8848267E0,4.9515085E0,2.283678E-1,0E0,2.7735214E0,7.359314E-2,0E0,0E0,0E0,0E0,0E0,0E0,0E0,0E0,0E0,0E0,0E0,0E0,0E0,0E0],"parents":[2147483647,0,0,1,1,2,2,3,3,4,4,5,5,6,6,7,7,8,8,9,9,10,10,11,11,13,13,14,14],"right_children":[2,4,6,8,10,12,14,16,18,20,22,24,-1,26,28,-1,-1,-1,-1,-1,-1,-1,-1,-1,-1,-1,-1,-1,-1],"split_conditions":[1.85654E3,-1.1171E2,2E-1,1.746E0,-5.74E-1,1.22E-1,8E-1,1.774E0,1.26E1,1.484E0,1.346E0,8E-1,-1.7212619E-3,1.794E0,1.91E0,-2.5718434E-2,-7.3957145E-3,-1.5003069E-2,4.1969024E-2,2.9084025E-2,-1.42613E-2,-1.6831031E-2,3.4938492E-3,4.222161E-2,1.1148808E-2,1.9306753E-2,-1.8048672E-2,-3.176655E-2,-8.219226E-3],"split_indices":[5,21,20,6,24,25,11,16,10,16,16,11,0,7,6,0,0,0,0,0,0,0,0,0,0,0,0,0,0],"split_type":[0,0,0,0,0,0,0,0,0,0,0,0,0,0,0,0,0,0,0,0,0,0,0,0,0,0,0,0,0],"sum_hessian":[3.270135E2,2.4598645E2,8.102704E1,8.9268364E1,1.5671808E2,2.3556658E1,5.747038E1,8.207137E1,7.1969967E0,2.0620338E1,1.3609775E2,2.1124058E1,2.4326005E0,5.364345E1,3.8269258E0,6.746278E1,1.4608586E1,4.653008E0,2.5439887E0,1.6355331E1,4.265007E0,4.301732E1,9.308042E1,1.9627962E1,1.4960957E0,4.8909225E1,4.734227E0,2.4609141E0,1.3660117E0],"tree_param":{"num_deleted":"0","num_feature":"30","num_nodes":"29","size_leaf_vector":"1"}},{"base_weights":[1.3685705E-2,-2.490965E-1,6.8798974E-2,8.092819E-1,-3.586905E-1,8.933708E-1,5.1834416E-2,-1.1791658E-3,6.2939264E-2,3.2926444E-2,-4.0503517E-1,5.825713E-2,4.8349495E-3,-4.139806E-1,8.088312E-2,-6.009438E-3,-2.5790919E-2,1.2669942E-2,-2.786964E-2,3.0779172E-2,2.5290425E-3],"categories":[],"categories_nodes":[],"categories_segments":[],"categories_sizes":[],"default_left":[1,0,0,0,0,0,0,0,0,0,1,0,0,0,0,0,0,0,0,0,0],"id":22,"left_children":[1,3,5,7,9,11,13,-1,-1,-1,15,-1,-1,17,19,-1,-1,-1,-1,-1,-1],"loss_changes":[3.7194905E0,5.456121E0,2.9206805E0,1.7091572E0,2.2019415E0,7.9975533E-1,2.8600125E0,0E0,0E0,0E0,1.1964836E0,0E0,0E0,1.330467E0,3.1682773E0,0E0,0E0,0E0,0E0,0E0,0E0],"parents":[2147483647,0,0,1,1,2,2,3,3,4,4,5,5,6,6,10,10,13,13,14,14],"right_children":[2,4,6,8,10,12,14,-1,-1,-1,16,-1,-1,18,20,-1,-1,-1,-1,-1,-1],"split_conditions":[9.2E0,-3.3333334E-1,-2.5E0,5.2E0,7.82E-1,1.102E0,7.3E-1,-1.1791658E-3,6.2939264E-2,3.2926444E-2,9E0,5.825713E-2,4.8349495E-3,1.086E0,8.3E-1,-6.009438E-3,-2.5790919E-2,1.2669942E-2,-2.786964E-2,3.0779172E-2,2.5290425E-3],"split_indices":[10,29,27,17,16,16,6,0,0,0,19,0,0,16,6,0,0,0,0,0,0],"split_type":[0,0,0,0,0,0,0,0,0,0,0,0,0,0,0,0,0,0,0,0,0],"sum_hessian":[2.5463818E2,4.3536198E1,2.1110199E2,3.4860568E0,4.005014E1,3.214176E0,2.078878E2,1.5540886E0,1.9319683E0,1.1695828E0,3.8880558E1,2.051744E0,1.162432E0,1.1425247E1,1.9646255E2,1.1471046E1,2.7409512E1,1.885235E0,9.540012E0,9.500809E0,1.8696175E2],"tree_param":{"num_deleted":"0","num_feature":"30","num_nodes":"21","size_leaf_vector":"1"}},{"base_weights":[1.6959201E-3,6.160879E-1,-9.696057E-2,-2.0747001E-1,6.940617E-1,-2.432679E-1,1.2643954E-1,1.6661327E-2,-2.6076356E-2,-7.662891E-2,7.6035756E-1,-1.283653E-1,-4.6821713E-1,-3.148761E-2,1.6942461E-1,1.3352188E-2,-2.1782821E-2,3.987671E-2,-1.1057093E-2,-1.0086987E-2,1.2806766E-2,-3.0671585E-2,-4.4011916E-3,-2.187413E-3,1.8726839E-2],"categories":[],"categories_nodes":[],"categories_segments":[],"categories_sizes":[],"default_left":[1,1,1,1,0,0,0,0,0,1,1,1,0,0,0,0,0,0,0,0,0,0,0,0,0],"id":23,"left_children":[1,3,5,7,9,11,13,-1,-1,15,17,19,21,-1,23,-1,-1,-1,-1,-1,-1,-1,-1,-1,-1],"loss_changes":[1.8716099E1,2.8873997E0,8.727255E0,9.3196434E-1,2.0640297E0,4.1043434E0,3.550653E0,0E0,0E0,6.1209744E-1,1.4986801E0,3.099247E0,2.9325953E0,0E0,4.434336E0,0E0,0E0,0E0,0E0,0E0,0E0,0E0,0E0,0E0,0E0],"parents":[2147483647,0,0,1,1,2,2,3,3,4,4,5,5,6,6,9,9,10,10,11,11,12,12,14,14],"right_children":[2,4,6,8,10,12,14,-1,-1,16,18,20,22,-1,24,-1,-1,-1,-1,-1,-1,-1,-1,-1,-1],"split_conditions":[1.63362E3,6.88E-1,1.22E-1,1.688E0,8.3E-1,1.85413E3,1.106E0,1.6661327E-2,-2.6076356E-2,8.0625E0,4E-1,1.88065E3,-2E-3,-3.148761E-2,1.81747E3,1.3352188E-2,-2.1782821E-2,3.987671E-2,-1.1057093E-2,-1.0086987E-2,1.2806766E-2,-3.0671585E-2,-4.4011916E-3,-2.187413E-3,1.8726839E-2],"split_indices":[5,15,25,7,16,5,7,0,0,4,11,14,25,0,14,0,0,0,0,0,0,0,0,0,0],"split_type":[0,0,0,0,0,0,0,0,0,0,0,0,0,0,0,0,0,0,0,0,0,0,0,0,0],"sum_hessian":[3.067909E2,4.172154E1,2.6506934E2,3.46487E0,3.8256668E1,1.6011757E2,1.0495178E2,1.2506499E0,2.21422E0,3.0178812E0,3.523879E1,1.0702205E2,5.309552E1,4.910794E0,1.0004099E2,1.672813E0,1.3450681E0,3.413334E1,1.1054465E0,9.027092E1,1.6751127E1,3.7976826E1,1.5118695E1,4.9442333E1,5.059866E1],"tree_param":{"num_deleted":"0","num_feature":"30","num_nodes":"25","size_leaf_vector":"1"}},{"base_weights":[5.209252E-4,-1.1096539E-1,3.3447224E-1,-3.389794E-1,1.2349391E-2,6.5655446E-1,1.7738761E-1,-4.0578452E-1,1.3075088E-1,4.248577E-1,-4.2790852E-2,7.928224E-1,-2.1102943E-1,-3.4217715E-1,2.495207E-1,-2.421963E-2,-7.954131E-3,2.8883288E-2,-3.0973751E-2,4.2192817E-2,7.305724E-3,-1.2524593E-2,3.5261672E-3,4.3459166E-2,-9.358456E-3,-2.8121663E-2,1.474827E-2,2.0193273E-2,-3.4687065E-2,2.3497878E-2,-2.4988737E-3],"categories":[],"categories_nodes":[],"categories_segments":[],"categories_sizes":[],"default_left":[1,1,0,1,1,0,0,1,1,0,0,0,0,0,0,0,0,0,0,0,0,0,0,0,0,0,0,0,0,0,0],"id":24,"left_children":[1,3,5,7,9,11,13,15,17,19,21,23,25,27,29,-1,-1,-1,-1,-1,-1,-1,-1,-1,-1,-1,-1,-1,-1,-1,-1],"loss_changes":[1.2219637E1,6.9230185E0,4.0396433E0,2.7644491E0,3.6726232E0,3.3072882E0,2.2061133E0,1.3946476E0,4.2185645E0,2.0998998E0,3.374508E0,1.8961515E0,9.473874E-1,2.2000995E0,3.3420894E0,0E0,0E0,0E0,0E0,0E0,0E0,0E0,0E0,0E0,0E0,0E0,0E0,0E0,0E0,0E0,0E0],"parents":[2147483647,0,0,1,1,2,2,3,3,4,4,5,5,6,6,7,7,8,8,9,9,10,10,11,11,12,12,13,13,14,14],"right_children":[2,4,6,8,10,12,14,16,18,20,22,24,26,28,30,-1,-1,-1,-1,-1,-1,-1,-1,-1,-1,-1,-1,-1,-1,-1,-1],"split_conditions":[1.85654E3,-1.1171E2,2E-1,1.80301E3,9.2E0,1.22E-1,-1.15E0,1.54E1,1.9915E3,-2.0833334E-2,1.346E0,1.296E0,2.74E-1,2.5E-1,4.28E-1,-2.421963E-2,-7.954131E-3,2.8883288E-2,-3.0973751E-2,4.2192817E-2,7.305724E-3,-1.2524593E-2,3.5261672E-3,4.3459166E-2,-9.358456E-3,-2.8121663E-2,1.474827E-2,2.0193273E-2,-3.4687065E-2,2.3497878E-2,-2.4988737E-3],"split_indices":[5,21,20,5,10,25,27,10,14,22,16,24,25,11,24,0,0,0,0,0,0,0,0,0,0,0,0,0,0,0,0],"split_type":[0,0,0,0,0,0,0,0,0,0,0,0,0,0,0,0,0,0,0,0,0,0,0,0,0,0,0,0,0,0,0],"sum_hessian":[3.2621448E2,2.4506853E2,8.1145966E1,8.540407E1,1.5966446E2,2.5559603E1,5.558636E1,7.488941E1,1.0514654E1,1.8035381E1,1.4162907E2,2.2164486E1,3.3951166E0,6.3200703E0,4.9266293E1,5.606244E1,1.8826973E1,6.733482E0,3.7811718E0,6.3950973E0,1.1640284E1,4.9565903E1,9.206318E1,2.0667171E1,1.4973141E0,1.9378068E0,1.4573096E0,1.9766719E0,4.3433986E0,2.8051016E1,2.1215275E1],"tree_param":{"num_deleted":"0","num_feature":"30","num_nodes":"31","size_leaf_vector":"1"}},{"base_weights":[-1.1966171E-3,-3.1078318E-1,6.1048172E-2,5.69521E-1,-3.8561803E-1,3.9957523E-2,7.8647226E-1,-1.7863503E-2,5.5561315E-2,2.714929E-2,-4.2455855E-1,2.1030115E-2,9.893357E-1,6.2431943E-2,-1.9647425E-2,-2.3287522E-2,9.536836E-3,-2.6873383E-4,2.887686E-2,6.7533352E-3,6.304066E-2],"categories":[],"categories_nodes":[],"categories_segments":[],"categories_sizes":[],"default_left":[1,0,0,0,0,1,0,0,0,0,1,1,0,0,0,0,0,0,0,0,0],"id":25,"left_children":[1,3,5,7,9,11,13,-1,-1,-1,15,17,19,-1,-1,-1,-1,-1,-1,-1,-1],"loss_changes":[4.897492E0,3.022313E0,3.2062972E0,2.2731829E0,1.6699638E0,3.6933575E0,3.7204165E0,0E0,0E0,0E0,1.0713701E0,2.9960222E0,7.6166487E-1,0E0,0E0,0E0,0E0,0E0,0E0,0E0,0E0],"parents":[2147483647,0,0,1,1,2,2,3,3,4,4,5,5,6,6,10,10,11,11,12,12],"right_children":[2,4,6,8,10,12,14,-1,-1,-1,16,18,20,-1,-1,-1,-1,-1,-1,-1,-1],"split_conditions":[9E0,-3.3333334E-1,8E-1,5.2E0,6.74E-1,1.3633333E0,1.25E0,-1.7863503E-2,5.5561315E-2,2.714929E-2,2E0,5.8E0,1.22E1,6.2431943E-2,-1.9647425E-2,-2.3287522E-2,9.536836E-3,-2.6873383E-4,2.887686E-2,6.7533352E-3,6.304066E-2],"split_indices":[10,29,11,17,16,24,27,0,0,0,27,28,10,0,0,0,0,0,0,0,0],"split_type":[0,0,0,0,0,0,0,0,0,0,0,0,0,0,0,0,0,0,0,0,0],"sum_hessian":[2.5216457E2,4.1544083E1,2.1062048E2,2.7370462E0,3.8807037E1,2.0569527E2,4.925209E0,1.1352481E0,1.601798E0,1.0409033E0,3.7766132E1,2.0267673E2,3.018541E0,3.4964182E0,1.4287909E0,3.562426E1,2.1418746E0,1.9444135E2,8.235387E0,1.0890638E0,1.9294772E0],"tree_param":{"num_deleted":"0","num_feature":"30","num_nodes":"21","size_leaf_vector":"1"}},{"base_weights":[-1.581158E-3,2.1875793E-1,-2.821372E-1,4.362855E-1,4.814322E-2,-3.1482335E-2,-2.0992133E-1,4.6749404E-1,-2.60566E-2,-1.9997813E-2,6.229155E-1,-5.4684784E-2,-3.5362968E-1,9.62444E-3,3.0136004E-2,-2.2814302E-2,3.1251062E-3,4.9062368E-2,-1.4340572E-2,1.2358211E-2,-1.4180928E-2,-1.9661518E-2,2.87564E-2],"categories":[],"categories_nodes":[],"categories_segments":[],"categories_sizes":[],"default_left":[1,1,1,1,1,0,0,0,0,1,0,0,0,0,0,0,0,0,0,0,0,0,0],"id":26,"left_children":[1,3,5,7,9,-1,11,13,-1,15,17,19,21,-1,-1,-1,-1,-1,-1,-1,-1,-1,-1],"loss_changes":[1.8976252E1,6.3603516E0,3.2565403E0,2.4982252E0,3.8305514E0,0E0,2.508226E0,2.6210556E0,0E0,3.2003796E0,3.65975E0,3.9155586E0,2.3833141E0,0E0,0E0,0E0,0E0,0E0,0E0,0E0,0E0,0E0,0E0],"parents":[2147483647,0,0,1,1,2,2,3,3,4,4,6,6,7,7,9,9,10,10,11,11,12,12],"right_children":[2,4,6,8,10,-1,12,14,-1,16,18,20,22,-1,-1,-1,-1,-1,-1,-1,-1,-1,-1],"split_conditions":[-2.81E0,1.068E0,8.36E-1,1.63125E1,1.2854167E1,-3.1482335E-2,8.414E1,8.56E-1,-2.60566E-2,2.8E0,4E-1,4.2E0,2.1E1,9.62444E-3,3.0136004E-2,-2.2814302E-2,3.1251062E-3,4.9062368E-2,-1.4340572E-2,1.2358211E-2,-1.4180928E-2,-1.9661518E-2,2.87564E-2],"split_indices":[21,6,15,13,13,0,21,6,0,17,11,17,19,0,0,0,0,0,0,0,0,0,0],"split_type":[0,0,0,0,0,0,0,0,0,0,0,0,0,0,0,0,0,0,0,0,0,0,0],"sum_hessian":[3.0497388E2,1.709421E2,1.3403178E2,7.4456116E1,9.6485985E1,2.173276E1,1.1229903E2,7.260127E1,1.8548393E0,8.712254E1,9.3634405E0,5.4647865E1,5.7651165E1,2.4730682E1,4.7870594E1,1.3134106E1,7.398844E1,6.66109E0,2.7023504E0,2.3536015E1,3.111185E1,5.5846565E1,1.8045986E0],"tree_param":{"num_deleted":"0","num_feature":"30","num_nodes":"23","size_leaf_vector":"1"}},{"base_weights":[-2.0586327E-3,-2.0817932E-1,1.8121743E-1,-2.8107938E-1,2.0441104E-1,7.029175E-2,3.6201933E-1,-4.497372E-1,-1.3074528E-1,-2.6904231E-2,3.0330566E-1,5.156008E-3,4.673699E-1,5.2955055E-1,1.05208814E-1,7.595123E-5,-2.641042E-2,-2.1078637E-2,-2.0919123E-4,1.970317E-2,-2.3740197E-2,2.0151434E-2,-3.8661805E-3,3.2004338E-2,-1.5707476E-2,6.353797E-3,3.402027E-2,1.8852111E-2,-2.0346215E-2],"categories":[],"categories_nodes":[],"categories_segments":[],"categories_sizes":[],"default_left":[1,0,0,1,0,1,1,0,0,0,1,1,0,0,0,0,0,0,0,0,0,0,0,0,0,0,0,0,0],"id":27,"left_children":[1,3,5,7,9,11,13,15,17,-1,19,21,23,25,27,-1,-1,-1,-1,-1,-1,-1,-1,-1,-1,-1,-1,-1,-1],"loss_changes":[1.23132E1,4.671595E0,3.434928E0,3.2574444E0,1.8971603E0,2.79541E0,2.7565298E0,2.1689863E0,2.595472E0,0E0,1.703875E0,3.113983E0,2.257245E0,2.3002977E0,3.91977E0,0E0,0E0,0E0,0E0,0E0,0E0,0E0,0E0,0E0,0E0,0E0,0E0,0E0,0E0],"parents":[2147483647,0,0,1,1,2,2,3,3,4,4,5,5,6,6,7,7,8,8,10,10,11,11,12,12,13,13,14,14],"right_children":[2,4,6,8,10,12,14,16,18,-1,20,22,24,26,28,-1,-1,-1,-1,-1,-1,-1,-1,-1,-1,-1,-1,-1,-1],"split_conditions":[-2.69E1,1.5166667E1,1.1739E2,-1.5189E2,3E0,3.6E0,-1.96E-1,-9.6E-1,-1.2E0,-2.6904231E-2,1.82716E3,-5.66E-1,2.298E0,9.6E0,1.2E0,7.595123E-5,-2.641042E-2,-2.1078637E-2,-2.0919123E-4,1.970317E-2,-2.3740197E-2,2.0151434E-2,-3.8661805E-3,3.2004338E-2,-1.5707476E-2,6.353797E-3,3.402027E-2,1.8852111E-2,-2.0346215E-2],"split_indices":[21,13,21,21,8,9,25,24,26,0,14,24,6,19,26,0,0,0,0,0,0,0,0,0,0,0,0,0,0],"split_type":[0,0,0,0,0,0,0,0,0,0,0,0,0,0,0,0,0,0,0,0,0,0,0,0,0,0,0,0,0],"sum_hessian":[3.239458E2,1.5240652E2,1.7153926E2,1.2979242E2,2.261411E1,1.0717437E2,6.43649E1,6.0229816E1,6.95626E1,2.1360166E0,2.0478094E1,9.294146E1,1.4232907E1,3.8310734E1,2.6054167E1,9.06741E0,5.1162407E1,2.03861E1,4.91765E1,1.8781057E1,1.6970372E0,1.5291332E1,7.765013E1,1.1804965E1,2.4279423E0,1.0946987E1,2.7363747E1,1.7192434E1,8.8617325E0],"tree_param":{"num_deleted":"0","num_feature":"30","num_nodes":"29","size_leaf_vector":"1"}},{"base_weights":[1.8479355E-2,5.45491E-2,-3.7395057E-1,9.9472165E-1,3.5494316E-2,-4.7332105E-1,1.1057581E-1,6.48288E-2,3.919635E-3,-3.9343625E-2,2.3331949E-1,-5.0616246E-1,-1.882354E-3,2.6153227E-2,-1.9603362E-2,1.2039584E-2,-5.146058E-3,-2.5512962E-2,1.4312501E-2,-8.484557E-3,-2.8284907E-2],"categories":[],"categories_nodes":[],"categories_segments":[],"categories_sizes":[],"default_left":[0,0,1,0,1,1,1,0,0,0,0,0,0,0,0,0,0,0,0,0,0],"id":28,"left_children":[1,3,5,7,9,11,13,-1,-1,15,17,19,-1,-1,-1,-1,-1,-1,-1,-1,-1],"loss_changes":[3.5884435E0,4.1160207E0,1.0800946E0,1.1613522E0,3.3870516E0,2.3709679E-1,1.1263438E0,0E0,0E0,2.988288E0,2.6164658E0,2.3588276E-1,0E0,0E0,0E0,0E0,0E0,0E0,0E0,0E0,0E0],"parents":[2147483647,0,0,1,1,2,2,3,3,4,4,5,5,6,6,9,9,10,10,11,11],"right_children":[2,4,6,8,10,12,14,-1,-1,16,18,20,-1,-1,-1,-1,-1,-1,-1,-1,-1],"split_conditions":[2.01751E3,2.2E0,3.4E0,-1.56E-1,1.62E1,1.72E0,1.84337E3,6.48288E-2,3.919635E-3,1.054E0,6.86E-1,1.79704E3,-1.882354E-3,2.6153227E-2,-1.9603362E-2,1.2039584E-2,-5.146058E-3,-2.5512962E-2,1.4312501E-2,-8.484557E-3,-2.8284907E-2],"split_indices":[5,17,18,25,10,7,14,0,0,16,6,14,0,0,0,0,0,0,0,0,0],"split_type":[0,0,0,0,0,0,0,0,0,0,0,0,0,0,0,0,0,0,0,0,0],"sum_hessian":[2.5107228E2,2.3072632E2,2.034595E1,3.566177E0,2.2716016E2,1.6902565E1,3.4433846E0,2.3703692E0,1.1958077E0,1.6539265E2,6.176749E1,1.5567298E1,1.3352664E0,1.8689895E0,1.5743951E0,3.007756E1,1.353151E2,3.5304766E0,5.8237015E1,2.9192321E0,1.26480665E1],"tree_param":{"num_deleted":"0","num_feature":"30","num_nodes":"21","size_leaf_vector":"1"}},{"base_weights":[-1.0906813E-2,1.876053E-1,-2.8637543E-1,3.7554196E-1,-1.5070421E-2,-1.326257E-1,-4.1751382E-1,-1.207877E-4,5.0209826E-1,5.272873E-1,-6.96214E-2,9.05022E-2,-3.9363405E-1,-4.5162588E-1,2.4077889E-2,-1.6278517E-2,2.1138612E-2,4.4963166E-2,2.0032467E-2,3.862496E-2,-2.0872679E-2,-1.4511182E-2,7.0413197E-3,2.7104804E-2,-7.95536E-3,-2.924859E-2,1.4696189E-4,-2.5776437E-2,-3.629949E-4],"categories":[],"categories_nodes":[],"categories_segments":[],"categories_sizes":[],"default_left":[1,1,0,0,0,0,1,1,0,0,1,0,0,1,0,0,0,0,0,0,0,0,0,0,0,0,0,0,0],"id":29,"left_children":[1,3,5,7,9,11,13,15,17,19,21,23,25,27,-1,-1,-1,-1,-1,-1,-1,-1,-1,-1,-1,-1,-1,-1,-1],"loss_changes":[1.677382E1,6.797358E0,2.5345716E0,4.4003773E0,2.6033154E0,3.5645533E0,2.3293304E0,3.4852517E0,2.4292126E0,2.1861238E0,3.741222E0,3.8602967E0,2.134972E0,1.8947678E0,0E0,0E0,0E0,0E0,0E0,0E0,0E0,0E0,0E0,0E0,0E0,0E0,0E0,0E0,0E0],"parents":[2147483647,0,0,1,1,2,2,3,3,4,4,5,5,6,6,7,7,8,8,9,9,10,10,11,11,12,12,13,13],"right_children":[2,4,6,8,10,12,14,16,18,20,22,24,26,28,-1,-1,-1,-1,-1,-1,-1,-1,-1,-1,-1,-1,-1,-1,-1],"split_conditions":[-1.2E0,1.164E0,9.683E1,1.44E0,7.32E-1,1.78273E3,2.18E1,-4.64E-1,1.0333333E1,1.82023E3,1.12E1,1.274E0,2.48E-1,1.29375E1,2.4077889E-2,-1.6278517E-2,2.1138612E-2,4.4963166E-2,2.0032467E-2,3.862496E-2,-2.0872679E-2,-1.4511182E-2,7.0413197E-3,2.7104804E-2,-7.95536E-3,-2.924859E-2,1.4696189E-4,-2.5776437E-2,-3.629949E-4],"split_indices":[21,6,21,7,16,14,19,24,10,5,19,7,25,4,0,0,0,0,0,0,0,0,0,0,0,0,0,0,0],"split_type":[0,0,0,0,0,0,0,0,0,0,0,0,0,0,0,0,0,0,0,0,0,0,0,0,0,0,0,0,0],"sum_hessian":[3.0475925E2,1.7730568E2,1.2745358E2,9.155544E1,8.575023E1,5.9594692E1,6.785889E1,2.3323195E1,6.823225E1,7.0446663E0,7.870557E1,3.2480976E1,2.7113716E1,6.585782E1,2.0010645E0,1.3310133E1,1.0013062E1,1.2282595E1,5.5949654E1,5.737728E0,1.3069379E0,3.8240658E1,4.046491E1,1.1145229E1,2.1335749E1,1.7969006E1,9.144711E0,5.743774E1,8.42008E0],"tree_param":{"num_deleted":"0","num_feature":"30","num_nodes":"29","size_leaf_vector":"1"}},{"base_weights":[-9.427893E-3,-1.2512554E-1,3.5674462E-1,-3.324689E-1,-5.5253385E-3,6.828698E-1,2.1631874E-1,-3.9255387E-1,9.014876E-2,3.6446607E-1,-6.6924535E-2,-6.0609696E-3,7.4255735E-1,2.9570803E-1,-5.3498393E-1,-1.3024188E-3,-2.2094477E-2,2.6635712E-2,-3.0610621E-2,2.4031164E-2,-2.8719677E-2,1.7574592E-2,-6.7146043E-3,4.0916014E-2,-1.0758714E-4,-1.50668295E-2,1.879911E-2,-3.3481922E-2,-1.2300347E-4],"categories":[],"categories_nodes":[],"categories_segments":[],"categories_sizes":[],"default_left":[1,1,0,1,1,0,1,0,1,1,1,0,0,0,1,0,0,0,0,0,0,0,0,0,0,0,0,0,0],"id":30,"left_children":[1,3,5,7,9,11,13,15,17,19,21,-1,23,25,27,-1,-1,-1,-1,-1,-1,-1,-1,-1,-1,-1,-1,-1,-1],"loss_changes":[1.379427E1,6.1323967E0,3.432848E0,2.3327522E0,3.611265E0,1.1971817E0,3.5052328E0,1.4241381E0,4.0795064E0,2.7437425E0,3.888192E0,0E0,1.2213135E0,2.5765939E0,4.0843964E-1,0E0,0E0,0E0,0E0,0E0,0E0,0E0,0E0,0E0,0E0,0E0,0E0,0E0,0E0],"parents":[2147483647,0,0,1,1,2,2,3,3,4,4,5,5,6,6,7,7,8,8,9,9,10,10,12,12,13,13,14,14],"right_children":[2,4,6,8,10,12,14,16,18,20,22,-1,24,26,28,-1,-1,-1,-1,-1,-1,-1,-1,-1,-1,-1,-1,-1,-1],"split_conditions":[1.85654E3,-1.1171E2,2E-1,1.80301E3,8.14E-1,4.512E1,1.794E0,-9.6E-1,1.99622E3,1.88E1,-5.74E-1,-6.0609696E-3,1.296E0,1.6666666E0,1.168E0,-1.3024188E-3,-2.2094477E-2,2.6635712E-2,-3.0610621E-2,2.4031164E-2,-2.8719677E-2,1.7574592E-2,-6.7146043E-3,4.0916014E-2,-1.0758714E-4,-1.50668295E-2,1.879911E-2,-3.3481922E-2,-1.2300347E-4],"split_indices":[5,21,20,5,15,21,7,24,14,10,24,0,24,9,15,0,0,0,0,0,0,0,0,0,0,0,0,0,0],"split_type":[0,0,0,0,0,0,0,0,0,0,0,0,0,0,0,0,0,0,0,0,0,0,0,0,0,0,0,0,0],"sum_hessian":[3.235494E2,2.46365E2,7.71844E1,8.9472435E1,1.5689256E2,2.2068844E1,5.5115555E1,7.839753E1,1.1074901E1,2.1627754E1,1.3526482E2,1.4537358E0,2.0615108E1,5.039661E1,4.718946E0,9.482413E0,6.891512E1,6.9421277E0,4.132773E0,1.9680883E1,1.9468722E0,1.8173374E1,1.1709144E2,1.8621778E1,1.9933307E0,5.6465015E0,4.475011E1,3.5610216E0,1.1579242E0],"tree_param":{"num_deleted":"0","num_feature":"30","num_nodes":"29","size_leaf_vector":"1"}},{"base_weights":[8.2655E-3,5.48716E-2,-2.630594E-1,2.9757306E-2,5.9575313E-1,-4.1777596E-1,2.6484653E-1,4.899864E-2,-2.7601857E-2,8.2971007E-1,-2.035818E-2,-4.7551844E-1,2.6239727E-2,-2.4293886E-2,6.370469E-1,1.2095671E-3,2.486784E-2,5.8712304E-2,1.0063992E-2,9.078324E-3,-2.5558028E-2,4.421071E-2,-1.6807975E-2],"categories":[],"categories_nodes":[],"categories_segments":[],"categories_sizes":[],"default_left":[0,1,1,1,0,1,0,1,0,0,0,0,0,0,0,0,0,0,0,0,0,0,0],"id":31,"left_children":[1,3,5,7,9,11,13,15,-1,17,-1,19,-1,-1,21,-1,-1,-1,-1,-1,-1,-1,-1],"loss_changes":[3.2971404E0,3.002908E0,3.232898E0,2.4176924E0,2.6406667E0,1.8796792E0,2.9014978E0,2.2974215E0,0E0,1.5579572E0,0E0,7.660575E-1,0E0,0E0,1.8930781E0,0E0,0E0,0E0,0E0,0E0,0E0,0E0,0E0],"parents":[2147483647,0,0,1,1,2,2,3,3,4,4,5,5,6,6,7,7,9,9,11,11,14,14],"right_children":[2,4,6,8,10,12,14,16,-1,18,-1,20,-1,-1,22,-1,-1,-1,-1,-1,-1,-1,-1],"split_conditions":[1.3145833E1,5.8E0,1.4E0,2.8841E2,8E0,2.442E0,-1.5839E2,2.1928E2,-2.7601857E-2,1.0416667E-2,-2.035818E-2,8E-1,2.6239727E-2,-2.4293886E-2,1.764E0,1.2095671E-3,2.486784E-2,5.8712304E-2,1.0063992E-2,9.078324E-3,-2.5558028E-2,4.421071E-2,-1.6807975E-2],"split_indices":[4,28,28,21,28,7,21,21,0,22,0,16,0,0,6,0,0,0,0,0,0,0,0],"split_type":[0,0,0,0,0,0,0,0,0,0,0,0,0,0,0,0,0,0,0,0,0,0,0],"sum_hessian":[2.585969E2,2.2136952E2,3.7227383E1,2.1255515E2,8.814377E0,2.8951122E1,8.276261E0,2.0663695E2,5.918198E0,7.287157E0,1.5272197E0,2.7746841E1,1.2042801E0,2.6419847E0,5.6342764E0,1.96802E2,9.834943E0,4.1457286E0,3.1414285E0,1.2169747E0,2.6529867E1,4.5660653E0,1.0682111E0],"tree_param":{"num_deleted":"0","num_feature":"30","num_nodes":"23","size_leaf_vector":"1"}},{"base_weights":[-1.6855791E-2,1.8439312E-1,-2.8945902E-1,4.1052592E-1,-5.028305E-4,-3.070475E-2,-2.201176E-1,-2.0001507E-1,4.5946044E-1,-7.604139E-2,4.349433E-1,-3.504398E-1,2.1942842E-3,-3.0084163E-2,2.5676012E-2,3.0447641E-2,1.0421435E-2,1.9390322E-3,-2.162416E-2,-8.931998E-3,3.2875802E-2,-1.2047262E-2,-3.0797532E-2,2.6818832E-2,-7.733884E-3],"categories":[],"categories_nodes":[],"categories_segments":[],"categories_sizes":[],"default_left":[1,1,1,0,1,0,0,0,1,0,0,0,0,0,0,0,0,0,0,0,0,0,0,0,0],"id":32,"left_children":[1,3,5,7,9,-1,11,13,15,17,19,21,23,-1,-1,-1,-1,-1,-1,-1,-1,-1,-1,-1,-1],"loss_changes":[1.6593496E1,7.2776732E0,2.7559872E0,2.4311724E0,3.2157316E0,0E0,3.1120458E0,2.1737947E0,2.6047468E0,3.4262474E0,2.0911894E0,1.8199797E0,3.4919705E0,0E0,0E0,0E0,0E0,0E0,0E0,0E0,0E0,0E0,0E0,0E0,0E0],"parents":[2147483647,0,0,1,1,2,2,3,3,4,4,6,6,7,7,8,8,9,9,10,10,11,11,12,12],"right_children":[2,4,6,8,10,-1,12,14,16,18,20,22,24,-1,-1,-1,-1,-1,-1,-1,-1,-1,-1,-1,-1],"split_conditions":[-1.2E0,1.072E0,8.36E-1,-1.04E0,1.2083334E0,-3.070475E-2,1.48E0,2.098E0,-1.3741E2,-1.793E1,3.0104167E0,1.7988E3,-2E0,-3.0084163E-2,2.5676012E-2,3.0447641E-2,1.0421435E-2,1.9390322E-3,-2.162416E-2,-8.931998E-3,3.2875802E-2,-1.2047262E-2,-3.0797532E-2,2.6818832E-2,-7.733884E-3],"split_indices":[21,6,15,24,22,0,7,15,21,21,13,14,28,0,0,0,0,0,0,0,0,0,0,0,0],"split_type":[0,0,0,0,0,0,0,0,0,0,0,0,0,0,0,0,0,0,0,0,0,0,0,0,0],"sum_hessian":[3.0049088E2,1.7305608E2,1.2743479E2,7.729809E1,9.575798E1,2.104628E1,1.0638851E2,5.5065928E0,7.17915E1,8.23055E1,1.3452488E1,6.6707405E1,3.968111E1,3.6235545E0,1.8830384E0,4.4102272E1,2.7689226E1,6.2926067E1,1.9379427E1,3.6334004E0,9.819088E0,4.858062E1,1.8126783E1,8.458595E0,3.1222517E1],"tree_param":{"num_deleted":"0","num_feature":"30","num_nodes":"25","size_leaf_vector":"1"}},{"base_weights":[7.184167E-3,-1.3939092E-1,2.6583612E-1,-3.692632E-2,-3.4906346E-1,5.896322E-1,1.6522297E-1,3.367242E-1,-1.1827103E-1,-3.8107097E-1,2.4839481E-2,7.066568E-1,1.0007668E-1,1.1212604E-1,3.940811E-2,-2.4945216E-2,2.1019742E-2,-1.3485481E-2,4.584802E-3,-2.215898E-2,5.8310217E-4,7.3145367E-3,4.022709E-2,3.3413943E-2,-2.1257145E-2,7.8082844E-3,-2.795792E-2],"categories":[],"categories_nodes":[],"categories_segments":[],"categories_sizes":[],"default_left":[1,0,1,1,1,1,0,0,1,1,0,0,0,0,0,0,0,0,0,0,0,0,0,0,0,0,0],"id":33,"left_children":[1,3,5,7,9,11,13,15,17,19,-1,21,23,25,-1,-1,-1,-1,-1,-1,-1,-1,-1,-1,-1,-1,-1],"loss_changes":[1.2242374E1,4.4159527E0,3.70747E0,4.2826877E0,2.0182123E0,1.4932032E0,2.904835E0,1.9728212E0,3.6933722E0,1.6066484E0,0E0,1.0817299E0,2.2034786E0,2.5869646E0,0E0,0E0,0E0,0E0,0E0,0E0,0E0,0E0,0E0,0E0,0E0,0E0,0E0],"parents":[2147483647,0,0,1,1,2,2,3,3,4,4,5,5,6,6,7,7,8,8,9,9,11,11,12,12,13,13],"right_children":[2,4,6,8,10,12,14,16,18,20,-1,22,24,26,-1,-1,-1,-1,-1,-1,-1,-1,-1,-1,-1,-1,-1],"split_conditions":[4.108E1,1.765E0,-1E0,-1.8854166E0,7E0,6E-1,2.9385E2,1E0,-4.863E1,8.0625E0,2.4839481E-2,1.62228E3,2E0,2.206E0,3.940811E-2,-2.4945216E-2,2.1019742E-2,-1.3485481E-2,4.584802E-3,-2.215898E-2,5.8310217E-4,7.3145367E-3,4.022709E-2,3.3413943E-2,-2.1257145E-2,7.8082844E-3,-2.795792E-2],"split_indices":[21,7,22,22,17,11,21,9,21,13,0,14,18,6,0,0,0,0,0,0,0,0,0,0,0,0,0],"split_type":[0,0,0,0,0,0,0,0,0,0,0,0,0,0,0,0,0,0,0,0,0,0,0,0,0,0,0],"sum_hessian":[3.2093872E2,2.0514595E2,1.1579277E2,1.3859315E2,6.6552795E1,2.6298332E1,8.949444E1,2.4216608E1,1.1437655E2,6.465568E1,1.8971206E0,2.086681E1,5.431521E0,8.355272E1,5.941717E0,1.7524068E0,2.2464201E1,6.628443E1,4.809212E1,5.571603E1,8.939643E0,3.473936E0,1.7392874E1,2.4781673E0,2.9533534E0,7.912883E1,4.423888E0],"tree_param":{"num_deleted":"0","num_feature":"30","num_nodes":"27","size_leaf_vector":"1"}},{"base_weights":[1.8729405E-2,8.7419786E-2,-1.4800787E-1,-5.0389808E-2,2.1281426E-1,5.463662E-1,-2.0406862E-1,8.6038846E-1,-9.802383E-2,6.1308056E-1,1.3008608E-1,9.323782E-1,-1.8965676E-2,-2.8432387E-1,1.7069794E-1,1.3265623E-3,6.2944E-2,-1.2255839E-2,1.1600244E-2,4.1565586E-2,-1.2324779E-2,1.15317805E-2,-1.3090295E-2,6.0359385E-2,4.8048827E-3,-3.733564E-3,-2.4489237E-2,2.7948946E-2,-1.8557437E-2],"categories":[],"categories_nodes":[],"categories_segments":[],"categories_sizes":[],"default_left":[0,0,0,0,0,0,1,0,0,1,1,0,0,1,0,0,0,0,0,0,0,0,0,0,0,0,0,0,0],"id":34,"left_children":[1,3,5,7,9,11,13,15,17,19,21,23,-1,25,27,-1,-1,-1,-1,-1,-1,-1,-1,-1,-1,-1,-1,-1,-1],"loss_changes":[2.886495E0,3.092194E0,2.9755378E0,3.8050826E0,3.01823E0,2.4147992E0,2.1180153E0,1.4169514E0,4.0568795E0,3.1603923E0,3.1655312E0,8.8598084E-1,0E0,2.4206858E0,2.8921642E0,0E0,0E0,0E0,0E0,0E0,0E0,0E0,0E0,0E0,0E0,0E0,0E0,0E0,0E0],"parents":[2147483647,0,0,1,1,2,2,3,3,4,4,5,5,6,6,7,7,8,8,9,9,10,10,11,11,13,13,14,14],"right_children":[2,4,6,8,10,12,14,16,18,20,22,24,-1,26,28,-1,-1,-1,-1,-1,-1,-1,-1,-1,-1,-1,-1,-1,-1],"split_conditions":[1.86195E3,-3.3333334E-1,-6.94E-1,1.6E0,1.098E0,1.87049E3,9.0625E-1,2.5E-1,1.82E0,8E0,1.756E0,6.875E-1,-1.8965676E-2,5.21875E0,1.1458334E0,1.3265623E-3,6.2944E-2,-1.2255839E-2,1.1600244E-2,4.1565586E-2,-1.2324779E-2,1.15317805E-2,-1.3090295E-2,6.0359385E-2,4.8048827E-3,-3.733564E-3,-2.4489237E-2,2.7948946E-2,-1.8557437E-2],"split_indices":[5,27,24,18,7,14,22,20,15,13,6,22,0,13,22,0,0,0,0,0,0,0,0,0,0,0,0,0,0],"split_type":[0,0,0,0,0,0,0,0,0,0,0,0,0,0,0,0,0,0,0,0,0,0,0,0,0,0,0,0,0],"sum_hessian":[2.4989447E2,1.7732005E2,7.257443E1,8.476297E1,9.2557076E1,4.7682633E0,6.780617E1,3.3647807E0,8.139819E1,1.4755295E1,7.780178E1,3.3599255E0,1.4083378E0,5.6045506E1,1.1760663E1,1.4329218E0,1.9318588E0,5.648172E1,2.4916471E1,1.1793911E1,2.9613838E0,6.224323E1,1.5558553E1,2.1950817E0,1.1648439E0,2.841462E1,2.7630886E1,6.832765E0,4.9278975E0],"tree_param":{"num_deleted":"0","num_feature":"30","num_nodes":"29","size_leaf_vector":"1"}},{"base_weights":[-4.5100596E-2,1.7027383E-1,-1.9884409E-1,2.9080912E-1,-1.4428253E-1,-3.241995E-1,1.1632136E-2,3.6278343E-1,-4.353793E-1,-5.167583E-1,4.394221E-2,-3.7378922E-1,2.2943135E-2,8.4807754E-1,-1.0867463E-1,-1.0950534E-2,2.109727E-2,-3.1911585E-2,2.0720817E-2,-9.258037E-4,-3.321944E-2,-2.1649769E-2,1.377318E-2,-1.0712838E-2,-2.4268646E-2,1.4310819E-2,-2.9614404E-2,4.8618574E-2,6.387088E-4,-8.097543E-3,4.1876514E-2],"categories":[],"categories_nodes":[],"categories_segments":[],"categories_sizes":[],"default_left":[1,0,1,1,0,1,0,0,0,0,0,0,0,0,0,0,0,0,0,0,0,0,0,0,0,0,0,0,0,0,0],"id":35,"left_children":[1,3,5,7,9,11,13,15,17,19,21,23,25,27,29,-1,-1,-1,-1,-1,-1,-1,-1,-1,-1,-1,-1,-1,-1,-1,-1],"loss_changes":[1.0396549E1,5.004648E0,4.8338304E0,5.1212206E0,2.6117845E0,1.9842653E0,7.06562E0,3.0849848E0,1.8189671E0,9.0533257E-1,2.9299233E0,1.6846714E0,2.6457121E0,9.0407324E-1,3.2343807E0,0E0,0E0,0E0,0E0,0E0,0E0,0E0,0E0,0E0,0E0,0E0,0E0,0E0,0E0,0E0,0E0],"parents":[2147483647,0,0,1,1,2,2,3,3,4,4,5,5,6,6,7,7,8,8,9,9,10,10,11,11,12,12,13,13,14,14],"right_children":[2,4,6,8,10,12,14,16,18,20,22,24,26,28,30,-1,-1,-1,-1,-1,-1,-1,-1,-1,-1,-1,-1,-1,-1,-1,-1],"split_conditions":[1.174E0,1.71E0,1.24E-1,1.83226E3,1.038E0,1.29375E1,3.3333333E0,-1.04E0,5.6666665E0,-8.28E-1,3.7916667E0,1.302E0,1.708E0,1.84E1,2.572E0,-1.0950534E-2,2.109727E-2,-3.1911585E-2,2.0720817E-2,-9.258037E-4,-3.321944E-2,-2.1649769E-2,1.377318E-2,-1.0712838E-2,-2.4268646E-2,1.4310819E-2,-2.9614404E-2,4.8618574E-2,6.387088E-4,-8.097543E-3,4.1876514E-2],"split_indices":[6,16,25,5,15,4,8,24,17,25,4,15,15,10,15,0,0,0,0,0,0,0,0,0,0,0,0,0,0,0,0],"split_type":[0,0,0,0,0,0,0,0,0,0,0,0,0,0,0,0,0,0,0,0,0,0,0,0,0,0,0,0,0,0,0],"sum_hessian":[3.1195483E2,1.2988939E2,1.8206546E2,9.396015E1,3.592923E1,1.1376752E2,6.829795E1,8.5942604E1,8.017552E0,1.1475353E1,2.4453876E1,9.947993E1,1.4287583E1,7.8274555E0,6.0470493E1,7.6833477E0,7.8259254E1,6.673498E0,1.3440537E0,2.880225E0,8.595128E0,7.7070394E0,1.6746838E1,4.2144947E1,5.7334984E1,1.0380348E1,3.9072354E0,6.6707478E0,1.1567075E0,5.803184E1,2.4386516E0],"tree_param":{"num_deleted":"0","num_feature":"30","num_nodes":"31","size_leaf_vector":"1"}},{"base_weights":[2.3712595E-3,-1.05281636E-1,3.1286994E-1,-3.177987E-1,5.806374E-3,-3.3337072E-1,3.839072E-1,-3.774356E-1,1.2835495E-1,3.1225604E-1,-5.1355045E-2,-3.415261E-2,1.562647E-1,6.777499E-1,2.724425E-1,-2.1912847E-2,1.887344E-4,-2.3222385E-2,3.5416152E-2,2.0345021E-2,-2.742344E-2,3.6854576E-2,-4.0210127E-3,-1.405879E-2,3.06891E-2,3.9881837E-2,-6.058998E-3,1.8620463E-2,-1.590149E-2],"categories":[],"categories_nodes":[],"categories_segments":[],"categories_sizes":[],"default_left":[1,1,0,1,1,0,0,0,0,1,1,0,0,0,0,0,0,0,0,0,0,0,0,0,0,0,0,0,0],"id":36,"left_children":[1,3,5,7,9,11,13,15,17,19,21,-1,23,25,27,-1,-1,-1,-1,-1,-1,-1,-1,-1,-1,-1,-1,-1,-1],"loss_changes":[1.0798839E1,5.6656504E0,3.9461412E0,2.2402077E0,2.7931051E0,1.6086959E0,2.2849026E0,1.6922607E0,3.9248145E0,2.2649279E0,3.1408648E0,0E0,1.0669076E0,2.018364E0,3.443787E0,0E0,0E0,0E0,0E0,0E0,0E0,0E0,0E0,0E0,0E0,0E0,0E0,0E0,0E0],"parents":[2147483647,0,0,1,1,2,2,3,3,4,4,5,5,6,6,7,7,8,8,9,9,10,10,12,12,13,13,14,14],"right_children":[2,4,6,8,10,12,14,16,18,20,22,-1,24,26,28,-1,-1,-1,-1,-1,-1,-1,-1,-1,-1,-1,-1,-1,-1],"split_conditions":[1.85654E3,-1.1171E2,-1.15E0,1.80301E3,8.14E-1,1.354E0,-9.895833E-1,7.2E0,0E0,1.9E1,6.58E-1,-3.415261E-2,1.934E0,1.82E1,1.645E0,-2.1912847E-2,1.887344E-4,-2.3222385E-2,3.5416152E-2,2.0345021E-2,-2.742344E-2,3.6854576E-2,-4.0210127E-3,-1.405879E-2,3.06891E-2,3.9881837E-2,-6.058998E-3,1.8620463E-2,-1.590149E-2],"split_indices":[5,21,27,5,15,16,22,17,26,10,6,0,15,10,7,0,0,0,0,0,0,0,0,0,0,0,0,0,0],"split_type":[0,0,0,0,0,0,0,0,0,0,0,0,0,0,0,0,0,0,0,0,0,0,0,0,0,0,0,0,0],"sum_hessian":[3.2108078E2,2.3890948E2,8.2171295E1,8.137471E1,1.5753477E2,7.7722855E0,7.439901E1,7.191582E1,9.458891E0,2.406367E1,1.3347112E2,4.3037024E0,3.4685833E0,1.9063501E1,5.533551E1,6.1891506E1,1.0024308E1,4.776189E0,4.6827016E0,2.2154808E1,1.9088604E0,3.8792572E0,1.2959186E2,1.9702363E0,1.498347E0,1.657751E1,2.4859915E0,4.7639465E1,7.6960444E0],"tree_param":{"num_deleted":"0","num_feature":"30","num_nodes":"29","size_leaf_vector":"1"}},{"base_weights":[1.6598456E-2,-8.008817E-3,5.7665163E-1,5.1635712E-2,-1.9538667E-2,2.3968084E-2,9.348208E-1,3.4737684E-2,-1.8722153E-1,4.6651233E-2,-2.487628E-2,3.074993E-3,5.616807E-2,-4.282418E-3,9.558245E-3,-1.3653698E-2,1.1348E-2],"categories":[],"categories_nodes":[],"categories_segments":[],"categories_sizes":[],"default_left":[1,0,0,0,0,0,0,0,1,0,0,0,0,0,0,0,0],"id":37,"left_children":[1,3,5,-1,7,9,11,13,15,-1,-1,-1,-1,-1,-1,-1,-1],"loss_changes":[3.5017056E0,2.9487553E0,2.0944674E0,0E0,2.2123458E0,2.9442174E0,9.949899E-1,3.4803507E0,2.1749856E0,0E0,0E0,0E0,0E0,0E0,0E0,0E0,0E0],"parents":[2147483647,0,0,1,1,2,2,4,4,5,5,6,6,7,7,8,8],"right_children":[2,4,6,-1,8,10,12,14,16,-1,-1,-1,-1,-1,-1,-1,-1],"split_conditions":[5.6E0,4.5E-1,1.246E0,5.1635712E-2,1.744E0,-9.895833E-1,-7.916667E-1,4.6E0,2.226E0,4.6651233E-2,-2.487628E-2,3.074993E-3,5.616807E-2,-4.282418E-3,9.558245E-3,-1.3653698E-2,1.1348E-2],"split_indices":[28,15,6,0,6,22,22,17,6,0,0,0,0,0,0,0,0],"split_type":[0,0,0,0,0,0,0,0,0,0,0,0,0,0,0,0,0],"sum_hessian":[2.5275447E2,2.4306073E2,9.693753E0,1.6928151E0,2.413679E2,4.231354E0,5.462399E0,1.8294446E2,5.8423454E1,1.2548274E0,2.9765267E0,1.2053592E0,4.2570395E0,1.0363763E2,7.930683E1,4.867474E1,9.748716E0],"tree_param":{"num_deleted":"0","num_feature":"30","num_nodes":"17","size_leaf_vector":"1"}},{"base_weights":[-7.874311E-3,1.9396058E-1,-2.9753682E-1,2.9896304E-1,-7.176313E-2,-3.236741E-2,-2.2210373E-1,4.5641166E-1,1.4081523E-1,-3.8005558E-1,2.224173E-1,-3.2807555E-2,-3.8103887E-1,2.8539477E-2,-8.898993E-4,-1.5167862E-2,1.1845599E-2,-2.5242586E-2,2.8668577E-2,4.7187086E-2,3.0832962E-4,-7.494084E-3,1.7543133E-2,-2.5697226E-2,-6.338147E-3],"categories":[],"categories_nodes":[],"categories_segments":[],"categories_sizes":[],"default_left":[1,1,1,1,1,0,0,1,1,1,0,0,0,0,0,0,0,0,0,0,0,0,0,0,0],"id":38,"left_children":[1,3,5,7,9,-1,11,13,15,17,19,21,23,-1,-1,-1,-1,-1,-1,-1,-1,-1,-1,-1,-1],"loss_changes":[1.760268E1,4.973093E0,3.118516E0,3.1079168E0,4.7163796E0,0E0,3.0930386E0,3.4485407E0,2.8464346E0,3.300564E0,4.1691165E0,2.2178874E0,1.8279276E0,0E0,0E0,0E0,0E0,0E0,0E0,0E0,0E0,0E0,0E0,0E0,0E0],"parents":[2147483647,0,0,1,1,2,2,3,3,4,4,6,6,7,7,8,8,9,9,10,10,11,11,12,12],"right_children":[2,4,6,8,10,-1,12,14,16,18,20,22,24,-1,-1,-1,-1,-1,-1,-1,-1,-1,-1,-1,-1],"split_conditions":[-1.2E0,1.402E0,8.36E-1,-1.5189E2,0E0,-3.236741E-2,1.82923E3,1.798E0,-4.44E-1,6.666667E-1,-1.6666666E0,1.80768E3,1E0,2.8539477E-2,-8.898993E-4,-1.5167862E-2,1.1845599E-2,-2.5242586E-2,2.8668577E-2,4.7187086E-2,3.0832962E-4,-7.494084E-3,1.7543133E-2,-2.5697226E-2,-6.338147E-3],"split_indices":[21,6,15,21,29,0,5,15,25,20,28,5,27,0,0,0,0,0,0,0,0,0,0,0,0],"split_type":[0,0,0,0,0,0,0,0,0,0,0,0,0,0,0,0,0,0,0,0,0,0,0,0,0],"sum_hessian":[2.9909866E2,1.7646762E2,1.2263106E2,1.2639623E2,5.0071392E1,2.0408321E1,1.0222273E2,6.239305E1,6.4003174E1,2.4306734E1,2.5764658E1,4.720577E1,5.5016968E1,5.010437E1,1.228868E1,1.1000509E1,5.3002666E1,2.1909447E1,2.3972871E0,5.1666627E0,2.0597994E1,3.6635933E1,1.0569836E1,3.546094E1,1.9556026E1],"tree_param":{"num_deleted":"0","num_feature":"30","num_nodes":"25","size_leaf_vector":"1"}},{"base_weights":[1.425306E-2,-1.7939107E-1,1.90813E-1,-2.1128431E-1,5.992478E-1,4.1840506E-1,1.0310959E-1,-3.135643E-1,-4.4951137E-2,3.922483E-2,7.3284702E-3,4.887458E-1,-2.9289365E-2,-1.4142579E-2,2.9400137E-1,6.326474E-3,-1.8533714E-2,1.922403E-2,-8.561368E-3,3.0446762E-2,-1.9508854E-3,1.7135676E-2,-5.425842E-3,1.9373788E-2,-1.0403923E-2],"categories":[],"categories_nodes":[],"categories_segments":[],"categories_sizes":[],"default_left":[1,1,1,1,0,1,0,0,1,0,0,1,0,0,0,0,0,0,0,0,0,0,0,0,0],"id":39,"left_children":[1,3,5,7,9,11,13,15,17,-1,-1,19,-1,21,23,-1,-1,-1,-1,-1,-1,-1,-1,-1,-1],"loss_changes":[1.0615143E1,3.8047361E0,3.1977272E0,2.4191055E0,3.9560223E-1,3.4533482E0,2.6570845E0,2.268653E0,3.0822985E0,0E0,0E0,2.7162066E0,0E0,2.5421693E0,2.1994314E0,0E0,0E0,0E0,0E0,0E0,0E0,0E0,0E0,0E0,0E0],"parents":[2147483647,0,0,1,1,2,2,3,3,4,4,5,5,6,6,7,7,8,8,11,11,13,13,14,14],"right_children":[2,4,6,8,10,12,14,16,18,-1,-1,20,-1,22,24,-1,-1,-1,-1,-1,-1,-1,-1,-1,-1],"split_conditions":[-1.793E1,1.96583E3,-9.618056E-1,4.2E0,3.2E0,5.8E0,1.84672E3,-9.6E-1,-1.0416666E0,3.922483E-2,7.3284702E-3,9.208333E0,-2.9289365E-2,-7.34E-1,1.645E0,6.326474E-3,-1.8533714E-2,1.922403E-2,-8.561368E-3,3.0446762E-2,-1.9508854E-3,1.7135676E-2,-5.425842E-3,1.9373788E-2,-1.0403923E-2],"split_indices":[21,5,22,8,9,17,5,24,22,0,0,13,0,25,7,0,0,0,0,0,0,0,0,0,0],"split_type":[0,0,0,0,0,0,0,0,0,0,0,0,0,0,0,0,0,0,0,0,0,0,0,0,0],"sum_hessian":[3.0847577E2,1.4711247E2,1.6136331E2,1.4202379E2,5.08868E0,4.383638E1,1.1752693E2,8.739719E1,5.46266E1,3.090819E0,1.9978609E0,4.144647E1,2.3899097E0,7.338023E1,4.4146698E1,9.899026E0,7.749816E1,1.1948427E1,4.2678173E1,3.3633247E1,7.81322E0,1.4797024E1,5.858321E1,3.741015E1,6.736548E0],"tree_param":{"num_deleted":"0","num_feature":"30","num_nodes":"25","size_leaf_vector":"1"}},{"base_weights":[6.474864E-3,-1.9851874E-1,6.307619E-2,8.2476616E-1,-3.1063586E-1,4.479389E-2,9.0924364E-1,5.5835005E-2,-1.1313982E-4,1.9962728E-1,-3.8216162E-1,1.019887E-1,-1.9618629E-1,5.8424015E-2,5.534399E-3,4.1096624E-2,-7.440368E-3,-2.0981047E-2,2.2292607E-2,6.8155783E-3,-1.731786E-2,-2.4294248E-2,4.061974E-3],"categories":[],"categories_nodes":[],"categories_segments":[],"categories_sizes":[],"default_left":[1,0,1,0,1,1,0,0,0,1,1,0,1,0,0,0,0,0,0,0,0,0,0],"id":40,"left_children":[1,3,5,7,9,11,13,-1,-1,15,17,19,21,-1,-1,-1,-1,-1,-1,-1,-1,-1,-1],"loss_changes":[2.9617364E0,6.5935163E0,3.0523372E0,1.3855169E0,1.9197402E0,2.731975E0,7.3531246E-1,0E0,0E0,1.611211E0,1.5717754E0,2.504445E0,3.1003313E0,0E0,0E0,0E0,0E0,0E0,0E0,0E0,0E0,0E0,0E0],"parents":[2147483647,0,0,1,1,2,2,3,3,4,4,5,5,6,6,9,9,10,10,11,11,12,12],"right_children":[2,4,6,8,10,12,14,-1,-1,16,18,20,22,-1,-1,-1,-1,-1,-1,-1,-1,-1,-1],"split_conditions":[9.8E0,-3.3333334E-1,1.3633333E0,1.98563E3,7.82E-1,1.87237E3,2E0,5.5835005E-2,-1.1313982E-4,1.70573E3,2.544E0,1.918E0,1.296E0,5.8424015E-2,5.534399E-3,4.1096624E-2,-7.440368E-3,-2.0981047E-2,2.2292607E-2,6.8155783E-3,-1.731786E-2,-2.4294248E-2,4.061974E-3],"split_indices":[10,29,24,5,16,5,28,0,0,5,7,6,15,0,0,0,0,0,0,0,0,0,0],"split_type":[0,0,0,0,0,0,0,0,0,0,0,0,0,0,0,0,0,0,0,0,0,0,0],"sum_hessian":[2.531789E2,5.423784E1,1.9894106E2,4.7281423E0,4.9509697E1,1.957643E2,3.176748E0,3.2357101E0,1.4924321E0,5.8665905E0,4.3643105E1,1.5867966E2,3.7084637E1,2.0484982E0,1.12825E0,1.6179676E0,4.248623E0,4.2226025E1,1.4170828E0,1.4804233E2,1.0637327E1,1.777348E1,1.9311157E1],"tree_param":{"num_deleted":"0","num_feature":"30","num_nodes":"23","size_leaf_vector":"1"}},{"base_weights":[2.2950447E-3,1.9607182E-1,-2.123844E-1,4.1333064E-1,5.3967115E-2,-3.4467548E-1,-3.9132692E-2,-4.6237716E-1,4.852347E-1,-2.0552294E-2,5.3650063E-1,-2.084623E-1,-4.6738225E-1,3.0839887E-1,-1.6566855E-1,-1.6731076E-3,-3.037086E-2,-1.7286235E-2,2.698085E-2,1.1533663E-2,-7.239537E-3,3.746131E-2,-2.484168E-2,6.282668E-5,-2.666007E-2,-3.1692263E-2,-1.7073229E-2,-3.5430621E-3,4.1013017E-2,1.312188E-2,-1.286983E-2],"categories":[],"categories_nodes":[],"categories_segments":[],"categories_sizes":[],"default_left":[1,1,1,0,1,0,0,0,0,0,0,0,1,0,0,0,0,0,0,0,0,0,0,0,0,0,0,0,0,0,0],"id":41,"left_children":[1,3,5,7,9,11,13,15,17,19,21,23,25,27,29,-1,-1,-1,-1,-1,-1,-1,-1,-1,-1,-1,-1,-1,-1,-1,-1],"loss_changes":[1.24756155E1,4.8438225E0,3.2475038E0,4.13941E0,3.4787843E0,1.2488775E0,2.8096933E0,3.0502856E-1,2.8051243E0,2.6708302E0,3.2162156E0,2.723359E0,6.5489674E-1,3.3764198E0,1.8989763E0,0E0,0E0,0E0,0E0,0E0,0E0,0E0,0E0,0E0,0E0,0E0,0E0,0E0,0E0,0E0,0E0],"parents":[2147483647,0,0,1,1,2,2,3,3,4,4,5,5,6,6,7,7,8,8,9,9,10,10,11,11,12,12,13,13,14,14],"right_children":[2,4,6,8,10,12,14,16,18,20,22,24,26,28,30,-1,-1,-1,-1,-1,-1,-1,-1,-1,-1,-1,-1,-1,-1,-1,-1],"split_conditions":[-2.102E1,3.3333333E0,1E-2,-3.92E-1,1.1875E1,1.0574E2,-2.25E0,1.2E0,-1E0,1.164E0,4E-1,1.78722E3,3.16E-1,7.0104165E0,3.09375E0,-1.6731076E-3,-3.037086E-2,-1.7286235E-2,2.698085E-2,1.1533663E-2,-7.239537E-3,3.746131E-2,-2.484168E-2,6.282668E-5,-2.666007E-2,-3.1692263E-2,-1.7073229E-2,-3.5430621E-3,4.1013017E-2,1.312188E-2,-1.286983E-2],"split_indices":[21,8,25,25,4,21,28,9,24,6,11,14,24,4,4,0,0,0,0,0,0,0,0,0,0,0,0,0,0,0,0],"split_type":[0,0,0,0,0,0,0,0,0,0,0,0,0,0,0,0,0,0,0,0,0,0,0,0,0,0,0,0,0,0,0],"sum_hessian":[2.9789435E2,1.5661508E2,1.4127927E2,6.117625E1,9.5438835E1,7.954844E1,6.173083E1,4.2299466E0,5.6946304E1,8.350089E1,1.1937941E1,3.8978462E1,4.0569977E1,1.609328E1,4.563755E1,1.3799231E0,2.8500237E0,3.1688664E0,5.3777435E1,2.7346394E1,5.61545E1,1.0127916E1,1.8100234E0,2.4288746E1,1.4689716E1,1.5734798E1,2.483518E1,9.738885E0,6.3543963E0,7.7246447E0,3.7912907E1],"tree_param":{"num_deleted":"0","num_feature":"30","num_nodes":"31","size_leaf_vector":"1"}},{"base_weights":[-9.612733E-3,-1.1083768E-1,2.859978E-1,-1.4075714E-1,4.8340628E-1,3.662456E-1,-2.1507185E-2,-2.9841506E-1,-4.444865E-2,6.603903E-1,-1.3456883E-2,-1.4706743E-1,4.3452194E-1,1.7891565E-1,-3.38224E-2,-1.8679395E-2,-3.265458E-3,1.0777114E-2,-4.813065E-3,4.2242657E-2,1.5191267E-2,2.7943272E-2,-1.8950759E-2,3.469776E-2,1.5918998E-2,1.9702462E-2,-3.143094E-2],"categories":[],"categories_nodes":[],"categories_segments":[],"categories_sizes":[],"default_left":[1,1,1,1,1,0,0,1,1,0,0,0,1,0,0,0,0,0,0,0,0,0,0,0,0,0,0],"id":42,"left_children":[1,3,5,7,9,11,13,15,17,19,-1,21,23,25,-1,-1,-1,-1,-1,-1,-1,-1,-1,-1,-1,-1,-1],"loss_changes":[9.639823E0,4.333501E0,2.0358958E0,3.4666142E0,1.7394533E0,2.3500614E0,2.4776275E0,1.4954863E0,1.9531136E0,3.867426E-1,0E0,1.5880468E0,1.5214157E0,2.7732224E0,0E0,0E0,0E0,0E0,0E0,0E0,0E0,0E0,0E0,0E0,0E0,0E0,0E0],"parents":[2147483647,0,0,1,1,2,2,3,3,4,4,5,5,6,6,7,7,8,8,9,9,11,11,12,12,13,13],"right_children":[2,4,6,8,10,12,14,16,18,20,-1,22,24,26,-1,-1,-1,-1,-1,-1,-1,-1,-1,-1,-1,-1,-1],"split_conditions":[9.683E1,1.93503E3,1.4E-1,-1.2063E2,9.583333E-1,1.056E0,7.8541665E0,1.79682E3,-5.74E-1,3.2E0,-1.3456883E-2,1E0,8E-1,3.0833333E0,-3.38224E-2,-1.8679395E-2,-3.265458E-3,1.0777114E-2,-4.813065E-3,4.2242657E-2,1.5191267E-2,2.7943272E-2,-1.8950759E-2,3.469776E-2,1.5918998E-2,1.9702462E-2,-3.143094E-2],"split_indices":[21,5,25,21,22,6,13,5,24,9,0,18,26,28,0,0,0,0,0,0,0,0,0,0,0,0,0],"split_type":[0,0,0,0,0,0,0,0,0,0,0,0,0,0,0,0,0,0,0,0,0,0,0,0,0,0,0],"sum_hessian":[3.200932E2,2.3890932E2,8.118388E1,2.2818369E2,1.0725639E1,6.4230896E1,1.695299E1,8.573543E1,1.4244826E2,8.782596E0,1.943044E0,7.404985E0,5.682591E1,1.3537201E1,3.4157882E0,6.437341E1,2.1362019E1,2.3145634E1,1.1930262E2,4.88566E0,3.8969352E0,1.4827602E0,5.9222245E0,1.6034237E1,4.079167E1,1.1093767E1,2.4434338E0],"tree_param":{"num_deleted":"0","num_feature":"30","num_nodes":"27","size_leaf_vector":"1"}},{"base_weights":[-2.5969679E-2,-3.6025542E-1,9.773356E-4,-2.8633926E-2,-5.675894E-2,-3.864929E-1,2.5039807E-2,3.1006182E-2,-2.3084316E-1,2.8729236E-2,-5.191035E-1,7.941136E-3,5.4264545E-1,-2.540501E-2,1.588837E-2,-2.9539675E-2,5.469642E-3,7.891931E-3,-2.974081E-3,-4.3819053E-3,6.0819793E-2],"categories":[],"categories_nodes":[],"categories_segments":[],"categories_sizes":[],"default_left":[1,0,0,0,0,0,0,0,1,0,0,1,1,0,0,0,0,0,0,0,0],"id":43,"left_children":[1,3,5,-1,7,9,11,-1,13,-1,15,17,19,-1,-1,-1,-1,-1,-1,-1,-1],"loss_changes":[2.270559E0,1.1797068E0,2.1934104E0,0E0,1.1862026E0,2.051417E0,1.9557168E0,0E0,1.3432795E0,0E0,6.3293815E-1,2.1862845E0,3.107647E0,0E0,0E0,0E0,0E0,0E0,0E0,0E0,0E0],"parents":[2147483647,0,0,1,1,2,2,4,4,5,5,6,6,8,8,10,10,11,11,12,12],"right_children":[2,4,6,-1,8,10,12,-1,14,-1,16,18,20,-1,-1,-1,-1,-1,-1,-1,-1],"split_conditions":[7E0,1.6E1,-2.2083333E0,-2.8633926E-2,1.65161E3,3E0,8E-1,3.1006182E-2,2E0,2.8729236E-2,2.004E0,1.8E0,1.83505E3,-2.540501E-2,1.588837E-2,-2.9539675E-2,5.469642E-3,7.891931E-3,-2.974081E-3,-4.3819053E-3,6.0819793E-2],"split_indices":[10,19,22,0,5,8,11,0,18,0,7,18,14,0,0,0,0,0,0,0,0],"split_type":[0,0,0,0,0,0,0,0,0,0,0,0,0,0,0,0,0,0,0,0,0],"sum_hessian":[2.5102113E2,1.780282E1,2.332183E2,9.950993E0,7.8518286E0,1.2755676E1,2.2046263E2,1.0821104E0,6.769718E0,1.1425228E0,1.1613153E1,2.143956E2,6.067037E0,4.5460668E0,2.2236514E0,1.0477964E1,1.1351893E0,6.609935E1,1.4829625E2,3.5840945E0,2.4829426E0],"tree_param":{"num_deleted":"0","num_feature":"30","num_nodes":"21","size_leaf_vector":"1"}},{"base_weights":[-2.357531E-3,1.20387E-1,-4.1722083E-1,3.2957557E-1,-1.411156E-2,-4.516429E-1,2.4232695E-2,-2.7038795E-1,3.9581206E-1,-4.5060056E-1,8.577873E-2,-5.157567E-1,-4.0366184E-2,-2.6118666E-2,1.8768515E-2,2.1503126E-2,-2.7863195E-2,-2.547962E-2,2.239165E-2,3.1270694E-2,7.200504E-4,-2.9892743E-2,-1.5713995E-2,-2.1506978E-2,2.3967605E-2],"categories":[],"categories_nodes":[],"categories_segments":[],"categories_sizes":[],"default_left":[1,1,1,0,1,1,0,0,1,0,0,1,0,0,0,0,0,0,0,0,0,0,0,0,0],"id":44,"left_children":[1,3,5,7,9,11,-1,13,15,17,19,21,23,-1,-1,-1,-1,-1,-1,-1,-1,-1,-1,-1,-1],"loss_changes":[1.5208441E1,6.4895115E0,2.3357382E0,3.6930962E0,6.19715E0,1.7247372E0,0E0,1.7527025E0,2.9057503E0,1.6308317E0,4.4506865E0,7.580061E-1,2.2345064E0,0E0,0E0,0E0,0E0,0E0,0E0,0E0,0E0,0E0,0E0,0E0,0E0],"parents":[2147483647,0,0,1,1,2,2,3,3,4,4,5,5,7,7,8,8,9,9,10,10,11,11,12,12],"right_children":[2,4,6,8,10,12,-1,14,16,18,20,22,24,-1,-1,-1,-1,-1,-1,-1,-1,-1,-1,-1,-1],"split_conditions":[8.414E1,1.072E0,2.18E1,-1.04E0,1.048E0,1.29375E1,2.4232695E-2,8.104167E0,1.6E1,2.074E0,1.178E0,1.8E0,1E0,-2.6118666E-2,1.8768515E-2,2.1503126E-2,-2.7863195E-2,-2.547962E-2,2.239165E-2,3.1270694E-2,7.200504E-4,-2.9892743E-2,-1.5713995E-2,-2.1506978E-2,2.3967605E-2],"split_indices":[21,6,19,24,15,4,0,4,13,6,15,26,27,0,0,0,0,0,0,0,0,0,0,0,0],"split_type":[0,0,0,0,0,0,0,0,0,0,0,0,0,0,0,0,0,0,0,0,0,0,0,0,0],"sum_hessian":[2.9667395E2,2.2948627E2,6.71877E1,8.9239586E1,1.4024669E2,6.519846E1,1.9892284E0,8.566146E0,8.067344E1,2.546439E1,1.14782295E2,5.6185658E1,9.012809E0,6.299175E0,2.2669709E0,7.8404594E1,2.2688446E0,2.430153E1,1.1628578E0,1.2501967E1,1.0228033E2,3.8521496E1,1.7664162E1,5.2487564E0,3.7640522E0],"tree_param":{"num_deleted":"0","num_feature":"30","num_nodes":"25","size_leaf_vector":"1"}},{"base_weights":[1.4390276E-2,-8.8996775E-2,3.305714E-1,-2.935035E-1,2.153645E-2,2.1401757E-1,5.9096414E-1,-3.534625E-1,2.282567E-1,6.371588E-2,-4.4131422E-1,2.987948E-1,-3.3790916E-1,2.4252075E-1,6.9194484E-1,-2.1109732E-2,-2.0564606E-3,4.3234784E-2,-9.749583E-3,7.565318E-3,-6.1098505E-3,-3.1255104E-2,1.3574279E-2,1.7543396E-2,-3.1089565E-2,-3.2153834E-2,2.9100446E-2,-1.9975873E-2,3.459989E-2,2.6992096E-3,4.202911E-2],"categories":[],"categories_nodes":[],"categories_segments":[],"categories_sizes":[],"default_left":[1,1,1,1,1,1,0,0,1,0,0,1,0,0,0,0,0,0,0,0,0,0,0,0,0,0,0,0,0,0,0],"id":45,"left_children":[1,3,5,7,9,11,13,15,17,19,21,23,25,27,29,-1,-1,-1,-1,-1,-1,-1,-1,-1,-1,-1,-1,-1,-1,-1,-1],"loss_changes":[1.0450396E1,5.4546347E0,2.2640657E0,2.7283592E0,3.1008432E0,2.7202778E0,6.691656E-1,1.6206388E0,2.6820948E0,2.381659E0,1.9083004E0,2.5698137E0,2.5984707E0,2.2631612E0,1.652257E0,0E0,0E0,0E0,0E0,0E0,0E0,0E0,0E0,0E0,0E0,0E0,0E0,0E0,0E0,0E0,0E0],"parents":[2147483647,0,0,1,1,2,2,3,3,4,4,5,5,6,6,7,7,8,8,9,9,10,10,11,11,12,12,13,13,14,14],"right_children":[2,4,6,8,10,12,14,16,18,20,22,24,26,28,30,-1,-1,-1,-1,-1,-1,-1,-1,-1,-1,-1,-1,-1,-1,-1,-1],"split_conditions":[1.86302E3,-1.1171E2,1.604E0,1.746E0,4.2E0,1.466E0,3.125E0,1.774E0,5.42E-1,1.80663E3,5E-1,1.012E0,1.934E0,5E0,2.6666667E0,-2.1109732E-2,-2.0564606E-3,4.3234784E-2,-9.749583E-3,7.565318E-3,-6.1098505E-3,-3.1255104E-2,1.3574279E-2,1.7543396E-2,-3.1089565E-2,-3.2153834E-2,2.9100446E-2,-1.9975873E-2,3.459989E-2,2.6992096E-3,4.202911E-2],"split_indices":[5,21,16,6,28,16,4,16,25,5,27,24,15,13,17,0,0,0,0,0,0,0,0,0,0,0,0,0,0,0,0],"split_type":[0,0,0,0,0,0,0,0,0,0,0,0,0,0,0,0,0,0,0,0,0,0,0,0,0,0,0,0,0,0,0],"sum_hessian":[3.1779117E2,2.4002478E2,7.7766396E1,8.363302E1,1.5639175E2,5.4979183E1,2.2787214E1,7.53021E1,8.330919E0,1.4412044E2,1.2271311E1,4.805626E1,6.922921E0,5.884352E0,1.6902863E1,6.1431686E1,1.3870414E1,2.910859E0,5.42006E0,9.8091866E1,4.602858E1,9.853677E0,2.4176333E0,4.6069214E1,1.9870466E0,5.4244065E0,1.4985149E0,2.4688988E0,3.4154534E0,3.451595E0,1.3451267E1],"tree_param":{"num_deleted":"0","num_feature":"30","num_nodes":"31","size_leaf_vector":"1"}},{"base_weights":[-5.1030032E-3,4.9052767E-2,-2.0617631E-1,-7.6059885E-3,2.7191156E-1,-4.0432894E-1,4.5999542E-2,4.882976E-2,-2.4515832E-2,5.243764E-1,-6.94168E-2,4.9662963E-1,-4.908145E-1,-3.9803723E-1,3.3149004E-1,-4.5425664E-3,1.056541E-2,-1.4885375E-2,3.4392398E-2,-1.5363203E-2,2.0282213E-2,-1.6208708E-2,5.2019693E-2,-2.6049623E-2,7.084347E-3,2.0920716E-3,-2.7519021E-2,-1.375317E-2,3.692117E-2],"categories":[],"categories_nodes":[],"categories_segments":[],"categories_sizes":[],"default_left":[0,1,1,0,0,0,1,0,1,0,0,0,1,1,0,0,0,0,0,0,0,0,0,0,0,0,0,0,0],"id":46,"left_children":[1,3,5,7,9,11,13,-1,15,17,19,21,23,25,27,-1,-1,-1,-1,-1,-1,-1,-1,-1,-1,-1,-1,-1,-1],"loss_changes":[2.7862887E0,2.5483825E0,2.7313244E0,2.715967E0,3.561207E0,2.620494E0,3.2739577E0,0E0,2.5221193E0,3.3802733E0,2.1894805E0,1.7514958E0,6.146412E-1,7.0346355E-1,4.0614185E0,0E0,0E0,0E0,0E0,0E0,0E0,0E0,0E0,0E0,0E0,0E0,0E0,0E0,0E0],"parents":[2147483647,0,0,1,1,2,2,3,3,4,4,5,5,6,6,8,8,9,9,10,10,11,11,12,12,13,13,14,14],"right_children":[2,4,6,8,10,12,14,-1,16,18,20,22,24,26,28,-1,-1,-1,-1,-1,-1,-1,-1,-1,-1,-1,-1,-1,-1],"split_conditions":[1.764E0,5.4E0,1.83432E3,4.5E-1,3.36E-1,1.65749E3,1.06E1,4.882976E-2,2.8E0,3E0,1.46E1,1.59874E3,7.2E0,-2.1041667E0,-1.2E0,-4.5425664E-3,1.056541E-2,-1.4885375E-2,3.4392398E-2,-1.5363203E-2,2.0282213E-2,-1.6208708E-2,5.2019693E-2,-2.6049623E-2,7.084347E-3,2.0920716E-3,-2.7519021E-2,-1.375317E-2,3.692117E-2],"split_indices":[6,17,5,15,25,5,19,0,28,8,19,5,8,22,28,0,0,0,0,0,0,0,0,0,0,0,0,0,0],"split_type":[0,0,0,0,0,0,0,0,0,0,0,0,0,0,0,0,0,0,0,0,0,0,0,0,0,0,0,0,0],"sum_hessian":[2.5394571E2,2.0065787E2,5.3287834E1,1.6075421E2,3.9903656E1,2.950236E1,2.3785475E1,1.7566915E0,1.5899753E2,2.2629433E1,1.7274225E1,2.1686134E0,2.7333746E1,9.153847E0,1.4631629E1,1.2457132E2,3.4426205E1,3.6172826E0,1.901215E1,1.1746404E1,5.527822E0,1.0250895E0,1.1435238E0,2.6257256E1,1.0764894E0,2.5413244E0,6.612522E0,6.0049796E0,8.626649E0],"tree_param":{"num_deleted":"0","num_feature":"30","num_nodes":"29","size_leaf_vector":"1"}},{"base_weights":[5.705247E-3,1.7496675E-1,-2.4149191E-1,2.7989292E-1,-1.11144386E-1,-5.8287644E-1,-1.7050499E-1,3.8888416E-1,1.0882988E-1,5.719049E-1,-2.4860266E-1,-3.137482E-2,-3.239514E-1,-2.6614424E-2,-3.267582E-1,-1.31611E-2,2.243532E-2,1.322494E-2,-2.0634485E-2,4.5069862E-2,-1.1591143E-2,-1.51333185E-2,3.7376046E-2,8.386403E-3,-2.440995E-2,-1.799051E-2,4.9605635E-3,8.693604E-3,-1.886421E-2],"categories":[],"categories_nodes":[],"categories_segments":[],"categories_sizes":[],"default_left":[1,1,1,1,0,1,0,0,1,0,1,0,0,0,0,0,0,0,0,0,0,0,0,0,0,0,0,0,0],"id":47,"left_children":[1,3,5,7,9,11,13,15,17,19,21,-1,23,25,27,-1,-1,-1,-1,-1,-1,-1,-1,-1,-1,-1,-1,-1,-1],"loss_changes":[1.2679705E1,5.43057E0,2.8856559E0,2.4165354E0,4.7406573E0,3.6919117E-2,2.3157682E0,3.2454853E0,4.388733E0,2.4620726E0,2.4595208E0,0E0,4.9563223E-1,2.3378124E0,1.3170648E0,0E0,0E0,0E0,0E0,0E0,0E0,0E0,0E0,0E0,0E0,0E0,0E0,0E0,0E0],"parents":[2147483647,0,0,1,1,2,2,3,3,4,4,5,5,6,6,7,7,8,8,9,9,10,10,12,12,13,13,14,14],"right_children":[2,4,6,8,10,12,14,16,18,20,22,-1,24,26,28,-1,-1,-1,-1,-1,-1,-1,-1,-1,-1,-1,-1,-1,-1],"split_conditions":[-1.2E0,1.402E0,8.36E-1,-1.1299E2,1E1,4E-1,1.84234E3,-1.04E0,1.718E0,2.5E-1,1.50625E1,-3.137482E-2,5.0104165E0,-4E-1,2.8020833E0,-1.31611E-2,2.243532E-2,1.322494E-2,-2.0634485E-2,4.5069862E-2,-1.1591143E-2,-1.51333185E-2,3.7376046E-2,8.386403E-3,-2.440995E-2,-1.799051E-2,4.9605635E-3,8.693604E-3,-1.886421E-2],"split_indices":[21,6,15,21,10,29,5,24,16,20,13,0,13,26,4,0,0,0,0,0,0,0,0,0,0,0,0,0,0],"split_type":[0,0,0,0,0,0,0,0,0,0,0,0,0,0,0,0,0,0,0,0,0,0,0,0,0,0,0,0,0],"sum_hessian":[3.010354E2,1.7885887E2,1.2217653E2,1.3088197E2,4.7976906E1,1.9790524E1,1.02386E2,7.916768E1,5.1714287E1,7.508007E0,4.04689E1,1.5667168E1,4.123355E0,5.3910862E1,4.847514E1,6.366635E0,7.280105E1,4.020599E1,1.1508297E1,5.2388096E0,2.2691977E0,3.9045876E1,1.4230237E0,1.0272036E0,3.0961514E0,1.426815E1,3.964271E1,4.220051E0,4.425509E1],"tree_param":{"num_deleted":"0","num_feature":"30","num_nodes":"29","size_leaf_vector":"1"}},{"base_weights":[-1.2667234E-2,-1.2757504E-1,1.8917747E-1,-2.4049377E-1,3.332244E-2,4.8607054E-1,1.0009561E-1,4.1206327E-1,-2.6881745E-1,-1.9349799E-1,2.2378588E-1,6.1066043E-1,-1.7981158E-1,7.537609E-1,4.8934136E-2,3.9848607E-2,-9.7750155E-3,-1.5143344E-2,1.3448975E-2,2.2998322E-2,-1.3695522E-2,2.918391E-2,-2.14526E-3,-2.4469816E-3,3.663984E-2,1.6545696E-2,-3.1054277E-2,1.1116551E-2,4.3425065E-2,-1.0607327E-2,1.0822305E-2],"categories":[],"categories_nodes":[],"categories_segments":[],"categories_sizes":[],"default_left":[1,1,1,0,1,1,0,0,1,0,0,0,0,0,0,0,0,0,0,0,0,0,0,0,0,0,0,0,0,0,0],"id":48,"left_children":[1,3,5,7,9,11,13,15,17,19,21,23,25,27,29,-1,-1,-1,-1,-1,-1,-1,-1,-1,-1,-1,-1,-1,-1,-1,-1],"loss_changes":[7.3503733E0,3.6758792E0,2.9926286E0,2.3056026E0,3.677901E0,2.2900896E0,2.9632897E0,1.4033487E0,2.1766014E0,2.1720161E0,4.4588404E0,1.8376732E0,1.3131534E0,1.9974542E-1,3.7313502E0,0E0,0E0,0E0,0E0,0E0,0E0,0E0,0E0,0E0,0E0,0E0,0E0,0E0,0E0,0E0,0E0],"parents":[2147483647,0,0,1,1,2,2,3,3,4,4,5,5,6,6,7,7,8,8,9,9,10,10,11,11,12,12,13,13,14,14],"right_children":[2,4,6,8,10,12,14,16,18,20,22,24,26,28,30,-1,-1,-1,-1,-1,-1,-1,-1,-1,-1,-1,-1,-1,-1,-1,-1],"split_conditions":[4.108E1,1.78023E3,-1E0,6.96E-1,2.2E0,6E-1,1.73308E3,5.82E-1,1.4104167E1,1.78694E3,1.81839E3,1.004E0,2.25E0,8.6E0,1.82755E3,3.9848607E-2,-9.7750155E-3,-1.5143344E-2,1.3448975E-2,2.2998322E-2,-1.3695522E-2,2.918391E-2,-2.14526E-3,-2.4469816E-3,3.663984E-2,1.6545696E-2,-3.1054277E-2,1.1116551E-2,4.3425065E-2,-1.0607327E-2,1.0822305E-2],"split_indices":[21,5,22,15,9,11,5,24,13,5,5,16,9,10,5,0,0,0,0,0,0,0,0,0,0,0,0,0,0,0,0],"split_type":[0,0,0,0,0,0,0,0,0,0,0,0,0,0,0,0,0,0,0,0,0,0,0,0,0,0,0,0,0,0,0],"sum_hessian":[3.148742E2,2.0088226E2,1.1399194E2,1.1774998E2,8.313229E1,2.5280466E1,8.871148E1,4.334638E0,1.1341534E2,3.7937313E1,4.519498E1,2.1365755E1,3.9147105E0,5.4424872E0,8.326899E1,2.4626977E0,1.8719406E0,1.0707308E2,6.3422556E0,3.6396823E0,3.429763E1,1.8730326E1,2.6464653E1,3.4317605E0,1.7933994E1,1.930484E0,1.9842263E0,1.4880672E0,3.95442E0,3.244087E1,5.082812E1],"tree_param":{"num_deleted":"0","num_feature":"30","num_nodes":"31","size_leaf_vector":"1"}},{"base_weights":[-5.3064814E-3,4.1602053E-2,-1.9058016E-1,-1.8000914E-2,2.9806012E-1,3.140455E-2,-2.3319401E-1,-7.560992E-2,3.517004E-1,5.4744375E-1,-3.8059637E-2,-3.9772972E-1,-1.23996725E-2,-8.01802E-3,1.0663851E-2,2.501886E-2,-1.5897322E-2,5.5088904E-2,1.36955E-2,-2.7301846E-2,9.034727E-3,-2.293101E-2,2.801067E-2,-1.6669927E-2,1.3627908E-2],"categories":[],"categories_nodes":[],"categories_segments":[],"categories_sizes":[],"default_left":[0,1,0,1,0,0,1,1,0,0,0,1,1,0,0,0,0,0,0,0,0,0,0,0,0],"id":49,"left_children":[1,3,5,7,9,-1,11,13,15,17,19,21,23,-1,-1,-1,-1,-1,-1,-1,-1,-1,-1,-1,-1],"loss_changes":[2.2298157E0,3.1362665E0,1.954655E0,3.5864217E0,3.263365E0,0E0,1.8113172E0,3.5948582E0,2.4201987E0,3.0752697E0,2.0334496E0,1.9260297E0,2.1379995E0,0E0,0E0,0E0,0E0,0E0,0E0,0E0,0E0,0E0,0E0,0E0,0E0],"parents":[2147483647,0,0,1,1,2,2,3,3,4,4,6,6,7,7,8,8,9,9,10,10,11,11,12,12],"right_children":[2,4,6,8,10,-1,12,14,16,18,20,22,