{"learner":{"attributes":{"scikit_learn":"{\"_estimator_type\": \"classifier\"}"},"feature_names":["is_cup_match","is_european_match","is_premier_league_match","home_last5_matches","home_days_rest","home_current_elo","home_last5_avg_xg","home_last5_avg_xga","home_last5_avg_shots_on_target","home_last5_avg_big_chances","home_last5_avg_tackles_won","home_last5_clean_sheet_rate","away_last5_matches","away_days_rest","away_current_elo","away_last5_avg_xg","away_last5_avg_xga","away_last5_avg_shots_on_target","away_last5_avg_big_chances","away_last5_avg_tackles_won","away_last5_clean_sheet_rate","elo_diff","days_rest_diff","last5_matches_diff","last5_avg_xg_diff","last5_avg_xga_diff","last5_avg_shots_on_target_diff","last5_avg_big_chances_diff","last5_avg_tackles_won_diff","last5_clean_sheet_rate_diff"],"feature_types":["int","int","int","int","float","float","float","float","float","float","float","float","int","float","float","float","float","float","float","float","float","float","float","int","float","float","float","float","float","float"],"gradient_booster":{"model":{"cats":{"enc":[],"feature_segments":[],"sorted_idx":[]},"gbtree_model_param":{"num_parallel_tree":"1","num_trees":"1200"},"iteration_indptr":[0,3,6,9,12,15,18,21,24,27,30,33,36,39,42,45,48,51,54,57,60,63,66,69,72,75,78,81,84,87,90,93,96,99,102,105,108,111,114,117,120,123,126,129,132,135,138,141,144,147,150,153,156,159,162,165,168,171,174,177,180,183,186,189,192,195,198,201,204,207,210,213,216,219,222,225,228,231,234,237,240,243,246,249,252,255,258,261,264,267,270,273,276,279,282,285,288,291,294,297,300,303,306,309,312,315,318,321,324,327,330,333,336,339,342,345,348,351,354,357,360,363,366,369,372,375,378,381,384,387,390,393,396,399,402,405,408,411,414,417,420,423,426,429,432,435,438,441,444,447,450,453,456,459,462,465,468,471,474,477,480,483,486,489,492,495,498,501,504,507,510,513,516,519,522,525,528,531,534,537,540,543,546,549,552,555,558,561,564,567,570,573,576,579,582,585,588,591,594,597,600,603,606,609,612,615,618,621,624,627,630,633,636,639,642,645,648,651,654,657,660,663,666,669,672,675,678,681,684,687,690,693,696,699,702,705,708,711,714,717,720,723,726,729,732,735,738,741,744,747,750,753,756,759,762,765,768,771,774,777,780,783,786,789,792,795,798,801,804,807,810,813,816,819,822,825,828,831,834,837,840,843,846,849,852,855,858,861,864,867,870,873,876,879,882,885,888,891,894,897,900,903,906,909,912,915,918,921,924,927,930,933,936,939,942,945,948,951,954,957,960,963,966,969,972,975,978,981,984,987,990,993,996,999,1002,1005,1008,1011,1014,1017,1020,1023,1026,1029,1032,1035,1038,1041,1044,1047,1050,1053,1056,1059,1062,1065,1068,1071,1074,1077,1080,1083,1086,1089,1092,1095,1098,1101,1104,1107,1110,1113,1116,1119,1122,1125,1128,1131,1134,1137,1140,1143,1146,1149,1152,1155,1158,1161,1164,1167,1170,1173,1176,1179,1182,1185,1188,1191,1194,1197,1200],"tree_info":[0,1,2,0,1,2,0,1,2,0,1,2,0,1,2,0,1,2,0,1,2,0,1,2,0,1,2,0,1,2,0,1,2,0,1,2,0,1,2,0,1,2,0,1,2,0,1,2,0,1,2,0,1,2,0,1,2,0,1,2,0,1,2,0,1,2,0,1,2,0,1,2,0,1,2,0,1,2,0,1,2,0,1,2,0,1,2,0,1,2,0,1,2,0,1,2,0,1,2,0,1,2,0,1,2,0,1,2,0,1,2,0,1,2,0,1,2,0,1,2,0,1,2,0,1,2,0,1,2,0,1,2,0,1,2,0,1,2,0,1,2,0,1,2,0,1,2,0,1,2,0,1,2,0,1,2,0,1,2,0,1,2,0,1,2,0,1,2,0,1,2,0,1,2,0,1,2,0,1,2,0,1,2,0,1,2,0,1,2,0,1,2,0,1,2,0,1,2,0,1,2,0,1,2,0,1,2,0,1,2,0,1,2,0,1,2,0,1,2,0,1,2,0,1,2,0,1,2,0,1,2,0,1,2,0,1,2,0,1,2,0,1,2,0,1,2,0,1,2,0,1,2,0,1,2,0,1,2,0,1,2,0,1,2,0,1,2,0,1,2,0,1,2,0,1,2,0,1,2,0,1,2,0,1,2,0,1,2,0,1,2,0,1,2,0,1,2,0,1,2,0,1,2,0,1,2,0,1,2,0,1,2,0,1,2,0,1,2,0,1,2,0,1,2,0,1,2,0,1,2,0,1,2,0,1,2,0,1,2,0,1,2,0,1,2,0,1,2,0,1,2,0,1,2,0,1,2,0,1,2,0,1,2,0,1,2,0,1,2,0,1,2,0,1,2,0,1,2,0,1,2,0,1,2,0,1,2,0,1,2,0,1,2,0,1,2,0,1,2,0,1,2,0,1,2,0,1,2,0,1,2,0,1,2,0,1,2,0,1,2,0,1,2,0,1,2,0,1,2,0,1,2,0,1,2,0,1,2,0,1,2,0,1,2,0,1,2,0,1,2,0,1,2,0,1,2,0,1,2,0,1,2,0,1,2,0,1,2,0,1,2,0,1,2,0,1,2,0,1,2,0,1,2,0,1,2,0,1,2,0,1,2,0,1,2,0,1,2,0,1,2,0,1,2,0,1,2,0,1,2,0,1,2,0,1,2,0,1,2,0,1,2,0,1,2,0,1,2,0,1,2,0,1,2,0,1,2,0,1,2,0,1,2,0,1,2,0,1,2,0,1,2,0,1,2,0,1,2,0,1,2,0,1,2,0,1,2,0,1,2,0,1,2,0,1,2,0,1,2,0,1,2,0,1,2,0,1,2,0,1,2,0,1,2,0,1,2,0,1,2,0,1,2,0,1,2,0,1,2,0,1,2,0,1,2,0,1,2,0,1,2,0,1,2,0,1,2,0,1,2,0,1,2,0,1,2,0,1,2,0,1,2,0,1,2,0,1,2,0,1,2,0,1,2,0,1,2,0,1,2,0,1,2,0,1,2,0,1,2,0,1,2,0,1,2,0,1,2,0,1,2,0,1,2,0,1,2,0,1,2,0,1,2,0,1,2,0,1,2,0,1,2,0,1,2,0,1,2,0,1,2,0,1,2,0,1,2,0,1,2,0,1,2,0,1,2,0,1,2,0,1,2,0,1,2,0,1,2,0,1,2,0,1,2,0,1,2,0,1,2,0,1,2,0,1,2,0,1,2,0,1,2,0,1,2,0,1,2,0,1,2,0,1,2,0,1,2,0,1,2,0,1,2,0,1,2,0,1,2,0,1,2,0,1,2,0,1,2,0,1,2,0,1,2,0,1,2,0,1,2,0,1,2,0,1,2,0,1,2,0,1,2,0,1,2,0,1,2,0,1,2,0,1,2,0,1,2,0,1,2,0,1,2,0,1,2,0,1,2,0,1,2,0,1,2,0,1,2,0,1,2,0,1,2,0,1,2,0,1,2,0,1,2,0,1,2,0,1,2,0,1,2,0,1,2,0,1,2,0,1,2,0,1,2,0,1,2,0,1,2,0,1,2,0,1,2,0,1,2,0,1,2,0,1,2,0,1,2,0,1,2,0,1,2,0,1,2,0,1,2,0,1,2,0,1,2,0,1,2,0,1,2,0,1,2,0,1,2,0,1,2,0,1,2,0,1,2,0,1,2,0,1,2,0,1,2,0,1,2,0,1,2,0,1,2,0,1,2,0,1,2,0,1,2,0,1,2,0,1,2,0,1,2,0,1,2,0,1,2,0,1,2,0,1,2,0,1,2,0,1,2,0,1,2,0,1,2,0,1,2,0,1,2,0,1,2,0,1,2,0,1,2,0,1,2,0,1,2,0,1,2,0,1,2,0,1,2,0,1,2,0,1,2,0,1,2,0,1,2,0,1,2,0,1,2,0,1,2,0,1,2,0,1,2,0,1,2,0,1,2,0,1,2,0,1,2,0,1,2,0,1,2,0,1,2,0,1,2,0,1,2,0,1,2,0,1,2,0,1,2,0,1,2,0,1,2,0,1,2,0,1,2,0,1,2,0,1,2,0,1,2,0,1,2,0,1,2,0,1,2,0,1,2,0,1,2,0,1,2,0,1,2,0,1,2,0,1,2,0,1,2,0,1,2,0,1,2,0,1,2,0,1,2,0,1,2,0,1,2,0,1,2,0,1,2,0,1,2,0,1,2,0,1,2,0,1,2,0,1,2],"trees":[{"base_weights":[1.7334802E-2,-1.9541384E-1,3.9457428E-1,-6.4287275E-2,-4.3802297E-1,7.965748E-1,2.6681986E-1,-4.0074915E-1,7.935282E-2,-4.8131958E-1,2.9087732E-2,5.2187424E-2,3.907668E-1,2.0026904E-1,5.2803975E-2,-3.543994E-2,-1.1384017E-2,-5.910878E-3,1.2868931E-2,-2.5146527E-2,1.6144952E-2,3.3422526E-2,-1.827876E-2,-1.4165066E-2,1.541249E-2],"categories":[],"categories_nodes":[],"categories_segments":[],"categories_sizes":[],"default_left":[1,0,1,0,1,1,0,0,0,1,0,0,0,0,0,0,0,0,0,0,0,0,0,0,0],"id":0,"left_children":[1,3,5,7,9,11,13,15,17,19,-1,-1,21,23,-1,-1,-1,-1,-1,-1,-1,-1,-1,-1,-1],"loss_changes":[2.6005209E1,6.5645256E0,5.787382E0,6.5900173E0,3.4827452E0,2.367588E0,4.5240726E0,2.0119252E0,3.4046726E0,1.381258E0,0E0,0E0,2.7798629E0,4.4933414E0,0E0,0E0,0E0,0E0,0E0,0E0,0E0,0E0,0E0,0E0,0E0],"parents":[2147483647,0,0,1,1,2,2,3,3,4,4,5,5,6,6,7,7,8,8,9,9,12,12,13,13],"right_children":[2,4,6,8,10,12,14,16,18,20,-1,-1,22,24,-1,-1,-1,-1,-1,-1,-1,-1,-1,-1,-1],"split_conditions":[4.108E1,1.765E0,-1E0,-1.1171E2,7E0,2.5E-1,2.9385E2,1.424E0,1.408E0,2.515625E1,2.9087732E-2,5.2187424E-2,7.9583335E0,-1.04166664E-1,5.2803975E-2,-3.543994E-2,-1.1384017E-2,-5.910878E-3,1.2868931E-2,-2.5146527E-2,1.6144952E-2,3.3422526E-2,-1.827876E-2,-1.4165066E-2,1.541249E-2],"split_indices":[21,7,22,21,17,20,21,15,16,13,0,0,13,22,0,0,0,0,0,0,0,0,0,0,0],"split_type":[0,0,0,0,0,0,0,0,0,0,0,0,0,0,0,0,0,0,0,0,0,0,0,0,0],"sum_hessian":[3.2206268E2,2.0623566E2,1.1582703E2,1.3469827E2,7.153739E1,2.6670065E1,8.915697E1,3.9764393E1,9.4933876E1,6.913035E1,2.4070456E0,1.5597655E1,1.107241E1,8.338006E1,5.7769094E0,1.3190609E1,2.6573782E1,4.5156174E1,4.9777702E1,6.768612E1,1.4442273E0,8.183955E0,2.8884547E0,1.4923682E1,6.8456375E1],"tree_param":{"num_deleted":"0","num_feature":"30","num_nodes":"25","size_leaf_vector":"1"}},{"base_weights":[-2.4149679E-2,2.924987E-1,-7.20195E-2,8.452175E-1,1.20685875E-1,-2.6069278E-2,-4.3506008E-1,1.1561829E0,-4.227146E-3,4.363231E-2,3.6022283E-2,-6.1746895E-2,3.3939087E-1,2.01704E-2,-5.067179E-1,6.8800986E-2,6.0022827E-3,1.2842225E-2,-1.3122856E-2,-6.728367E-3,1.0053149E-2,-1.3527562E-2,3.293909E-2,-2.866523E-2,-1.1524893E-3],"categories":[],"categories_nodes":[],"categories_segments":[],"categories_sizes":[],"default_left":[0,0,0,0,0,1,0,1,0,0,0,1,0,0,1,0,0,0,0,0,0,0,0,0,0],"id":1,"left_children":[1,3,5,7,9,11,13,15,-1,-1,17,19,21,-1,23,-1,-1,-1,-1,-1,-1,-1,-1,-1,-1],"loss_changes":[3.838257E0,3.0573182E0,3.6513116E0,2.3305378E0,1.6585784E0,2.5759778E0,1.682683E0,1.1685238E0,0E0,0E0,1.7087665E0,3.4598954E0,3.6034741E0,0E0,7.3106194E-1,0E0,0E0,0E0,0E0,0E0,0E0,0E0,0E0,0E0,0E0],"parents":[2147483647,0,0,1,1,2,2,3,3,4,4,5,5,6,6,7,7,10,10,11,11,12,12,14,14],"right_children":[2,4,6,8,10,12,14,16,-1,-1,18,20,22,-1,24,-1,-1,-1,-1,-1,-1,-1,-1,-1,-1],"split_conditions":[1.004E0,1.098E0,1.4208333E1,3.25E0,1.68208E3,4.2E0,1.65161E3,1.87281E3,-4.227146E-3,4.363231E-2,1.35E1,5.2E0,1.26E0,2.01704E-2,1.44E1,6.8800986E-2,6.0022827E-3,1.2842225E-2,-1.3122856E-2,-6.728367E-3,1.0053149E-2,-1.3527562E-2,3.293909E-2,-2.866523E-2,-1.1524893E-3],"split_indices":[16,7,4,9,14,28,5,5,0,0,10,17,16,0,10,0,0,0,0,0,0,0,0,0,0],"split_type":[0,0,0,0,0,0,0,0,0,0,0,0,0,0,0,0,0,0,0,0,0,0,0,0,0],"sum_hessian":[2.5082848E2,3.2268585E1,2.185599E2,6.7226214E0,2.5545961E1,1.9495602E2,2.3603872E1,4.8552265E0,1.8673949E0,1.6433074E0,2.3902655E1,1.7837357E2,1.6582466E1,1.4939159E0,2.2109955E1,3.7347898E0,1.1204369E0,1.3818722E1,1.0083933E1,1.4005461E2,3.8318943E1,5.7515764E0,1.0830891E1,1.9271515E1,2.8384402E0],"tree_param":{"num_deleted":"0","num_feature":"30","num_nodes":"25","size_leaf_vector":"1"}},{"base_weights":[2.837409E-2,3.2718605E-1,-3.3317906E-1,6.255093E-1,1.04531586E-1,-1.4380614E-1,-4.7403988E-1,-1.8969385E-1,7.205725E-1,-3.344306E-1,2.376443E-1,9.137652E-2,-3.4658748E-1,-5.053538E-1,2.4513824E-2,-2.4632717E-2,2.8566346E-2,4.6820823E-2,1.4959878E-2,9.787443E-3,-2.4589334E-2,1.1345864E-3,1.998443E-2,-1.6791133E-2,2.7933497E-2,-2.1195477E-2,4.1423287E-2,-2.7135467E-2,1.4419234E-3],"categories":[],"categories_nodes":[],"categories_segments":[],"categories_sizes":[],"default_left":[1,1,0,0,1,0,1,0,1,0,0,0,1,1,0,0,0,0,0,0,0,0,0,0,0,0,0,0,0],"id":2,"left_children":[1,3,5,7,9,11,13,15,17,19,21,23,25,27,-1,-1,-1,-1,-1,-1,-1,-1,-1,-1,-1,-1,-1,-1,-1],"loss_changes":[3.312022E1,1.1080269E1,3.633235E0,5.6786137E0,5.7640104E0,2.9228024E0,2.6373844E0,2.185882E0,5.5636787E0,2.0194411E0,2.611446E0,5.9488974E0,3.327908E0,1.5549641E0,0E0,0E0,0E0,0E0,0E0,0E0,0E0,0E0,0E0,0E0,0E0,0E0,0E0,0E0,0E0],"parents":[2147483647,0,0,1,1,2,2,3,3,4,4,5,5,6,6,7,7,8,8,9,9,10,10,11,11,12,12,13,13],"right_children":[2,4,6,8,10,12,14,16,18,20,22,24,26,28,-1,-1,-1,-1,-1,-1,-1,-1,-1,-1,-1,-1,-1,-1,-1],"split_conditions":[-2.81E0,1.068E0,8.414E1,-1.04E0,3.125E0,4.2E0,2.18E1,8.104167E0,-1.2063E2,1.45E0,1.2E-1,1.6666666E0,6.9E-1,1.4E1,2.4513824E-2,-2.4632717E-2,2.8566346E-2,4.6820823E-2,1.4959878E-2,9.787443E-3,-2.4589334E-2,1.1345864E-3,1.998443E-2,-1.6791133E-2,2.7933497E-2,-2.1195477E-2,4.1423287E-2,-2.7135467E-2,1.4419234E-3],"split_indices":[21,6,21,24,13,17,19,4,21,15,25,18,25,4,0,0,0,0,0,0,0,0,0,0,0,0,0,0,0],"split_type":[0,0,0,0,0,0,0,0,0,0,0,0,0,0,0,0,0,0,0,0,0,0,0,0,0,0,0,0,0],"sum_hessian":[3.0455634E2,1.6679813E2,1.377582E2,7.0512596E1,9.628554E1,5.962262E1,7.8135574E1,7.259984E0,6.325261E1,2.2052202E1,7.423334E1,2.786019E1,3.176243E1,7.6139084E1,1.9964956E0,5.4449883E0,1.814996E0,4.101891E1,2.2233702E1,4.991239E0,1.7060963E1,3.239768E1,4.183566E1,1.47014675E1,1.3158721E1,3.0401182E1,1.3612471E0,7.114784E1,4.991239E0],"tree_param":{"num_deleted":"0","num_feature":"30","num_nodes":"29","size_leaf_vector":"1"}},{"base_weights":[-1.723585E-2,-2.3768534E-1,3.6201152E-1,-4.017038E-1,3.3844084E-2,1.3667573E-1,5.803581E-1,-5.686002E-1,-1.9009975E-1,1.6144046E-1,-3.5576615E-1,5.0876594E-1,-8.58588E-2,9.062215E-1,3.6834896E-1,-3.2561384E-2,-1.321652E-2,-3.7517154E-3,-3.344784E-2,1.5748646E-2,-1.1058549E-2,1.3415217E-2,-2.7014045E-2,3.5580117E-2,-1.5588026E-2,3.5820127E-2,-8.997257E-3,5.07437E-2,-1.0953973E-2,2.8381506E-2,2.4107486E-4],"categories":[],"categories_nodes":[],"categories_segments":[],"categories_sizes":[],"default_left":[1,1,0,1,0,1,1,1,1,1,0,1,0,1,0,0,0,0,0,0,0,0,0,0,0,0,0,0,0,0,0],"id":3,"left_children":[1,3,5,7,9,11,13,15,17,19,21,23,25,27,29,-1,-1,-1,-1,-1,-1,-1,-1,-1,-1,-1,-1,-1,-1,-1,-1],"loss_changes":[2.8183146E1,9.505692E0,6.0185013E0,4.5871525E0,4.0933323E0,5.202304E0,3.9934826E0,1.6838875E0,3.2626984E0,3.702562E0,2.4871747E0,4.1263194E0,3.1361263E0,3.1572304E0,2.8683863E0,0E0,0E0,0E0,0E0,0E0,0E0,0E0,0E0,0E0,0E0,0E0,0E0,0E0,0E0,0E0,0E0],"parents":[2147483647,0,0,1,1,2,2,3,3,4,4,5,5,6,6,7,7,8,8,9,9,10,10,11,11,12,12,13,13,14,14],"right_children":[2,4,6,8,10,12,14,16,18,20,22,24,26,28,30,-1,-1,-1,-1,-1,-1,-1,-1,-1,-1,-1,-1,-1,-1,-1,-1],"split_conditions":[3.772E1,1.78023E3,1.85727E3,-1.1171E2,1.704E0,9.18E-1,2E-1,1.54E1,1.808E0,1.8E0,1.07E0,1.68E1,9.333333E0,1.64E-1,4.28E-1,-3.2561384E-2,-1.321652E-2,-3.7517154E-3,-3.344784E-2,1.5748646E-2,-1.1058549E-2,1.3415217E-2,-2.7014045E-2,3.5580117E-2,-1.5588026E-2,3.5820127E-2,-8.997257E-3,5.07437E-2,-1.0953973E-2,2.8381506E-2,2.4107486E-4],"split_indices":[21,5,5,21,7,15,20,10,7,28,16,10,10,25,24,0,0,0,0,0,0,0,0,0,0,0,0,0,0,0,0],"split_type":[0,0,0,0,0,0,0,0,0,0,0,0,0,0,0,0,0,0,0,0,0,0,0,0,0,0,0,0,0,0,0],"sum_hessian":[3.350701E2,2.1213387E2,1.2293622E2,1.3194969E2,8.018417E1,6.129999E1,6.163623E1,7.282448E1,5.9125214E1,6.0843662E1,1.9340513E1,2.2459766E1,3.8840225E1,2.3004019E1,3.863221E1,5.6374992E1,1.6449484E1,4.8603004E1,1.0522212E1,4.3546368E1,1.7297293E1,4.309775E0,1.5030738E1,1.811455E1,4.3452168E0,3.3826363E0,3.545759E1,2.1067953E1,1.9360659E0,2.4590538E1,1.4041674E1],"tree_param":{"num_deleted":"0","num_feature":"30","num_nodes":"31","size_leaf_vector":"1"}},{"base_weights":[-8.610771E-3,6.020326E-2,-2.056395E-2,-3.607342E-1,1.8538272E-2,1.2899439E-2,-4.1950926E-1,-3.3713924E-3,5.8018464E-1,1.7483038E-3,-2.6300091E-2,3.1897135E-2,-1.0443758E-3,-2.7940047E-3,5.0255604E-2],"categories":[],"categories_nodes":[],"categories_segments":[],"categories_sizes":[],"default_left":[0,0,1,0,1,0,1,0,0,0,0,0,0,0,0],"id":4,"left_children":[1,-1,3,5,7,-1,9,11,13,-1,-1,-1,-1,-1,-1],"loss_changes":[3.7056363E0,0E0,3.3644943E0,1.0564554E0,2.7997918E0,0E0,1.1893215E0,2.482668E0,2.3649673E0,0E0,0E0,0E0,0E0,0E0,0E0],"parents":[2147483647,0,0,2,2,3,3,4,4,6,6,7,7,8,8],"right_children":[2,-1,4,6,8,-1,10,12,14,-1,-1,-1,-1,-1,-1],"split_conditions":[4.5E-1,6.020326E-2,7.6E0,5.8541665E0,5.8E0,1.2899439E-2,7.82E-1,-2.5E0,1.246E0,1.7483038E-3,-2.6300091E-2,3.1897135E-2,-1.0443758E-3,-2.7940047E-3,5.0255604E-2],"split_indices":[15,0,10,4,28,0,16,27,6,0,0,0,0,0,0],"split_type":[0,0,0,0,0,0,0,0,0,0,0,0,0,0,0],"sum_hessian":[2.5293524E2,1.4953657E0,2.5143988E2,2.5074919E1,2.2636496E2,1.8812836E0,2.3193634E1,2.1882274E2,7.542216E0,4.53052E0,1.8663115E1,4.876066E0,2.1394669E2,3.3684902E0,4.1737256E0],"tree_param":{"num_deleted":"0","num_feature":"30","num_nodes":"15","size_leaf_vector":"1"}},{"base_weights":[2.447951E-2,3.0677605E-1,-3.3510664E-1,5.7082415E-1,2.6774406E-2,-1.0487007E-1,-4.920439E-1,-2.7876958E-1,6.4291275E-1,-2.995866E-1,1.5905678E-1,1.5246478E-1,-3.3926925E-1,-5.2254355E-1,2.4046842E-2,2.0555472E-2,-2.4415193E-2,-8.161236E-3,3.5839893E-2,-2.1020768E-2,2.5604812E-2,-6.893135E-3,1.6485402E-2,-1.360749E-2,2.6438192E-2,2.8663307E-2,-2.0875052E-2,-2.84117E-2,-1.3944895E-3],"categories":[],"categories_nodes":[],"categories_segments":[],"categories_sizes":[],"default_left":[1,1,0,0,1,0,1,0,0,1,0,0,0,1,0,0,0,0,0,0,0,0,0,0,0,0,0,0,0],"id":5,"left_children":[1,3,5,7,9,11,13,15,17,19,21,23,25,27,-1,-1,-1,-1,-1,-1,-1,-1,-1,-1,-1,-1,-1,-1,-1],"loss_changes":[3.1878796E1,1.29885845E1,4.940069E0,5.7202835E0,3.7782543E0,3.5060787E0,2.681158E0,1.3244668E0,5.1022034E0,2.6936502E0,3.194212E0,4.615944E0,2.4009774E0,1.7893105E0,0E0,0E0,0E0,0E0,0E0,0E0,0E0,0E0,0E0,0E0,0E0,0E0,0E0,0E0,0E0],"parents":[2147483647,0,0,1,1,2,2,3,3,4,4,5,5,6,6,7,7,8,8,9,9,10,10,11,11,12,12,13,13],"right_children":[2,4,6,8,10,12,14,16,18,20,22,24,26,28,-1,-1,-1,-1,-1,-1,-1,-1,-1,-1,-1,-1,-1,-1,-1],"split_conditions":[-2.81E0,1.164E0,8.414E1,-1.04E0,-1.25E0,4.2E0,2.18E1,9.75E0,-4.78E-1,2.49E0,5.8541665E0,1.6666666E0,2.7534723E0,1.4E1,2.4046842E-2,2.0555472E-2,-2.4415193E-2,-8.161236E-3,3.5839893E-2,-2.1020768E-2,2.5604812E-2,-6.893135E-3,1.6485402E-2,-1.360749E-2,2.6438192E-2,2.8663307E-2,-2.0875052E-2,-2.84117E-2,-1.3944895E-3],"split_indices":[21,6,21,24,27,17,19,10,25,15,4,18,4,4,0,0,0,0,0,0,0,0,0,0,0,0,0,0,0],"split_type":[0,0,0,0,0,0,0,0,0,0,0,0,0,0,0,0,0,0,0,0,0,0,0,0,0,0,0,0,0],"sum_hessian":[3.1203336E2,1.7488506E2,1.3714832E2,8.9472115E1,8.541294E1,5.6267986E1,8.088033E1,6.773745E0,8.269837E1,2.4270103E1,6.1142834E1,2.6988379E1,2.9279606E1,7.887094E1,2.0093915E0,1.3539457E0,5.4198E0,6.8416862E0,7.585668E1,2.1544926E1,2.7251778E0,2.2385681E1,3.8757153E1,1.2810184E1,1.4178196E1,1.812293E0,2.7467312E1,7.20656E1,6.8053417E0],"tree_param":{"num_deleted":"0","num_feature":"30","num_nodes":"29","size_leaf_vector":"1"}},{"base_weights":[8.143286E-3,-2.8023311E-1,2.6799208E-1,-3.9289168E-1,3.6711026E-2,1.0159664E-1,5.3628063E-1,-4.1876727E-1,2.9724702E-2,-2.0644146E-1,3.0362326E-1,4.404129E-1,-1.6901279E-2,7.754129E-1,2.9811278E-1,1.1593914E-3,-2.3762885E-2,2.238236E-2,-1.9208688E-2,-2.9536873E-2,2.3194123E-2,-1.8796926E-2,2.7405528E-2,2.4814432E-2,-4.7953366E-3,4.3185934E-2,6.051865E-4,2.369054E-2,-1.1555124E-2],"categories":[],"categories_nodes":[],"categories_segments":[],"categories_sizes":[],"default_left":[1,1,0,1,0,1,1,0,0,0,1,0,0,1,0,0,0,0,0,0,0,0,0,0,0,0,0,0,0],"id":6,"left_children":[1,3,5,7,9,11,13,15,-1,17,19,21,23,25,27,-1,-1,-1,-1,-1,-1,-1,-1,-1,-1,-1,-1,-1,-1],"loss_changes":[2.4980852E1,5.656946E0,7.7731686E0,3.2297897E0,2.8115304E0,4.4019914E0,3.578289E0,2.8641014E0,0E0,2.8177927E0,3.2260065E0,2.702859E0,3.374585E0,2.1971302E0,3.3764772E0,0E0,0E0,0E0,0E0,0E0,0E0,0E0,0E0,0E0,0E0,0E0,0E0,0E0,0E0],"parents":[2147483647,0,0,1,1,2,2,3,3,4,4,5,5,6,6,7,7,9,9,10,10,11,11,12,12,13,13,14,14],"right_children":[2,4,6,8,10,12,14,16,-1,18,20,22,24,26,28,-1,-1,-1,-1,-1,-1,-1,-1,-1,-1,-1,-1,-1,-1],"split_conditions":[-2.69E1,1.79644E3,1.85727E3,1.63125E1,5E-1,9.18E-1,-1.96E-1,-9.6E-1,2.9724702E-2,1.122E0,1.068E0,8E-1,-5.74E-1,8E-1,1.14583336E-1,1.1593914E-3,-2.3762885E-2,2.238236E-2,-1.9208688E-2,-2.9536873E-2,2.3194123E-2,-1.8796926E-2,2.7405528E-2,2.4814432E-2,-4.7953366E-3,4.3185934E-2,6.051865E-4,2.369054E-2,-1.1555124E-2],"split_indices":[21,5,5,13,27,15,25,24,0,7,6,18,24,11,22,0,0,0,0,0,0,0,0,0,0,0,0,0,0],"split_type":[0,0,0,0,0,0,0,0,0,0,0,0,0,0,0,0,0,0,0,0,0,0,0,0,0,0,0,0,0],"sum_hessian":[3.3136798E2,1.5702524E2,1.7434276E2,1.1567032E2,4.1354916E1,1.0845591E2,6.588684E1,1.1327763E2,2.3926919E0,2.1759207E1,1.959571E1,2.7398853E1,8.105706E1,3.1751268E1,3.4135574E1,1.2904928E1,1.003727E2,4.3247275E0,1.7434479E1,2.569565E0,1.7026144E1,2.9030402E0,2.4495813E1,1.0109277E1,7.0947784E1,2.8341007E1,3.4102612E0,2.570596E1,8.429616E0],"tree_param":{"num_deleted":"0","num_feature":"30","num_nodes":"29","size_leaf_vector":"1"}},{"base_weights":[6.772031E-4,9.154625E-2,-2.1404965E-1,4.997391E-1,3.971007E-2,-2.986843E-1,1.1887748E-1,7.7482736E-1,-2.4021786E-1,5.8181133E-2,2.1572491E-2,2.887162E-2,-3.2492507E-1,4.9602932E-1,-3.288968E-1,-2.8427562E-3,5.1051874E-2,2.9321969E-2,-2.6826873E-2,3.458332E-3,-1.6381312E-2,-8.816584E-3,-2.3613853E-2,-2.392463E-2,4.7596913E-2,-2.7362052E-2,8.373684E-3],"categories":[],"categories_nodes":[],"categories_segments":[],"categories_sizes":[],"default_left":[0,0,1,0,0,0,0,0,0,0,0,0,1,0,1,0,0,0,0,0,0,0,0,0,0,0,0],"id":7,"left_children":[1,3,5,7,9,11,13,15,17,-1,19,-1,21,23,25,-1,-1,-1,-1,-1,-1,-1,-1,-1,-1,-1,-1],"loss_changes":[5.0115523E0,3.7986712E0,2.1875007E0,4.3078136E0,3.2613285E0,1.5941124E0,2.8981886E0,3.1291132E0,1.8458467E0,0E0,2.6764488E0,0E0,1.2313132E0,4.538372E0,9.593045E-1,0E0,0E0,0E0,0E0,0E0,0E0,0E0,0E0,0E0,0E0,0E0,0E0],"parents":[2147483647,0,0,1,1,2,2,3,3,4,4,5,5,6,6,7,7,8,8,10,10,12,12,13,13,14,14],"right_children":[2,4,6,8,10,12,14,16,18,-1,20,-1,22,24,26,-1,-1,-1,-1,-1,-1,-1,-1,-1,-1,-1,-1],"split_conditions":[1.86408E3,9.06E-1,8.541667E-1,1.736E0,4.5E-1,-2E0,1.1458334E0,2.5E-1,-5E-1,5.8181133E-2,1.3895833E1,2.887162E-2,5.8333335E0,1.90972E3,1.99838E3,-2.8427562E-3,5.1051874E-2,2.9321969E-2,-2.6826873E-2,3.458332E-3,-1.6381312E-2,-8.816584E-3,-2.3613853E-2,-2.392463E-2,4.7596913E-2,-2.7362052E-2,8.373684E-3],"split_indices":[5,16,22,6,15,27,22,20,28,0,4,0,13,5,5,0,0,0,0,0,0,0,0,0,0,0,0],"split_type":[0,0,0,0,0,0,0,0,0,0,0,0,0,0,0,0,0,0,0,0,0,0,0,0,0,0,0],"sum_hessian":[2.5484E2,1.7946632E2,7.537368E1,1.9248667E1,1.6021765E2,6.0178368E1,1.5195311E1,1.3997717E1,5.2509503E0,1.5415045E0,1.5867615E2,1.1391673E0,5.90392E1,8.189599E0,7.0057116E0,3.3730025E0,1.0624714E1,1.127218E0,4.123732E0,1.4034915E2,1.8327002E1,3.0489502E1,2.85497E1,2.5944128E0,5.595186E0,4.7943015E0,2.21141E0],"tree_param":{"num_deleted":"0","num_feature":"30","num_nodes":"27","size_leaf_vector":"1"}},{"base_weights":[1.1758806E-2,-2.1050458E-1,2.6688865E-1,-6.923447E-2,-5.4960626E-1,-9.063879E-2,4.3984157E-1,-5.7330894E-1,7.2161206E-3,-6.137767E-1,-9.583097E-2,6.584398E-1,-2.2281975E-1,5.7508856E-1,4.4568013E-3,-3.430849E-2,-7.443818E-3,1.7140908E-2,-5.4194243E-3,-1.5514386E-2,-3.474104E-2,2.6445154E-2,-2.915585E-2,4.8626762E-2,-2.1911824E-2,2.4476763E-2,-1.5608722E-2,2.0359913E-2,4.2052764E-2,2.3616962E-2,-1.804469E-2],"categories":[],"categories_nodes":[],"categories_segments":[],"categories_sizes":[],"default_left":[0,1,1,0,0,0,1,0,0,0,0,1,0,0,0,0,0,0,0,0,0,0,0,0,0,0,0,0,0,0,0],"id":8,"left_children":[1,3,5,7,9,11,13,15,17,19,21,23,25,27,29,-1,-1,-1,-1,-1,-1,-1,-1,-1,-1,-1,-1,-1,-1,-1,-1],"loss_changes":[1.7666094E1,7.939209E0,9.007532E0,4.5782623E0,1.3629932E0,4.9104385E0,5.7630005E0,6.472039E-1,4.0740542E0,8.3202744E-1,2.5107658E0,2.999034E0,2.8034604E0,2.9930592E0,4.309711E0,0E0,0E0,0E0,0E0,0E0,0E0,0E0,0E0,0E0,0E0,0E0,0E0,0E0,0E0,0E0,0E0],"parents":[2147483647,0,0,1,1,2,2,3,3,4,4,5,5,6,6,7,7,8,8,9,9,10,10,11,11,12,12,13,13,14,14],"right_children":[2,4,6,8,10,12,14,16,18,20,22,24,26,28,30,-1,-1,-1,-1,-1,-1,-1,-1,-1,-1,-1,-1,-1,-1,-1,-1],"split_conditions":[1.76E-1,1.85445E3,1.7564E3,1.64648E3,-2E-3,-1.2E0,2E-1,7.8958335E0,1.038E0,9.6E0,-1.8E0,1.71249E3,3.8125E0,1.80706E3,2.5E-1,-3.430849E-2,-7.443818E-3,1.7140908E-2,-5.4194243E-3,-1.5514386E-2,-3.474104E-2,2.6445154E-2,-2.915585E-2,4.8626762E-2,-2.1911824E-2,2.4476763E-2,-1.5608722E-2,2.0359913E-2,4.2052764E-2,2.3616962E-2,-1.804469E-2],"split_indices":[25,5,14,14,25,26,27,13,6,19,28,5,13,5,20,0,0,0,0,0,0,0,0,0,0,0,0,0,0,0,0],"split_type":[0,0,0,0,0,0,0,0,0,0,0,0,0,0,0,0,0,0,0,0,0,0,0,0,0,0,0,0,0,0,0],"sum_hessian":[3.095475E2,1.6552274E2,1.4402477E2,1.1769503E2,4.78277E1,4.711167E1,9.691309E1,1.4643634E1,1.0305139E2,4.1593216E1,6.234488E0,6.469157E0,4.0642513E1,7.369863E1,2.321446E1,1.1080533E1,3.5631006E0,2.5899445E1,7.715195E1,9.783858E0,3.1809357E1,2.6945214E0,3.5399666E0,5.1168537E0,1.3523037E0,4.030659E0,3.6611855E1,4.6730946E1,2.6967688E1,1.0050524E1,1.3163938E1],"tree_param":{"num_deleted":"0","num_feature":"30","num_nodes":"31","size_leaf_vector":"1"}},{"base_weights":[-1.9187806E-2,-2.3416089E-1,2.672014E-1,-3.8606822E-1,3.7738785E-2,-3.9613867E-1,3.1967774E-1,-5.1020384E-1,-1.7907062E-1,-2.814762E-1,3.0208173E-1,1.3394274E-2,-6.239976E-1,7.415825E-1,2.1927625E-1,-2.854468E-2,5.895885E-4,-1.121941E-2,3.6154468E-2,2.0928182E-2,-1.8371824E-2,2.3567637E-2,-2.2048844E-2,-3.6377065E-2,-3.8934678E-3,4.0103342E-2,-6.127058E-3,-1.4992977E-2,1.3714539E-2],"categories":[],"categories_nodes":[],"categories_segments":[],"categories_sizes":[],"default_left":[1,1,0,1,1,0,1,0,1,0,0,0,0,1,0,0,0,0,0,0,0,0,0,0,0,0,0,0,0],"id":9,"left_children":[1,3,5,7,9,11,13,15,17,19,21,-1,23,25,27,-1,-1,-1,-1,-1,-1,-1,-1,-1,-1,-1,-1,-1,-1],"loss_changes":[2.004155E1,7.6929903E0,4.986455E0,2.9756184E0,5.784612E0,1.7833056E0,5.341197E0,2.3533077E0,2.0545797E0,2.0261266E0,4.9157853E0,0E0,4.1003346E-1,1.3817396E0,3.1202788E0,0E0,0E0,0E0,0E0,0E0,0E0,0E0,0E0,0E0,0E0,0E0,0E0,0E0,0E0],"parents":[2147483647,0,0,1,1,2,2,3,3,4,4,5,5,6,6,7,7,8,8,9,9,10,10,12,12,13,13,14,14],"right_children":[2,4,6,8,10,12,14,16,18,20,22,-1,24,26,28,-1,-1,-1,-1,-1,-1,-1,-1,-1,-1,-1,-1,-1,-1],"split_conditions":[5.15E0,1.78023E3,-3.3333334E-1,-1.0209E2,2.2E0,-1.0416666E0,9.2E0,7.2E0,1.63125E1,1.78553E3,1.734E0,1.3394274E-2,1.6E1,2.038E0,1.004E0,-2.854468E-2,5.895885E-4,-1.121941E-2,3.6154468E-2,2.0928182E-2,-1.8371824E-2,2.3567637E-2,-2.2048844E-2,-3.6377065E-2,-3.8934678E-3,4.0103342E-2,-6.127058E-3,-1.4992977E-2,1.3714539E-2],"split_indices":[21,5,29,21,9,22,10,17,13,5,7,0,10,7,16,0,0,0,0,0,0,0,0,0,0,0,0,0,0],"split_type":[0,0,0,0,0,0,0,0,0,0,0,0,0,0,0,0,0,0,0,0,0,0,0,0,0,0,0,0,0],"sum_hessian":[3.235134E2,1.8490218E2,1.3861124E2,1.18357346E2,6.654482E1,9.681458E0,1.2892978E2,7.307174E1,4.5285603E1,3.0114445E1,3.643038E1,2.4285474E0,7.252911E0,2.3556213E1,1.05373566E2,6.5377014E1,7.6947274E0,4.3834946E1,1.4506538E0,2.8702826E0,2.7244162E1,2.996901E1,6.461373E0,5.8177156E0,1.4351952E0,2.2082373E1,1.4738405E0,9.670345E0,9.570322E1],"tree_param":{"num_deleted":"0","num_feature":"30","num_nodes":"29","size_leaf_vector":"1"}},{"base_weights":[1.9644016E-2,8.715618E-2,-1.9601916E-1,-4.3824804E-3,3.0305737E-1,-3.5648718E-1,2.4621686E-2,-5.7837877E-2,3.9088348E-1,9.666606E-1,1.3919167E-1,4.709331E-1,-4.2572728E-1,-4.3598962E-1,3.2348403E-1,1.2120031E-2,-7.753242E-3,3.3800662E-3,4.8392657E-2,6.049035E-2,-5.6026806E-3,-7.2236047E-3,1.8692723E-2,-1.7398072E-2,5.3147357E-2,1.33810295E-2,-2.3751443E-2,5.870938E-4,-2.901113E-2,-1.5857436E-2,3.8815886E-2],"categories":[],"categories_nodes":[],"categories_segments":[],"categories_sizes":[],"default_left":[0,0,1,1,0,0,1,0,0,0,0,0,0,1,0,0,0,0,0,0,0,0,0,0,0,0,0,0,0,0,0],"id":10,"left_children":[1,3,5,7,9,11,13,15,17,19,21,23,25,27,29,-1,-1,-1,-1,-1,-1,-1,-1,-1,-1,-1,-1,-1,-1,-1,-1],"loss_changes":[3.7538211E0,3.8779197E0,2.1860585E0,2.953927E0,6.2178416E0,2.2438655E0,3.8341937E0,3.630384E0,3.041316E0,3.1256952E0,3.2502725E0,1.9352667E0,1.2701373E0,7.160809E-1,5.132961E0,0E0,0E0,0E0,0E0,0E0,0E0,0E0,0E0,0E0,0E0,0E0,0E0,0E0,0E0,0E0,0E0],"parents":[2147483647,0,0,1,1,2,2,3,3,4,4,5,5,6,6,7,7,8,8,9,9,10,10,11,11,12,12,13,13,14,14],"right_children":[2,4,6,8,10,12,14,16,18,20,22,24,26,28,30,-1,-1,-1,-1,-1,-1,-1,-1,-1,-1,-1,-1,-1,-1,-1,-1],"split_conditions":[1.744E0,1.402E0,1.83432E3,1.9075E0,-7.78E1,1.65749E3,1.06E1,1.6E0,7.0104165E0,1.79783E3,-7.6E-2,1.59874E3,-1.25E0,-2.1041667E0,-1.6666666E0,1.2120031E-2,-7.753242E-3,3.3800662E-3,4.8392657E-2,6.049035E-2,-5.6026806E-3,-7.2236047E-3,1.8692723E-2,-1.7398072E-2,5.3147357E-2,1.33810295E-2,-2.3751443E-2,5.870938E-4,-2.901113E-2,-1.5857436E-2,3.8815886E-2],"split_indices":[6,6,5,15,21,5,19,18,4,5,25,5,22,22,28,0,0,0,0,0,0,0,0,0,0,0,0,0,0,0,0],"split_type":[0,0,0,0,0,0,0,0,0,0,0,0,0,0,0,0,0,0,0,0,0,0,0,0,0,0,0,0,0,0,0],"sum_hessian":[2.5564601E2,1.9515096E2,6.0495056E1,1.3773375E2,5.7417206E1,3.4666824E1,2.5828234E1,1.22077736E2,1.5656006E1,1.0400289E1,4.7016914E1,2.2289839E0,3.243784E1,9.983176E0,1.5845057E1,2.949709E1,9.258065E1,1.0749893E1,4.906112E0,8.38806E0,2.0122287E0,2.1460043E1,2.5556873E1,1.108252E0,1.1207318E0,1.8594459E0,3.0578394E1,2.6562316E0,7.326945E0,6.685949E0,9.159108E0],"tree_param":{"num_deleted":"0","num_feature":"30","num_nodes":"31","size_leaf_vector":"1"}},{"base_weights":[1.2942295E-2,4.6555114E-1,-1.290691E-1,5.833555E-1,-1.8423113E-1,7.444283E-2,-3.1889784E-1,6.545291E-1,-2.8918391E-2,-2.9288E-2,1.9623359E-1,-1.08278066E-1,3.6084628E-1,-4.9798763E-1,-1.7723407E-1,-2.4461297E-2,3.493288E-2,3.2769352E-2,-2.6407702E-2,1.5023693E-3,-2.8636271E-2,-1.608444E-2,2.5462171E-2,1.1739901E-2,-2.6396602E-2,2.5332874E-2,-1.2914324E-2],"categories":[],"categories_nodes":[],"categories_segments":[],"categories_sizes":[],"default_left":[1,1,0,1,1,0,0,0,0,0,0,0,0,0,0,0,0,0,0,0,0,0,0,0,0,0,0],"id":11,"left_children":[1,3,5,7,9,11,13,15,-1,-1,17,19,21,23,25,-1,-1,-1,-1,-1,-1,-1,-1,-1,-1,-1,-1],"loss_changes":[1.9873009E1,5.7593613E0,9.118353E0,5.56645E0,1.9621763E0,6.0270486E0,3.0067158E0,3.349472E0,0E0,0E0,2.660345E0,4.554518E0,4.701226E0,1.2940788E0,3.9924722E0,0E0,0E0,0E0,0E0,0E0,0E0,0E0,0E0,0E0,0E0,0E0,0E0],"parents":[2147483647,0,0,1,1,2,2,3,3,4,4,5,5,6,6,7,7,10,10,11,11,12,12,13,13,14,14],"right_children":[2,4,6,8,10,12,14,16,-1,-1,18,20,22,24,26,-1,-1,-1,-1,-1,-1,-1,-1,-1,-1,-1,-1],"split_conditions":[1.70986E3,3.3333334E-1,2E-1,1.2E0,1.67427E3,2.86E-1,1.75529E3,-1.19E0,-2.8918391E-2,-2.9288E-2,1.458E0,1.87955E3,1.76595E3,-1.96E-1,-3.4E0,-2.4461297E-2,3.493288E-2,3.2769352E-2,-2.6407702E-2,1.5023693E-3,-2.8636271E-2,-1.608444E-2,2.5462171E-2,1.1739901E-2,-2.6396602E-2,2.5332874E-2,-1.2914324E-2],"split_indices":[5,11,27,26,5,25,14,24,0,0,16,5,14,24,28,0,0,0,0,0,0,0,0,0,0,0,0],"split_type":[0,0,0,0,0,0,0,0,0,0,0,0,0,0,0,0,0,0,0,0,0,0,0,0,0,0,0],"sum_hessian":[3.0724942E2,7.283536E1,2.3441405E2,6.1743584E1,1.1091771E1,1.1342308E2,1.20990974E2,5.8590588E1,3.1529949E0,5.1339707E0,5.9578E0,6.962522E1,4.379786E1,5.2325886E1,6.8665085E1,1.8018775E0,5.678871E1,3.7047782E0,2.2530217E0,5.4368164E1,1.5257058E1,7.6133595E0,3.6184498E1,1.7857108E0,5.0540176E1,6.7192707E0,6.1945816E1],"tree_param":{"num_deleted":"0","num_feature":"30","num_nodes":"27","size_leaf_vector":"1"}},{"base_weights":[1.2001661E-2,-2.7259815E-1,2.175463E-1,-3.8709405E-1,1.0576296E-1,8.758707E-2,4.4868922E-1,-4.938827E-1,-8.172561E-2,4.1423187E-1,-2.9265735E-1,5.1018953E-1,3.408324E-2,7.731959E-1,2.4327771E-1,-2.8994326E-2,-1.0035716E-2,-2.6192686E-2,6.736933E-3,-2.7015854E-2,2.7975405E-2,2.5222769E-2,-2.8542174E-2,-2.4854155E-2,3.3484545E-2,8.1925895E-3,-6.6083367E-3,4.636547E-2,-9.749002E-3,-5.964768E-3,2.4610955E-2],"categories":[],"categories_nodes":[],"categories_segments":[],"categories_sizes":[],"default_left":[1,1,0,1,1,0,1,1,0,0,0,0,0,1,0,0,0,0,0,0,0,0,0,0,0,0,0,0,0,0,0],"id":12,"left_children":[1,3,5,7,9,11,13,15,17,19,21,23,25,27,29,-1,-1,-1,-1,-1,-1,-1,-1,-1,-1,-1,-1,-1,-1,-1,-1],"loss_changes":[1.9069368E1,5.963828E0,5.6455555E0,3.3893566E0,4.1212974E0,2.7497504E0,4.335743E0,1.8433514E0,2.7932572E0,2.9036078E0,3.5673213E0,2.5309541E0,2.3883188E0,4.0375814E0,3.9415855E0,0E0,0E0,0E0,0E0,0E0,0E0,0E0,0E0,0E0,0E0,0E0,0E0,0E0,0E0,0E0,0E0],"parents":[2147483647,0,0,1,1,2,2,3,3,4,4,5,5,6,6,7,7,8,8,9,9,10,10,11,11,12,12,13,13,14,14],"right_children":[2,4,6,8,10,12,14,16,18,20,22,24,26,28,30,-1,-1,-1,-1,-1,-1,-1,-1,-1,-1,-1,-1,-1,-1,-1,-1],"split_conditions":[-4.863E1,1.79783E3,1.85727E3,-1.1171E2,4.4E0,9.2E0,2E-1,1.54E1,1.376E0,1.25E0,2.25E0,-2.5E0,1.80227E3,1.64E-1,2.5E0,-2.8994326E-2,-1.0035716E-2,-2.6192686E-2,6.736933E-3,-2.7015854E-2,2.7975405E-2,2.5222769E-2,-2.8542174E-2,-2.4854155E-2,3.3484545E-2,8.1925895E-3,-6.6083367E-3,4.636547E-2,-9.749002E-3,-5.964768E-3,2.4610955E-2],"split_indices":[21,5,5,21,17,10,20,10,7,9,18,26,5,25,9,0,0,0,0,0,0,0,0,0,0,0,0,0,0,0,0],"split_type":[0,0,0,0,0,0,0,0,0,0,0,0,0,0,0,0,0,0,0,0,0,0,0,0,0,0,0,0,0,0,0],"sum_hessian":[3.239697E2,1.3572157E2,1.8824812E2,1.041743E2,3.1547277E1,1.21381035E2,6.686709E1,7.672568E1,2.7448627E1,1.7758461E1,1.3788817E1,1.2681336E1,1.0869969E2,2.4848146E1,4.201894E1,5.8566597E1,1.8159077E1,8.554999E0,1.8893627E1,1.9865348E0,1.5771927E1,3.3568234E0,1.04319935E1,1.444246E0,1.1237091E1,6.105604E1,4.7643654E1,2.1472397E1,3.37575E0,1.7317495E1,2.4701443E1],"tree_param":{"num_deleted":"0","num_feature":"30","num_nodes":"31","size_leaf_vector":"1"}},{"base_weights":[3.8515178E-3,6.4908974E-2,-2.2168629E-1,4.0554956E-1,1.5103963E-2,5.21028E-1,-2.8712144E-1,7.333184E-1,-7.645037E-2,-3.236465E-2,3.7067148E-1,-1.5182355E-1,5.893911E-2,-4.0814516E-1,1.6390401E-1,7.2456E-2,1.98012E-2,3.6438175E-2,-1.8336685E-2,3.4916323E-2,-2.76853E-3,-1.9575907E-2,3.2287866E-2,-1.773746E-2,6.2471307E-3,2.0310408E-2,-2.2493888E-2,-2.6151443E-2,2.9929522E-2],"categories":[],"categories_nodes":[],"categories_segments":[],"categories_sizes":[],"default_left":[0,0,0,0,1,0,1,0,0,0,0,0,0,0,0,0,0,0,0,0,0,0,0,0,0,0,0,0,0],"id":13,"left_children":[1,3,5,7,9,11,13,15,17,19,21,23,-1,25,27,-1,-1,-1,-1,-1,-1,-1,-1,-1,-1,-1,-1,-1,-1],"loss_changes":[3.5206516E0,3.4064271E0,2.7968688E0,4.103516E0,2.9914553E0,2.2881505E0,2.8346334E0,3.1306639E0,2.9027932E0,2.6720736E0,4.6288195E0,2.2638889E-1,0E0,1.5511341E0,3.7293003E0,0E0,0E0,0E0,0E0,0E0,0E0,0E0,0E0,0E0,0E0,0E0,0E0,0E0,0E0],"parents":[2147483647,0,0,1,1,2,2,3,3,4,4,5,5,6,6,7,7,8,8,9,9,10,10,11,11,13,13,14,14],"right_children":[2,4,6,8,10,12,14,16,18,20,22,24,-1,26,28,-1,-1,-1,-1,-1,-1,-1,-1,-1,-1,-1,-1,-1,-1],"split_conditions":[1.774E0,9.9E-1,-1.1041666E0,1.80471E3,1.2E0,1.64E0,6E0,3.9166667E0,1.034E0,-2.5E0,1.176E0,5.2083335E0,5.893911E-2,1.65161E3,1.025E1,7.2456E-2,1.98012E-2,3.6438175E-2,-1.8336685E-2,3.4916323E-2,-2.76853E-3,-1.9575907E-2,3.2287866E-2,-1.773746E-2,6.2471307E-3,2.0310408E-2,-2.2493888E-2,-2.6151443E-2,2.9929522E-2],"split_indices":[6,16,22,5,27,21,8,4,7,27,7,4,0,5,19,0,0,0,0,0,0,0,0,0,0,0,0,0,0],"split_type":[0,0,0,0,0,0,0,0,0,0,0,0,0,0,0,0,0,0,0,0,0,0,0,0,0,0,0,0,0],"sum_hessian":[2.5361635E2,2.0014532E2,5.3471016E1,2.4619297E1,1.7552603E2,3.7657526E0,4.9705265E1,1.4343824E1,1.0275474E1,1.5565492E2,1.9871109E1,2.2417388E0,1.5240139E0,3.926449E1,1.0440775E1,3.5383916E0,1.0805432E1,2.3225243E0,7.9529495E0,3.855221E0,1.517997E2,5.157577E0,1.47135315E1,1.1308396E0,1.1108992E0,1.4883227E0,3.777617E1,3.9675858E0,6.473189E0],"tree_param":{"num_deleted":"0","num_feature":"30","num_nodes":"29","size_leaf_vector":"1"}},{"base_weights":[1.724914E-3,2.7372795E-1,-2.7840677E-1,5.644717E-1,3.404452E-2,-8.680869E-2,-4.5468396E-1,-2.1686624E-1,6.3861054E-1,1.2821777E-1,-5.0627315E-1,4.2091213E-2,-1.4047964E-1,-4.9771607E-1,4.007693E-2,-2.2102684E-2,1.9937448E-2,4.7332402E-2,2.3970371E-2,2.2265658E-2,3.0913102E-4,-5.4035853E-3,-2.987344E-2,3.956766E-4,-2.0043802E-2,-2.5984634E-2,1.5446293E-2,-1.414018E-2,4.136116E-2],"categories":[],"categories_nodes":[],"categories_segments":[],"categories_sizes":[],"default_left":[1,1,0,0,0,0,1,0,0,0,0,0,1,1,0,0,0,0,0,0,0,0,0,0,0,0,0,0,0],"id":14,"left_children":[1,3,5,7,9,11,13,15,17,19,21,-1,23,25,27,-1,-1,-1,-1,-1,-1,-1,-1,-1,-1,-1,-1,-1,-1],"loss_changes":[2.3526089E1,1.0896958E1,5.097872E0,4.2351074E0,4.4880776E0,3.8125648E0,1.7015915E0,1.1293874E0,2.7261715E0,2.8926635E0,4.1129637E-1,0E0,2.743963E0,1.4500179E0,2.0754352E0,0E0,0E0,0E0,0E0,0E0,0E0,0E0,0E0,0E0,0E0,0E0,0E0,0E0,0E0],"parents":[2147483647,0,0,1,1,2,2,3,3,4,4,5,5,6,6,7,7,8,8,9,9,10,10,12,12,13,13,14,14],"right_children":[2,4,6,8,10,12,14,16,18,20,22,-1,24,26,28,-1,-1,-1,-1,-1,-1,-1,-1,-1,-1,-1,-1,-1,-1],"split_conditions":[-2.102E1,1.068E0,8.414E1,-1.04E0,8.1E-1,-8.84E-1,1.4E1,3.5E0,2E-1,1.362E0,1.398E0,4.2091213E-2,4.6E0,2.18E1,1.45E0,-2.2102684E-2,1.9937448E-2,4.7332402E-2,2.3970371E-2,2.2265658E-2,3.0913102E-4,-5.4035853E-3,-2.987344E-2,3.956766E-4,-2.0043802E-2,-2.5984634E-2,1.5446293E-2,-1.414018E-2,4.136116E-2],"split_indices":[21,6,21,24,24,24,4,8,11,15,6,0,17,19,7,0,0,0,0,0,0,0,0,0,0,0,0,0,0],"split_type":[0,0,0,0,0,0,0,0,0,0,0,0,0,0,0,0,0,0,0,0,0,0,0,0,0,0,0,0,0],"sum_hessian":[3.067547E2,1.55647E2,1.511077E2,6.971969E1,8.5927315E1,7.3122406E1,7.798528E1,5.875331E0,6.3844357E1,7.38232E1,1.2104121E1,3.192898E0,6.992951E1,7.173971E1,6.2455745E0,4.508198E0,1.3671331E0,2.0068413E1,4.3775944E1,1.9779419E1,5.4043777E1,2.6626856E0,9.441436E0,4.5162296E1,2.4767216E1,7.0183334E1,1.5563766E0,4.8832364E0,1.3623381E0],"tree_param":{"num_deleted":"0","num_feature":"30","num_nodes":"29","size_leaf_vector":"1"}},{"base_weights":[-3.030818E-2,-1.6744494E-1,3.8693002E-1,-2.4814506E-1,7.126956E-2,2.4846786E-1,6.943545E-1,-2.943016E-1,4.3723583E-1,4.1486531E-1,-2.4465345E-2,-2.9164055E-2,2.8776768E-1,8.527574E-2,8.4023124E-1,-1.6052946E-2,1.9702708E-2,4.0233117E-2,-1.3794747E-2,3.8470488E-2,-1.6000262E-2,-1.0108887E-2,1.4518718E-2,4.630941E-2,1.012356E-2,3.8186695E-2,-3.1291842E-2,8.904149E-3,4.8414897E-2],"categories":[],"categories_nodes":[],"categories_segments":[],"categories_sizes":[],"default_left":[1,0,1,1,0,0,0,0,0,0,1,0,0,0,0,0,0,0,0,0,0,0,0,0,0,0,0,0,0],"id":15,"left_children":[1,3,5,7,9,11,13,15,17,19,21,-1,23,25,27,-1,-1,-1,-1,-1,-1,-1,-1,-1,-1,-1,-1,-1,-1],"loss_changes":[1.9005663E1,4.830624E0,3.3259668E0,6.042466E0,2.1120274E0,2.0710385E0,2.1464949E0,3.3634224E0,3.4179711E0,3.8885765E0,2.9076428E0,0E0,2.8764558E0,3.3422527E0,1.5259295E0,0E0,0E0,0E0,0E0,0E0,0E0,0E0,0E0,0E0,0E0,0E0,0E0,0E0,0E0],"parents":[2147483647,0,0,1,1,2,2,3,3,4,4,5,5,6,6,7,7,8,8,9,9,10,10,12,12,13,13,14,14],"right_children":[2,4,6,8,10,12,14,16,18,20,22,-1,24,26,28,-1,-1,-1,-1,-1,-1,-1,-1,-1,-1,-1,-1,-1,-1],"split_conditions":[1.85727E3,1.756E0,1.604E0,7.3E-1,4.2083335E0,-7.5E-1,3.125E0,1.621875E1,1.83165E3,1.675E1,1.34E1,-2.9164055E-2,7.475E-1,3E0,2.6666667E0,-1.6052946E-2,1.9702708E-2,4.0233117E-2,-1.3794747E-2,3.8470488E-2,-1.6000262E-2,-1.0108887E-2,1.4518718E-2,4.630941E-2,1.012356E-2,3.8186695E-2,-3.1291842E-2,8.904149E-3,4.8414897E-2],"split_indices":[5,16,16,24,13,25,4,13,5,10,10,0,7,17,17,0,0,0,0,0,0,0,0,0,0,0,0,0,0],"split_type":[0,0,0,0,0,0,0,0,0,0,0,0,0,0,0,0,0,0,0,0,0,0,0,0,0,0,0,0,0],"sum_hessian":[3.3002594E2,2.4883739E2,8.118854E1,1.8593909E2,6.2898296E1,5.722359E1,2.3964947E1,1.747418E2,1.1197279E1,1.2979817E1,4.991848E1,1.9572909E0,5.52663E1,4.9368224E0,1.9028124E1,1.6871713E2,6.0246763E0,7.3051124E0,3.8921661E0,8.723899E0,4.2559195E0,3.2136665E1,1.7781815E1,5.3517175E0,4.9914585E1,2.4885492E0,2.448273E0,3.4712293E0,1.5556894E1],"tree_param":{"num_deleted":"0","num_feature":"30","num_nodes":"29","size_leaf_vector":"1"}},{"base_weights":[4.0601697E-2,1.1225059E-1,-2.26377E-1,-1.0255219E-2,2.9230773E-1,-1.9081747E-2,-4.7657108E-1,-7.363433E-2,4.7253174E-1,-4.964271E-2,5.22276E-1,4.5377485E-2,-1.1654903E-1,-5.553929E-1,3.0856464E-2,-7.7183107E-3,2.3986233E-2,5.971347E-2,7.489834E-3,-2.5281126E-2,8.247951E-3,3.363469E-2,-5.0843563E-3,-2.421595E-2,7.611091E-3,-1.2402138E-2,-3.0904004E-2],"categories":[],"categories_nodes":[],"categories_segments":[],"categories_sizes":[],"default_left":[0,0,0,1,1,0,1,1,0,0,1,0,0,1,0,0,0,0,0,0,0,0,0,0,0,0,0],"id":16,"left_children":[1,3,5,7,9,11,13,15,17,19,21,-1,23,25,-1,-1,-1,-1,-1,-1,-1,-1,-1,-1,-1,-1,-1],"loss_changes":[4.744206E0,4.307833E0,2.7151628E0,3.618097E0,6.242454E0,2.7942972E0,2.390952E0,4.7372036E0,3.0179079E0,3.2832596E0,4.5126743E0,0E0,2.8237095E0,2.8382063E-1,0E0,0E0,0E0,0E0,0E0,0E0,0E0,0E0,0E0,0E0,0E0,0E0,0E0],"parents":[2147483647,0,0,1,1,2,2,3,3,4,4,5,5,6,6,7,7,8,8,9,9,10,10,12,12,13,13],"right_children":[2,4,6,8,10,12,14,16,18,20,22,-1,24,26,-1,-1,-1,-1,-1,-1,-1,-1,-1,-1,-1,-1,-1],"split_conditions":[1.774E0,1.32E0,1.81301E3,3.8E0,-3.02E-1,-1.1041666E0,2.05597E3,1.9075E0,1.2E-1,2E-1,1.87237E3,4.5377485E-2,1.212E0,6.66E-1,3.0856464E-2,-7.7183107E-3,2.3986233E-2,5.971347E-2,7.489834E-3,-2.5281126E-2,8.247951E-3,3.363469E-2,-5.0843563E-3,-2.421595E-2,7.611091E-3,-1.2402138E-2,-3.0904004E-2],"split_indices":[6,6,14,28,25,22,5,15,25,27,5,0,15,16,0,0,0,0,0,0,0,0,0,0,0,0,0],"split_type":[0,0,0,0,0,0,0,0,0,0,0,0,0,0,0,0,0,0,0,0,0,0,0,0,0,0,0],"sum_hessian":[2.4568631E2,1.9415942E2,5.1526882E1,1.1610672E2,7.80527E1,2.876788E1,2.2759005E1,1.0338241E2,1.2724313E1,3.1700254E1,4.6352444E1,1.9469262E0,2.6820953E1,2.1688152E1,1.0708525E0,9.084909E1,1.2533321E1,3.097302E0,9.62701E0,9.710837E0,2.1989418E1,3.7285896E1,9.066547E0,1.0986164E1,1.5834788E1,4.513865E0,1.7174286E1],"tree_param":{"num_deleted":"0","num_feature":"30","num_nodes":"27","size_leaf_vector":"1"}},{"base_weights":[-3.2966544E-3,2.5502646E-1,-3.3374602E-1,5.184761E-1,5.4097172E-2,-3.2821435E-2,-2.572747E-1,7.018169E-1,1.3993955E-1,-2.960351E-1,1.6201787E-1,-1.7050813E-1,-5.238369E-1,-1.6426934E-3,3.9682206E-2,2.3254482E-2,-1.723704E-2,1.8479422E-3,-2.5579555E-2,3.8632996E-2,4.6587395E-3,7.0286536E-4,-1.669178E-2,-2.794195E-3,-3.2613657E-2],"categories":[],"categories_nodes":[],"categories_segments":[],"categories_sizes":[],"default_left":[1,1,1,1,1,0,0,0,0,0,0,0,0,0,0,0,0,0,0,0,0,0,0,0,0],"id":17,"left_children":[1,3,5,7,9,-1,11,13,15,17,19,21,23,-1,-1,-1,-1,-1,-1,-1,-1,-1,-1,-1,-1],"loss_changes":[2.597939E1,9.014218E0,3.1259766E0,5.0231953E0,3.7519841E0,0E0,2.445315E0,3.3631935E0,4.1518936E0,1.7020583E0,3.1051002E0,2.5416453E0,1.5519814E0,0E0,0E0,0E0,0E0,0E0,0E0,0E0,0E0,0E0,0E0,0E0,0E0],"parents":[2147483647,0,0,1,1,2,2,3,3,4,4,6,6,7,7,8,8,9,9,10,10,11,11,12,12],"right_children":[2,4,6,8,10,-1,12,14,16,18,20,22,24,-1,-1,-1,-1,-1,-1,-1,-1,-1,-1,-1,-1],"split_conditions":[-1.2E0,1.068E0,8.58E-1,-1.2063E2,3.125E0,-3.2821435E-2,1.80586E3,-1.024E0,1.426E0,1.398E0,7.32E-1,9.683E1,-8E-1,-1.6426934E-3,3.9682206E-2,2.3254482E-2,-1.723704E-2,1.8479422E-3,-2.5579555E-2,3.8632996E-2,4.6587395E-3,7.0286536E-4,-1.669178E-2,-2.794195E-3,-3.2613657E-2],"split_indices":[21,6,15,21,13,0,14,24,15,6,16,21,27,0,0,0,0,0,0,0,0,0,0,0,0],"split_type":[0,0,0,0,0,0,0,0,0,0,0,0,0,0,0,0,0,0,0,0,0,0,0,0,0],"sum_hessian":[3.023441E2,1.6981912E2,1.3252495E2,7.27942E1,9.702493E1,2.3936632E1,1.0858832E2,4.846606E1,2.4328133E1,2.2449116E1,7.457582E1,8.315941E1,2.5428904E1,5.4561234E0,4.3009937E1,1.4584483E1,9.7436495E0,9.147095E0,1.3302021E1,6.5199556E0,6.805586E1,3.9470444E1,4.368897E1,5.7853365E0,1.9643566E1],"tree_param":{"num_deleted":"0","num_feature":"30","num_nodes":"25","size_leaf_vector":"1"}},{"base_weights":[-2.9319238E-3,-1.7973216E-1,3.0994514E-1,-3.157804E-1,2.5098713E-2,1.0956167E-1,4.8783872E-1,-4.8422933E-1,-1.3897425E-1,-2.0521742E-1,2.2854637E-1,4.6013877E-2,2.9546758E-2,8.0997336E-1,2.8121132E-1,-3.0075623E-2,-1.0567281E-2,-9.399488E-3,3.294867E-2,-1.2956256E-2,3.438049E-2,2.5725095E-2,1.4106695E-3,1.3822138E-2,-1.1340625E-2,4.530358E-2,-1.5482294E-3,2.3593683E-2,-2.81528E-3],"categories":[],"categories_nodes":[],"categories_segments":[],"categories_sizes":[],"default_left":[1,1,0,1,1,1,0,0,1,0,0,0,0,0,0,0,0,0,0,0,0,0,0,0,0,0,0,0,0],"id":18,"left_children":[1,3,5,7,9,11,13,15,17,19,21,-1,23,25,27,-1,-1,-1,-1,-1,-1,-1,-1,-1,-1,-1,-1,-1,-1],"loss_changes":[1.8295374E1,5.8965697E0,4.2034397E0,3.7166014E0,4.042123E0,3.6994731E0,3.963581E0,1.9422941E0,2.6031651E0,2.1283174E0,2.606084E0,0E0,3.437621E0,1.9736242E0,2.5938358E0,0E0,0E0,0E0,0E0,0E0,0E0,0E0,0E0,0E0,0E0,0E0,0E0,0E0,0E0],"parents":[2147483647,0,0,1,1,2,2,3,3,4,4,5,5,6,6,7,7,8,8,9,9,10,10,12,12,13,13,14,14],"right_children":[2,4,6,8,10,12,14,16,18,20,22,-1,24,26,28,-1,-1,-1,-1,-1,-1,-1,-1,-1,-1,-1,-1,-1,-1],"split_conditions":[4.108E1,1.78023E3,1.85727E3,-1.3036E2,2.2E0,-4.6E0,2E-1,1.56E1,1.4104167E1,1.93503E3,1.81839E3,4.6013877E-2,1.80063E3,1.22E-1,3.82E-1,-3.0075623E-2,-1.0567281E-2,-9.399488E-3,3.294867E-2,-1.2956256E-2,3.438049E-2,2.5725095E-2,1.4106695E-3,1.3822138E-2,-1.1340625E-2,4.530358E-2,-1.5482294E-3,2.3593683E-2,-2.81528E-3],"split_indices":[21,5,5,21,9,28,20,19,13,5,5,0,5,25,24,0,0,0,0,0,0,0,0,0,0,0,0,0,0],"split_type":[0,0,0,0,0,0,0,0,0,0,0,0,0,0,0,0,0,0,0,0,0,0,0,0,0,0,0,0,0],"sum_hessian":[3.287314E2,2.1031334E2,1.1841808E2,1.2604971E2,8.4263626E1,5.644876E1,6.1969322E1,6.3660007E1,6.2389706E1,3.9517975E1,4.4745647E1,4.127487E0,5.2321274E1,2.3075054E1,3.8894268E1,4.36817E1,1.9978306E1,5.9499256E1,2.8904495E0,3.7937153E1,1.5808237E0,1.7787506E1,2.6958141E1,2.6612656E1,2.5708618E1,2.063907E1,2.4359837E0,2.4599825E1,1.4294442E1],"tree_param":{"num_deleted":"0","num_feature":"30","num_nodes":"29","size_leaf_vector":"1"}},{"base_weights":[3.7213735E-4,-7.482005E-2,2.118467E-1,1.5781732E-1,-1.4945346E-1,-1.9296199E-1,3.866116E-1,4.644289E-1,-7.496157E-2,-2.3404765E-1,1.8540955E-1,-3.4048873E-1,5.0702393E-1,1.19682804E-1,6.670832E-1,3.1668387E-2,-2.3853447E-2,2.6431678E-2,-1.11305555E-2,-1.2698292E-2,3.1328164E-2,3.2651365E-2,-2.1968368E-3,1.7678207E-3,-2.605002E-2,4.684418E-2,-1.6924396E-2,1.815971E-2,-2.8371248E-2,-2.4233276E-2,4.226075E-2],"categories":[],"categories_nodes":[],"categories_segments":[],"categories_sizes":[],"default_left":[1,0,0,0,1,0,1,0,0,1,0,0,0,1,0,0,0,0,0,0,0,0,0,0,0,0,0,0,0,0,0],"id":19,"left_children":[1,3,5,7,9,11,13,15,17,19,21,23,25,27,29,-1,-1,-1,-1,-1,-1,-1,-1,-1,-1,-1,-1,-1,-1,-1,-1],"loss_changes":[3.9967062E0,3.2429764E0,4.738702E0,3.283967E0,4.0346794E0,2.2944293E0,3.3924685E0,3.4491E0,2.500636E0,2.094853E0,3.1360106E0,1.2103403E0,1.7630529E0,4.386126E0,5.0048475E0,0E0,0E0,0E0,0E0,0E0,0E0,0E0,0E0,0E0,0E0,0E0,0E0,0E0,0E0,0E0,0E0],"parents":[2147483647,0,0,1,1,2,2,3,3,4,4,5,5,6,6,7,7,8,8,9,9,10,10,11,11,12,12,13,13,14,14],"right_children":[2,4,6,8,10,12,14,16,18,20,22,24,26,28,30,-1,-1,-1,-1,-1,-1,-1,-1,-1,-1,-1,-1,-1,-1,-1,-1],"split_conditions":[1.62E1,1.122E0,-3.48E-1,1.266E0,1E0,1.654E0,1.272E0,1.0625E0,1.5E0,2.544E0,1.054E0,1.72754E3,-4.64E-1,6.8958335E0,2.8125E0,3.1668387E-2,-2.3853447E-2,2.6431678E-2,-1.11305555E-2,-1.2698292E-2,3.1328164E-2,3.2651365E-2,-2.1968368E-3,1.7678207E-3,-2.605002E-2,4.684418E-2,-1.6924396E-2,1.815971E-2,-2.8371248E-2,-2.4233276E-2,4.226075E-2],"split_indices":[10,16,24,7,22,16,15,22,9,7,15,5,24,13,4,0,0,0,0,0,0,0,0,0,0,0,0,0,0,0,0],"split_type":[0,0,0,0,0,0,0,0,0,0,0,0,0,0,0,0,0,0,0,0,0,0,0,0,0,0,0,0,0,0,0],"sum_hessian":[2.4934886E2,1.844218E2,6.492707E1,4.452374E1,1.3989806E2,1.9546745E1,4.5380325E1,1.878516E1,2.5738579E1,1.1192441E2,2.7973648E1,1.6568419E1,2.9783275E0,2.3982529E1,2.1397797E1,1.6204721E1,2.580438E0,4.551521E0,2.1187057E1,1.1008156E2,1.8428522E0,8.597246E0,1.9376402E1,5.6365767E0,1.0931841E1,1.9028491E0,1.0754786E0,1.805518E1,5.92735E0,2.635646E0,1.876215E1],"tree_param":{"num_deleted":"0","num_feature":"30","num_nodes":"31","size_leaf_vector":"1"}},{"base_weights":[-1.1699729E-2,2.2080216E-1,-3.1526956E-1,3.5456458E-1,-1.2534808E-1,-3.2422747E-2,-2.3813461E-1,-1.4405361E-1,4.1817892E-1,-4.4839182E-1,2.0690082E-1,-3.0416662E-2,-3.916582E-1,2.3022266E-2,-2.4911666E-2,-8.158101E-3,2.3350282E-2,3.8290292E-2,-2.7516365E-2,-1.9103158E-2,2.0626528E-2,3.6097527E-3,-2.654758E-2,1.4936812E-2,-2.239997E-2],"categories":[],"categories_nodes":[],"categories_segments":[],"categories_sizes":[],"default_left":[1,1,1,0,1,0,0,0,0,0,0,0,0,0,0,0,0,0,0,0,0,0,0,0,0],"id":20,"left_children":[1,3,5,7,9,-1,11,13,15,17,19,21,23,-1,-1,-1,-1,-1,-1,-1,-1,-1,-1,-1,-1],"loss_changes":[2.2137585E1,8.269747E0,3.3412895E0,4.132761E0,5.4864182E0,0E0,3.5606518E0,3.4989254E0,3.3155384E0,3.6140795E0,3.2407382E0,2.5393603E0,2.6362696E0,0E0,0E0,0E0,0E0,0E0,0E0,0E0,0E0,0E0,0E0,0E0,0E0],"parents":[2147483647,0,0,1,1,2,2,3,3,4,4,6,6,7,7,8,8,9,9,10,10,11,11,12,12],"right_children":[2,4,6,8,10,-1,12,14,16,18,20,22,24,-1,-1,-1,-1,-1,-1,-1,-1,-1,-1,-1,-1],"split_conditions":[-1.2E0,1.402E0,8.36E-1,-3.92E-1,0E0,-3.2422747E-2,1.82923E3,-1.4258E2,-1.04E0,4E0,1.492E0,5.34E-1,2.8020833E0,2.3022266E-2,-2.4911666E-2,-8.158101E-3,2.3350282E-2,3.8290292E-2,-2.7516365E-2,-1.9103158E-2,2.0626528E-2,3.6097527E-3,-2.654758E-2,1.4936812E-2,-2.239997E-2],"split_indices":[21,6,15,25,29,0,5,21,24,3,6,24,4,0,0,0,0,0,0,0,0,0,0,0,0],"split_type":[0,0,0,0,0,0,0,0,0,0,0,0,0,0,0,0,0,0,0,0,0,0,0,0,0],"sum_hessian":[3.1166364E2,1.766451E2,1.3501852E2,1.2739262E2,4.9252483E1,2.398937E1,1.1102915E2,1.4270887E1,1.1312173E2,2.4794939E1,2.4457546E1,4.7695324E1,6.3333828E1,5.1614723E0,9.109415E0,8.583473E0,1.0453825E2,1.4159765E0,2.3378962E1,6.1072283E0,1.8350317E1,4.029122E1,7.404102E0,4.4539323E0,5.8879894E1],"tree_param":{"num_deleted":"0","num_feature":"30","num_nodes":"25","size_leaf_vector":"1"}},{"base_weights":[-1.044677E-2,-1.4536789E-1,3.9788216E-1,-4.029658E-1,2.6589434E-3,7.4954635E-1,2.468213E-1,-4.531437E-1,1.5382501E-1,4.0423337E-1,-6.038412E-2,8.3728665E-1,-1.2063925E-3,3.1161416E-1,-5.392478E-1,-2.4973497E-2,-2.755802E-3,-1.5143432E-2,4.2028368E-2,2.948753E-2,-1.4207132E-2,-1.6740995E-2,3.4016313E-3,4.336165E-2,1.2762968E-2,1.910171E-2,-1.7927436E-2,-8.570647E-3,-3.176401E-2],"categories":[],"categories_nodes":[],"categories_segments":[],"categories_sizes":[],"default_left":[1,1,0,1,1,0,1,1,0,1,0,0,0,1,1,0,0,0,0,0,0,0,0,0,0,0,0,0,0],"id":21,"left_children":[1,3,5,7,9,11,13,15,17,19,21,23,-1,25,27,-1,-1,-1,-1,-1,-1,-1,-1,-1,-1,-1,-1,-1,-1],"loss_changes":[1.8129025E1,9.43034E0,4.156909E0,2.591135E0,4.0252857E0,1.6540403E0,3.1559412E0,1.5036888E0,2.8286834E0,2.9226127E0,4.8672028E0,1.5589905E-1,0E0,2.7246313E0,6.1845303E-2,0E0,0E0,0E0,0E0,0E0,0E0,0E0,0E0,0E0,0E0,0E0,0E0,0E0,0E0],"parents":[2147483647,0,0,1,1,2,2,3,3,4,4,5,5,6,6,7,7,8,8,9,9,10,10,11,11,13,13,14,14],"right_children":[2,4,6,8,10,12,14,16,18,20,22,24,-1,26,28,-1,-1,-1,-1,-1,-1,-1,-1,-1,-1,-1,-1,-1,-1],"split_conditions":[1.85727E3,-1.1171E2,2E-1,1.746E0,-5.74E-1,1.22E-1,8E-1,1.82E1,1.26E1,1.484E0,1.346E0,2.018E0,-1.2063925E-3,1.794E0,4.9166665E0,-2.4973497E-2,-2.755802E-3,-1.5143432E-2,4.2028368E-2,2.948753E-2,-1.4207132E-2,-1.6740995E-2,3.4016313E-3,4.336165E-2,1.2762968E-2,1.910171E-2,-1.7927436E-2,-8.570647E-3,-3.176401E-2],"split_indices":[5,21,20,6,24,25,11,10,10,16,16,15,0,7,13,0,0,0,0,0,0,0,0,0,0,0,0,0,0],"split_type":[0,0,0,0,0,0,0,0,0,0,0,0,0,0,0,0,0,0,0,0,0,0,0,0,0,0,0,0,0],"sum_hessian":[3.2701718E2,2.4628352E2,8.073365E1,8.924906E1,1.5703447E2,2.3068693E1,5.766496E1,8.204164E1,7.2074256E0,2.0573362E1,1.364611E2,2.0645163E1,2.4235322E0,5.383141E1,3.8335507E0,7.326007E1,8.781567E0,4.664466E0,2.5429597E0,1.6318737E1,4.254625E0,4.2987167E1,9.347394E1,1.9168867E1,1.4762945E0,4.910178E1,4.7296276E0,1.370199E0,2.4633517E0],"tree_param":{"num_deleted":"0","num_feature":"30","num_nodes":"29","size_leaf_vector":"1"}},{"base_weights":[1.3681448E-2,-2.4956614E-1,6.8926446E-2,8.0825454E-1,-3.5910138E-1,8.9729595E-1,5.1914044E-2,-1.1375517E-3,6.276122E-2,3.3065267E-2,-4.054964E-1,5.8692347E-2,4.7409805E-3,-4.146466E-1,8.1053466E-2,-6.1031436E-3,-2.5796715E-2,1.2682581E-2,-2.7900094E-2,3.0771378E-2,2.5380515E-3],"categories":[],"categories_nodes":[],"categories_segments":[],"categories_sizes":[],"default_left":[1,0,0,0,0,0,0,0,0,0,1,0,0,0,0,0,0,0,0,0,0],"id":22,"left_children":[1,3,5,7,9,11,13,-1,-1,-1,15,-1,-1,17,19,-1,-1,-1,-1,-1,-1],"loss_changes":[3.7346826E0,5.452811E0,2.941922E0,1.6956782E0,2.2123413E0,8.2214355E-1,2.8730767E0,0E0,0E0,0E0,1.1859932E0,0E0,0E0,1.3334377E0,3.1644218E0,0E0,0E0,0E0,0E0,0E0,0E0],"parents":[2147483647,0,0,1,1,2,2,3,3,4,4,5,5,6,6,10,10,13,13,14,14],"right_children":[2,4,6,8,10,12,14,-1,-1,-1,16,-1,-1,18,20,-1,-1,-1,-1,-1,-1],"split_conditions":[9.2E0,-3.3333334E-1,-2.5E0,5.2E0,7.82E-1,1.102E0,7.3E-1,-1.1375517E-3,6.276122E-2,3.3065267E-2,9E0,5.8692347E-2,4.7409805E-3,1.086E0,8.3E-1,-6.1031436E-3,-2.5796715E-2,1.2682581E-2,-2.7900094E-2,3.0771378E-2,2.5380515E-3],"split_indices":[10,29,27,17,16,16,6,0,0,0,19,0,0,16,6,0,0,0,0,0,0],"split_type":[0,0,0,0,0,0,0,0,0,0,0,0,0,0,0,0,0,0,0,0,0],"sum_hessian":[2.5461795E2,4.3555325E1,2.1106262E2,3.4883308E0,4.0066994E1,3.206124E0,2.078565E2,1.5519841E0,1.9363467E0,1.1661E0,3.890089E1,2.0402339E0,1.1658901E0,1.1441011E1,1.9641548E2,1.1497746E1,2.7403145E1,1.8848355E0,9.556176E0,9.500772E0,1.8691472E2],"tree_param":{"num_deleted":"0","num_feature":"30","num_nodes":"21","size_leaf_vector":"1"}},{"base_weights":[1.8922592E-3,5.4919386E-1,-1.09361395E-1,6.312057E-1,-2.5428766E-2,-2.4978773E-1,1.0688455E-1,9.974875E-2,6.995272E-1,-1.3371064E-1,-4.6652436E-1,-2.2747685E-1,2.0859976E-1,-1.4383214E-2,3.3109296E-2,1.3747596E-3,3.806802E-2,-1.0616838E-2,1.2767955E-2,-3.0607892E-2,-4.2866464E-3,-1.6110747E-3,-3.244502E-2,-3.042615E-2,1.3046326E-2],"categories":[],"categories_nodes":[],"categories_segments":[],"categories_sizes":[],"default_left":[1,1,1,1,0,0,0,1,0,1,0,0,0,0,0,0,0,0,0,0,0,0,0,0,0],"id":23,"left_children":[1,3,5,7,-1,9,11,13,15,17,19,21,23,-1,-1,-1,-1,-1,-1,-1,-1,-1,-1,-1,-1],"loss_changes":[1.8799263E1,4.84566E0,7.818804E0,1.7039928E0,0E0,3.8591156E0,3.5071616E0,1.6571342E0,1.7708626E0,3.202364E0,2.940092E0,1.970915E0,3.516133E0,0E0,0E0,0E0,0E0,0E0,0E0,0E0,0E0,0E0,0E0,0E0,0E0],"parents":[2147483647,0,0,1,1,2,2,3,3,5,5,6,6,7,7,8,8,9,9,10,10,11,11,12,12],"right_children":[2,4,6,8,-1,10,12,14,16,18,20,22,24,-1,-1,-1,-1,-1,-1,-1,-1,-1,-1,-1,-1],"split_conditions":[1.66406E3,4E-1,1.22E-1,8.8E-1,-2.5428766E-2,1.85445E3,1.75205E3,1.65459E3,-1.024E0,1.88065E3,-2E-3,7.0104165E0,1.106E0,-1.4383214E-2,3.3109296E-2,1.3747596E-3,3.806802E-2,-1.0616838E-2,1.2767955E-2,-3.0607892E-2,-4.2866464E-3,-1.6110747E-3,-3.244502E-2,-3.042615E-2,1.3046326E-2],"split_indices":[5,11,25,15,0,5,14,14,24,14,25,13,7,0,0,0,0,0,0,0,0,0,0,0,0],"split_type":[0,0,0,0,0,0,0,0,0,0,0,0,0,0,0,0,0,0,0,0,0,0,0,0,0],"sum_hessian":[3.067585E2,5.115754E1,2.5560098E2,4.78508E1,3.3067408E0,1.5487364E2,1.0072734E2,5.730966E0,4.2119835E1,1.01910576E2,5.2963062E1,2.3206337E1,7.7521E1,3.6827714E0,2.0481946E0,3.6706054E0,3.8449226E1,8.515588E1,1.6754694E1,3.7871525E1,1.5091538E1,1.6594278E1,6.612058E0,4.0257964E0,7.349521E1],"tree_param":{"num_deleted":"0","num_feature":"30","num_nodes":"25","size_leaf_vector":"1"}},{"base_weights":[2.965115E-4,-1.1116209E-1,3.3584836E-1,-3.406498E-1,1.2729062E-2,6.741914E-1,1.7468101E-1,-4.1745204E-1,8.329667E-2,4.2596576E-1,-4.2357333E-2,8.147399E-1,-2.0523375E-1,-3.5893747E-1,2.5105578E-1,-2.4803761E-2,-7.926062E-3,-3.0918736E-2,2.0402314E-2,4.204976E-2,7.4513354E-3,-1.2405414E-2,3.466855E-3,4.4751562E-2,-9.598016E-3,-2.8106993E-2,1.5307464E-2,1.666118E-2,-3.504389E-2,2.3448756E-2,-2.2728757E-3],"categories":[],"categories_nodes":[],"categories_segments":[],"categories_sizes":[],"default_left":[1,1,0,1,1,0,0,1,0,0,0,0,0,0,0,0,0,0,0,0,0,0,0,0,0,0,0,0,0,0,0],"id":24,"left_children":[1,3,5,7,9,11,13,15,17,19,21,23,25,27,29,-1,-1,-1,-1,-1,-1,-1,-1,-1,-1,-1,-1,-1,-1,-1,-1],"loss_changes":[1.2274732E1,7.0089483E0,4.3446255E0,2.8482914E0,3.682041E0,3.3875437E0,2.4041762E0,1.4140768E0,3.4622505E0,2.061139E0,3.3020196E0,2.0038185E0,9.731488E-1,2.0135431E0,3.268862E0,0E0,0E0,0E0,0E0,0E0,0E0,0E0,0E0,0E0,0E0,0E0,0E0,0E0,0E0,0E0,0E0],"parents":[2147483647,0,0,1,1,2,2,3,3,4,4,5,5,6,6,7,7,8,8,9,9,10,10,11,11,12,12,13,13,14,14],"right_children":[2,4,6,8,10,12,14,16,18,20,22,24,26,28,30,-1,-1,-1,-1,-1,-1,-1,-1,-1,-1,-1,-1,-1,-1,-1,-1],"split_conditions":[1.85727E3,-1.1171E2,2E-1,1.79783E3,9.2E0,1.22E-1,-1.15E0,1.54E1,-3.6E-1,-2.0833334E-2,1.346E0,1.296E0,2.74E-1,2.5E-1,4.28E-1,-2.4803761E-2,-7.926062E-3,-3.0918736E-2,2.0402314E-2,4.204976E-2,7.4513354E-3,-1.2405414E-2,3.466855E-3,4.4751562E-2,-9.598016E-3,-2.8106993E-2,1.5307464E-2,1.666118E-2,-3.504389E-2,2.3448756E-2,-2.2728757E-3],"split_indices":[5,21,20,5,10,25,27,10,24,22,16,24,25,11,24,0,0,0,0,0,0,0,0,0,0,0,0,0,0,0,0],"split_type":[0,0,0,0,0,0,0,0,0,0,0,0,0,0,0,0,0,0,0,0,0,0,0,0,0,0,0,0,0,0,0],"sum_hessian":[3.2620197E2,2.45368E2,8.083396E1,8.541021E1,1.5995778E2,2.5054073E1,5.5779884E1,7.232341E1,1.3086803E1,1.8023066E1,1.4193472E2,2.1665136E1,3.3889372E0,6.5207486E0,4.9259136E1,5.477528E1,1.7548128E1,3.8544703E0,9.232333E0,6.39803E0,1.1625036E1,4.951058E1,9.242414E1,2.0167559E1,1.4975765E0,1.9374745E0,1.4514627E0,2.1646078E0,4.356141E0,2.8057175E1,2.1201962E1],"tree_param":{"num_deleted":"0","num_feature":"30","num_nodes":"31","size_leaf_vector":"1"}},{"base_weights":[-1.2548235E-3,-3.118936E-1,6.131734E-2,5.623453E-1,-3.8640204E-1,4.0292226E-2,7.824914E-1,-1.7875921E-2,5.4945257E-2,2.7338391E-2,-4.2539048E-1,2.1514567E-2,9.7457385E-1,6.2364876E-2,-1.9782295E-2,-2.33214E-2,9.381015E-3,-2.5411622E-4,2.92145E-2,6.4336783E-3,6.2351197E-2],"categories":[],"categories_nodes":[],"categories_segments":[],"categories_sizes":[],"default_left":[1,0,0,0,0,1,0,0,0,0,1,1,0,0,0,0,0,0,0,0,0],"id":25,"left_children":[1,3,5,7,9,11,13,-1,-1,-1,15,17,19,-1,-1,-1,-1,-1,-1,-1,-1],"loss_changes":[4.939846E0,2.992734E0,3.1761498E0,2.2454503E0,1.6826305E0,3.60374E0,3.7454531E0,0E0,0E0,0E0,1.0640607E0,3.049915E0,7.7250767E-1,0E0,0E0,0E0,0E0,0E0,0E0,0E0,0E0],"parents":[2147483647,0,0,1,1,2,2,3,3,4,4,5,5,6,6,10,10,11,11,12,12],"right_children":[2,4,6,8,10,12,14,-1,-1,-1,16,18,20,-1,-1,-1,-1,-1,-1,-1,-1],"split_conditions":[9E0,-3.3333334E-1,8E-1,5.2E0,6.74E-1,1.3633333E0,1.25E0,-1.7875921E-2,5.4945257E-2,2.7338391E-2,2E0,5.8E0,1.22E1,6.2364876E-2,-1.9782295E-2,-2.33214E-2,9.381015E-3,-2.5411622E-4,2.92145E-2,6.4336783E-3,6.2351197E-2],"split_indices":[10,29,11,17,16,24,27,0,0,0,27,28,10,0,0,0,0,0,0,0,0],"split_type":[0,0,0,0,0,0,0,0,0,0,0,0,0,0,0,0,0,0,0,0,0],"sum_hessian":[2.5215817E2,4.1608536E1,2.1054964E2,2.753473E0,3.8855064E1,2.0561113E2,4.9385185E0,1.137337E0,1.6161361E0,1.0359619E0,3.7819103E1,2.0256294E2,3.0481832E0,3.4992638E0,1.4392545E0,3.5670303E1,2.1487985E0,1.9436803E2,8.194907E0,1.1012661E0,1.946917E0],"tree_param":{"num_deleted":"0","num_feature":"30","num_nodes":"21","size_leaf_vector":"1"}},{"base_weights":[-1.1839938E-3,2.2031315E-1,-2.829502E-1,4.3655953E-1,5.0476998E-2,-3.1488687E-2,-2.1092293E-1,4.678161E-1,-2.6021471E-2,-1.7340748E-2,6.20978E-1,-5.6717295E-2,-3.537998E-1,9.71779E-3,3.0103669E-2,-2.277102E-2,3.2729965E-3,4.8992045E-2,-1.4416086E-2,1.2135126E-2,-1.4209858E-2,-1.967537E-2,2.8904006E-2],"categories":[],"categories_nodes":[],"categories_segments":[],"categories_sizes":[],"default_left":[1,1,1,1,1,0,0,0,0,1,0,0,0,0,0,0,0,0,0,0,0,0,0],"id":26,"left_children":[1,3,5,7,9,-1,11,13,-1,15,17,19,21,-1,-1,-1,-1,-1,-1,-1,-1,-1,-1],"loss_changes":[1.9153051E1,6.2884254E0,3.241231E0,2.5004501E0,3.7780106E0,0E0,2.4771662E0,2.5849113E0,0E0,3.2217727E0,3.6670835E0,3.8629224E0,2.3973913E0,0E0,0E0,0E0,0E0,0E0,0E0,0E0,0E0,0E0,0E0],"parents":[2147483647,0,0,1,1,2,2,3,3,4,4,6,6,7,7,9,9,10,10,11,11,12,12],"right_children":[2,4,6,8,10,-1,12,14,-1,16,18,20,22,-1,-1,-1,-1,-1,-1,-1,-1,-1,-1],"split_conditions":[-2.81E0,1.068E0,8.36E-1,1.63125E1,1.2854167E1,-3.1488687E-2,8.414E1,8.56E-1,-2.6021471E-2,2.8E0,4E-1,4.2E0,2.1E1,9.71779E-3,3.0103669E-2,-2.277102E-2,3.2729965E-3,4.8992045E-2,-1.4416086E-2,1.2135126E-2,-1.4209858E-2,-1.967537E-2,2.8904006E-2],"split_indices":[21,6,15,13,13,0,21,6,0,17,11,17,19,0,0,0,0,0,0,0,0,0,0],"split_type":[0,0,0,0,0,0,0,0,0,0,0,0,0,0,0,0,0,0,0,0,0,0,0],"sum_hessian":[3.0488992E2,1.7082335E2,1.3406657E2,7.445366E1,9.636969E1,2.1723013E1,1.1234357E2,7.25938E1,1.8598559E0,8.699755E1,9.372143E0,5.470161E1,5.7641956E1,2.4710386E1,4.788341E1,1.3114022E1,7.388352E1,6.6644025E0,2.7077405E0,2.3587587E1,3.1114023E1,5.5840317E1,1.8016411E0],"tree_param":{"num_deleted":"0","num_feature":"30","num_nodes":"23","size_leaf_vector":"1"}},{"base_weights":[-2.1725115E-3,-2.1021701E-1,1.8330444E-1,-2.827858E-1,2.0073076E-1,7.305869E-2,3.62964E-1,-4.5327315E-1,-1.3036473E-1,-2.6808245E-2,2.9868153E-1,8.397075E-3,4.669292E-1,5.2536005E-1,1.13489725E-1,-1.527255E-4,-2.657294E-2,-2.1096949E-2,-1.674033E-4,1.9512601E-2,-2.4046442E-2,2.0464174E-2,-3.738413E-3,3.1923026E-2,-1.5531574E-2,6.6676564E-3,3.3590328E-2,1.90084E-2,-1.9586606E-2],"categories":[],"categories_nodes":[],"categories_segments":[],"categories_sizes":[],"default_left":[1,0,0,1,0,1,1,0,0,0,1,1,0,0,0,0,0,0,0,0,0,0,0,0,0,0,0,0,0],"id":27,"left_children":[1,3,5,7,9,11,13,15,17,-1,19,21,23,25,27,-1,-1,-1,-1,-1,-1,-1,-1,-1,-1,-1,-1,-1,-1],"loss_changes":[1.2577232E1,4.638004E0,3.3866262E0,3.3445044E0,1.8665317E0,2.7477632E0,2.5850735E0,2.1604548E0,2.611654E0,0E0,1.7232256E0,3.1587343E0,2.2280214E0,2.164526E0,3.7886236E0,0E0,0E0,0E0,0E0,0E0,0E0,0E0,0E0,0E0,0E0,0E0,0E0,0E0,0E0],"parents":[2147483647,0,0,1,1,2,2,3,3,4,4,5,5,6,6,7,7,8,8,10,10,11,11,12,12,13,13,14,14],"right_children":[2,4,6,8,10,12,14,16,18,-1,20,22,24,26,28,-1,-1,-1,-1,-1,-1,-1,-1,-1,-1,-1,-1,-1,-1],"split_conditions":[-2.69E1,1.5166667E1,1.1739E2,-1.5189E2,3E0,3.6E0,-1.96E-1,-9.6E-1,-1.2E0,-2.6808245E-2,1.82447E3,-5.66E-1,2.298E0,9.6E0,1.2E0,-1.527255E-4,-2.657294E-2,-2.1096949E-2,-1.674033E-4,1.9512601E-2,-2.4046442E-2,2.0464174E-2,-3.738413E-3,3.1923026E-2,-1.5531574E-2,6.6676564E-3,3.3590328E-2,1.90084E-2,-1.9586606E-2],"split_indices":[21,13,21,21,8,9,25,24,26,0,14,24,6,19,26,0,0,0,0,0,0,0,0,0,0,0,0,0,0],"split_type":[0,0,0,0,0,0,0,0,0,0,0,0,0,0,0,0,0,0,0,0,0,0,0,0,0,0,0,0,0],"sum_hessian":[3.2394226E2,1.526196E2,1.7132268E2,1.2997868E2,2.2640915E1,1.0704348E2,6.42792E1,6.0421585E1,6.955709E1,2.131507E0,2.0509409E1,9.2825645E1,1.421784E1,3.8264763E1,2.6014433E1,9.094061E0,5.1327526E1,2.0401752E1,4.9155342E1,1.880058E1,1.7088283E0,1.5274725E1,7.755092E1,1.1794783E1,2.423058E0,1.092674E1,2.7338022E1,1.71889E1,8.825533E0],"tree_param":{"num_deleted":"0","num_feature":"30","num_nodes":"29","size_leaf_vector":"1"}},{"base_weights":[1.8179255E-2,8.331512E-2,-1.9790187E-1,1.6414294E-2,3.622479E-1,-4.05428E-4,-4.6908355E-1,-5.082417E-2,4.2740837E-1,6.7374325E-1,-3.638162E-2,-4.9688882E-1,2.0785E-1,-5.3845954E-1,1.292729E-1,3.8539726E-2,-4.1627735E-3,2.9311804E-2,-2.4165306E-2,-1.2041814E-2,4.1761145E-2,-1.3503301E-2,1.8378742E-2,-2.9198531E-2,7.236287E-3,3.943186E-2,4.5030352E-4,-3.0585567E-2,-7.994453E-3,-1.8498799E-2,3.1734597E-2],"categories":[],"categories_nodes":[],"categories_segments":[],"categories_sizes":[],"default_left":[0,1,0,1,0,0,1,0,0,0,0,0,0,1,1,0,0,0,0,0,0,0,0,0,0,0,0,0,0,0,0],"id":28,"left_children":[1,3,5,7,9,11,13,15,17,19,21,23,25,27,29,-1,-1,-1,-1,-1,-1,-1,-1,-1,-1,-1,-1,-1,-1,-1,-1],"loss_changes":[3.5649564E0,3.6222024E0,3.1432123E0,4.3841777E0,4.688859E0,3.7180555E0,1.0962491E0,3.702991E0,3.5091453E0,3.3228998E0,1.7442632E0,6.78226E-1,2.9186947E0,5.221348E-1,1.0866729E0,0E0,0E0,0E0,0E0,0E0,0E0,0E0,0E0,0E0,0E0,0E0,0E0,0E0,0E0,0E0,0E0],"parents":[2147483647,0,0,1,1,2,2,3,3,4,4,5,5,6,6,7,7,8,8,9,9,10,10,11,11,12,12,13,13,14,14],"right_children":[2,4,6,8,10,12,14,16,18,20,22,24,26,28,30,-1,-1,-1,-1,-1,-1,-1,-1,-1,-1,-1,-1,-1,-1,-1,-1],"split_conditions":[1.744E0,5.4E0,1.81301E3,3.8E0,3.36E-1,-1.5E0,2.03735E3,2.2E0,1.84711E3,3E0,1.46E1,1.85E1,1.248E0,6E0,1.44E1,3.8539726E-2,-4.1627735E-3,2.9311804E-2,-2.4165306E-2,-1.2041814E-2,4.1761145E-2,-1.3503301E-2,1.8378742E-2,-2.9198531E-2,7.236287E-3,3.943186E-2,4.5030352E-4,-3.0585567E-2,-7.994453E-3,-1.8498799E-2,3.1734597E-2],"split_indices":[6,17,14,28,25,28,14,17,5,8,19,19,16,8,19,0,0,0,0,0,0,0,0,0,0,0,0,0,0,0,0],"split_type":[0,0,0,0,0,0,0,0,0,0,0,0,0,0,0,0,0,0,0,0,0,0,0,0,0,0,0,0,0,0,0],"sum_hessian":[2.5111803E2,1.9342584E2,5.769219E1,1.5686201E2,3.6563828E1,3.396073E1,2.3731459E1,1.3556068E2,2.1301334E1,2.0137737E1,1.642609E1,9.626081E0,2.433465E1,2.1355513E1,2.375946E0,4.2831755E0,1.3127751E2,1.8441454E1,2.859881E0,2.9482381E0,1.7189499E1,1.0616189E1,5.8099017E0,8.554836E0,1.0712452E0,5.450019E0,1.888463E1,1.7377241E1,3.9782708E0,1.3300828E0,1.0458632E0],"tree_param":{"num_deleted":"0","num_feature":"30","num_nodes":"31","size_leaf_vector":"1"}},{"base_weights":[-1.0688973E-2,1.8883069E-1,-2.8732172E-1,3.760389E-1,-1.325326E-2,-1.3448365E-1,-4.1778457E-1,2.0956544E-3,5.018328E-1,5.364534E-1,-6.845347E-2,8.8782445E-2,-3.955448E-1,-4.5199245E-1,2.4212398E-2,-1.6287556E-2,2.1437922E-2,4.5279115E-2,1.995066E-2,3.924432E-2,-2.0916639E-2,-1.442315E-2,7.056623E-3,2.71174E-2,-8.074409E-3,-2.9269546E-2,-1.3962615E-4,-2.5812691E-2,-1.7837348E-4],"categories":[],"categories_nodes":[],"categories_segments":[],"categories_sizes":[],"default_left":[1,1,0,0,0,0,1,1,0,0,1,0,0,1,0,0,0,0,0,0,0,0,0,0,0,0,0,0,0],"id":29,"left_children":[1,3,5,7,9,11,13,15,17,19,21,23,25,27,-1,-1,-1,-1,-1,-1,-1,-1,-1,-1,-1,-1,-1,-1,-1],"loss_changes":[1.6927492E1,6.7471027E0,2.5059958E0,4.352273E0,2.666556E0,3.5700874E0,2.3432903E0,3.538722E0,2.5132885E0,2.231149E0,3.7132432E0,3.8911436E0,2.0966444E0,1.9245224E0,0E0,0E0,0E0,0E0,0E0,0E0,0E0,0E0,0E0,0E0,0E0,0E0,0E0,0E0,0E0],"parents":[2147483647,0,0,1,1,2,2,3,3,4,4,5,5,6,6,7,7,8,8,9,9,10,10,11,11,12,12,13,13],"right_children":[2,4,6,8,10,12,14,16,18,20,22,24,26,28,-1,-1,-1,-1,-1,-1,-1,-1,-1,-1,-1,-1,-1,-1,-1],"split_conditions":[-1.2E0,1.164E0,9.683E1,1.44E0,7.32E-1,1.78273E3,2.18E1,-4.64E-1,1.0333333E1,1.82023E3,1.12E1,1.274E0,2.48E-1,1.29375E1,2.4212398E-2,-1.6287556E-2,2.1437922E-2,4.5279115E-2,1.995066E-2,3.924432E-2,-2.0916639E-2,-1.442315E-2,7.056623E-3,2.71174E-2,-8.074409E-3,-2.9269546E-2,-1.3962615E-4,-2.5812691E-2,-1.7837348E-4],"split_indices":[21,6,21,7,16,14,19,24,10,5,19,7,25,4,0,0,0,0,0,0,0,0,0,0,0,0,0,0,0],"split_type":[0,0,0,0,0,0,0,0,0,0,0,0,0,0,0,0,0,0,0,0,0,0,0,0,0,0,0,0,0],"sum_hessian":[3.0470963E2,1.7721313E2,1.2749648E2,9.154558E1,8.566756E1,5.9648594E1,6.784789E1,2.329978E1,6.82458E1,7.02193E0,7.864563E1,3.2507378E1,2.7141216E1,6.584959E1,1.998304E0,1.3309389E1,9.990391E0,1.2267319E1,5.5978477E1,5.713291E0,1.308639E0,3.818509E1,4.046054E1,1.114402E1,2.1363358E1,1.7966295E1,9.17492E0,5.746354E1,8.386049E0],"tree_param":{"num_deleted":"0","num_feature":"30","num_nodes":"29","size_leaf_vector":"1"}},{"base_weights":[-9.643855E-3,-1.2367168E-1,3.5026473E-1,-3.342387E-1,-2.0474074E-3,6.717855E-1,2.1256536E-1,-3.9448532E-1,8.926437E-2,3.68923E-1,-6.3674055E-2,-6.37742E-3,7.313711E-1,2.9113752E-1,-5.3380316E-1,-1.5710596E-3,-2.2173539E-2,2.5473714E-2,-3.0621832E-2,2.4207061E-2,-2.8307844E-2,1.785307E-2,-6.570662E-3,4.032437E-2,-2.4279501E-4,-2.2968268E-2,1.7704977E-2,-3.3509947E-2,1.04493745E-4],"categories":[],"categories_nodes":[],"categories_segments":[],"categories_sizes":[],"default_left":[1,1,0,1,1,0,1,0,1,1,1,0,0,0,1,0,0,0,0,0,0,0,0,0,0,0,0,0,0],"id":30,"left_children":[1,3,5,7,9,11,13,15,17,19,21,-1,23,25,27,-1,-1,-1,-1,-1,-1,-1,-1,-1,-1,-1,-1,-1,-1],"loss_changes":[1.3361555E1,6.3296533E0,3.3255644E0,2.3441296E0,3.6284988E0,1.1900692E0,3.457774E0,1.3983278E0,3.875616E0,2.7101696E0,3.9251518E0,0E0,1.197278E0,2.600727E0,4.1923463E-1,0E0,0E0,0E0,0E0,0E0,0E0,0E0,0E0,0E0,0E0,0E0,0E0,0E0,0E0],"parents":[2147483647,0,0,1,1,2,2,3,3,4,4,5,5,6,6,7,7,8,8,9,9,10,10,12,12,13,13,14,14],"right_children":[2,4,6,8,10,12,14,16,18,20,22,-1,24,26,28,-1,-1,-1,-1,-1,-1,-1,-1,-1,-1,-1,-1,-1,-1],"split_conditions":[1.85727E3,-1.1171E2,2E-1,1.80322E3,8.14E-1,4.512E1,1.794E0,-9.6E-1,1.99622E3,1.88E1,-5.74E-1,-6.37742E-3,1.296E0,-6.94E-1,1.168E0,-1.5710596E-3,-2.2173539E-2,2.5473714E-2,-3.0621832E-2,2.4207061E-2,-2.8307844E-2,1.785307E-2,-6.570662E-3,4.032437E-2,-2.4279501E-4,-2.2968268E-2,1.7704977E-2,-3.3509947E-2,1.04493745E-4],"split_indices":[5,21,20,5,15,21,7,24,14,10,24,0,24,24,15,0,0,0,0,0,0,0,0,0,0,0,0,0,0],"split_type":[0,0,0,0,0,0,0,0,0,0,0,0,0,0,0,0,0,0,0,0,0,0,0,0,0,0,0,0,0],"sum_hessian":[3.2352167E2,2.4618169E2,7.733999E1,8.949378E1,1.5668791E2,2.202774E1,5.531225E1,7.840813E1,1.10856495E1,2.1610996E1,1.350769E2,1.4489987E0,2.0578741E1,5.059582E1,4.7164264E0,9.51649E0,6.889164E1,7.1048765E0,3.9807734E0,1.9669603E1,1.9413941E0,1.8139484E1,1.1693742E2,1.8586908E1,1.9918318E0,3.428804E0,4.716702E1,3.559771E0,1.1566553E0],"tree_param":{"num_deleted":"0","num_feature":"30","num_nodes":"29","size_leaf_vector":"1"}},{"base_weights":[8.383613E-3,5.444387E-2,-2.606852E-1,2.9531272E-2,5.8899194E-1,-4.1611305E-1,2.7023676E-1,4.872912E-2,-2.7586935E-2,8.1858945E-1,-2.024281E-2,-4.7426444E-1,2.6706984E-2,-2.4109924E-2,6.401184E-1,1.1987584E-3,2.4788905E-2,5.8322925E-2,9.604587E-3,9.112728E-3,-2.549921E-2,4.416729E-2,-1.6583346E-2],"categories":[],"categories_nodes":[],"categories_segments":[],"categories_sizes":[],"default_left":[0,1,1,1,0,1,0,1,0,0,0,0,0,0,0,0,0,0,0,0,0,0,0],"id":31,"left_children":[1,3,5,7,9,11,13,15,-1,17,-1,19,-1,-1,21,-1,-1,-1,-1,-1,-1,-1,-1],"loss_changes":[3.2301435E0,2.9441545E0,3.256509E0,2.409793E0,2.5790598E0,1.9036856E0,2.8786964E0,2.2857997E0,0E0,1.5919137E0,0E0,7.6536226E-1,0E0,0E0,1.857863E0,0E0,0E0,0E0,0E0,0E0,0E0,0E0,0E0],"parents":[2147483647,0,0,1,1,2,2,3,3,4,4,5,5,6,6,7,7,9,9,11,11,14,14],"right_children":[2,4,6,8,10,12,14,16,-1,18,-1,20,-1,-1,22,-1,-1,-1,-1,-1,-1,-1,-1],"split_conditions":[1.3145833E1,5.8E0,1.4E0,2.8841E2,8E0,2.442E0,-1.5839E2,2.1928E2,-2.7586935E-2,1.0416667E-2,-2.024281E-2,8E-1,2.6706984E-2,-2.4109924E-2,1.764E0,1.1987584E-3,2.4788905E-2,5.8322925E-2,9.604587E-3,9.112728E-3,-2.549921E-2,4.416729E-2,-1.6583346E-2],"split_indices":[4,28,28,21,28,7,21,21,0,22,0,16,0,0,6,0,0,0,0,0,0,0,0],"split_type":[0,0,0,0,0,0,0,0,0,0,0,0,0,0,0,0,0,0,0,0,0,0,0],"sum_hessian":[2.584894E2,2.2138887E2,3.7100555E1,2.1253876E2,8.850117E0,2.8866198E1,8.234359E0,2.0663045E2,5.9083033E0,7.332513E0,1.5176039E0,2.76736E1,1.1925986E0,2.6137192E0,5.6206393E0,1.9678758E2,9.842873E0,4.1604886E0,3.1720243E0,1.216284E0,2.6457315E1,4.56826E0,1.0523793E0],"tree_param":{"num_deleted":"0","num_feature":"30","num_nodes":"23","size_leaf_vector":"1"}},{"base_weights":[-1.6443273E-2,1.85603E-1,-2.9000035E-1,4.1041067E-1,1.5395882E-3,-3.0726647E-2,-2.2067057E-1,-1.977968E-1,4.5907116E-1,-7.398866E-2,4.36462E-1,-3.4964675E-1,-1.3691299E-3,-3.0079788E-2,2.6021946E-2,3.0553153E-2,1.0227043E-2,1.4099546E-2,-9.369187E-3,-8.843654E-3,3.2929197E-2,-1.1997958E-2,-3.0776996E-2,2.665338E-2,-7.903357E-3],"categories":[],"categories_nodes":[],"categories_segments":[],"categories_sizes":[],"default_left":[1,1,1,0,1,0,0,0,1,0,0,0,0,0,0,0,0,0,0,0,0,0,0,0,0],"id":32,"left_children":[1,3,5,7,9,-1,11,13,15,17,19,21,23,-1,-1,-1,-1,-1,-1,-1,-1,-1,-1,-1,-1],"loss_changes":[1.6712896E1,7.198141E0,2.7541237E0,2.4085636E0,3.207408E0,0E0,3.0369124E0,2.1983452E0,2.691926E0,3.4117734E0,2.0846548E0,1.8242865E0,3.4987116E0,0E0,0E0,0E0,0E0,0E0,0E0,0E0,0E0,0E0,0E0,0E0,0E0],"parents":[2147483647,0,0,1,1,2,2,3,3,4,4,6,6,7,7,8,8,9,9,10,10,11,11,12,12],"right_children":[2,4,6,8,10,-1,12,14,16,18,20,22,24,-1,-1,-1,-1,-1,-1,-1,-1,-1,-1,-1,-1],"split_conditions":[-1.2E0,1.072E0,8.36E-1,-1.04E0,1.2083334E0,-3.0726647E-2,1.48E0,2.098E0,-1.3741E2,-1.5839E2,3.0104167E0,1.7988E3,-2E0,-3.0079788E-2,2.6021946E-2,3.0553153E-2,1.0227043E-2,1.4099546E-2,-9.369187E-3,-8.843654E-3,3.2929197E-2,-1.1997958E-2,-3.0776996E-2,2.665338E-2,-7.903357E-3],"split_indices":[21,6,15,24,22,0,7,15,21,21,13,14,28,0,0,0,0,0,0,0,0,0,0,0,0],"split_type":[0,0,0,0,0,0,0,0,0,0,0,0,0,0,0,0,0,0,0,0,0,0,0,0,0],"sum_hessian":[3.0040607E2,1.7297221E2,1.2743386E2,7.731412E1,9.56581E1,2.104735E1,1.06386505E2,5.5003557E0,7.181376E1,8.221124E1,1.3446852E1,6.6614586E1,3.977192E1,3.6248362E0,1.8755196E0,4.4086758E1,2.7727005E1,1.9502022E1,6.270922E1,3.6292586E0,9.817594E0,4.850679E1,1.8107798E1,8.472749E0,3.129917E1],"tree_param":{"num_deleted":"0","num_feature":"30","num_nodes":"25","size_leaf_vector":"1"}},{"base_weights":[7.1706916E-3,-1.4017895E-1,2.6770872E-1,-3.8088385E-2,-3.491492E-1,5.967655E-1,1.6547632E-1,3.3556104E-1,-1.1938149E-1,-3.8107356E-1,2.469789E-2,7.151319E-1,1.0164835E-1,1.1233001E-1,3.9446216E-2,-2.488159E-2,2.0943185E-2,-1.362163E-2,4.669578E-3,-2.2137253E-2,3.9708722E-4,7.9397485E-3,4.0564816E-2,3.361867E-2,-2.1284863E-2,7.799552E-3,-2.7804181E-2],"categories":[],"categories_nodes":[],"categories_segments":[],"categories_sizes":[],"default_left":[1,0,1,1,1,1,0,0,1,1,0,0,0,0,0,0,0,0,0,0,0,0,0,0,0,0,0],"id":33,"left_children":[1,3,5,7,9,11,13,15,17,19,-1,21,23,25,-1,-1,-1,-1,-1,-1,-1,-1,-1,-1,-1,-1,-1],"loss_changes":[1.239573E1,4.3873816E0,3.8248482E0,4.2834253E0,2.0071316E0,1.5250692E0,2.9057255E0,1.9592359E0,3.7858615E0,1.5791779E0,0E0,1.0394602E0,2.2202199E0,2.550959E0,0E0,0E0,0E0,0E0,0E0,0E0,0E0,0E0,0E0,0E0,0E0,0E0,0E0],"parents":[2147483647,0,0,1,1,2,2,3,3,4,4,5,5,6,6,7,7,8,8,9,9,11,11,12,12,13,13],"right_children":[2,4,6,8,10,12,14,16,18,20,-1,22,24,26,-1,-1,-1,-1,-1,-1,-1,-1,-1,-1,-1,-1,-1],"split_conditions":[4.108E1,1.765E0,-1E0,-1.8854166E0,7E0,6E-1,2.9385E2,1E0,-4.863E1,8.0625E0,2.469789E-2,1.62228E3,2E0,2.206E0,3.9446216E-2,-2.488159E-2,2.0943185E-2,-1.362163E-2,4.669578E-3,-2.2137253E-2,3.9708722E-4,7.9397485E-3,4.0564816E-2,3.361867E-2,-2.1284863E-2,7.799552E-3,-2.7804181E-2],"split_indices":[21,7,22,22,17,11,21,9,21,13,0,14,18,6,0,0,0,0,0,0,0,0,0,0,0,0,0],"split_type":[0,0,0,0,0,0,0,0,0,0,0,0,0,0,0,0,0,0,0,0,0,0,0,0,0,0,0],"sum_hessian":[3.209105E2,2.0527649E2,1.15634E2,1.3869873E2,6.657776E1,2.6263138E1,8.9370865E1,2.4224998E1,1.14473724E2,6.467678E1,1.900981E0,2.0837261E1,5.4258776E0,8.343828E1,5.9325867E0,1.7497932E0,2.2475206E1,6.641788E1,4.8055847E1,5.570726E1,8.969517E0,3.461699E0,1.7375563E1,2.4736886E0,2.952189E0,7.904186E1,4.3964186E0],"tree_param":{"num_deleted":"0","num_feature":"30","num_nodes":"27","size_leaf_vector":"1"}},{"base_weights":[1.8938739E-2,8.81739E-2,-1.5283565E-1,-5.3197857E-2,2.163092E-1,6.2768847E-1,-2.1259102E-1,8.4636515E-1,-1.0038641E-1,3.1434548E-1,-1.0815638E-1,5.410667E-2,-1.9081494E-2,-2.9595342E-1,1.7277545E-1,1.0911648E-3,6.2131245E-2,-1.2340455E-2,1.14352275E-2,9.10118E-3,3.328083E-2,-1.6223757E-2,2.201611E-2,-3.8875793E-3,-2.5911177E-2,2.7450388E-2,-1.818841E-2],"categories":[],"categories_nodes":[],"categories_segments":[],"categories_sizes":[],"default_left":[0,0,0,0,1,0,1,0,0,1,0,0,0,1,0,0,0,0,0,0,0,0,0,0,0,0,0],"id":34,"left_children":[1,3,5,7,9,11,13,15,17,19,21,-1,-1,23,25,-1,-1,-1,-1,-1,-1,-1,-1,-1,-1,-1,-1],"loss_changes":[2.995776E0,3.2605839E0,3.5103693E0,3.7389235E0,3.0330682E0,2.8907008E0,2.235686E0,1.4093351E0,4.040605E0,3.256208E0,2.8267803E0,0E0,0E0,2.6890864E0,2.7685072E0,0E0,0E0,0E0,0E0,0E0,0E0,0E0,0E0,0E0,0E0,0E0,0E0],"parents":[2147483647,0,0,1,1,2,2,3,3,4,4,5,5,6,6,7,7,8,8,9,9,10,10,13,13,14,14],"right_children":[2,4,6,8,10,12,14,16,18,20,22,-1,-1,24,26,-1,-1,-1,-1,-1,-1,-1,-1,-1,-1,-1,-1],"split_conditions":[1.86408E3,-3.3333334E-1,-6.94E-1,1.6E0,1.742E0,1.87049E3,9.0625E-1,2.5E-1,1.82E0,1.478E0,1.83376E3,5.410667E-2,-1.9081494E-2,5.21875E0,1.1458334E0,1.0911648E-3,6.2131245E-2,-1.2340455E-2,1.14352275E-2,9.10118E-3,3.328083E-2,-1.6223757E-2,2.201611E-2,-3.8875793E-3,-2.5911177E-2,2.7450388E-2,-1.818841E-2],"split_indices":[5,27,24,18,6,14,22,20,15,6,5,0,0,13,22,0,0,0,0,0,0,0,0,0,0,0,0],"split_type":[0,0,0,0,0,0,0,0,0,0,0,0,0,0,0,0,0,0,0,0,0,0,0,0,0,0,0],"sum_hessian":[2.4976454E2,1.783612E2,7.140334E1,8.5078674E1,9.328253E1,4.401868E0,6.700148E1,3.3964164E0,8.168226E1,7.166144E1,2.1621094E1,2.985504E0,1.4163642E0,5.5276165E1,1.172531E1,1.4449079E0,1.9515085E0,5.670326E1,2.4978996E1,5.3156036E1,1.85054E1,1.5798578E1,5.8225155E0,2.857449E1,2.6701677E1,6.878661E0,4.846649E0],"tree_param":{"num_deleted":"0","num_feature":"30","num_nodes":"27","size_leaf_vector":"1"}},{"base_weights":[-4.500125E-2,1.704008E-1,-1.9880085E-1,2.9149893E-1,-1.4558318E-1,3.7616307E-1,-2.4383646E-1,3.6337548E-1,-4.3427822E-1,-5.1626974E-1,4.1542202E-2,-4.5952147E-1,8.6182564E-1,-2.6619256E-1,5.793306E-1,-1.0826712E-2,2.111214E-2,-3.1950522E-2,2.137179E-2,-8.5264025E-4,-3.3205803E-2,-2.1552598E-2,1.3510453E-2,-2.5826597E-3,-2.8017683E-2,4.9098007E-2,1.0822704E-3,-1.5928006E-2,6.8086344E-3,4.262322E-2,-2.693442E-3],"categories":[],"categories_nodes":[],"categories_segments":[],"categories_sizes":[],"default_left":[1,0,0,1,0,1,1,0,0,0,0,0,0,1,0,0,0,0,0,0,0,0,0,0,0,0,0,0,0,0,0],"id":35,"left_children":[1,3,5,7,9,11,13,15,17,19,21,23,25,27,29,-1,-1,-1,-1,-1,-1,-1,-1,-1,-1,-1,-1,-1,-1,-1,-1],"loss_changes":[1.0401857E1,5.051694E0,4.8316154E0,5.1121855E0,2.5835576E0,5.9521637E0,3.2893343E0,3.0600157E0,1.8633105E0,9.087131E-1,2.8690753E0,2.048142E-1,8.877468E-1,3.5525627E0,8.794042E-1,0E0,0E0,0E0,0E0,0E0,0E0,0E0,0E0,0E0,0E0,0E0,0E0,0E0,0E0,0E0,0E0],"parents":[2147483647,0,0,1,1,2,2,3,3,4,4,5,5,6,6,7,7,8,8,9,9,10,10,11,11,12,12,13,13,14,14],"right_children":[2,4,6,8,10,12,14,16,18,20,22,24,26,28,30,-1,-1,-1,-1,-1,-1,-1,-1,-1,-1,-1,-1,-1,-1,-1,-1],"split_conditions":[1.174E0,1.71E0,3.3333333E0,1.83226E3,1.038E0,1E-1,2.504E0,-1.04E0,5.6666665E0,-8.28E-1,3.7916667E0,3.9375E0,1.84E1,1.29375E1,7.0104165E0,-1.0826712E-2,2.111214E-2,-3.1950522E-2,2.137179E-2,-8.5264025E-4,-3.3205803E-2,-2.1552598E-2,1.3510453E-2,-2.5826597E-3,-2.8017683E-2,4.9098007E-2,1.0822704E-3,-1.5928006E-2,6.8086344E-3,4.262322E-2,-2.693442E-3],"split_indices":[6,16,8,5,15,25,15,24,17,25,4,13,10,4,4,0,0,0,0,0,0,0,0,0,0,0,0,0,0,0,0],"split_type":[0,0,0,0,0,0,0,0,0,0,0,0,0,0,0,0,0,0,0,0,0,0,0,0,0,0,0,0,0,0,0],"sum_hessian":[3.1196024E2,1.2990938E2,1.8205086E2,9.3972664E1,3.593672E1,1.2689763E1,1.693611E2,8.595912E1,8.013541E0,1.14653845E1,2.4471336E1,4.68392E0,8.005843E0,1.6554184E2,3.8192651E0,7.674846E0,7.828428E1,6.6839604E0,1.3295808E0,2.8745487E0,8.590837E0,7.6909995E0,1.6780336E1,1.2281789E0,3.4557412E0,6.8566804E0,1.1491628E0,1.4666214E2,1.8879692E1,2.4263613E0,1.3929038E0],"tree_param":{"num_deleted":"0","num_feature":"30","num_nodes":"31","size_leaf_vector":"1"}},{"base_weights":[2.3843278E-3,-1.0624712E-1,3.1852952E-1,-3.1983265E-1,5.371126E-3,-3.344841E-1,3.9084965E-1,-3.7874836E-1,1.1355918E-1,3.131244E-1,-5.1871073E-2,-3.418114E-2,1.5456149E-1,6.8122894E-1,2.7941328E-1,-2.2041427E-2,8.791474E-4,-2.3208687E-2,3.3149794E-2,2.0346938E-2,-2.712552E-2,3.7855037E-2,-4.0740883E-3,-1.4065604E-2,3.0563036E-2,4.025194E-2,-6.9339583E-3,1.9049503E-2,-1.573277E-2],"categories":[],"categories_nodes":[],"categories_segments":[],"categories_sizes":[],"default_left":[1,1,0,1,1,0,0,0,0,1,1,0,0,0,0,0,0,0,0,0,0,0,0,0,0,0,0,0,0],"id":36,"left_children":[1,3,5,7,9,11,13,15,17,19,21,-1,23,25,27,-1,-1,-1,-1,-1,-1,-1,-1,-1,-1,-1,-1,-1,-1],"loss_changes":[1.1093358E1,5.7334194E0,4.0318356E0,2.1504498E0,2.8152773E0,1.6039577E0,2.23106E0,1.8011436E0,3.687278E0,2.232388E0,3.291364E0,0E0,1.0619223E0,2.1477184E0,3.4853945E0,0E0,0E0,0E0,0E0,0E0,0E0,0E0,0E0,0E0,0E0,0E0,0E0,0E0,0E0],"parents":[2147483647,0,0,1,1,2,2,3,3,4,4,5,5,6,6,7,7,8,8,9,9,10,10,12,12,13,13,14,14],"right_children":[2,4,6,8,10,12,14,16,18,20,22,-1,24,26,28,-1,-1,-1,-1,-1,-1,-1,-1,-1,-1,-1,-1,-1,-1],"split_conditions":[1.85727E3,-1.1171E2,-1.15E0,1.80322E3,8.14E-1,1.354E0,-9.895833E-1,7.2E0,0E0,1.9E1,6.58E-1,-3.418114E-2,1.934E0,1.82E1,1.645E0,-2.2041427E-2,8.791474E-4,-2.3208687E-2,3.3149794E-2,2.0346938E-2,-2.712552E-2,3.7855037E-2,-4.0740883E-3,-1.4065604E-2,3.0563036E-2,4.025194E-2,-6.9339583E-3,1.9049503E-2,-1.573277E-2],"split_indices":[5,21,27,5,15,16,22,17,26,10,6,0,15,10,7,0,0,0,0,0,0,0,0,0,0,0,0,0,0],"split_type":[0,0,0,0,0,0,0,0,0,0,0,0,0,0,0,0,0,0,0,0,0,0,0,0,0,0,0,0,0],"sum_hessian":[3.2102826E2,2.3942332E2,8.160493E1,8.153595E1,1.5788737E2,7.775063E0,7.3829865E1,7.188932E1,9.646624E0,2.4060404E1,1.3382698E2,4.304284E0,3.470779E0,1.905734E1,5.4772526E1,6.2056675E1,9.832648E0,4.7778716E0,4.8687515E0,2.21556E1,1.9048047E0,3.8579617E0,1.2996901E2,1.9723761E0,1.4984028E0,1.6572893E1,2.484447E0,4.7081055E1,7.691471E0],"tree_param":{"num_deleted":"0","num_feature":"30","num_nodes":"29","size_leaf_vector":"1"}},{"base_weights":[1.706315E-2,-7.6689105E-3,5.8129615E-1,5.121876E-2,-1.9154627E-2,2.5617046E-2,9.420101E-1,3.4622047E-2,-1.8577822E-1,4.697313E-2,-2.4877712E-2,3.7284007E-3,5.6111943E-2,-4.2162933E-3,9.429299E-3,-1.3529788E-2,1.1003172E-2],"categories":[],"categories_nodes":[],"categories_segments":[],"categories_sizes":[],"default_left":[1,0,0,0,0,0,0,0,1,0,0,0,0,0,0,0,0],"id":37,"left_children":[1,3,5,-1,7,9,11,13,15,-1,-1,-1,-1,-1,-1,-1,-1],"loss_changes":[3.5425723E0,2.910565E0,2.1125596E0,0E0,2.1764882E0,2.964996E0,9.2250586E-1,3.384395E0,2.0990198E0,0E0,0E0,0E0,0E0,0E0,0E0,0E0,0E0],"parents":[2147483647,0,0,1,1,2,2,4,4,5,5,6,6,7,7,8,8],"right_children":[2,4,6,-1,8,10,12,14,16,-1,-1,-1,-1,-1,-1,-1,-1],"split_conditions":[5.6E0,4.5E-1,1.246E0,5.121876E-2,1.744E0,-9.895833E-1,-7.916667E-1,4.6E0,2.226E0,4.697313E-2,-2.4877712E-2,3.7284007E-3,5.6111943E-2,-4.2162933E-3,9.429299E-3,-1.3529788E-2,1.1003172E-2],"split_indices":[28,15,6,0,6,22,22,17,6,0,0,0,0,0,0,0,0],"split_type":[0,0,0,0,0,0,0,0,0,0,0,0,0,0,0,0,0],"sum_hessian":[2.5254388E2,2.4288396E2,9.65994E0,1.702689E0,2.4118126E2,4.2239585E0,5.4359813E0,1.8293303E2,5.8248226E1,1.2481151E0,2.9758432E0,1.1783444E0,4.2576365E0,1.0345732E2,7.9475716E1,4.845482E1,9.793406E0],"tree_param":{"num_deleted":"0","num_feature":"30","num_nodes":"17","size_leaf_vector":"1"}},{"base_weights":[-7.6505723E-3,1.9450906E-1,-2.9787797E-1,3.004077E-1,-7.305654E-2,-3.2328404E-2,-2.2291875E-1,4.5885912E-1,1.4128193E-1,-3.8062418E-1,2.207796E-1,-3.3933666E-2,-3.8161087E-1,2.8633585E-2,-7.001826E-4,-1.51994E-2,1.1880603E-2,-2.532418E-2,2.9261613E-2,4.728875E-2,1.9926469E-4,-7.458391E-3,1.7088043E-2,-2.5751961E-2,-6.28075E-3],"categories":[],"categories_nodes":[],"categories_segments":[],"categories_sizes":[],"default_left":[1,1,1,1,1,0,0,1,1,1,0,0,0,0,0,0,0,0,0,0,0,0,0,0,0],"id":38,"left_children":[1,3,5,7,9,-1,11,13,15,17,19,21,23,-1,-1,-1,-1,-1,-1,-1,-1,-1,-1,-1,-1],"loss_changes":[1.7663502E1,5.0506096E0,3.0862942E0,3.1460009E0,4.704714E0,0E0,3.0836039E0,3.4180536E0,2.8594975E0,3.3777072E0,4.2054777E0,2.1387835E0,1.8489962E0,0E0,0E0,0E0,0E0,0E0,0E0,0E0,0E0,0E0,0E0,0E0,0E0],"parents":[2147483647,0,0,1,1,2,2,3,3,4,4,6,6,7,7,8,8,9,9,10,10,11,11,12,12],"right_children":[2,4,6,8,10,-1,12,14,16,18,20,22,24,-1,-1,-1,-1,-1,-1,-1,-1,-1,-1,-1,-1],"split_conditions":[-1.2E0,1.402E0,8.36E-1,-1.5189E2,0E0,-3.2328404E-2,1.82923E3,1.798E0,-4.44E-1,6.666667E-1,-1.6666666E0,1.80768E3,1E0,2.8633585E-2,-7.001826E-4,-1.51994E-2,1.1880603E-2,-2.532418E-2,2.9261613E-2,4.728875E-2,1.9926469E-4,-7.458391E-3,1.7088043E-2,-2.5751961E-2,-6.28075E-3],"split_indices":[21,6,15,21,29,0,5,15,25,20,28,5,27,0,0,0,0,0,0,0,0,0,0,0,0],"split_type":[0,0,0,0,0,0,0,0,0,0,0,0,0,0,0,0,0,0,0,0,0,0,0,0,0],"sum_hessian":[2.990662E2,1.7647281E2,1.2259338E2,1.2634465E2,5.0128155E1,2.0342049E1,1.02251335E2,6.2362656E1,6.398199E1,2.4347496E1,2.5780659E1,4.7225147E1,5.5026188E1,5.0094433E1,1.2268225E1,1.0996555E1,5.2985435E1,2.1961353E1,2.3861427E0,5.1605144E0,2.0620146E1,3.6601562E1,1.0623588E1,3.5507378E1,1.951881E1],"tree_param":{"num_deleted":"0","num_feature":"30","num_nodes":"25","size_leaf_vector":"1"}},{"base_weights":[1.3776267E-2,-1.068352E-1,2.9744506E-1,-3.3664227E-1,-1.8010594E-2,5.7742715E-1,1.9690166E-1,-4.4880277E-1,-6.614291E-3,-1.3192795E-1,1.7792882E-1,7.1123594E-1,5.0144743E-2,-6.2411398E-2,3.6736605E-1,5.03346E-3,-2.848856E-2,3.6679637E-2,-1.0500282E-2,-6.245207E-4,-2.0575155E-2,-2.9249263E-3,1.8072654E-2,4.1827347E-2,-4.548115E-3,3.4774493E-2,-3.093469E-2,-1.4846521E-2,1.5821218E-2,1.1100084E-2,3.0984968E-2],"categories":[],"categories_nodes":[],"categories_segments":[],"categories_sizes":[],"default_left":[1,0,1,0,0,1,0,0,0,0,0,1,0,0,0,0,0,0,0,0,0,0,0,0,0,0,0,0,0,0,0],"id":39,"left_children":[1,3,5,7,9,11,13,15,17,19,21,23,25,27,29,-1,-1,-1,-1,-1,-1,-1,-1,-1,-1,-1,-1,-1,-1,-1,-1],"loss_changes":[1.0621353E1,4.4420195E0,2.4931145E0,2.2435346E0,3.555079E0,1.6541543E0,3.1018322E0,3.067131E0,2.6244407E0,3.354913E0,2.563567E0,1.9887524E0,2.9870868E0,2.6243658E0,1.4092803E0,0E0,0E0,0E0,0E0,0E0,0E0,0E0,0E0,0E0,0E0,0E0,0E0,0E0,0E0,0E0,0E0],"parents":[2147483647,0,0,1,1,2,2,3,3,4,4,5,5,6,6,7,7,8,8,9,9,10,10,11,11,12,12,13,13,14,14],"right_children":[2,4,6,8,10,12,14,16,18,20,22,24,26,28,30,-1,-1,-1,-1,-1,-1,-1,-1,-1,-1,-1,-1,-1,-1,-1,-1],"split_conditions":[7.604E1,-1.2063E2,-1E0,4.6E0,7.8541665E0,7.96875E0,1.6666666E0,-9.6E-1,-8E-1,1.754E0,4.2E0,3.4E0,2.5E-1,6.96E-1,8.645833E-1,5.03346E-3,-2.848856E-2,3.6679637E-2,-1.0500282E-2,-6.245207E-4,-2.0575155E-2,-2.9249263E-3,1.8072654E-2,4.1827347E-2,-4.548115E-3,3.4774493E-2,-3.093469E-2,-1.4846521E-2,1.5821218E-2,1.1100084E-2,3.0984968E-2],"split_indices":[21,21,22,8,13,13,18,24,28,7,8,28,20,24,22,0,0,0,0,0,0,0,0,0,0,0,0,0,0,0,0],"split_type":[0,0,0,0,0,0,0,0,0,0,0,0,0,0,0,0,0,0,0,0,0,0,0,0,0,0,0,0,0,0,0],"sum_hessian":[3.0851263E2,2.1690953E2,9.160311E1,5.968988E1,1.5721965E2,2.2950377E1,6.865273E1,4.4281017E1,1.5408863E1,9.962518E1,5.759447E1,1.8026827E1,4.923549E0,2.7481428E1,4.1171303E1,8.019957E0,3.626106E1,2.7594666E0,1.2649396E1,7.053608E1,2.9089104E1,2.5467237E1,3.212723E1,1.5554282E1,2.472545E0,2.4855034E0,2.4380457E0,1.7107313E1,1.0374114E1,2.7315289E1,1.3856016E1],"tree_param":{"num_deleted":"0","num_feature":"30","num_nodes":"31","size_leaf_vector":"1"}},{"base_weights":[6.4016995E-3,-1.996978E-1,6.340057E-2,8.124384E-1,-3.1115907E-1,4.5224793E-2,9.000392E-1,5.5247344E-2,-4.283831E-4,2.0442376E-1,-3.8311687E-1,-2.1776216E-1,9.7291656E-2,5.787031E-2,5.4275147E-3,4.142696E-2,-7.285744E-3,-2.1022335E-2,2.1989586E-2,1.7249256E-2,-1.8619461E-2,6.5900027E-3,-2.8841926E-2],"categories":[],"categories_nodes":[],"categories_segments":[],"categories_sizes":[],"default_left":[1,0,1,0,1,0,0,0,0,1,1,0,1,0,0,0,0,0,0,0,0,0,0],"id":40,"left_children":[1,3,5,7,9,11,13,-1,-1,15,17,19,21,-1,-1,-1,-1,-1,-1,-1,-1,-1,-1],"loss_changes":[2.9975743E0,6.490099E0,2.9976E0,1.3931117E0,1.9528718E0,2.7133045E0,7.289903E-1,0E0,0E0,1.615505E0,1.5576377E0,2.982654E0,3.9099357E0,0E0,0E0,0E0,0E0,0E0,0E0,0E0,0E0,0E0,0E0],"parents":[2147483647,0,0,1,1,2,2,3,3,4,4,5,5,6,6,9,9,10,10,11,11,12,12],"right_children":[2,4,6,8,10,12,14,-1,-1,16,18,20,22,-1,-1,-1,-1,-1,-1,-1,-1,-1,-1],"split_conditions":[9.8E0,-3.3333334E-1,1.3633333E0,1.98563E3,7.82E-1,3.25E0,2E0,5.5247344E-2,-4.283831E-4,1.70573E3,2.544E0,1.16E1,1.6666666E0,5.787031E-2,5.4275147E-3,4.142696E-2,-7.285744E-3,-2.1022335E-2,2.1989586E-2,1.7249256E-2,-1.8619461E-2,6.5900027E-3,-2.8841926E-2],"split_indices":[10,29,24,5,16,17,28,0,0,5,7,10,27,0,0,0,0,0,0,0,0,0,0],"split_type":[0,0,0,0,0,0,0,0,0,0,0,0,0,0,0,0,0,0,0,0,0,0,0],"sum_hessian":[2.530906E2,5.4288357E1,1.9880225E2,4.761556E0,4.9526802E1,1.956068E2,3.195455E0,3.2557507E0,1.5058053E0,5.8402305E0,4.3686573E1,3.1800716E1,1.6380608E2,2.0624855E0,1.1329697E0,1.6078862E0,4.232344E0,4.225865E1,1.4279189E0,6.5891576E0,2.5211557E1,1.5659456E2,7.2115107E0],"tree_param":{"num_deleted":"0","num_feature":"30","num_nodes":"23","size_leaf_vector":"1"}},{"base_weights":[2.5770233E-3,3.02259E-1,-1.385557E-1,4.2478183E-1,-1.3685086E-1,-2.7434316E-1,2.0826293E-2,4.982829E-1,-1.5168267E-1,-4.6843153E-1,4.835746E-1,-1.5300567E-1,-4.685853E-1,3.4149683E-1,-7.631812E-2,2.6405621E-2,-2.5220398E-2,1.6086549E-2,-2.7446998E-2,2.2075186E-2,-3.259445E-2,4.4670913E-2,-7.277331E-4,-2.5252268E-2,-2.7171269E-3,-3.1703867E-2,-1.7238894E-2,-9.529398E-3,2.7000932E-2,-2.3619853E-2,7.831935E-4],"categories":[],"categories_nodes":[],"categories_segments":[],"categories_sizes":[],"default_left":[1,1,1,1,0,0,0,1,0,0,0,0,1,0,0,0,0,0,0,0,0,0,0,0,0,0,0,0,0,0,0],"id":41,"left_children":[1,3,5,7,9,11,13,15,17,19,21,23,25,27,29,-1,-1,-1,-1,-1,-1,-1,-1,-1,-1,-1,-1,-1,-1,-1,-1],"loss_changes":[1.2682893E1,5.223242E0,4.417964E0,3.266264E0,4.6906824E0,2.5245485E0,2.9766536E0,2.2709885E0,1.9223136E0,2.733392E0,1.6564742E0,2.3791137E0,6.3924503E-1,2.4484582E0,2.685627E0,0E0,0E0,0E0,0E0,0E0,0E0,0E0,0E0,0E0,0E0,0E0,0E0,0E0,0E0,0E0,0E0],"parents":[2147483647,0,0,1,1,2,2,3,3,4,4,5,5,6,6,7,7,8,8,9,9,10,10,11,11,12,12,13,13,14,14],"right_children":[2,4,6,8,10,12,14,16,18,20,22,24,26,28,30,-1,-1,-1,-1,-1,-1,-1,-1,-1,-1,-1,-1,-1,-1,-1,-1],"split_conditions":[-1.2711E2,1.412E0,2.4666667E-2,1.024E0,1.806E0,1.0574E2,-2.25E0,5.0416665E0,-2.442E2,-1.04166664E-1,-1.6838E2,-3.24E-1,3.16E-1,4.2916665E0,1.054E0,2.6405621E-2,-2.5220398E-2,1.6086549E-2,-2.7446998E-2,2.2075186E-2,-3.259445E-2,4.4670913E-2,-7.277331E-4,-2.5252268E-2,-2.7171269E-3,-3.1703867E-2,-1.7238894E-2,-9.529398E-3,2.7000932E-2,-2.3619853E-2,7.831935E-4],"split_indices":[21,6,25,25,6,21,28,22,21,22,21,24,24,4,15,0,0,0,0,0,0,0,0,0,0,0,0,0,0,0,0],"split_type":[0,0,0,0,0,0,0,0,0,0,0,0,0,0,0,0,0,0,0,0,0,0,0,0,0,0,0,0,0,0,0],"sum_hessian":[2.978777E2,9.500401E1,2.0287369E2,7.430395E1,2.0700064E1,1.0915578E2,9.371791E1,6.602161E1,8.282343E0,1.3649954E1,7.050109E0,6.828673E1,4.0869053E1,2.1205128E1,7.251278E1,6.457387E1,1.4477332E0,3.865694E0,4.4166493E0,2.054284E0,1.159567E1,3.4324553E0,3.6176534E0,1.4046951E1,5.4239773E1,1.5726346E1,2.5142706E1,5.772757E0,1.5432371E1,1.2886619E1,5.9626163E1],"tree_param":{"num_deleted":"0","num_feature":"30","num_nodes":"31","size_leaf_vector":"1"}},{"base_weights":[-9.567042E-3,-1.3117076E-1,2.4112016E-1,-1.5881863E-1,4.706207E-1,5.3055036E-1,1.5189931E-1,8.609918E-3,-2.4296424E-1,6.034975E-1,-8.03078E-3,6.112863E-1,-6.514918E-3,4.4989675E-2,9.206009E-2,1.0684688E-2,-7.5098234E-3,-1.7701795E-2,-3.6896213E-3,4.1456025E-2,6.8294266E-3,-1.2592879E-2,3.5419296E-2,-8.117135E-3,1.3078383E-2],"categories":[],"categories_nodes":[],"categories_segments":[],"categories_sizes":[],"default_left":[1,1,1,0,1,1,0,0,0,0,0,0,0,0,0,0,0,0,0,0,0,0,0,0,0],"id":42,"left_children":[1,3,5,7,9,11,13,15,17,19,-1,21,-1,-1,23,-1,-1,-1,-1,-1,-1,-1,-1,-1,-1],"loss_changes":[9.820179E0,3.6829867E0,2.6369157E0,2.9336896E0,9.170766E-1,1.3812356E0,3.5797777E0,2.3303244E0,2.576703E0,7.598369E-1,0E0,2.0151272E0,0E0,0E0,3.3582447E0,0E0,0E0,0E0,0E0,0E0,0E0,0E0,0E0,0E0,0E0],"parents":[2147483647,0,0,1,1,2,2,3,3,4,4,5,5,6,6,7,7,8,8,9,9,11,11,14,14],"right_children":[2,4,6,8,10,12,14,16,18,20,-1,22,-1,-1,24,-1,-1,-1,-1,-1,-1,-1,-1,-1,-1],"split_conditions":[5.996E1,1.96583E3,-1E0,2.4666667E-2,1.04166664E-1,1.84E1,1.73374E3,-1.56E-1,2E-1,3.2E0,-8.03078E-3,9.06E-1,-6.514918E-3,4.4989675E-2,1.448E0,1.0684688E-2,-7.5098234E-3,-1.7701795E-2,-3.6896213E-3,4.1456025E-2,6.8294266E-3,-1.2592879E-2,3.5419296E-2,-8.117135E-3,1.3078383E-2],"split_indices":[21,5,22,25,22,10,5,24,27,9,0,16,0,0,6,0,0,0,0,0,0,0,0,0,0],"split_type":[0,0,0,0,0,0,0,0,0,0,0,0,0,0,0,0,0,0,0,0,0,0,0,0,0],"sum_hessian":[3.2009933E2,2.158643E2,1.0423502E2,2.070863E2,8.777996E0,2.339517E1,8.083985E1,6.956573E1,1.3752058E2,7.2878327E0,1.4901633E0,2.0914984E1,2.4801865E0,4.948959E0,7.589089E1,3.0208546E1,3.9357185E1,8.235604E1,5.5164536E1,4.390473E0,2.8973598E0,1.9537532E0,1.8961231E1,3.0363132E1,4.552776E1],"tree_param":{"num_deleted":"0","num_feature":"30","num_nodes":"25","size_leaf_vector":"1"}},{"base_weights":[-2.6085375E-2,-3.597265E-1,7.988165E-4,-2.8551934E-2,-6.0456272E-2,-3.8702378E-1,2.4890073E-2,3.1380888E-2,-2.3496751E-1,2.867195E-2,-5.1959795E-1,7.947763E-3,5.3541464E-1,-2.5481403E-2,1.5406566E-2,-2.955452E-2,5.2269604E-3,1.0818421E-2,-2.0528242E-3,-4.542173E-3,6.0318667E-2],"categories":[],"categories_nodes":[],"categories_segments":[],"categories_sizes":[],"default_left":[1,0,0,0,0,0,0,0,1,0,0,0,1,0,0,0,0,0,0,0,0],"id":43,"left_children":[1,3,5,-1,7,9,11,-1,13,-1,15,17,19,-1,-1,-1,-1,-1,-1,-1,-1],"loss_changes":[2.260441E0,1.1538751E0,2.1976569E0,0E0,1.2156442E0,2.0496743E0,1.9109801E0,0E0,1.3240697E0,0E0,6.2460065E-1,2.2081661E0,3.0918028E0,0E0,0E0,0E0,0E0,0E0,0E0,0E0,0E0],"parents":[2147483647,0,0,1,1,2,2,4,4,5,5,6,6,8,8,10,10,11,11,12,12],"right_children":[2,4,6,-1,8,10,12,-1,14,-1,16,18,20,-1,-1,-1,-1,-1,-1,-1,-1],"split_conditions":[7E0,1.6E1,-2.2083333E0,-2.8551934E-2,1.65161E3,3E0,8E-1,3.1380888E-2,2E0,2.867195E-2,2.004E0,1.6E0,1.83505E3,-2.5481403E-2,1.5406566E-2,-2.955452E-2,5.2269604E-3,1.0818421E-2,-2.0528242E-3,-4.542173E-3,6.0318667E-2],"split_indices":[10,19,22,0,5,8,11,0,18,0,7,18,14,0,0,0,0,0,0,0,0],"split_type":[0,0,0,0,0,0,0,0,0,0,0,0,0,0,0,0,0,0,0,0,0],"sum_hessian":[2.509773E2,1.7792036E1,2.3318526E2,9.896263E0,7.8957725E0,1.275702E1,2.2042824E2,1.0721195E0,6.8236527E0,1.1439564E0,1.1613064E1,2.14331E2,6.0972376E0,4.572725E0,2.2509282E0,1.0467052E1,1.1460109E0,4.01506E1,1.7418039E2,3.6008706E0,2.496367E0],"tree_param":{"num_deleted":"0","num_feature":"30","num_nodes":"21","size_leaf_vector":"1"}},{"base_weights":[-2.0059138E-3,1.2041995E-1,-4.1655028E-1,3.2943478E-1,-1.3996524E-2,-4.5109418E-1,2.4360852E-2,-2.7131936E-1,3.958826E-1,-4.5008203E-1,8.5740566E-2,-5.1550883E-1,-3.7241176E-2,-2.6245255E-2,1.8984957E-2,2.1487786E-2,-2.751256E-2,-2.5458543E-2,2.257811E-2,3.109765E-2,7.369173E-4,-2.9902935E-2,-1.5622611E-2,-2.136696E-2,2.398219E-2],"categories":[],"categories_nodes":[],"categories_segments":[],"categories_sizes":[],"default_left":[1,1,1,0,1,1,0,0,1,0,0,1,0,0,0,0,0,0,0,0,0,0,0,0,0],"id":44,"left_children":[1,3,5,7,9,11,-1,13,15,17,19,21,23,-1,-1,-1,-1,-1,-1,-1,-1,-1,-1,-1,-1],"loss_changes":[1.515505E1,6.481815E0,2.3452616E0,3.7110739E0,6.183032E0,1.7427597E0,0E0,1.7815146E0,2.8545418E0,1.6394224E0,4.400187E0,7.7050877E-1,2.21723E0,0E0,0E0,0E0,0E0,0E0,0E0,0E0,0E0,0E0,0E0,0E0,0E0],"parents":[2147483647,0,0,1,1,2,2,3,3,4,4,5,5,7,7,8,8,9,9,10,10,11,11,12,12],"right_children":[2,4,6,8,10,12,-1,14,16,18,20,22,24,-1,-1,-1,-1,-1,-1,-1,-1,-1,-1,-1,-1],"split_conditions":[8.414E1,1.072E0,2.18E1,-1.04E0,1.048E0,1.29375E1,2.4360852E-2,8.104167E0,1.6E1,2.074E0,1.178E0,1.8E0,1E0,-2.6245255E-2,1.8984957E-2,2.1487786E-2,-2.751256E-2,-2.5458543E-2,2.257811E-2,3.109765E-2,7.369173E-4,-2.9902935E-2,-1.5622611E-2,-2.136696E-2,2.398219E-2],"split_indices":[21,6,19,24,15,4,0,4,13,6,15,26,27,0,0,0,0,0,0,0,0,0,0,0,0],"split_type":[0,0,0,0,0,0,0,0,0,0,0,0,0,0,0,0,0,0,0,0,0,0,0,0,0],"sum_hessian":[2.9662772E2,2.2954619E2,6.708152E1,8.9274826E1,1.4027136E2,6.509435E1,1.9871709E0,8.583974E0,8.069085E1,2.5456024E1,1.1481534E2,5.6114677E1,8.979672E0,6.31706E0,2.2669134E0,7.842876E1,2.2620988E0,2.4298893E1,1.1571298E0,1.2518131E1,1.0229721E2,3.8512623E1,1.7602055E1,5.2161984E0,3.763474E0],"tree_param":{"num_deleted":"0","num_feature":"30","num_nodes":"25","size_leaf_vector":"1"}},{"base_weights":[1.4673093E-2,-9.0337396E-2,3.379995E-1,-2.9522407E-1,2.0179398E-2,4.6423873E-1,1.06832765E-1,-3.5483786E-1,2.2260582E-1,6.1769605E-2,-4.3865055E-1,-2.3877399E-1,5.1614875E-1,2.6456484E-1,-5.421462E-1,-2.1165784E-2,-2.181199E-3,4.2863715E-2,-9.924318E-3,5.7762633E-3,-1.2097538E-2,-3.1085161E-2,1.3458102E-2,-2.8340241E-2,1.0698478E-2,2.9838959E-2,9.639544E-3,3.474588E-2,4.2568776E-3,-3.3941623E-2,9.365547E-4],"categories":[],"categories_nodes":[],"categories_segments":[],"categories_sizes":[],"default_left":[1,1,0,1,1,0,1,0,1,1,0,0,0,0,0,0,0,0,0,0,0,0,0,0,0,0,0,0,0,0,0],"id":45,"left_children":[1,3,5,7,9,11,13,15,17,19,21,23,25,27,29,-1,-1,-1,-1,-1,-1,-1,-1,-1,-1,-1,-1,-1,-1,-1,-1],"loss_changes":[1.0856335E1,5.4736667E0,2.2377033E0,2.6928792E0,3.0382793E0,1.9623756E0,3.1103108E0,1.6079779E0,2.6706102E0,2.4044244E0,1.8825347E0,7.374722E-1,1.1167994E0,1.7931533E0,4.7231114E-1,0E0,0E0,0E0,0E0,0E0,0E0,0E0,0E0,0E0,0E0,0E0,0E0,0E0,0E0,0E0,0E0],"parents":[2147483647,0,0,1,1,2,2,3,3,4,4,5,5,6,6,7,7,8,8,9,9,10,10,11,11,12,12,13,13,14,14],"right_children":[2,4,6,8,10,12,14,16,18,20,22,24,26,28,30,-1,-1,-1,-1,-1,-1,-1,-1,-1,-1,-1,-1,-1,-1,-1,-1],"split_conditions":[1.86408E3,-1.1171E2,8.541667E-1,1.746E0,4.2E0,-6.94E-1,1.91849E3,1.774E0,5.42E-1,5.5E0,5E-1,2.055E0,1.645E0,1.8461E2,1.9915E3,-2.1165784E-2,-2.181199E-3,4.2863715E-2,-9.924318E-3,5.7762633E-3,-1.2097538E-2,-3.1085161E-2,1.3458102E-2,-2.8340241E-2,1.0698478E-2,2.9838959E-2,9.639544E-3,3.474588E-2,4.2568776E-3,-3.3941623E-2,9.365547E-4],"split_indices":[5,21,22,6,28,24,14,16,25,17,27,15,7,21,14,0,0,0,0,0,0,0,0,0,0,0,0,0,0,0,0],"split_type":[0,0,0,0,0,0,0,0,0,0,0,0,0,0,0,0,0,0,0,0,0,0,0,0,0,0,0,0,0,0,0],"sum_hessian":[3.178498E2,2.4047011E2,7.7379684E1,8.367467E1,1.5679544E2,4.9396313E1,2.7983376E1,7.531857E1,8.356094E0,1.4455754E2,1.2237906E1,3.149062E0,4.624725E1,2.298845E1,4.994926E0,6.1439545E1,1.3879027E1,2.9196994E0,5.4363947E0,1.2334607E2,2.121147E1,9.819951E0,2.417955E0,1.6799426E0,1.4691193E0,3.634014E1,9.907109E0,5.918963E0,1.7069487E1,3.8470843E0,1.1478416E0],"tree_param":{"num_deleted":"0","num_feature":"30","num_nodes":"31","size_leaf_vector":"1"}},{"base_weights":[-5.447572E-3,4.790827E-2,-2.0443775E-1,4.8518915E-2,3.4925573E-2,-4.0128452E-1,4.472359E-2,-2.3101307E-2,2.584535E-1,5.118313E-1,-4.8863745E-1,-3.970313E-1,3.2722124E-1,-4.420552E-3,1.0398696E-2,2.506782E-2,-3.6466033E-3,-1.5931938E-2,5.2664757E-2,-2.5932206E-2,6.679635E-3,1.9074852E-3,-2.7448982E-2,-1.36703355E-2,3.6298323E-2],"categories":[],"categories_nodes":[],"categories_segments":[],"categories_sizes":[],"default_left":[0,0,1,0,1,0,1,1,0,0,1,1,0,0,0,0,0,0,0,0,0,0,0,0,0],"id":46,"left_children":[1,3,5,-1,7,9,11,13,15,17,19,21,23,-1,-1,-1,-1,-1,-1,-1,-1,-1,-1,-1,-1],"loss_changes":[2.716571E0,2.3834493E0,2.6710875E0,0E0,2.6011634E0,2.6685166E0,3.221627E0,2.429465E0,3.3624277E0,1.7456493E0,5.955157E-1,6.898078E-1,3.9488282E0,0E0,0E0,0E0,0E0,0E0,0E0,0E0,0E0,0E0,0E0,0E0,0E0],"parents":[2147483647,0,0,1,1,2,2,4,4,5,5,6,6,7,7,8,8,9,9,10,10,11,11,12,12],"right_children":[2,4,6,-1,8,10,12,14,16,18,20,22,24,-1,-1,-1,-1,-1,-1,-1,-1,-1,-1,-1,-1],"split_conditions":[1.764E0,4.5E-1,1.83432E3,4.8518915E-2,5.4E0,1.65749E3,1.06E1,2.8E0,3.36E-1,1.59874E3,7.2E0,-2.1041667E0,-1.2E0,-4.420552E-3,1.0398696E-2,2.506782E-2,-3.6466033E-3,-1.5931938E-2,5.2664757E-2,-2.5932206E-2,6.679635E-3,1.9074852E-3,-2.7448982E-2,-1.36703355E-2,3.6298323E-2],"split_indices":[6,15,5,0,17,5,19,28,25,5,8,22,28,0,0,0,0,0,0,0,0,0,0,0,0],"split_type":[0,0,0,0,0,0,0,0,0,0,0,0,0,0,0,0,0,0,0,0,0,0,0,0,0],"sum_hessian":[2.5394052E2,2.0084624E2,5.3094273E1,1.7639912E0,1.9908226E2,2.9319908E1,2.3774364E1,1.5876436E2,4.031789E1,2.1357E0,2.7184208E1,9.115148E0,1.4659218E1,1.24261284E2,3.450308E1,2.2968939E1,1.734895E1,1.0053178E0,1.1303823E0,2.6092394E1,1.0918139E0,2.552811E0,6.5623364E0,5.974376E0,8.684841E0],"tree_param":{"num_deleted":"0","num_feature":"30","num_nodes":"25","size_leaf_vector":"1"}},{"base_weights":[5.3403247E-3,1.755938E-1,-2.4310826E-1,2.8143156E-1,-1.12770125E-1,-5.828914E-1,-1.7265435E-1,3.8795424E-1,1.135446E-1,5.60533E-1,-2.4870619E-1,-3.1799832E-1,-3.127288E-2,-2.6870335E-2,-3.2954177E-1,-1.3229789E-2,2.239625E-2,1.3399434E-2,-2.0290976E-2,4.4465426E-2,-1.1862691E-2,-1.5139826E-2,3.7328165E-2,6.1658625E-3,-2.3949178E-2,-1.7656084E-2,4.628779E-3,-1.8511862E-2,1.4859614E-2],"categories":[],"categories_nodes":[],"categories_segments":[],"categories_sizes":[],"default_left":[1,1,1,1,0,0,0,0,1,0,1,0,0,0,0,0,0,0,0,0,0,0,0,0,0,0,0,0,0],"id":47,"left_children":[1,3,5,7,9,11,13,15,17,19,21,23,-1,25,27,-1,-1,-1,-1,-1,-1,-1,-1,-1,-1,-1,-1,-1,-1],"loss_changes":[1.2825475E1,5.5222125E0,2.8510504E0,2.3145428E0,4.6255007E0,3.512335E-2,2.3594046E0,3.259983E0,4.328734E0,2.451172E0,2.458762E0,4.0773228E-1,0E0,2.166685E0,1.3798022E0,0E0,0E0,0E0,0E0,0E0,0E0,0E0,0E0,0E0,0E0,0E0,0E0,0E0,0E0],"parents":[2147483647,0,0,1,1,2,2,3,3,4,4,5,5,6,6,7,7,8,8,9,9,10,10,11,11,13,13,14,14],"right_children":[2,4,6,8,10,12,14,16,18,20,22,24,-1,26,28,-1,-1,-1,-1,-1,-1,-1,-1,-1,-1,-1,-1,-1,-1],"split_conditions":[-1.2E0,1.402E0,8.36E-1,-1.1299E2,1E1,3.2395833E0,1.84223E3,-1.04E0,1.718E0,2.5E-1,1.50625E1,2.3333333E0,-3.127288E-2,-4E-1,2.02E1,-1.3229789E-2,2.239625E-2,1.3399434E-2,-2.0290976E-2,4.4465426E-2,-1.1862691E-2,-1.5139826E-2,3.7328165E-2,6.1658625E-3,-2.3949178E-2,-1.7656084E-2,4.628779E-3,-1.8511862E-2,1.4859614E-2],"split_indices":[21,6,15,21,10,4,5,24,16,20,13,17,0,26,19,0,0,0,0,0,0,0,0,0,0,0,0,0,0],"split_type":[0,0,0,0,0,0,0,0,0,0,0,0,0,0,0,0,0,0,0,0,0,0,0,0,0,0,0,0,0],"sum_hessian":[3.01199E2,1.7889886E2,1.2230015E2,1.3088455E2,4.8014313E1,1.9754639E1,1.0254551E2,7.9274704E1,5.1609848E1,7.5407624E0,4.0473553E1,3.9076495E0,1.584699E1,5.3760796E1,4.878471E1,6.385133E0,7.288957E1,4.015338E1,1.1456466E1,5.258829E0,2.2819335E0,3.9047203E1,1.4263494E0,1.1069915E0,2.800658E0,1.3883486E1,3.987731E1,4.6194443E1,2.590266E0],"tree_param":{"num_deleted":"0","num_feature":"30","num_nodes":"29","size_leaf_vector":"1"}},{"base_weights":[-1.25569375E-2,-1.8109514E-1,1.3029897E-1,-3.0002555E-1,-3.292279E-2,4.9905816E-1,8.056515E-2,-3.4444404E-1,2.3502626E-1,-3.4762502E-1,1.5377182E-1,-2.5923172E-2,6.0609704E-1,-4.125365E-2,2.3588729E-1,-2.0162275E-2,3.7812048E-3,-2.4659662E-2,3.3551525E-2,-2.240572E-2,8.093821E-3,1.2940791E-2,-3.2195017E-2,-1.1017966E-2,3.444059E-2,1.914417E-3,-1.8587632E-2,-4.659116E-3,1.819499E-2],"categories":[],"categories_nodes":[],"categories_segments":[],"categories_sizes":[],"default_left":[1,1,1,1,0,0,0,1,0,0,1,0,0,0,0,0,0,0,0,0,0,0,0,0,0,0,0,0,0],"id":48,"left_children":[1,3,5,7,9,11,13,15,17,19,21,-1,23,25,27,-1,-1,-1,-1,-1,-1,-1,-1,-1,-1,-1,-1,-1,-1],"loss_changes":[7.631002E0,2.5518904E0,3.1067958E0,1.9946089E0,3.9224455E0,2.5142846E0,2.8932078E0,1.8769531E0,2.4793782E0,1.3436401E0,3.687965E0,0E0,1.4327269E0,2.2818766E0,2.8619566E0,0E0,0E0,0E0,0E0,0E0,0E0,0E0,0E0,0E0,0E0,0E0,0E0,0E0,0E0],"parents":[2147483647,0,0,1,1,2,2,3,3,4,4,5,5,6,6,7,7,8,8,9,9,10,10,12,12,13,13,14,14],"right_children":[2,4,6,8,10,12,14,16,18,20,22,-1,24,26,28,-1,-1,-1,-1,-1,-1,-1,-1,-1,-1,-1,-1,-1,-1],"split_conditions":[-2.69E1,4E0,7.52E-1,2.2083333E0,5.3125E0,4.5E-1,2.25E0,1.774E0,1.394E0,2.6333332E-1,4E-1,-2.5923172E-2,-1.052E0,1.338E0,2.2E0,-2.0162275E-2,3.7812048E-3,-2.4659662E-2,3.3551525E-2,-2.240572E-2,8.093821E-3,1.2940791E-2,-3.2195017E-2,-1.1017966E-2,3.444059E-2,1.914417E-3,-1.8587632E-2,-4.659116E-3,1.819499E-2],"split_indices":[21,8,15,22,13,15,18,16,15,24,29,0,25,15,9,0,0,0,0,0,0,0,0,0,0,0,0,0,0],"split_type":[0,0,0,0,0,0,0,0,0,0,0,0,0,0,0,0,0,0,0,0,0,0,0,0,0,0,0,0,0],"sum_hessian":[3.1496576E2,1.4437164E2,1.705941E2,7.952008E1,6.485157E1,1.9199778E1,1.5139432E2,7.375351E1,5.766566E0,2.3826452E1,4.1025116E1,1.4616356E0,1.7738142E1,8.525972E1,6.6134605E1,6.4732285E1,9.021229E0,2.1104689E0,3.656097E0,2.000194E1,3.824513E0,3.6848183E1,4.176935E0,1.4623873E0,1.6275755E1,6.943321E1,1.58265085E1,1.8598162E1,4.753644E1],"tree_param":{"num_deleted":"0","num_feature":"30","num_nodes":"29","size_leaf_vector":"1"}},{"base_weights":[-4.9183234E-3,-2.4621323E-2,4.3014023E-1,5.951005E-1,-3.9713148E-2,-1.1139019E-1,7.226916E-1,8.252465E-1,-1.3593094E-3,6.123471E-1,-5.136898E-2,2.6820485E-2,-2.383825E-2,5.0449234E-2,9.028233E-2,5.3295374E-2,4.4748E-3,5.0047286E-2,-1.9411136E-3,-2.4199152E-2,-1.1625801E-3,-1.78278E-2,2.3527717E-2],"categories":[],"categories_nodes":[],"categories_segments":[],